#define M_DIM 128
#define K_DIM 3
#define N_DIM 128


int8_t at[M_DIM*K_DIM] = {
  73, 5, 60, 117, -106, 23, -95, 21, 118, 10,
  55, -41, 21, 84, -39, 47, 21, -91, -99, 14,
  -24, -1, 78, -53, -115, 35, -60, -17, 82, 79,
  54, 84, 12, 24, 23, 49, -93, 108, 36, -71,
  -31, 97, 121, 102, 62, -111, -118, -88, -71, 2,
  43, -84, 95, 8, 60, 97, -23, 88, 38, 25,
  -3, 4, 107, -44, -30, 112, 114, -63, -41, -67,
  -56, 67, -98, -110, -113, 104, -35, 103, 28, 107,
  69, 101, -16, -45, -96, -11, 64, 87, 121, 75,
  90, 81, 9, -52, -13, -44, -34, 97, -12, -20,
  111, 114, -30, 72, -98, -13, -50, 48, 15, 15,
  70, 39, -30, -119, 82, -101, -123, -4, 90, 86,
  -85, 91, -13, -115, -32, -80, 68, 33, 82, -8,
  -46, -106, 69, -56, -86, 57, -86, 8, 9, 114,
  29, 119, -123, 59, 119, -88, -72, -78, 44, 32,
  37, -61, -19, 33, 85, 51, -20, 93, -2, -118,
  55, 23, 71, -6, -71, -75, -115, -5, -55, -126,
  -29, -74, 26, 77, -42, 121, -106, -16, 45, -17,
  -52, 124, 76, -66, 50, 45, 2, -98, 81, -91,
  45, 67, 88, 5, 78, -20, 122, -65, -31, 15,
  41, -75, 126, -20, 62, -90, 22, 10, -47, -19,
  120, -110, -66, -123, 103, 47, -37, 66, 50, -45,
  91, 106, -20, 32, 7, -1, -99, -27, 96, 58,
  -110, -62, -109, 0, 112, -42, 25, 83, 86, 118,
  27, 105, -80, -63, 76, -111, 19, -125, -122, -110,
  -122, 41, 81, 80, -7, -7, 1, -91, -104, -107,
  64, -30, -100, -27, -9, -10, 90, 42, -48, -76,
  -86, -99, -33, -100, -104, 42, 60, 57, -102, -100,
  4, -113, -111, 117, -119, -96, -45, -80, 63, 123,
  27, 125, -63, 11, 40, 73, -18, 97, 116, 58,
  110, -43, -35, 42, -79, -109, 7, -77, 55, -110,
  -123, -19, 43, 54, -39, 53, -106, -82, -6, -21,
  59, -101, -9, -90, 52, 44, 51, -90, -92, 50,
  120, 55, 76, -20, -26, 78, 2, -31, -50, 32,
  4, -61, -94, 87, 68, 102, 0, -100, -105, -108,
  46, 58, -117, -11, 16, 39, -113, -60, 40, 34,
  -113, 36, -109, -18, -122, -98, 7, 37, -58, -120,
  -67, 80, 81, -62, 120, 102, -46, 110, 34, 107,
  106, 76, 114, -27,
};
int8_t b[K_DIM*N_DIM] = {
  24, -50, 7, 32, 110, -7, -48, -77, 16, -27,
  106, -39, -79, 97, 33, 118, 7, -122, -18, -29,
  26, -113, 76, -123, 9, -120, -8, 94, -15, 16,
  62, 116, 95, 22, 16, 96, -115, 61, 16, 52,
  88, -80, 22, -6, 34, -26, -113, 48, 5, -65,
  89, -45, 7, -85, 49, 64, -47, -67, -99, -64,
  -107, 14, 81, -46, -4, -10, -48, -49, -77, 50,
  -41, 84, 50, -74, -125, 28, 58, -3, 55, 18,
  -73, -74, 122, 80, -84, -29, 5, -16, -19, 104,
  -48, -113, -17, -25, 60, 76, -128, 10, -112, 54,
  -58, 87, -13, -32, 40, -101, -78, -111, 48, 87,
  -45, 18, -52, 116, 115, 81, -85, 112, 22, 30,
  78, -41, 33, 11, 61, 19, -77, -80, -105, 47,
  -71, -9, -91, 85, -5, -77, 121, 25, 10, -40,
  56, -100, 118, 84, 120, 52, 111, 70, -97, 112,
  -20, -67, 92, -106, 45, 30, -122, 62, -78, 87,
  -14, -80, 112, 43, 90, -96, -113, -20, -55, -44,
  -88, 47, -105, 22, -112, 72, -42, -84, -127, -78,
  -33, 99, 119, -49, -102, 10, -10, 86, 26, -33,
  -52, 3, 64, -115, 78, -124, 40, -80, 120, -30,
  97, 65, 90, -104, 100, -123, 83, -37, -101, 68,
  -9, 119, -18, 35, -73, -32, 99, -80, -111, 19,
  -100, -115, -19, -97, 54, 21, -117, 93, 111, 13,
  99, 91, -113, 15, -91, 37, 58, 39, -60, -5,
  -77, -125, -51, -92, -9, 86, -63, -60, -65, 16,
  -15, 75, 15, 28, 83, 81, 45, 99, -105, 71,
  -42, -87, 97, 74, 123, -96, 14, -110, -69, 6,
  -36, -32, 27, 63, -104, -111, -118, -88, 45, 33,
  -42, 53, 124, -97, 61, 68, -57, 123, 53, 23,
  -54, -1, -128, -77, -93, -63, -5, 113, 88, 105,
  69, -51, 23, -6, 96, 54, 59, 100, 62, 11,
  85, -122, -61, -125, 81, -5, -16, 102, 118, -22,
  42, 61, -41, 20, -98, -110, -65, -66, 62, 31,
  -77, -10, 84, 36, -72, -79, -128, -23, 71, 35,
  13, 46, 96, -77, -111, -42, -80, -8, 89, -89,
  -59, -103, -61, -112, 26, -76, 72, 124, -60, 63,
  13, -106, -3, -79, -103, -49, 55, 4, -33, -15,
  -104, 111, -1, 2, 5, -24, -61, 29, 92, 95,
  -79, -53, 79, 98,
};
int32_t c_bias[N_DIM] = {
  -110, -113, -127, 115, -51, 47, -17, 86, 120, -14,
  -20, 102, -40, -6, 47, 49, -116, 112, -39, 86,
  60, -86, 65, 93, 86, 17, -76, -8, -102, -107,
  31, 0, 124, 56, -40, -112, 31, -79, -101, -115,
  -1, 87, 114, -83, -22, 84, 61, -16, -47, 117,
  -104, -9, 126, -101, -128, -125, 31, 41, 43, 116,
  50, -110, -34, -115, -110, -89, 72, -68, -87, -53,
  83, -116, -108, -88, 49, 58, 36, 73, -70, -104,
  -22, 51, 90, -44, -33, 70, 126, -99, 36, 123,
  115, 56, -71, 125, 115, -4, 52, 41, 59, -98,
  90, -12, 46, -81, -31, 105, 76, 18, 6, 53,
  13, 78, -90, -102, 91, -56, -78, -78, 123, 105,
  38, -76, 119, 8, -120, -8, 26, -26,
};
int32_t verify_data[M_DIM*N_DIM] = {
  -6923, 190, -5543, 1784, 475, 6419, -3834, -11775, 11333, -31,
  8552, -6135, -1284, -1119, 12096, 15519, 10262, -4467, 7645, 3598,
  -6114, 761, 4018, -14347, 8245, -17382, 3154, 9217, -11140, 6213,
  -1896, 15725, 5964, -4875, 10258, 10421, -1112, -3575, -8292, 1978,
  1908, -9248, -5408, 3438, -6081, -61, -17349, 9386, -3030, -11462,
  -3962, -9590, -2007, 1823, 13292, 407, -11825, -4155, -7923, 2491,
  -5645, -1692, 1733, -3249, 4888, -10188, 2923, -13793, -2526, -3073,
  6865, 3490, 11558, -129, -1773, -6436, 12554, -10196, 10679, -1903,
  -13761, 202, 8329, 15589, -7628, 869, -5399, -3968, 6656, 1113,
  -12571, -6643, -9423, -11219, 2878, -2513, -4925, 2381, -17685, 11394,
  5030, 7529, 7155, 5108, -6364, -6144, -13083, -5130, 8163, 9553,
  -8137, 986, -10233, -1899, 4200, -1576, -7022, 15152, -3432, -2649,
  341, -1728, 1390, 7056, 5484, 3622, 1290, 874, -3245, -9748,
  10031, -6114, 5049, 7249, -9044, -6417, -11961, 8387, -844, 10237,
  5396, 733, 2544, 2879, -3498, -6647, 8447, 9482, 11704, 6461,
  -3490, -2989, 3217, -4558, -11760, 9049, -4752, -6711, 6152, -11309,
  -4112, -1287, 4058, 115, 10384, 8001, 9346, 6038, 1334, -10244,
  -7080, -10044, -5291, 4419, -1701, 194, -8422, -4450, -4012, -8710,
  -5217, -2319, -8570, 11689, 6163, 11001, -7743, -437, 763, -9058,
  -9951, 1633, -4464, -4770, 2939, -1141, 8126, 10847, 4833, 6550,
  -6276, -3799, 5711, 1940, -8118, -2234, 6093, 7471, 12069, 1230,
  -5689, -3781, -1492, -4541, -8001, 7084, 9250, 5105, 8043, 67,
  -7455, 9019, 5936, 10525, 4531, 10115, -1931, 6344, -7640, -10965,
  4649, -6702, -110, 9126, 687, 6356, 9155, 4635, -4737, -156,
  3269, 2843, 10538, -9016, -340, -388, 282, 2919, 6499, -3048,
  -7968, -9182, 7254, 4686, -8212, -9992, 1480, -15571, 14479, -4935,
  15103, 4765, -12755, -8688, -17278, 7200, 4424, 11042, -180, 9790,
  343, 6593, -8024, -16152, 4591, 6670, 18354, -2866, 865, -7637,
  762, -7819, -15522, 14340, -1734, -9071, 13267, -9834, 956, 2664,
  1384, 3774, 2303, 16005, 15729, 10477, 8329, -14441, -3670, -13525,
  -328, 2816, -3959, 176, -7799, -5535, 4942, -9521, -4384, -10899,
  -11502, 18657, 8247, 8561, -13861, -7160, -5902, -8360, -5054, -725,
  -7662, -1743, -2132, 616, 3645, 18067, -1137, 13168, -8018, -10742,
  -3583, 7562, -9820, 1807, 6900, 10894, 13556, -5125, 440, -4358,
  -5597, -8064, -6200, 8421, 5886, 14411, 10661, -6766, -5747, 13171,
  10725, 19730, -3768, 11323, -3983, 6768, -15984, -8286, 952, -12739,
  6215, 4379, -106, -128, 10930, 8575, -5647, 972, 3764, 14168,
  20153, -2508, -4660, 2478, 3821, 7161, 14052, -6288, -6779, -12662,
  11066, 5356, -16628, -18744, 9013, -21538, 19453, -2784, 26959, -473,
  -15482, -8679, -23995, 4449, 9824, 11549, -7836, 21301, -4748, 8375,
  -14906, -26415, -2783, 1150, 26010, -15763, 6262, -10727, -4119, -8458,
  -19050, 18189, 4548, -12083, 21652, -8811, 7052, 8649, -4262, 6669,
  -9268, 25473, 23700, 14830, 16660, -16700, 2600, -17002, 7703, 167,
  -3749, -1390, -5282, -4362, 17458, -7706, -2191, -21717, -16104, 25611,
  11871, 4517, -19147, -15953, -13513, -5888, 2329, -3461, -11856, 4404,
  -9425, 5203, -2850, 26047, -10479, 19954, -11174, -18953, -15877, 15428,
  -12766, 8908, 5271, 14377, 15839, -13354, 7721, -7043, -9344, -11955,
  -1823, 9660, -804, 25265, 14825, -14323, -983, 18913, 15462, 30191,
  -14121, 10969, -3425, 4494, -26166, -4479, -5549, -20212, 15236, -1960,
  917, -8438, 10495, 11341, -4777, 2286, 5519, 28325, 30080, 7296,
  -8962, 3696, 8840, 12543, 22581, -9672, -4274, -16820, 13880, 4918,
  -26234, -28458, -7019, 14766, -12488, 646, -20678, 1086, 10934, 7671,
  14645, -1571, -9670, -5564, 7782, -16804, 2387, -8711, 9150, 20664,
  2872, 886, -16941, 13988, -6491, 10620, 2792, 8815, 11813, -14110,
  -3026, 6827, -15571, 1579, -7520, -6324, 2536, -7385, 10239, -18097,
  -15546, -11039, -13444, 12763, -2658, 10516, -6455, 1094, 5783, -520,
  2669, 4667, -14525, 5779, 1075, 16444, 8329, -18098, -5929, -167,
  15031, 12514, 12162, 2657, -4656, 3560, 7418, -3060, 7918, -2150,
  4563, -17913, 8549, -15314, 5253, 14225, 14581, -10726, 6164, -5792,
  -4781, -9621, -7445, 11115, -8919, 1927, 8461, 8503, 703, -5539,
  1777, -19109, -7576, 12833, 527, -10856, -11332, -21345, 13442, -6738,
  5522, -4269, 18505, -401, 4415, 13622, -11236, 5062, 1873, 9281,
  -7672, -9614, 4163, -1919, -2003, -21983, -22274, -7886, 8247, -5888,
  -6236, -8751, -16619, 7230, 1474, 10097, -10607, -3482, 18971, 20315,
  4972, -6865, 7160, -775, 8835, -2264, -3751, 407, -9978, 845,
  1438, 4745, -2923, 7645, -4722, -981, -7485, -7496, -3549, -1171,
  9630, -6317, 1583, 26, -3599, 1603, -6500, 3384, 4555, -5251,
  7535, -5894, 1503, 4352, -4324, -282, -3814, 9010, 9385, 4091,
  5253, -2679, 2908, -6003, 4570, -216, 3044, -2764, -460, 1706,
  7285, 324, 275, -7930, -8215, 7751, 6492, 1690, -4104, -6022,
  -3387, -1000, 1201, -681, -5046, 4291, -4170, 5149, -1158, 8877,
  -5630, 5476, -6250, -6360, -5556, 6826, -6750, 5812, -1293, 4752,
  7795, -4769, 1270, -5918, -1347, -3937, 1449, 3635, -2615, 8255,
  7627, -3367, 2468, 8660, 4329, 10266, -4086, 2455, 3255, -1784,
  -9620, -2459, -3997, -7803, 6827, 122, 3468, -2237, 952, 1340,
  688, 652, 4016, 10016, 8712, 3629, -1499, -2378, 4007, 4875,
  7302, -2785, -1042, -6789, 2813, 451, -8763, -9342, 2140, -9305,
  15814, -9251, 1525, 2102, -4727, 6623, -24106, 10001, -12350, 18247,
  9549, -1221, -9636, -15185, -13801, 930, 2525, 7921, 17732, 9817,
  -9935, 14240, -4481, 15233, -15586, -1818, 5715, -13759, 6549, -30802,
  -12997, 2546, -5792, -12830, 16016, 10082, 17397, 2965, -3131, 171,
  -3208, -14055, -1122, 5762, 18128, -10168, -6510, 8116, -3537, 974,
  -3901, -1640, -23517, 10209, 19368, 18046, 2208, -700, 9579, -8802,
  -15057, 6197, -9434, 4651, 2024, 13251, 13588, 13077, 158, 1084,
  -19400, -1748, 11884, 7342, -22474, 7336, -5233, 9268, 28399, 3533,
  -17826, -21378, 8195, -4785, -3671, 11873, 4427, 1323, 22221, 9957,
  1244, 21290, 1949, 11418, 13668, 8485, 18161, -5626, -11146, -21795,
  -1233, -11167, 4587, 19010, 15612, 15281, 758, -6666, 3948, -1602,
  14772, 1128, 3952, -10939, 8871, -18314, 2951, 4815, 4318, -457,
  -10926, -16987, 695, 1079, -7697, -9192, -6806, -1157, -1192, -1643,
  -1794, 7094, -3929, -7918, 4032, 3436, 2398, -27, 3356, -3831,
  8438, 8179, 6142, -1187, 8718, 6464, -1737, 6301, -694, -7200,
  6653, -9976, -1027, 6295, -9018, 1927, -1574, 4074, -110, -4663,
  8138, 4382, 6202, -2191, -3695, 1538, -1153, -7152, -6816, -365,
  -7156, 2169, -9317, 5258, -4928, -7494, -7067, -8100, -3282, 3460,
  5389, 1720, -5123, 2579, -4793, 3809, -283, -4451, -4483, -316,
  2320, -8501, 4617, -8705, 3222, -593, 7817, 1720, 4797, 1226,
  4633, -5012, 4686, -7973, 7760, 298, -3856, 2994, 222, 7474,
  -3174, 214, -6522, -180, 8277, -1119, -5060, -1018, -8531, -4552,
  1885, -1156, 2089, 4472, -9664, 8389, 3255, -792, 7036, 2733,
  -5983, 1701, -6668, 1929, 7101, 5426, -5837, 63, -4680, -4386,
  2407, -6596, -2349, 7122, -3141, -2037, -382, -808, -2527, 1949,
  4149, 3418, 1007, 265, 11347, -10946, 7750, 4026, 21133, -7306,
  -6124, -3044, -9505, -4486, 11502, -70, -13557, 19986, -5883, 7037,
  -9853, -19323, -10773, -8357, 12532, -22260, 10348, -8956, -6386, -5504,
  -6006, 9377, 8071, -4163, 14568, 5099, 12061, 9325, -7298, 7527,
  -20127, 16068, 12342, 8308, 15158, -6586, 9486, -5778, 12399, -4417,
  -3848, -490, 3291, -815, 20789, 489, 3232, -18744, -5345, 12739,
  3806, -7600, -11508, -14787, -14668, 3462, 12934, -5603, -6464, 8072,
  -11931, 4634, -11731, 13717, -14490, 12970, -3108, -14689, -21748, 12396,
  -2476, 9973, -70, 5913, 1202, -14322, 14621, -1153, -8514, -6776,
  6130, 1458, -9721, 19653, 4717, -14840, 5722, 7866, 9360, 18233,
  -19147, 423, -3329, -1040, -16948, 8020, -9462, -12250, 14290, -12149,
  -1275, -15551, 1609, 7406, -632, 2596, 693, 24471, 18983, 16415,
  -9325, 5724, 8092, 9021, 15381, -6551, 4475, -5999, 6499, 303,
  -16909, -17314, -1160, -1227, 425, -347, 741, 1527, -1507, -2040,
  18, 876, 980, 492, 308, 104, 1681, 2221, 644, -1322,
  1709, 1466, 724, 560, 215, -2003, 1332, -2561, -1036, 2142,
  -1838, -131, 597, 626, 432, -594, 1556, 1202, 881, 533,
  85, 875, 489, -2195, -1250, -817, -1212, 510, -2195, 1100,
  -1293, -1745, -820, -2083, -688, -269, 464, 1343, -645, 701,
  -1837, 214, -652, -1254, -820, -331, -58, -1719, 626, -1750,
  443, 907, 1283, 1144, 548, -618, 289, -394, 576, -1301,
  1864, 570, -280, 85, 528, 1358, -1147, -400, -1368, 255,
  1748, 943, -453, -842, -1931, -155, 1153, 1010, -186, 1429,
  -2257, 1946, -322, -278, 1308, -303, -665, 275, -1402, -6,
  1980, 1725, -1467, 178, -896, 208, 1873, -1092, -990, 1710,
  -211, 165, 908, -648, -591, -232, 1400, 936, -870, -1158,
  4315, 6470, -9831, 8184, 1400, -7403, 6028, 1818, 13159, -9914,
  7160, -12303, -10091, 4969, -316, 4415, 3779, -460, -9390, -10869,
  -10003, -13213, 8115, -4305, -2371, -2767, 11049, -3298, 3465, 7451,
  -2391, 18233, 9993, 2616, -3012, 5465, -17004, -4518, -8608, -3105,
  3894, 5461, 8452, 9460, 7113, -5738, -5092, 2732, 8490, 646,
  8958, 5814, 5794, -2895, 11288, -8026, -8962, -14804, 1798, -3080,
  -7041, 9543, 14573, -4598, 4026, 3816, -5556, -2079, -12782, -7923,
  -6942, -1706, 9095, -783, -12946, -238, 11686, 2041, -2778, -6557,
  -16466, -5477, 13109, 8577, -3645, 2930, 8384, -8197, -10108, 1343,
  -10724, -6708, 6104, -10295, -2066, -5967, -11992, -9300, -4814, -3131,
  4379, 16050, -5178, 4648, 2322, -14855, -5303, -12864, -6102, 779,
  1948, 1383, -6613, 3803, -3403, 13561, -4924, 7036, 1216, -945,
  -1747, 423, 10079, 9838, -3740, -3481, 3648, 5123, -11174, 11453,
  -12918, 759, -16699, 6370, 5455, -2427, 18424, -89, -2638, -7479,
  6685, -15131, 10634, 3443, 14411, 13688, 8985, 4593, -17020, 13619,
  -3441, -1116, 8441, -4921, 10590, -4516, -10833, 9161, -13797, 10328,
  -3141, -9000, 9804, 812, 9630, -16758, -17545, -7173, -10089, 3097,
  -7124, 9931, -10488, 1516, -7108, 5972, -1008, -4526, -15753, -2856,
  -1319, 15132, 14999, -13459, -12232, -1322, 6364, 12334, 6729, -162,
  -4327, 1189, 9114, -10227, 9210, -11355, 3514, -15843, 12714, -9752,
  11504, 11658, 12200, -13366, 12586, -12314, 4113, -8378, -13919, 9871,
  -2956, 11712, 1905, 7181, -4369, -6325, 7439, -15025, -13931, 6519,
  -7036, -15698, -6989, -18504, 8894, -2679, -7595, 5098, 18146, 3111,
  9345, 14251, -14007, 1504, -7226, 5469, 324, -1126, -2672, -1062,
  -8122, -19738, -14806, -9203, 2339, 5218, -7751, -8973, -13132, 4647,
  920, 12097, -4229, 179, 15963, 16604, -4811, -4552, 3001, -2882,
  1636, 6541, -5826, -7316, -1939, 4752, 1824, 3403, 3237, -1157,
  5890, 6499, 2215, -3966, 7794, 6835, 3457, 5013, -1079, -6017,
  4959, -8121, -4891, 7492, -6883, -1237, 1807, -945, -831, -2906,
  6136, 3199, 6370, 2114, 1422, 3421, 492, -8293, -6200, -3886,
  -5665, 2624, -6664, 3368, -5768, -6276, -4750, -8016, -3660, 457,
  272, 5654, -986, 4924, -6214, 1506, -675, -5669, -5505, 62,
  -354, -6562, 3294, -5653, 4160, 3957, 5822, 3946, 779, -1245,
  3730, -1890, 122, -5285, 6948, 2993, 1660, 1573, -1017, 3407,
  -2943, -1732, -6494, 2333, 7836, 2003, -272, -1382, -7600, 537,
  3656, 3723, 1858, 6236, -6934, 7381, -1365, -3760, 5524, -1138,
  -3092, 3507, -4057, 2552, 7640, 5363, -5312, 119, -1831, -571,
  6019, -6351, -2076, 4672, -1482, 147, 2719, -1865, -4039, -2146,
  5388, 3747, -2976, -4061, -14009, -6244, -8, -3664, 1552, 16186,
  -12016, -21169, 6515, 7989, 9010, 426, 5232, -4214, 19597, 22389,
  12700, -8736, 19562, 14416, -331, 10438, 649, -20720, 14982, -26705,
  -4817, 18830, -20516, 3447, 289, 10749, 2410, -9364, 18736, 13145,
  10809, -527, -5136, 6661, 1226, -20457, -15198, -2974, -14905, 4394,
  -24507, 13040, -11921, -19443, -12225, -20671, -7925, 3704, 11689, 8692,
  -11419, 5103, -15619, 5354, -4628, -10613, -8386, -1950, 3978, -19250,
  8438, -20460, 5653, 2987, 15859, 8386, 10923, -925, 6111, -9206,
  10424, -17552, 19899, 3009, -8445, 3675, 3871, 18177, -10219, -1697,
  -15437, 601, 18657, 2531, -11046, -6567, -20163, -8896, 7378, 2665,
  362, 11892, -25248, 21281, 2955, -581, 15295, 3272, -11106, 1462,
  -17077, 1101, 18768, 15726, -15087, 691, -11113, -4093, 11586, -12636,
  -8213, 19412, -5906, -2691, 3491, -3820, -5886, 2637, 12793, 8948,
  -2569, -4555, 7999, -12458, 17363, -6132, 10464, -2653, -5872, 6196,
  -25965, 6220, -6588, 16003, 2087, 7995, -12658, -12133, -17471, -6944,
  -4046, 2153, 21125, -1887, -4309, 10293, -7969, 13177, -15963, 978,
  10243, -14205, 12109, -25803, -6417, 7060, -9796, -9059, 4454, 15972,
  21172, 5735, 3762, -1099, 2512, -14660, 5633, 2778, 16266, -10228,
  -3332, 8340, 6972, 2740, -1420, -9909, -23986, 13898, 19656, 12174,
  -1832, -7536, 2401, -5369, -6945, 3202, -11438, 9200, -4124, 15375,
  6424, 17297, -7488, 5974, -19321, -7863, 476, 12618, -21750, 12223,
  -6232, 10539, 26256, -3449, -9667, -20811, 4339, -7060, 654, 11083,
  -1854, 9519, 22520, 2814, 5238, 22899, 5186, 17821, 3648, 6700,
  16582, -7107, -17493, -15668, -6464, -15444, 11190, 11315, 14569, 6590,
  -142, -3923, 4418, -353, 14247, 12039, 10823, -1445, 4430, -15196,
  6584, 8379, 10237, -2939, -7235, -17816, 2450, 365, -13974, -15297,
  -9632, -9491, 6408, -5941, 3908, 13346, -12171, -15402, -4166, 9696,
  4166, 6799, 6382, -1941, 12124, 13719, 4620, -8791, 15960, 13842,
  7241, 9923, -1998, -12908, 10095, -17124, -10073, 15783, -14044, -2429,
  3986, -1592, -1484, -5907, 12666, 7036, 12608, 4747, 3191, 7386,
  1385, -17456, -12756, -7987, -11450, 5209, -14135, 7082, -11794, -13240,
  -9255, -16626, -7630, 656, 781, 12070, -2157, 9857, -13219, 2677,
  -1861, -11497, -10977, 78, -680, -13383, 6477, -11667, 8356, 8467,
  11671, 8596, 1827, -2800, 7107, -3772, 346, -10889, 14540, 6380,
  3260, 2862, -1736, 7272, -6330, -3782, -13450, 4884, 15973, 4449,
  -770, -3342, -15581, 976, 7655, 8042, 3261, 12838, -14682, 15451,
  -3215, -7432, 11216, -2453, -6105, 6737, -8662, 4805, 15881, 11294,
  -11087, 233, -3810, -540, 12783, -12666, -4505, 10062, -3055, 351,
  5908, -3930, -8323, -4455, 11453, 7784, -6517, -8709, -13586, 1163,
  -4964, -2627, -7184, 12886, -4821, -13136, 10796, 5562, 2934, -1847,
  7242, -10067, 15970, 13579, 13420, 1659, 16224, 11470, -7043, 13773,
  -2204, -11552, 12609, -16866, 1019, 8737, -16948, 5363, -6068, 8730,
  -1296, -9761, 15406, 7054, 12550, -7681, -10143, 676, -4533, -10558,
  -12800, 1919, -14080, 3839, -16399, 9758, -8108, -13026, -15295, -13536,
  -5700, 9532, 12257, -586, -11081, 3949, -5899, 9171, 1425, -7109,
  -8415, 2, 6036, -15997, 9699, -16513, 6290, -4893, 15647, 256,
  10439, 5070, 10675, -11400, 10382, -15815, 13338, -1522, -9350, 7348,
  -762, 14642, -4368, 2108, -11624, -1702, 15081, -5827, -11462, 208,
  -15265, -11148, 1061, -6552, 5803, 6446, -17074, 14611, 9705, -730,
  13534, 7997, -13067, 3267, -12292, 4697, 11315, 8138, -9887, -271,
  -9256, -12046, -131, -12966, -2901, 12442, -7077, -5613, -4046, 10,
  -4009, 6029, 5553, 5472, 5679, 4699, 2446, -9599, 15984, -9105,
  2147, 1904, -4909, 6469, -24284, 9843, -11946, 18171, 9121, -633,
  -9740, -14881, -14013, 338, 2231, 7665, 18030, 9141, -9591, 13882,
  -4629, 14965, -15708, -1502, 5899, -13819, 6953, -30512, -12589, 2794,
  -5952, -12532, 15376, 10518, 17687, 3213, -2669, -61, -2944, -14173,
  -776, 5614, 17900, -10120, -6406, 8024, -2927, 950, -3807, -2178,
  -23559, 10563, 19384, 17758, 1832, -1128, 9099, -8680, -14629, 6007,
  -9578, 4841, 1676, 13303, 13200, 13437, -246, 1480, -19394, -2174,
  11204, 7662, -22442, 7570, -5179, 9414, 28309, 3101, -17320, -21296,
  7895, -4971, -3505, 11873, 4153, 1899, 22251, 9467, 1376, 21420,
  2227, 11916, 13048, 8483, 17947, -5596, -11600, -21473, -1483, -11477,
  4973, 18576, 15482, 14763, 834, -6396, 3888, -1520, 14718, 1842,
  4514, -10431, 8549, -18038, 3165, 5055, 4760, -653, -10764, -17093,
  909, 1099, -8171, -9674, 394, -8843, 15212, -9789, -21, 3668,
  -4993, 5557, -22968, 10843, -12690, 18283, 10925, -3033, -7972, -14353,
  -12257, 1894, 4567, 9461, 16742, 12189, -10699, 13662, -3061, 14017,
  -15420, -1386, 3823, -13227, 5437, -30540, -13785, 1246, -4072, -12608,
  18248, 8802, 16123, 2729, -4233, -577, -4880, -13793, -3004, 6378,
  16920, -9328, -7502, 6984, -5907, -338, -4639, 42, -22387, 9755,
  18372, 18954, 2140, 780, 10435, -9728, -16581, 6511, -8690, 2837,
  3472, 11631, 14848, 12197, 2262, 592, -18490, -666, 13952, 5814,
  -21642, 5482, -4003, 8994, 27789, 4873, -18724, -20172, 8227, -4363,
  -5097, 11797, 6333, -45, 21179, 10707, -444, 20136, 1679, 10168,
  15180, 9187, 16867, -4236, -9648, -22457, 445, -10017, 2793, 20048,
  14662, 16559, 1790, -6272, 3068, -1760, 14034, -1026, 3194, -12995,
  9089, -17566, 1961, 3951, 3340, -185, -11636, -16361, 977, 1607,
  -6543, -8130, 10306, -321, 1099, 4247, 6823, -10335, 3775, 8122,
  -3928, -6374, 1272, -1944, -8412, 9404, -10207, -6195, -8244, -3006,
  -13317, -10442, 3034, -14100, 4579, 4983, -8728, 8831, 1510, -5106,
  11766, -1863, 4589, 4, 4772, 7570, -10820, -2164, -13975, 5029,
  5031, -473, 5311, 7145, 10982, 577, 11542, -4138, 8181, -5212,
  7331, 8027, 13526, 9645, 5402, -8551, -5154, -531, 4767, -6927,
  2839, -7698, -4148, 6944, 10112, -1917, -3394, 11303, -8406, 9758,
  -8401, 2267, -12581, 628, -4370, -4892, -11955, 8142, -3424, 11137,
  -8798, -284, 1458, -7255, 5482, -6736, 741, -1134, 9922, -1061,
  -12614, 6055, 4741, -3344, 11229, 5007, -41, 4300, -8514, -6161,
  8709, -9788, -6356, 5400, -10378, -4981, 9889, -6931, 5956, -7740,
  -8172, -3829, 6373, 888, 3802, 10642, 1311, 12916, -608, -5134,
  5555, 4197, 3638, -680, 5615, -1698, -3754, -4152, -4208, -3348,
  -2606, 9095, -9719, 3211, -9215, -1265, 6735, 2986, 12440, -4026,
  -1284, -7322, 180, -6374, 2287, -1007, 6616, 9108, -963, -2798,
  -11912, 2274, 61, 2077, 1398, 1413, 9536, -6764, -1450, 6317,
  -8309, 8424, 408, -2612, 1264, -584, -929, -10387, -11037, -6023,
  -4833, 6851, 994, 8429, -1318, -1384, -775, 1640, 3745, 1221,
  -4288, 3639, 2226, 6955, 9032, -11137, -6989, -5411, 6839, 5136,
  2802, 4222, 2814, -199, 5322, -1249, 2196, -3148, -2359, -11373,
  2447, -7412, 6680, 6408, 2389, -5790, 8084, -3107, -2058, -6904,
  -10394, 3439, 1026, 5372, 1971, 5066, 2554, -5743, -1812, -8413,
  -8417, 3124, 1277, -9675, -5701, -12276, 1840, -5995, -841, -1862,
  10686, 5912, 1114, 8471, -5183, -3171, -2236, -430, -4774, -3259,
  1753, -334, -4210, -9286, -11153, 612, 1506, 1138, -2877, -4695,
  -8354, 3352, 4187, 8744, -5664, -2412, 10266, 11338, -929, 7084,
  -8391, 3842, -5467, -2185, 5400, 1917, 10987, -4659, 992, -7409,
  -2102, -2961, 1738, 795, 5256, 5489, -2397, -3972, -9796, -1405,
  1914, -47, 627, -234, 8440, -4671, -514, 5737, -5776, 9679,
  2602, -1215, 450, 1111, -4270, -7601, -9034, -4398, -2134, 5200,
  2292, 7412, 517, -2093, -2099, 1898, 4076, 572, -894, 3240,
  2597, 3779, 8476, -8711, -6663, -6697, 4439, 2647, 77, 4634,
  4947, -1227, 4336, -282, 279, -2847, -4316, -8933, 259, -4922,
  6480, 3833, -1335, -3868, 7966, -1808, -1573, -5809, -10477, 990,
  3727, 5679, 216, 3841, 3257, -5496, -3104, -4935, -7949, 321,
  1819, -8603, -3916, -9055, -1569, -5681, -2091, -1508, 7804, 7385,
  -193, 6454, -2946, -5356, -2929, -3190, -4057, -1579, 1273, 128,
  -4383, -5073, -7584, 3246, -338, 2676, -1630, -3213, -5597, 2130,
  4850, 7812, -4204, -2152, 7262, 8232, -6713, -12372, 8502, -4964,
  9446, 11520, -13840, -16317, -6701, 8597, 7190, 6800, 2908, 3248,
  10659, 15625, 2116, -13906, 13272, 11736, 10535, 4220, 663, -15346,
  8476, -18671, -11683, 18328, -12008, -3501, 7795, -279, 1610, -3534,
  10860, 9069, 7447, 8981, 6452, 9627, 5338, -19307, -10402, -9522,
  -8293, 4072, -15243, 7004, -11003, -13569, -3879, -16605, -6873, -4190,
  -573, 15498, -1187, 7935, -16311, -1184, -5702, -10643, -7676, -1348,
  -2338, -11346, 3396, -10518, 5383, 12107, 7955, 12058, 1057, -6617,
  1483, -586, -308, -8384, 14635, 7989, 3603, -859, 2031, 7029,
  -8577, -5589, -11977, 5323, 13539, 9559, 424, -7239, -14175, 2998,
  10110, 12841, -1712, 13022, -15658, 15307, -7671, -5393, 8815, -5636,
  -2418, 3594, -9069, 787, 16402, 13280, -11327, 889, -3629, 5851,
  17782, -8464, -6939, 11636, -1002, 2673, 9939, -5640, -7246, -6049,
  13251, 7916, -10967, -13265, 523, -10230, 14333, -8132, 3870, 3933,
  -6868, 1464, -20409, 9492, -7648, 15609, 7631, 353, -5300, -8129,
  -10507, -2894, 4544, 8453, 16399, 7871, -7243, 7399, -1803, 7543,
  -14797, 2880, 2035, -11537, 7203, -23755, -9357, 1470, -2320, -7723,
  13436, 10244, 15244, 4649, -810, -4289, -4484, -13132, -2319, 5220,
  10582, -6352, -7350, 3286, -2974, -2866, -4432, -2735, -18484, 11672,
  14844, 15482, -2200, -1238, 5735, -9039, -12955, 4340, -8002, 1356,
  1958, 8093, 11354, 13177, 1436, 3862, -14875, -3231, 8884, 5918,
  -17538, 4135, -848, 9099, 22808, 2125, -12927, -15043, 4217, -5128,
  -5286, 10401, 6104, 3691, 17430, 5686, -1970, 17365, 3994, 12185,
  9642, 9430, 10532, -1033, -10807, -17816, 696, -10236, 3442, 15143,
  10061, 11544, 4224, -2037, 558, -971, 10663, 2875, 7507, -9837,
  5076, -11460, 2300, 4575, 5969, -1779, -9915, -14650, 3632, 2577,
  -8856, -10527, -695, 5140, -3, -3110, -11140, -1111, 5986, 10700,
  -3527, 2232, -12344, 4907, 7705, -9237, -6134, -15245, -3093, 13406,
  -494, 1647, -1559, 10429, -8115, 15643, -2865, 16043, 485, -11776,
  4185, -2853, -5845, -14501, -10323, -862, -4224, -11973, 11034, -5578,
  -166, -5967, -9096, 10575, -392, 134, -1661, 2452, 15276, -6928,
  560, 9404, -7690, 7048, 196, 7837, -7684, -7042, 7130, 7056,
  11942, 5822, 11797, -685, -7889, 5030, -698, 3490, 3946, 8003,
  7616, -4723, 2258, -9470, -7453, 7311, 12406, -1226, -8198, 2899,
  -8260, -1787, 9780, 7177, -13485, -11365, 10021, 2924, 1322, 2041,
  -104, -10485, 7424, 12658, 4140, 4829, -6660, -7313, 13502, -1956,
  15266, -8379, 4939, -9768, -580, 2122, -2432, 11011, 10763, 11764,
  -7028, -10889, 6548, -1881, 7221, -11127, -12581, -7179, 9864, -14584,
  -1190, -2301, -7941, 4451, -3023, -2302, -7736, -2937, 7620, 8027,
  -7820, -11499, 9640, -7085, 5542, 12438, -12823, -13512, -9226, 10714,
  2438, 9847, 6840, -589, 9164, 10567, 1038, -9561, 14746, 13924,
  11103, 9599, -3020, -10152, 8183, -13670, -12883, 15233, -11546, -5185,
  6068, -6968, -3002, -4413, 10318, 4780, 13440, 7589, 7239, 8164,
  1829, -16934, -11964, -10607, -10094, 5663, -10189, 4718, -12106, -11032,
  -7847, -15458, -7724, -1052, -4091, 14284, 1913, 12151, -12905, 1279,
  -1029, -12235, -12249, 860, -2884, -11127, 5599, -8135, 9612, 11487,
  9953, 9292, -2163, -4036, 7345, -1264, -4126, -8159, 12730, 8232,
  8554, 2304, -3960, 2728, -5036, -4988, -12956, 6986, 15181, 5869,
  3812, -2368, -14023, 5512, 8255, 11094, 4247, 13740, -10660, 13449,
  -6413, -10550, 9638, -5317, -3829, 9043, -5318, 6281, 15239, 9922,
  -9757, 91, -722, 1528, 14185, -12800, -3237, 6454, -1751, 1887,
  7516, -4260, -9617, -7867, 11437, 7570, -8857, -11227, -15470, -4107,
  5073, -10451, -9724, 17349, -8329, -10053, -4208, 14387, -7084, 11252,
  17119, -14992, 12093, 3661, 6667, 4859, 22020, 20097, 3353, 25982,
  -11190, -1885, 12028, -7676, -9535, 7669, -16343, -3345, -3992, -13218,
  -12649, -10617, 14514, -2106, 28789, -3352, -343, 2058, -9401, -11396,
  -18454, -7383, -18646, 9175, -5232, 3890, -14573, -9117, -22788, -15039,
  -9981, 12193, -2388, 5412, 952, 18786, -3858, 11821, 10456, -15077,
  -22412, 5342, 908, -16035, 14133, -9888, 18811, 2357, 19958, -380,
  -1745, 6436, 23746, -9352, -4268, -14198, 11677, 4440, 9981, 12824,
  -15876, 1386, 2034, -321, -17035, 6688, 21912, -8255, 2440, 9339,
  -17430, 1729, 1449, -1376, 19093, 13658, -6052, 13003, 5013, -17891,
  15901, 2581, -13479, 19206, -2646, 18592, 13489, 3587, -8492, -1871,
  148, -16022, 400, -25057, 4368, 290, -7107, -4131, -3396, 525,
  -13348, -4822, 6264, 7115, 2932, 781, -608, 14717, -16152, 7419,
  -11476, -5678, 11893, 6126, 20410, -9512, 326, -14145, -3914, -6053,
  1292, -1417, 9044, 12209, -6240, -8838, -19135, -2749, 3018, 2628,
  -289, 2852, 16863, -11425, 1068, 10739, -11670, 16856, 3996, -1707,
  -918, 332, -8400, -15021, -17017, -9390, -4887, 12424, 5548, 14701,
  2118, -4319, -1039, 2138, 8958, 3256, -1191, 8478, 5578, 7680,
  15053, -17986, -11509, -12935, 10693, 5005, 1323, 9903, 9743, -1754,
  8136, 1353, 69, -3219, -8204, -17853, -705, -10796, 11243, 8112,
  -2245, -6892, 13978, -1937, -5196, -11540, -18908, 2086, 5864, 8760,
  1998, 7730, 7550, -10468, -7579, -10639, -14090, 2010, 5531, -15728,
  -8777, -18294, -2155, -12162, -962, -5165, 15161, 13680, -1704, 12475,
  -4953, -9815, -3590, -5451, -9903, -5170, 4153, -15, -6994, -10204,
  -16633, 6862, 791, 2638, -2879, -6273, -11740, 4830, 9557, 14761,
  -9635, -5104, 14811, 16931, -1397, -16934, 14362, -5530, 15787, 8126,
  -15396, -13494, -15625, 8696, 6806, 10794, 573, 9234, 4677, 11853,
  -5155, -18429, 8641, 9517, 18174, -1120, 1342, -12580, 3982, -14010,
  -16388, 18643, -6151, -8127, 13458, -6865, 1887, 723, 5458, 7019,
  4033, 16006, 14538, 12046, 8910, -19040, -6794, -14010, -3345, 3581,
  -9702, 3194, -10221, -9959, 2713, -14039, -6018, -10360, -8605, 20621,
  5476, 9222, -17514, -6257, -7340, -10440, -6394, -1329, -6716, -5868,
  -545, -3986, 4461, 18737, 2056, 15226, -5326, -11145, -2838, 5624,
  -7204, -1997, 11348, 11513, 11244, -4640, 1825, -29, -8108, -8482,
  -9428, 8392, 9707, 15249, 7919, -8638, -10056, 10966, 12436, 20425,
  -4265, 13769, -9879, 11514, -15454, -7894, 4140, -12022, 3962, 4137,
  -4143, -423, 15039, 12238, -9022, 1178, 1113, 13695, 22917, -4783,
  -6749, 7148, 2592, 6621, 14993, -7209, -7823, -11895, 13983, 7297,
  -17349, -19868, -12299, -9196, 3903, -5010, 4208, 15751, -13586, -20262,
  829, 9394, 7940, 3861, 5551, -2219, 17084, 20255, 9005, -10738,
  18846, 14961, 4421, 9851, -111, -19023, 13385, -24409, -8427, 19520,
  -18489, 395, 3147, 5447, 1239, -7854, 16824, 11567, 11604, 3204,
  -418, 8181, 2316, -21173, -14780, -6266, -13725, 4972, -21490, 11048,
  -12774, -18014, -10548, -20418, -8342, 1335, 6650, 12086, -7312, 7678,
  -16484, 3538, -4449, -11865, -9799, -1358, 1494, -17430, 7470, -17391,
  6958, 7017, 14244, 10066, 6911, -2865, 5936, -6442, 5854, -15059,
  18906, 5461, -2894, 2737, 2075, 13983, -9591, -3382, -15484, 3053,
  18398, 4931, -6320, -6336, -19258, -4001, 8752, 6867, 818, 13536,
  -22166, 20113, -1081, -3834, 13986, -194, -8628, 3697, -14261, 2274,
  19080, 15257, -14402, 651, -8191, -1123, 14417, -12869, -7534, 16576,
  -4478, -801, 6011, -4611, -7501, -1268, 13678, 9185, -5922, -8221,
  -629, -7362, 5118, -1334, 7961, 3414, -6964, -7248, -4793, 2798,
  5054, 3026, -1313, 5162, 3213, 7693, -1193, -9415, 3447, 3375,
  6968, -2452, 2184, -7900, 2278, -8636, -6178, 9373, -3413, -2427,
  6100, 555, 2897, 369, 3030, 5031, -599, 6872, 5174, 5568,
  5086, -9230, -2482, -5226, -1081, 931, -6852, 2702, -4013, -5655,
  2301, -6783, -2220, -5384, -1545, 8919, 442, 2028, -8928, -3287,
  -5060, -3878, -866, -1615, -2344, -3144, -831, -3366, 85, 7757,
  554, 7450, -392, -5609, -3416, 2228, -812, -1463, 5974, 4497,
  1998, -3046, 3501, 2463, -5118, -3636, -3778, 2566, 3807, 7789,
  1345, -5724, -4794, 3010, 6048, 8929, -4223, 5579, -6925, 6052,
  -6504, -920, 1846, -4826, 1770, -609, -3819, -2495, 7117, 6878,
  -4772, 880, -1259, 7087, 11083, -493, -4605, 5708, 1212, 2925,
  7125, -3627, -2209, -3823, 6699, 3347, -7853, -8918, 10696, -17779,
  17239, -1815, 23287, -3611, -11219, -3216, -22654, 2448, 6584, 10346,
  -7764, 19462, -8225, 2609, -15848, -21312, -6329, -1730, 23130, -15754,
  5209, -4973, -6654, -1795, -15978, 12108, 8154, -11519, 19003, -10362,
  5516, 9504, -7592, 2958, -10009, 22533, 22017, 11653, 14281, -10481,
  5306, -14533, 9704, -616, 1945, -4000, -2351, 249, 17638, -2585,
  -352, -19803, -16854, 20793, 12999, 3233, -13573, -15008, -10726, -3200,
  3466, -2573, -11358, 7761, -9884, 8848, -3435, 22387, -12321, 15760,
  -12314, -16454, -14911, 15482, -13612, 11455, 516, 12094, 16004, -12349,
  5720, -10166, -6005, -10176, 1480, 8493, -4362, 21659, 15581, -11038,
  3181, 18715, 12117, 26066, -12192, 7363, 2377, -456, -23640, -4158,
  -7928, -18547, 15623, -1669, 4502, -7352, 5434, 6679, -1087, 1860,
  7268, 25592, 24089, 8724, -6076, -978, 9005, 11625, 19140, -7728,
  -2699, -15518, 9554, 2524, -22556, -24144, -2762, 8109, -10563, 4477,
  -6382, -843, 5243, -411, 14716, -5011, 2684, -9496, -2255, -3964,
  4665, 4069, 8269, 5477, -702, -3405, -12397, -826, 2712, -2989,
  2608, -3914, 10115, -3341, -3149, 7779, -7106, 13926, 3833, -2631,
  2910, 3342, -4463, -9478, -11983, -4560, -2285, 3826, 1082, 9045,
  -1042, -2231, -6006, 4142, 3751, -1881, -2304, 1461, 2301, 5017,
  12360, -9738, -9986, -8088, 3408, 3763, -812, 4669, 5512, -1888,
  6008, -2691, 1203, -6216, -4985, -10783, 2096, -4916, 9733, 4552,
  -1352, -5956, 11524, -4460, 619, -6900, -14517, 1454, 5532, 9666,
  -1212, 4545, 2219, -6902, -1740, -5675, -11606, -759, -168, -12107,
  -3927, -10916, -2357, -5740, -6082, 877, 10035, 9559, 1555, 8509,
  -4947, -6960, -6054, -4256, -2717, 155, -362, 271, -7028, -6530,
  -7886, 2849, -1656, 6122, -2763, -4347, -6444, 2139, 5486, 10250,
  -3540, -1579, 8644, 9643, 3586, 11945, -14507, 9409, -4670, -8867,
  10647, 5569, 18416, -11895, 4476, -15284, -9135, 760, -875, 877,
  6133, 6129, -10710, -12653, -16061, -11046, 6964, -341, -2748, 1218,
  16019, -8993, 4235, 10067, -7286, 19914, 8601, 1573, -3722, 3058,
  -16403, -10294, -13755, -7076, 231, 11054, 9442, 13769, 6866, -6307,
  -2398, 2054, 10915, 3267, 6368, 9417, 7161, 1489, 14240, -14722,
  -10946, -16712, 7400, -57, -3888, 12013, 15228, -3856, 6432, 4529,
  -4329, -1636, -13069, -14223, -6136, -6908, 10949, 3444, -10352, -2892,
  14060, 1600, -5697, -10240, -19841, -2990, 11544, 8918, -864, 5837,
  10375, -10690, -11796, -4387, -13430, -3203, 8168, -14067, -6139, -13080,
  -9281, -13012, -2122, -6011, 10107, 17627, -5369, 8993, -71, -15012,
  -4258, -11512, -10177, -2989, 4318, 887, -7168, -2038, -11114, 13425,
  -2448, 4834, -183, -3507, -7088, 2875, 11882, 13682, -8028, -5427,
  9804, 11971, -5798, 4747, -7842, 2129, -5116, 3572, 1143, -5154,
  12400, -1452, 3506, -6605, 256, -4713, 8212, 7863, 9294, 2699,
  4620, 1392, -9415, 2891, 1608, -6602, 5691, -8838, 6283, 1665,
  -7462, 6499, -5620, 12166, 2746, -4497, 6822, 5122, 320, -7571,
  -10267, -2040, -2017, -1826, -3252, 5951, -4832, -329, -9869, 6038,
  -322, -5884, -5481, -3882, -382, 5270, 11743, -5426, -9939, -4165,
  -757, 4615, -997, 623, 1323, -1554, 5476, -6837, 3399, -9459,
  -1664, -7553, 5905, -2096, 9603, 3662, 1485, -6952, 10738, -7757,
  5144, -4450, -12328, 2556, 4174, 11190, -2892, 3130, -2350, -4818,
  3631, -4299, -11030, -1410, -5159, -11018, -1447, -7924, -705, -1262,
  -10122, 5695, 8581, 6260, 5156, 7345, -6783, -4015, -8260, -2041,
  2447, 3500, -3797, 245, -7644, -6714, -3693, -1728, -2699, 8658,
  -3709, -4113, -4430, 900, 2297, 8151, 215, 986, 6281, 6531,
  7321, 9530, -12483, 10612, 635, -11681, 9786, 6025, 15553, -13487,
  6864, -15319, -12872, 6097, -3544, 1327, 2882, 1697, -14587, -15630,
  -12834, -17295, 9534, -1407, -5275, 1398, 14762, -7707, 7520, 8805,
  -3588, 20537, 11488, 4489, -6678, 4209, -22144, -6139, -10264, -5322,
  4016, 10556, 12720, 12466, 10899, -7697, -1929, 1154, 12450, 4186,
  12394, 10754, 8417, -3485, 12184, -11945, -9285, -18927, 5377, -4161,
  -7349, 13524, 18997, -5137, 4560, 7736, -7873, 775, -16350, -10873,
  -10771, -4070, 9510, -229, -16241, 804, 12778, 5164, -6873, -8875,
  -18993, -6858, 14997, 7537, -2416, 4189, 12809, -10316, -15364, 449,
  -11571, -6595, 10821, -11535, -4206, -8573, -14169, -13595, -1477, -7510,
  5582, 19673, -8685, 5680, 4232, -18184, -3575, -15518, -10865, -2043,
  5043, 1490, -6301, 4457, -6968, 18340, -4314, 5144, 2204, -1065,
  -3375, 1444, 13326, 11972, -7096, -5870, 5630, 7818, 2278, -5037,
  10878, -6695, -1174, 144, -1309, 8052, -17708, 6770, -11470, 13499,
  7678, -2305, -9132, -14873, -10988, 3797, 306, 4806, 11963, 8015,
  -8418, 14210, -4637, 15364, -10339, -4769, 6112, -10281, 3394, -24714,
  -11056, 2241, -6078, -12030, 12400, 5915, 12293, 438, -3965, 3532,
  -1228, -9477, -76, 4153, 17073, -9214, -3578, 8724, -3081, 3414,
  -2088, 82, -18489, 5088, 15487, 13437, 4857, 277, 9163, -5495,
  -11309, 5336, -6928, 5163, 1581, 12033, 10408, 7907, -529, -1640,
  -15551, 226, 10135, 5468, -17750, 6817, -6542, 5826, 22002, 3554,
  -15090, -18138, 8238, -2616, -1204, 8512, 1767, -1223, 17500, 9720,
  3003, 16222, -399, 6304, 11965, 4676, 17144, -6935, -6933, -16838,
  -1994, -7535, 3453, 15111, 13980, 12691, -2087, -7720, 4993, -1493,
  12292, -1070, -431, -8050, 8529, -16726, 2235, 3087, 1242, 774,
  -7681, -12325, -1881, -424, -3683, -4511, 10852, -7949, 4799, 5027,
  18192, -8041, -3759, -1641, -5874, -5861, 10832, -2320, -13531, 18036,
  -5635, 6141, -8063, -16271, -11452, -9517, 8845, -21658, 10268, -7803,
  -6304, -4410, -2951, 6827, 8099, -2281, 11950, 7356, 12017, 8685,
  -7306, 7020, -20547, 12862, 9079, 6308, 13573, -4010, 10058, -3101,
  12284, -4935, -3490, -298, 4699, -9, 19682, 2081, 4039, -16585,
  -2826, 9120, 1934, -9320, -9008, -13301, -13632, 4999, 13912, -5550,
  -4880, 8127, -11413, 4160, -12481, 10137, -14060, 10480, -1301, -12614,
  -21048, 10772, -276, 9370, -1147, 3746, -1739, -13294, 14722, 56,
  -7612, -5181, 7197, -274, -10662, 16893, 2376, -13661, 6572, 5071,
  7371, 14346, -18493, -1686, -2976, -2077, -13707, 9773, -9443, -9669,
  12907, -13094, -1556, -15614, -293, 5985, 258, 2441, -294, 21636,
  15192, 16813, -8594, 5590, 7279, 7581, 12666, -5385, 5820, -3384,
  4474, -639, -13646, -13663, 14629, -3358, 4090, 5142, 12694, -13460,
  2710, 9129, -8299, -7701, 3206, -1102, -12084, 15226, -13775, -6643,
  -12584, -7740, -17612, -13448, 7431, -20554, 6901, 4690, -11850, 10007,
  -579, -3954, 15828, -3941, 8953, -909, 7274, 10968, -14504, -1641,
  -19579, 10077, 9750, 1537, 9292, 6787, 14546, -1504, 16037, -5422,
  9793, -6808, 8803, 9597, 20065, 11341, 6653, -14106, -8649, 2934,
  7629, -8521, 869, -12278, -7432, 8269, 13582, -2996, -5934, 15216,
  -12266, 13228, -11379, 6547, -17793, 3718, -6983, -8987, -17881, 12626,
  -6016, 15550, -10515, 1639, 3845, -11353, 8357, -9449, -467, -3159,
  12541, -75, -16473, 11387, 7952, -6517, 14377, 8890, 2100, 9767,
  -13206, -6494, 10522, -11889, -11883, 6585, -14207, -9178, 14924, -9496,
  7613, -11393, -9056, -3260, 7493, 1461, 5573, 17849, 5936, 17880,
  -2143, -5856, 8360, 7125, 7881, -2232, 6712, -4421, -2809, -4664,
  -9131, -8301, 1996, 10429, -7934, 3071, -10472, -6232, 10497, 11340,
  7358, -5230, -6574, -4959, 252, -5955, -5514, -11085, 758, 13113,
  -6908, -6308, -9915, 953, -1946, 11570, -4079, 12936, 9319, -13913,
  6026, 3411, -8142, 308, -2682, 573, -5678, -7216, -1598, -9551,
  -7461, -8306, -6339, 14236, 5416, 7773, 3126, -1903, 10323, -4222,
  6816, 9094, -1481, 10876, 4320, 6242, 2003, -13330, -575, -4377,
  13035, 3865, 6349, 6507, 3089, 1530, 2920, 5649, 97, 5491,
  -1974, -11233, -2351, -10748, 383, 7104, 2853, -2140, 1550, 3529,
  -9646, -6964, -3678, 3286, -3344, -3764, 6970, 5312, 7144, -4424,
  -7213, -9927, -1762, 7400, 8133, -4022, -8357, -12434, 4417, -8950,
  10494, -9945, 8909, 2798, -3906, 6335, -1357, -537, 5850, 1947,
  -11211, -9896, 7523, -883, 1578, -8808, -15411, 2756, 5929, -8314,
  -759, -3477, -9628, 4872, 4567, 5787, -10293, -5366, 10845, 12403,
  4111, -2930, 5451, -1660, 2300, -2845, 0, 5376, -9245, 1176,
  -4108, 5491, 571, 2379, -6818, -7653, -7419, -100, -3714, -867,
  6713, -1159, -2001, 6997, -4497, 8613, -4535, -2826, 5975, -5237,
  3425, -10595, -3005, 3360, -5724, -5435, 950, 4696, 7292, 507,
  386, 2953, 2688, -4372, 3457, 598, 9310, -5356, 380, 5780,
  3060, 3876, 608, -3109, -9722, 2782, 8196, 3818, 2204, -2540,
  2225, -565, -1809, 1542, -4262, 5448, -1992, 7911, 1864, 4777,
  -4076, 118, -8109, -1927, 360, 5090, -8774, 6283, -5044, 2795,
  10100, -981, -4475, -9699, 3327, -1784, 2258, 3543, -2822, 2055,
  9148, 2658, 4354, 8827, 362, 4829, 2148, 592, 9498, -5519,
  -5513, -5656, -3916, -5228, 4710, 4319, 7553, 2846, -2818, -3907,
  3718, -277, 6351, 3447, 1203, 495, 3070, -8316, 2816, 2907,
  2293, -207, -1735, -6168, -1414, -1183, -3574, -3765, 19813, -1282,
  -687, 11240, 18011, -19781, 5366, 9497, -1643, -15095, 10360, -9311,
  -21452, 22585, -15112, -2193, -11938, -12163, -25859, -22314, 3358, -33695,
  14322, -195, -14707, 6874, 5506, -4079, 19732, 229, 10344, 12221,
  16244, 14501, -17838, 3685, -34880, 10465, 6668, 1338, 14980, 8832,
  21872, 3598, 23199, -10157, 5443, -5014, 15042, 9634, 30254, 15154,
  10977, -19753, -2124, 423, 2407, -19843, -443, -17413, -15157, 15300,
  25821, -7089, -4488, 19348, -18389, 12743, -22102, 4207, -25319, 5410,
  -1466, -12449, -30885, 14908, 1210, 18772, -12177, -1359, -6793, -17926,
  19945, -3883, -4652, -2691, 19121, -5088, -25048, 16217, 1685, -14075,
  19513, 3557, 2606, 9599, -25085, -12499, 6459, -13950, -12538, 18817,
  -19509, -8540, 19348, -21864, 3685, -23074, -12637, -1175, 8543, 2842,
  1367, 25445, 7584, 30160, -7286, 144, 10680, 8247, 9877, -3256,
  14134, 840, -3756, -6834, -10238, -8486, 11059, 3958, -9401, 12484,
  11026, -13357, 5572, 1586, 12815, -15142, 14140, -16217, -19227, 15327,
  -3558, 8179, 383, -8850, -17500, -18329, -7669, -27215, 15061, -9019,
  -6365, -5281, 12035, -756, 8697, 7919, 3183, 25781, 18173, 7706,
  -7616, 10141, -31342, 1154, -5676, -551, 11662, 4791, 15536, 10008,
  15141, -9616, -7696, 3008, 12912, 952, 21192, 8408, 9122, -11981,
  12210, -5112, -9774, -22856, -2250, -10702, -15507, 14373, 24963, -8320,
  2422, 9112, -12754, -81, -21932, -4443, -15898, 3262, 10321, -7331,
  -26618, 5302, 13898, 7453, -4174, -6017, -20774, -13543, 23349, 10245,
  -8167, 882, 13984, -10039, -18010, 10155, -11754, -15096, 11096, -9889,
  1082, 57, -24078, -12350, -7084, -5077, -1795, 24522, -11358, 716,
  9594, -24847, -7071, -23650, -7816, 3765, 2688, 2865, -7977, 15819,
  3421, 25289, -10218, 11212, 5192, 2691, 4285, -2137, 15219, 10184,
  -2338, -4669, -2534, -687, 12718, -2949, -249, 8163, 15467, -12003,
  1083, 2222, -68, -10186, 10864, -7296, -16244, 17636, -7407, 4013,
  -6716, -12526, -16121, -14490, 3046, -25004, 11907, -5581, -8240, -1305,
  2970, 1734, 10934, 881, 8821, 12528, 13924, 9554, -9828, 6440,
  -25783, 8781, 4499, 3015, 12755, 1737, 13974, 1917, 15218, -7154,
  -1843, -796, 9139, 2835, 21794, 6973, 6878, -15459, 994, 2953,
  -753, -14783, -4617, -13066, -13716, 9676, 18920, -6305, -2818, 10939,
  -12974, 5270, -16585, 4587, -16749, 6844, 1410, -10648, -23827, 10030,
  3424, 10957, -4778, -112, -7418, -13863, 17318, 1340, -6515, -2810,
  11606, -3829, -15666, 14215, -1207, -13340, 10757, 923, 4219, 8952,
  -20538, -6989, -1199, -5880, -9864, 15092, -12086, -6425, 13165, -17455,
  -1320, -18624, -5364, 3199, 3053, 2516, -1610, 20110, 9563, 21452,
  -8140, 5098, 7319, 6213, 9266, -3760, 9931, 1090, 410, -3216,
  -9388, -8496, 3598, 8899, -13089, 9675, -217, -7747, 7547, 1450,
  17788, -11598, 8352, -15456, -11072, 4068, 1201, 6029, 6408, 830,
  -9709, -12102, -13830, -13860, 9207, -5645, -1584, -4349, 14238, -4070,
  2506, 9977, -4423, 22984, 11480, 1870, -2076, 6848, -18839, -7263,
  -12277, -4341, 3475, 6413, 8870, 12317, 6946, -6566, -7327, 4172,
  9731, -157, 8602, 6173, 6522, -1587, 15354, -10851, -12245, -17603,
  2555, -2166, -7668, 11120, 16616, -5309, 5926, 3011, -5386, -4130,
  -14601, -11133, -6489, -2948, 12334, 424, -13831, -2010, 15472, 649,
  -2422, -8640, -21254, -5299, 15230, 11860, -4279, 4242, 9098, -10393,
  -10778, -129, -14547, -7336, 6065, -14205, -3149, -9144, -13190, -11113,
  -7067, -2692, 7300, 19360, -4786, 7231, 941, -17427, -7456, -14592,
  -6840, 1071, 1713, 1504, -8946, 2190, -5545, 14784, -5692, 9322,
  399, -2235, -3526, 988, 11895, 13090, -4638, -3932, 6100, 7900,
  -12794, 4799, -1856, -7183, -17462, 11110, 755, -478, 2372, 9036,
  -11618, 6081, 16008, -18731, 7018, -5205, 7186, 14949, 14978, 13468,
  -5221, 24865, -11846, 7168, 7977, 2896, -1055, -3961, -10454, -33,
  -10406, -11466, -13778, -9535, 9130, -7414, 25230, -10931, -6579, -4718,
  -13789, 720, -12888, -313, -14848, 6857, 2991, 458, -7964, -1458,
  -22299, -5320, -5858, 16484, -59, -5756, 17, 13623, 6779, 14057,
  14617, -8591, -18103, 6168, 3456, -10457, 13169, -5037, 15754, -7033,
  16669, -8912, -855, 11798, 24165, -10628, -2314, -10613, 3312, -1554,
  5808, 14490, -17198, -1266, 7346, 4006, -10178, 2524, 14541, -15775,
  336, 14406, -9711, -2128, -5471, -11480, 21041, 5364, 2364, 4337,
  11979, -14000, 11692, 7769, -13731, 17029, 1856, 18585, 3573, -4494,
  -1977, -2477, 1172, -21958, -12129, -20904, 8707, -5974, -7385, -6813,
  -11002, 4460, -8655, 477, -2339, 2318, 11567, 10877, -107, 348,
  5704, -5768, -7739, 348, 2462, 9816, -11155, 5482, -13438, 10234,
  9345, -7462, -7543, -16283, -6927, 10119, 1063, 4453, 5196, 11624,
  -9638, 16266, -3370, 16774, -5362, -8965, 4657, -6979, -2014, -21647,
  -12353, 15, -4742, -13211, 14301, -550, 6012, -3206, -7900, 7420,
  -1866, -5024, -2039, 4013, 17294, -8494, -2233, 9425, -7337, 5077,
  -1484, 5386, -13883, -1349, 11996, 11902, 9310, 4231, 12144, -3946,
  -11538, 5957, -3796, 3786, 3895, 10222, 10749, 1257, 2156, -6458,
  -12252, 4829, 13714, 1472, -13948, 4333, -7526, 2091, 17314, 6732,
  -16413, -15707, 10180, 412, -758, 5828, 2005, -7319, 13241, 12872,
  3020, 11020, -4102, -1293, 15023, 1899, 17279, -7716, -248, -15164,
  -478, -2332, -460, 15103, 13207, 14327, -4489, -10136, 5918, -1976,
  10435, -8015, -7697, -9635, 10365, -16976, -2, -75, -4301, 3075,
  -6365, -7765, -5183, -1571, 2861, 2582, -13037, 14132, -13744, -808,
  -22506, 7294, 7676, 653, 18519, 1355, -7550, -5926, 10790, -20390,
  9909, -1515, 14922, 19786, 10608, 6446, -18921, 19714, -7153, 4196,
  8662, -23, 11281, -8724, -10982, 8843, -17257, 5485, -7704, -10594,
  9836, -3399, 15665, -20297, -19088, -9757, -14610, 6549, -8774, 10542,
  -12821, 2892, -2581, 4220, -1537, -2059, -20825, -1287, -1879, 19820,
  13529, -16810, -10737, 1897, 10947, 15944, 11940, -1051, -8498, 3372,
  9750, -10562, 12012, -9920, 7413, -18753, 15481, -13910, 9833, 15591,
  18705, -15410, 10560, -13034, 2109, -9483, -11195, 13825, -8753, 8785,
  5727, 8789, -5115, -5797, 9025, -20473, -12452, 11963, -6937, -15328,
  -9942, -22755, 15288, -3002, -3150, 3211, 21649, -887, 10649, 16392,
  -16678, 6356, -4197, 10945, -1526, -4942, -977, -1943, -6217, -26065,
  -20568, -13654, 6271, 556, -9226, -10803, -17253, 6686, -736, 12105,
  -6991, -518, 20163, 20931, 5761, -9366, 15197, -6812, 5103, -1593,
  -3742, 7869, -23559, 6837, -9712, 15801, 5084, 3233, -11960, -14705,
  -15466, -1715, -2311, 3494, 17818, 3017, -6766, 13321, -6987, 15586,
  -14074, -2199, 9076, -13187, 8400, -27175, -9324, 5157, -8782, -11407,
  8768, 11849, 18088, 3290, -24, 1504, 928, -12934, 3243, 3627,
  18139, -10582, -3534, 9370, 2378, 3554, -1771, -5429, -22936, 10163,
  18999, 13613, 1733, -4061, 6155, -5664, -9595, 4571, -9928, 7992,
  -1549, 14975, 8882, 13567, -4591, 2314, -18838, -4173, 5467, 9884,
  -21318, 10480, -7085, 8781, 25979, -86, -13227, -21103, 6812, -5215,
  -75, 10512, -340, 4537, 21609, 6697, 4705, 21121, 2530, 13019,
  8235, 5953, 18359, -7786, -13246, -17363, -4785, -12432, 8080, 14060,
  15497, 10218, -1413, -6387, 5223, -986, 14371, 6097, 5548, -4824,
  6990, -17304, 4844, 6231, 6209, -1152, -7902, -16228, 200, -138,
  -9546, -10674, -3287, -11756, 12468, -7416, 6203, 8156, -10606, -6902,
  -15191, 9996, -1494, 12654, 6427, 1134, 2149, 2429, -4965, -7831,
  9485, 11007, 14526, 7488, -4368, -2678, 3210, -4304, -14328, 10273,
  -4829, -8479, 7616, -14567, -5239, -1127, 4086, -499, 12313, 9972,
  11876, 7176, 1600, -11686, -8026, -12292, -5795, 5239, -880, -418,
  -9829, -4555, -4325, -9751, -6090, -3054, -11199, 14085, 8218, 13372,
  -8824, -843, 1164, -10672, -11902, 2143, -5720, -4918, 3197, -362,
  9801, 13317, 5166, 7726, -8318, -4655, 6752, 2868, -10604, -1889,
  6560, 9135, 15400, 1322, -7261, -5603, -1330, -5562, -9160, 8774,
  10513, 6189, 10515, 398, -8206, 11616, 6970, 12927, 5581, 11933,
  -1127, 6806, -9650, -13562, 4976, -8468, 440, 11217, 1703, 7815,
  10401, 4944, -5112, -242, 4635, 3765, 12473, -10521, 5, -1448,
  630, 3741, 7883, -3575, -9603, -11525, 8373, 5359, -10067, -12164,
  -3488, 545, -3756, 1583, 290, 2962, -1627, -6172, 7114, -722,
  5086, -4145, -1400, -293, 6524, 8679, 5774, -2353, 3454, 1212,
  -4013, -521, 2748, -7980, 4319, -9542, 2473, 4705, -5810, 3847,
  -1212, 9764, 3950, -2437, 5310, 5944, -1760, -2315, -5149, 780,
  1273, -4542, -2284, 2509, -2802, -401, -9677, 5246, -1050, -6080,
  -1579, -4754, -624, 776, 7929, -432, -7007, -3265, -4097, 1199,
  -3493, -279, 1935, -2112, 2892, -5267, 1231, -7615, -2284, -2273,
  3265, 1684, 6841, -128, -1815, -3488, 7618, -5339, 5526, -1548,
  -8602, -232, 5428, 8996, -4364, 720, -2272, -2766, 2897, 701,
  -7504, -4004, -4679, -6748, 1427, -1822, -3449, 632, -9840, 5877,
  3095, 5182, 3522, 3079, -3305, -4305, -7394, -3643, 3959, 5206,
  -4237, 655, -6022, -844, 2013, 64, -4145, 8622, -1731, -1473,
  40, -916, 1507, 4521, 2625, 1698, 1003, 865, -3806, -4335,
  8577, -7887, -4510, 5889, -3369, 2165, -12752, 9221, -10172, 12528,
  10957, -6916, -1959, -8827, -4823, 4625, 7594, 9879, 8611, 14278,
  -9444, 9023, 1000, 7818, -9717, -945, -1465, -7741, 538, -20694,
  -11699, -2203, 870, -8830, 18017, 2358, 7637, 708, -6073, -1146,
  -7014, -8463, -6406, 5821, 9686, -4810, -7145, 2847, -9964, -2603,
  -4675, 4509, -12812, 4726, 10410, 15124, 2292, 4415, 9828, -8579,
  -15040, 5392, -4096, -1991, 5935, 4616, 13247, 5577, 6492, -1580,
  -10731, 2636, 14948, 244, -13004, -356, -557, 5096, 17683, 6882,
  -15472, -11482, 6328, -1631, -6445, 7718, 8496, -4019, 12194, 9841,
  -3796, 11033, -59, 3192, 14583, 7468, 9454, -363, -2469, -17089,
  4075, -3791, -2471, 16496, 8406, 14796, 2919, -4145, 578, -1657,
  8128, -6566, -694, -13843, 7292, -11102, -1039, 453, -712, 863,
  -9482, -9506, 584, 2001, -1000, -2229, 10105, -1862, -1545, 7528,
  12821, -9823, 1018, 845, 2113, -9159, 10300, -7573, -14252, 14739,
  -4934, 5131, -4206, -10717, -13241, -12414, 1084, -21485, 10800, -6293,
  -6153, -2956, 3644, 2027, 8172, 1929, 6842, 13261, 12792, 7571,
  -7314, 6717, -22614, 6473, 2180, 2400, 10944, 990, 11620, 2678,
  12463, -6335, -3585, 470, 7892, 1280, 18200, 5272, 5917, -12719,
  3014, 1793, -2485, -13719, -4387, -10711, -12347, 8546, 16855, -5851,
  -1508, 8296, -10799, 2825, -14872, 2807, -13627, 5794, 3008, -8793,
  -20741, 7576, 4966, 8164, -3121, -815, -8745, -11780, 16053, 3293,
  -6362, -1975, 9677, -4190, -13022, 11853, -3073, -12107, 8409, -1165,
  3558, 6595, -18271, -6261, -3067, -3984, -7232, 14397, -9637, -4388,
  10360, -16100, -2767, -16796, -4115, 3595, 1883, 2268, -2841, 16593,
  7948, 18528, -7740, 6200, 5764, 4755, 7473, -3208, 9094, 2378,
  550, -2574, -7260, -6448, -17888, -5575, 2675, -8555, -5835, 20101,
  -11691, -18218, 1722, 13430, 528, 6930, 13862, -12290, 18903, 14929,
  11850, -1346, 25021, 20744, 1220, 22578, -6757, -12829, 16186, -19917,
  -8200, 15134, -22060, 229, -2875, -1814, -6682, -12218, 19916, 6098,
  24351, -3025, -3755, 4751, -5567, -18439, -20302, -5853, -20360, 8214,
  -17261, 9956, -15775, -16759, -21630, -21041, -10730, 10285, 5670, 7731,
  -6283, 14495, -10899, 10818, 4178, -15310, -18814, 2309, 3174, -21139,
  13870, -18036, 15037, 2527, 21785, 4096, 5500, 3970, 18679, -11514,
  3660, -19163, 18582, 4142, 950, 10421, -7860, 11502, -4367, -882,
  -19446, 4275, 24370, -4345, -5233, 2388, -22397, -4545, 4729, -94,
  12434, 15045, -18205, 20226, 5470, -11344, 18818, 4017, -15153, 12817,
  -11502, 12408, 18912, 10975, -13837, -838, -6424, -13024, 6127, -23026,
  -1764, 11262, -8063, -4455, -688, -1610, -11597, -1054, 10918, 9446,
  1012, -1402, -12185, -11718, 7812, -7382, 4799, 16788, -15208, -19488,
  -4853, 12074, 5378, 8252, 7963, -2524, 15423, 17449, 6103, -11005,
  20109, 17319, 8762, 12470, -2430, -16438, 12784, -21758, -12388, 19843,
  -17777, -2799, 4834, -1557, -1759, -7533, 16074, 9039, 15715, 5756,
  3710, 9234, 1714, -21956, -16078, -9786, -14449, 6469, -18060, 9074,
  -14747, -16809, -11673, -20937, -9588, 970, 1401, 14997, -3038, 12156,
  -16620, 3427, -2426, -14324, -13640, 59, -652, -16932, 8163, -14892,
  10387, 10397, 14738, 10762, 2638, -3401, 8860, -4936, 784, -13883,
  18394, 7881, 3666, 3608, -2007, 9495, -8040, -4668, -16930, 5980,
  20073, 5449, -1361, -4296, -19638, 832, 9528, 9853, 3979, 16013,
  -18751, 19558, -3810, -9056, 14170, -2834, -7818, 8223, -11151, 5887,
  19963, 14264, -14012, 286, -5003, -797, 15907, -15841, -5739, 12932,
  -3960, 297, 7281, -4887, -10357, -5317, 14397, 9779, -8003, -10724,
  8293, -9946, 7233, 2464, 17423, -4589, -6186, -3707, -8651, -2459,
  9336, 1049, -10088, 15889, -3856, 6559, -7870, -16351, -7135, -5238,
  11226, -16767, 7902, -8043, -4315, -5634, -6178, 8973, 5336, -3939,
  12276, 3173, 9256, 7033, -4854, 6381, -14632, 13637, 10676, 7446,
  12260, -6916, 6384, -5762, 8895, -2921, -3945, 2, 1386, -1670,
  15790, -1126, 1805, -15089, -4844, 11635, 3363, -4743, -10439, -11673,
  -11741, 1488, 9013, -4357, -5520, 5372, -8953, 2983, -8334, 12167,
  -10579, 11266, -2838, -12145, -16553, 9828, -2534, 7216, 1155, 5585,
  1995, -11178, 11169, -803, -7240, -5927, 3605, 1924, -6232, 16289,
  4305, -12007, 3189, 6981, 8310, 15727, -14769, 1753, -3577, 446,
  -14230, 5213, -6609, -10388, 11060, -8668, -1427, -11690, 2791, 6849,
  -1437, 2078, 575, 19685, 16588, 11764, -7710, 5072, 6320, 7431,
  13053, -5660, 2562, -5680, 6308, 994, -14422, -14994, -3977, 7644,
  -8353, 1982, -8937, 717, 5008, 1189, 11091, -2271, -1356, -5731,
  1610, -6979, 3640, 159, 6884, 8227, 1453, -520, -10462, 4329,
  -748, 991, 2673, -244, 7690, -4841, -3234, 5549, -7746, 6971,
  -482, -3461, 2870, -213, 1672, -9593, -10118, -5020, -4990, 4586,
  -1008, 6920, -3087, -411, -1951, 2222, 1866, -266, -5964, 1426,
  981, 7277, 8350, -9293, -6611, -3293, 5303, 5673, 3123, 2304,
  577, 147, 4988, -2986, 3313, -4281, -530, -9933, 4231, -6386,
  6258, 6197, 4113, -6216, 7314, -4460, -281, -5765, -8897, 4164,
  -113, 5571, 1558, 4465, 489, -4642, 650, -8075, -7771, 3261,
  -853, -8877, -4752, -11031, 3073, -3955, -2097, 42, 10070, 3969,
  2715, 7914, -6042, -1380, -2809, 1024, -2627, -2105, 413, -414,
  -4163, -9665, -9576, -1746, 1384, 1732, -3318, -4617, -7629, 2914,
  2566, 7590, -4170, -1324, 9344, 10078, -293, 2948, -8376, 6360,
  3266, -1442, 772, -6159, 13615, -6449, 10514, -11070, -8198, 4354,
  6317, 12485, 7358, -4882, -2244, -5310, -8389, -9742, 8283, -11964,
  2750, -12451, 7941, 4376, -3618, 7763, -1101, 20765, 10716, -366,
  3492, 10217, -12951, -3189, -8800, 159, 4998, -2831, 2842, 7174,
  1971, -3968, -13681, 7124, 3687, -6467, 5199, -2079, 2605, -2532,
  14129, -3286, -11989, -12155, -4745, -1916, -9060, 5145, 11126, -5216,
  4686, -2850, -2856, -8880, -10355, -5193, -1635, 2362, 12005, -2001,
  -11059, -2698, 14176, -3782, 4617, -4451, -17903, -4643, 14255, 14241,
  -7533, 1577, 2465, -7105, -3175, 3407, -13424, -9465, -1261, -12056,
  1354, -3243, -12076, -4182, -13658, 4735, 3869, 14925, 117, 4600,
  -894, -13832, -11045, -12351, 1278, 6818, -3677, 1653, -9913, 3671,
  2300, 8926, -8017, 13756, -506, -1251, 683, -1398, 7316, 9481,
  1657, 62, 1251, 1871, -1163, -5780, 4092, -1456, 5585, 3344,
  -5634, -5880, -3827, 2754, 3482, 2830, -239, 3246, 2941, 5949,
  -663, -6877, 3555, 3453, 5456, -724, 1158, -6002, 2250, -6822,
  -5126, 7407, -3295, -2027, 4454, -215, 1639, -165, 2898, 3661,
  833, 5050, 3908, 4278, 3428, -7448, -2658, -4312, -1631, 1129,
  -5354, 2186, -3685, -4627, 723, -5775, -2092, -3562, -1343, 6967,
  420, 2390, -6898, -1949, -3340, -3622, -1662, -999, -1772, -3078,
  3, -2958, 889, 5977, 1300, 5590, -432, -3979, -1518, 1304,
  -836, -1691, 4994, 3587, 1994, -1728, 1939, 1869, -3768, -2756,
  -3574, 2232, 3841, 5553, 1189, -3888, -4388, 2416, 4658, 6707,
  -2325, 4831, -5445, 5104, -4700, -1516, 2090, -3572, 756, 431,
  -2953, -1045, 5963, 5348, -3962, 596, -933, 4641, 8415, -1491,
  -3287, 4272, 638, 2061, 5251, -2733, -2245, -3129, 5309, 2837,
  -5815, -6726, 13165, -722, 1441, 5560, 9391, -13069, 4414, 9629,
  -4819, -8227, 2392, -2783, -11160, 12537, -12600, -6929, -10270, -4695,
  -16879, -13382, 3962, -18551, 6310, 5333, -10931, 10214, 1886, -5739,
  14712, -2179, 6204, 893, 6680, 9665, -13478, -1979, -18448, 6773,
  6444, -194, 7324, 8388, 13952, 726, 14775, -5425, 9431, -6190,
  9282, 9586, 17694, 11810, 6821, -11345, -6060, -189, 5619, -9239,
  2841, -10177, -6021, 8880, 13341, -2725, -4256, 14164, -10945, 11919,
  -11126, 3207, -16147, 1426, -5078, -6665, -15977, 10420, -3862, 13960,
  -10645, -215, 1267, -9682, 7785, -7851, 320, -1647, 12493, -1444,
  -16024, 8337, 5553, -5055, 14021, 6053, 350, 5943, -11673, -7703,
  10103, -11890, -8422, 7461, -13161, -6460, 12732, -9508, 6885, -10570,
  -9937, -4191, 7683, 1230, 4407, 14253, 2452, 16868, -1374, -5600,
  7112, 5463, 5125, -1132, 7290, -2032, -4252, -5086, -5846, -4770,
  -13457, -6650, 5231, -8236, -3300, 16175, -10560, -13764, -3165, 12268,
  -1012, 8639, 12047, -9033, 13322, 9891, 6721, -1988, 20030, 17609,
  4633, 18653, -6553, -8463, 11963, -13827, -9551, 12422, -16405, -2341,
  -431, -6339, -6913, -8928, 14708, 3189, 21234, 124, 556, 4787,
  -4190, -15215, -16408, -7388, -15943, 7350, -11110, 6308, -13640, -12216,
  -16912, -16792, -9140, 7007, 354, 8646, -1624, 14302, -9056, 7804,
  4173, -13637, -16997, 2598, 634, -15840, 10880, -12085, 13772, 4977,
  16816, 4198, 1027, 2113, 15876, -7390, -942, -13697, 14120, 5219,
  5584, 8219, -8531, 5645, -2617, -1884, -15978, 5519, 19878, -2217,
  -252, 2782, -17554, 319, 4650, 2829, 11276, 13584, -11838, 15329,
  1623, -12364, 14464, 708, -10682, 12859, -6743, 11722, 15478, 8145,
  -10542, -805, -2673, -8985, 6639, -19517, -446, 6340, -5576, -2301,
  1005, -1731, -10947, -4020, 9286, 7821, -1394, -3613, 5851, -12708,
  14972, -4760, 12114, -582, -7708, 717, -20913, 5475, -1654, 12606,
  206, 8990, -7607, -4499, -13222, -10274, -1684, 2702, 18667, -3514,
  -1501, 2992, -4806, 4837, -14371, 5592, 5938, -11261, 12051, -17539,
  -2568, 5538, -5740, -3559, 1877, 15215, 17872, 7079, 5766, -5495,
  994, -12994, 4011, 2160, 7915, -5884, -4077, 3073, 6971, -1291,
  -1927, -10352, -17731, 14594, 14127, 9113, -6085, -7556, -1432, -5415,
  -4654, 1232, -9394, 5334, -3856, 9380, 4001, 16447, -5671, 8362,
  -13819, -8841, -2327, 10454, -15720, 8302, -1499, 9813, 19373, -4547,
  -4425, -13423, 203, -7003, -1083, 9063, 53, 11263, 16584, -1469,
  1663, 17788, 6922, 17573, -372, 7354, 8126, -2113, -16147, -11015,
  -4095, -13656, 9346, 7028, 8291, 2685, 3366, 870, 783, 277,
  9415, 12967, 13720, -462, 483, -7620, 5534, 7653, 11267, -4074,
  -5928, -14563, 5237, 1866, -14313, -15753, -2537, -3942, -1943, 2708,
  7876, 3645, -5960, -12062, 6539, -1202, 11688, -5211, -5559, 5837,
  9104, 16647, 5871, -10980, 3654, 799, -815, -6609, 7027, -16281,
  5441, -17911, 349, 11982, -7563, 3987, 3497, 15589, 9341, -1328,
  7036, 12101, -7456, 2590, -2916, 4927, 6970, -11131, -2020, 760,
  -1523, -1402, -17208, 8396, -1978, -10942, 3350, -8934, -982, -4807,
  9960, 5250, -9222, -5928, -11486, -2832, -10133, -709, 5585, -4770,
  2090, -6700, -1308, -11011, -5938, 2357, 1486, 7918, 9235, -5267,
  -8814, -1566, 10238, -5999, 9982, 631, -11610, -4669, 12313, 13661,
  -9909, -1734, -3200, -2789, 3124, 7903, -9536, -11132, -6924, -7191,
  6034, 4381, -10848, 2728, -17346, 10321, -1553, 9138, 3470, 212,
  -914, -9391, -12347, -9720, 8370, 11411, -7832, 1755, -8921, 6775,
  10725, 3805, -9572, 15764, -388, 759, 5825, -3917, 2423, 3990,
  7556, 3603, -4952, -5529, -9146, 3157, -2987, -3387, -10106, 7877,
  -277, -3239, 4940, 4865, -4308, 1448, 8637, -11100, 7257, 1157,
  7049, 7641, 10374, 8383, -5105, 14238, -5564, 323, 6736, -2918,
  687, -97, -8897, 1915, -6726, -1858, -6107, -6755, 7894, -1434,
  13809, -7578, -6423, -2420, -7453, -1714, -8598, 1125, -10002, 3773,
  -2954, 2822, -5097, -3785, -13768, -5355, -3695, 10041, 3904, -3662,
  -3454, 6284, 2028, 8799, 6836, -5079, -9560, 2572, 3472, -8635,
  8271, -6640, 8039, -5303, 11292, -4436, 2889, 6872, 13196, -7932,
  2420, -8792, 4583, -1716, -889, 8346, -7372, 3674, 2184, 2725,
  -7001, 78, 9836, -8931, -3530, 6469, -7892, -4611, -2559, -7684,
  10583, 3360, -3398, 5353, 8567, -5573, 8511, 6101, -9635, 7780,
  -2526, 9040, 3943, -133, -3182, -1133, -2268, -13266, -6202, -12115,
  3080, 714, -5171, -4731, -6468, 2191, -4270, 2554, -140, 2145,
  7316, 6863, -7415, 11364, -12780, 2552, -13837, 2604, 6706, -14,
  17545, -2668, -1494, -8738, 3187, -11362, 7317, 2013, 11827, 12065,
  4133, 567, -16218, 7968, -1320, -166, 5434, -2584, 11440, -5911,
  -6789, 8881, -12056, 11433, -831, -6287, 6150, 733, 3849, -14900,
  -16012, -7152, -7776, 5282, -3098, 10428, -6211, -209, -5048, 4526,
  1771, -2139, -10469, 377, 670, 11810, 13889, -13555, -11134, -4444,
  6912, 9309, 4604, 2584, -78, 231, 8120, -6310, 5957, -8330,
  -39, -15083, 8038, -9170, 10586, 9681, 7176, -10524, 12052, -8537,
  1336, -8561, -14272, 6898, -173, 10093, 1670, 6734, -784, -6978,
  2769, -12515, -12933, 4646, -3110, -14496, -6838, -16897, 5045, -5019,
  -5343, 1982, 15846, 5838, 5608, 12604, -10408, -1799, -5769, 1943,
  -2407, -2016, -672, -666, -7253, -15467, -13983, -4033, 1621, 4248,
  -5786, -7491, -11621, 4273, 3237, 11883, -5291, -1241, 14301, 15284,
  -2492, -15477, 10907, -3517, 16056, 8475, -15215, -16397, -9906, 6783,
  10488, 6644, -1639, 9752, 7969, 16917, -1459, -19655, 9004, 8399,
  14405, -3294, 3932, -17351, 5796, -19306, -13271, 20467, -8553, -4873,
  12342, 1004, 5341, -203, 7766, 10956, 529, 14050, 10519, 11972,
  10085, -20506, -6750, -11125, -3708, 2433, -15478, 6326, -9393, -13037,
  3270, -15539, -5517, -10237, -2630, 19120, 418, 5212, -19276, -6117,
  -10188, -9009, -3140, -3030, -4480, -7945, -773, -8196, 1387, 16257,
  2656, 15808, -285, -11182, -5724, 3684, -1452, -4514, 13777, 9706,
  4225, -5574, 6538, 5976, -10844, -7649, -9375, 5726, 9614, 15613,
  2264, -11697, -11464, 5739, 12699, 18426, -7853, 12578, -15696, 14091,
  -13123, -2727, 5145, -9573, 2571, -426, -8812, -4250, 16075, 14941,
  -10882, 1665, -2966, 13780, 23220, -2655, -9542, 12694, 1767, 5589,
  14610, -7517, -5552, -7980, 14766, 7613, -16162, -18479, -5969, -3038,
  -3922, 2422, 5769, 6662, -6752, -15364, 10275, -278, 12718, -6474,
  -4057, 3198, 13337, 20341, 9799, -10307, 7503, 3239, -3480, -3440,
  6764, -19452, 8666, -22408, 1406, 13921, -11877, 5941, 1528, 18903,
  9385, -3883, 11006, 14195, -4907, 80, -6254, 4820, 5786, -13482,
  -5034, 1954, -4957, -705, -21764, 11126, -3617, -14331, -395, -12123,
  -2208, -2168, 13975, 4447, -12734, -5692, -12752, -427, -9976, -2006,
  4082, -4927, 4048, -10748, 1053, -15506, -4863, 397, 5354, 7714,
  12600, -3733, -6488, -4772, 13692, -10187, 13322, -227, -15070, -2874,
  12657, 18043, -11130, -920, -5862, -3726, 6591, 6117, -13295, -11272,
  -10610, -10894, 6004, 2021, -9779, 3827, -22069, 13996, 1488, 9804,
  6826, 2802, -4402, -9285, -15887, -9039, 10929, 13454, -10292, 1704,
  -11727, 3507, 10159, 1003, -10461, 19380, -2328, -939, 4409, -3763,
  1883, 6257, 8715, 4819, -2989, -3710, -3572, -6813, 10302, -8111,
  -1381, 6618, -5623, -183, -14378, 9827, -8158, 13259, 10027, -4657,
  -1152, -6185, -5387, 1088, 8235, 10503, 10982, 12713, -8373, 6212,
  1459, 4927, -11632, 2200, -2207, -8475, 2815, -20118, -10351, -1800,
  1572, -6930, 16996, 4928, 9521, 2679, -3995, -4163, -7432, -10095,
  -6274, 5872, 7350, -3940, -8162, 1032, -8481, -4614, -5235, 2284,
  -13245, 7803, 10522, 15312, -810, 2878, 7711, -9512, -14717, 4703,
  -4918, -2649, 5226, 3699, 12784, 8297, 6116, 1132, -10778, 484,
  13054, 1274, -13178, -518, 1285, 6612, 18117, 5423, -13806, -10614,
  4449, -2943, -7369, 8479, 9243, -1049, 12559, 7515, -5010, 12010,
  2025, 6418, 12526, 9071, 7115, 1480, -4956, -16913, 4285, -5555,
  -1461, 15708, 7080, 13381, 5092, -1798, -902, -1316, 7696, -3560,
  3226, -13309, 5547, -9034, -453, 1575, 1914, -423, -9940, -10735,
  2847, 3005, -3893, -5426, -11564, 12819, -14536, 1397, -17847, 6180,
  6385, -2303, 20622, -849, -2418, -8899, 6443, -15871, 11218, 3795,
  15641, 14734, 8833, 4043, -18976, 13635, -3151, -1322, 8757, -5239,
  12190, -5246, -11199, 10337, -14991, 12254, -2723, -9410, 10160, 1146,
  9070, -18296, -19379, -7963, -10579, 3875, -6948, 11357, -10638, 1182,
  -7774, 6488, -384, -4658, -16179, -2480, -963, 16034, 16801, -15071,
  -13658, -2492, 7094, 12972, 6777, 594, -3563, 993, 10046, -10537,
  9424, -12147, 2854, -17583, 13024, -10652, 12900, 12488, 12150, -14298,
  14226, -12938, 4057, -9464, -16007, 10185, -2318, 13014, 1891, 7921,
  -3993, -7351, 7121, -16085, -15619, 6591, -6946, -17508, -7731, -20310,
  8716, -3631, -8271, 5082, 19754, 4455, 9537, 15609, -14781, 564,
  -7984, 4975, -242, -1304, -2602, -1062, -9068, -20888, -16254, -8829,
  2257, 5926, -8205, -9693, -14262, 5065, 1720, 13647, -4899, -127,
  17417, 18232, 7087, 4538, -601, 1680, -3354, -8837, 7792, 13506,
  -3405, -4054, -7156, 475, -1423, 259, -11418, -14725, -7197, 7678,
  -10624, -7405, -569, -3667, -1747, 14141, -8345, 17279, 2991, -12524,
  11517, -2217, -1561, -8015, -2999, 4794, -10768, -9383, -3746, -1314,
  2080, -5071, -2542, 13279, 8232, 1884, 7561, -1848, 15924, -8176,
  6572, 12308, 4784, 12476, 4530, -357, -7406, -6596, 7126, -1620,
  10890, -1406, 4825, 5585, 3111, 1804, -2154, 10740, -3586, 12155,
  -1840, -3043, -7830, -6698, -7035, 2009, -814, 4502, -6654, 9853,
  -12318, -2381, 5802, -423, -4375, -11599, 7337, 1762, 8760, -335,
  -10010, -3493, 7026, 6040, 11484, 5359, -5266, -3323, 2434, -6922,
  16312, -13105, -71, -1230, -8158, -1080, 5206, 1233, 11085, 1574,
  -11512, -10467, 9348, -627, 6947, -409, -8875, 5381, 6158, -13084,
  2964, 939, -3647, 2907, 2931, -1424, -8658, -5433, 3266, 4381,
  4096, 6279, -3673, 2223, -5532, -6633, 7773, 10559, 1746, -4173,
  -5552, -2084, -871, -2032, -7295, -10795, -2851, 8545, -7776, -6121,
  -4407, -1718, -1276, 10741, -5412, 12726, 5301, -11149, 7631, 543,
  -3930, -2920, -2059, 2477, -7162, -6872, -2847, -4446, -2237, -5620,
  -3479, 11694, 6098, 4151, 4848, -1743, 11034, -5242, 5871, 9115,
  1858, 10029, 3919, 2151, -2226, -8412, 2714, -2892, 10028, 779,
  4420, 5331, 3060, 1246, 272, 7147, -1749, 7540, -2013, -5983,
  -4656, -7256, -2753, 3622, 332, 1204, -2028, 5890, -9395, -3994,
  669, 914, -2842, -6428, 5892, 2955, 7005, -2138, -7630, -5363,
  2164, 5387, 8520, 551, -5665, -6506, 2435, -6882, 11284, -9881,
  3569, 1037, -5355, 2103, 1895, -110, 7112, 1058, -9733, -8527,
  7198, -571, 3526, -3488, -10072, 3921, 4910, -8914, 1099, -939,
  -5426, 3203, 3428, 1912, -8030, -4643, 5794, 6941, -4127, -11668,
  8727, -4266, 9734, 8683, -12038, -12888, -8063, 7192, 5972, 6789,
  1717, 4453, 7268, 12095, -277, -12952, 9780, 9183, 10967, 1943,
  807, -12123, 5849, -14383, -11097, 15470, -8427, -4225, 8145, -1993,
  1509, -1740, 7572, 7055, 5196, 9498, 7646, 8739, 5520, -16103,
  -7652, -9230, -5529, 3262, -11260, 4820, -8982, -10358, -1356, -13194,
  -5480, -5301, -2710, 14408, 842, 6952, -14030, -2432, -5289, -8847,
  -6007, -1172, -3198, -7974, 1716, -7011, 4174, 11997, 4986, 11002,
  -883, -6861, -46, 1274, -2138, -5213, 11340, 7657, 5092, -1817,
  1739, 3951, -7101, -5488, -9274, 5279, 10238, 9671, 2434, -6510,
  -10720, 4735, 9160, 12903, -2224, 11106, -11540, 11755, -8611, -5148,
  6060, -6530, -216, 3103, -6245, 246, 13362, 10877, -8852, 849,
  -1759, 7145, 16391, -5999, -5818, 8536, 202, 3375, 9779, -5193,
  -6175, -6680, 11302, 6455, -10998, -12991, -10907, -2394, 5936, -9922,
  -10698, 12222, -4442, -2333, -7803, 12489, -11286, 12404, 16346, -14164,
  4963, -5127, 1634, 8404, 15844, 16010, 4391, 23676, -12343, 6364,
  6840, 2555, -8855, 934, -9246, -5389, -3999, -19117, -14636, -7496,
  7952, -7665, 26767, -2909, 2254, -235, -10420, -4273, -13746, -7228,
  -14007, 8226, 4427, -1216, -11091, -1925, -19461, -7997, -7617, 11276,
  -7871, 2818, 6067, 18517, 1883, 10374, 13074, -12219, -20960, 6540,
  -958, -9436, 11746, -2190, 18115, 1887, 15001, -3506, -6735, 6977,
  23073, -6030, -9276, -7988, 4567, 3883, 14767, 12207, -18767, -6225,
  6265, 115, -12189, 7241, 16169, -9485, 7628, 12645, -10693, 6048,
  -1116, -1953, 20422, 10226, 3846, 5415, 3701, -19413, 10899, 990,
  -9780, 20370, 4265, 19681, 7156, -2366, -3097, -2259, 4885, -15215,
  -3702, -21978, 7975, -7712, -5076, -3087, -4659, 1930, -12194, -6735,
  1785, 4154, 3707, 2119, 7375, 6812, -822, 820, -7426, -9908,
  10488, 18031, -4565, -3719, -11730, 1892, 1000, -2876, -14233, -20831,
  -8536, 12782, -11584, -7524, -1425, -456, -4545, 20298, -9904, 23817,
  3629, -17448, 13748, -3117, -3789, -13135, -6626, 4786, -12900, -13947,
  -469, -3439, 1964, -7485, -5806, 17837, 8694, 2302, 7563, -1256,
  22041, -10996, 7353, 16267, 2581, 15791, 4931, 2374, -10193, -9590,
  9801, 411, 15733, 456, 9070, 5925, 856, 3620, -2370, 12686,
  -2548, 15622, 483, -5053, -7657, -10406, -9783, 4727, 3199, 4278,
  -9644, 11428, -15945, -3259, 9183, 1941, -9105, -16019, 11207, 2935,
  9851, 211, -10849, -7417, 9720, 10661, 13749, 7050, -8010, -6239,
  7032, -8234, 22454, -16813, 1745, -4357, -8949, -236, 4694, 4790,
  15331, 5503, -14774, -14892, 12213, -1327, 9755, -4237, -13934, 3484,
  9897, -18748, 2678, 105, -6717, 4684, 2214, -2077, -11905, -6848,
  6221, 7599, -10652, 23339, -22464, 3885, -28987, 1108, 16417, 7965,
  28318, -5333, -9058, -13731, 7663, -22847, 6866, -6541, 17453, 28010,
  3501, -1137, -29260, 16235, -5643, 9510, 5621, 6581, 21378, -18490,
  -6459, 14057, -23643, 12614, -6015, -9750, 5784, -5662, 9006, -28308,
  -27307, -16071, -17475, 17143, -2900, 19117, -8814, -326, 1478, 2912,
  5616, 3358, -19083, 7248, 2617, 23298, 19529, -28171, -14830, -6128,
  19690, 17584, 13497, 6390, -1579, 2821, 13446, -6129, 10404, -7755,
  1894, -28983, 12036, -21308, 13904, 20184, 16274, -17410, 16162, -10766,
  -4467, -16280, -19859, 14221, -6310, 10110, 8751, 13277, 1883, -11563,
  1337, -26749, -18047, 14259, -70, -22220, -16139, -33174, 14000, -11883,
  1093, -3602, 29270, 6675, 6789, 22561, -17229, 688, -2936, 7743,
  -10470, -10744, 4138, -2106, -7876, -30760, -31810, -7481, 8273, -1658,
  -9701, -13725, -24286, 10053, 5540, 19615, -14603, -4987, 28665, 30980,
  6961, -808, -3754, 7528, 10899, -7166, 426, -2312, 6129, -8602,
  11574, -9204, -13171, 12412, -861, 8881, -303, -10151, -9851, -10435,
  -1786, -18918, 10844, -9544, -3128, -7428, 5012, 3833, 4133, 4057,
  4904, 17089, 13199, 5209, -3586, 8957, -20769, 3950, -1292, 2228,
  9976, -1138, 9002, 4128, 9409, -5865, -8186, 3206, 6593, -1993,
  14937, 2371, 4924, -10316, 7263, 801, -6172, -14002, -5598, -8535,
  -12478, 7616, 15920, -6169, 504, 4526, -8735, -1584, -14285, 697,
  -10156, 5590, 6562, -7379, -18986, 4500, 8688, 4201, 30, -1837,
  -12634, -10270, 16863, 7821, -7694, -1116, 7386, -5358, -10025, 10229,
  -7057, -12516, 5056, -5070, 3490, 4175, -17695, -5499, -7819, -522,
  -4202, 15596, -6586, -1764, 7104, -16529, -6381, -16611, -1827, 5626,
  -442, 2270, -5773, 13637, 7351, 16313, -8793, 9960, 3946, 3105,
  6095, -3065, 8911, 4877, 1579, -1507, -5297, -4576, -4040, 12075,
  -12754, 3833, -12735, -1050, 8725, 3631, 16410, -4815, -2046, -9373,
  953, -9145, 3472, -1305, 9131, 12394, -431, -2995, -15832, 4125,
  -415, 2752, 2283, 1673, 12418, -8810, -2505, 8345, -11307, 10682,
  -41, -3926, 2240, -882, -92, -14018, -14735, -7963, -6871, 8747,
  576, 11021, -2478, -1518, -1180, 2312, 4470, 1288, -6609, 4330,
  2547, 9848, 11995, -14675, -9284, -6494, 9044, 7308, 4191, 5106,
  2875, 9, 7190, -2233, 3472, -4521, -2360, -15123, 4018, -9932,
  8868, 8888, 4152, -8130, 10590, -4712, -2321, -9032, -13457, 5109,
  658, 7194, 2779, 6751, 2721, -7375, -1597, -11669, -11167, 4581,
  1088, -12894, -7647, -16506, 3244, -7519, -1299, -1998, 14474, 7173,
  2079, 11469, -7449, -3486, -3064, 193, -5906, -4298, 2048, -558,
  -5552, -13052, -15000, -159, 2263, 1486, -4173, -6489, -11358, 4555,
  5026, 11493, -7329, -2965, 13871, 15244, 10912, -11473, 9084, 2801,
  20309, -6584, -6451, -2395, -11582, -3125, 9718, 1885, -11837, 18865,
  -6454, 5283, -10735, -18394, -9803, -6981, 13828, -20045, 8793, -7206,
  -6427, -3863, -7430, 8914, 8113, -5399, 14577, 1658, 10109, 9062,
  -7392, 5926, -17354, 16384, 13577, 8301, 14113, -6453, 8540, -7031,
  11550, -3554, -1958, -1432, 2328, -98, 19313, 376, 2577, -17986,
  -7491, 13317, 5590, -5260, -10874, -14116, -12991, 2262, 10629, -4683,
  -7122, 8011, -11072, 5645, -9658, 14497, -13640, 12556, -4928, -14180,
  -19386, 12502, -4670, 10114, -435, 6660, 4109, -13231, 12046, -3214,
  -7325, -6987, 5291, 2673, -8611, 18875, 6761, -13133, 5398, 9680,
  9185, 18614, -16772, 1421, -1467, -1386, -17314, 5299, -9003, -12827,
  13999, -9528, 292, -13165, 1790, 6484, -322, 2302, 2144, 23396,
  18606, 14347, -8003, 3678, 7959, 9075, 15142, -6319, 3028, -7509,
  6393, 489, -16955, -17516, -2918, -3053, 1237, -1033, 2119, 3983,
  -3993, -5688, 32, 2276, 2804, 990, 774, 354, 4503, 6033,
  2018, -3798, 4603, 3700, 1722, 1502, 583, -5683, 3454, -7053,
  -2534, 5806, -4792, -63, 1533, 1964, 1098, -1686, 4276, 3548,
  2119, 1519, 279, 2539, 1383, -6059, -3494, -1947, -3174, 1166,
  -6165, 3068, -3327, -4955, -1940, -5585, -2016, -589, 1652, 3761,
  -1943, 1635, -5055, 346, -1958, -3096, -1978, -765, 94, -4485,
  1510, -4688, 1185, 2447, 3265, 3292, 1814, -1536, 531, -1186,
  1676, -3653, 5168, 1640, -960, 73, 1462, 3904, -3119, -1168,
  -3836, 751, 4568, 2367, -1591, -2482, -5061, -791, 2911, 2668,
  -758, 3695, -6327, 5436, -964, -514, 3420, -613, -1735, 363,
  -4032, -222, 5304, 4621, -3997, 368, -2382, 786, 4893, -2698,
  -2630, 4898, -777, 249, 2378, -1626, -1679, -504, 3972, 2518,
  -2358, -3032, 4918, 2729, -8278, 8987, 7533, -6638, 2363, -3151,
  12636, -10141, 12514, -13051, -13315, 9841, 1950, 11019, 3939, -7508,
  -8967, -10975, -7332, -17921, 11507, -11164, -1307, -9749, 9190, 2784,
  1831, 7529, 1439, 22876, 14283, 3404, -1420, 10512, -21358, -518,
  -6773, 335, 8475, -99, 8452, 7935, 7948, -6456, -11356, 5372,
  7556, -3466, 12751, 2196, 5381, -7348, 12935, -3283, -10776, -16778,
  -4332, -6262, -12387, 9014, 17317, -6723, 3378, 2449, -7482, -4991,
  -15570, -4083, -8174, 3424, 11048, -4938, -18432, 1234, 13794, 1330,
  1029, -4710, -18827, -8981, 18592, 12436, -8187, 905, 7419, -8137,
  -9665, 7175, -12371, -12469, 4052, -10642, 1743, -876, -17862, -7415,
  -11067, 682, 610, 19099, -5035, 2319, 4133, -18820, -9414, -17651,
  -2312, 5930, -1112, 2266, -8998, 9890, 3774, 16349, -9341, 12922,
  2237, 843, 2976, -2041, 10676, 9345, 395, -1829, -1221, -132,
  6571, -5574, 3483, 2888, 11732, -4605, -2900, -1460, -4217, -3244,
  6852, -929, -8261, 11399, -3294, 4179, -5219, -10624, -6706, -5427,
  6177, -13323, 6339, -5179, -3701, -3175, -2495, 4874, 4719, -1781,
  7861, 4161, 7443, 5380, -4308, 4489, -12390, 8488, 6128, 4287,
  8646, -3139, 5944, -2496, 7397, -2846, -2426, -100, 2464, -312,
  12124, 752, 2284, -10597, -2170, 6350, 1460, -5302, -6156, -8352,
  -8587, 2611, 8235, -3474, -3310, 4748, -6988, 2419, -7476, 6937,
  -8516, 6958, -1093, -8187, -12960, 6858, -494, 5719, -320, 2719,
  -568, -8297, 9073, -47, -4957, -3484, 4094, 147, -6150, 10975,
  1860, -8650, 3634, 3627, 5030, 9593, -11440, -480, -2118, -895,
  -8985, 5628, -5624, -6440, 8066, -7781, -1035, -9538, 386, 4125,
  -162, 1563, -125, 13747, 10215, 10079, -5522, 3612, 4612, 4947,
  8353, -3599, 3285, -2568, 3226, -119, -9030, -9157, 2914, -9125,
  5184, 1317, 14090, 422, -7777, -8522, -4376, -240, 10062, 333,
  -6944, 11505, 2254, 11363, -2526, -15151, -742, -732, 8187, -10899,
  6726, -12080, 549, -11732, -5583, 11923, -1190, -1777, 9542, 6250,
  8342, 3085, 1122, 8798, -9326, 10293, 6545, 7470, 10087, -10660,
  1280, -4837, 3268, -1379, -9937, 3650, -1720, -6526, 9469, -6172,
  -462, -10908, -75, 11052, -887, -3041, -12277, -7827, -10755, -1231,
  5477, -4136, -3032, -805, -4987, -3281, -5586, 9927, -4323, 10984,
  1177, -9758, -11899, 5172, 1390, 991, 6140, 4866, -1508, -8002,
  10382, 4690, -8578, -4950, -958, 1280, -323, 13449, -144, -11470,
  -2647, 2544, 8365, 12708, -12011, 4124, -9836, 5945, -10109, 4684,
  -1288, -6995, 5753, -7095, -5980, -9447, 6945, 9618, -5097, 1867,
  -2856, 14454, 15899, 6432, -8461, 9538, 3387, 5019, 11042, -5420,
  885, -3251, 8205, 3022, -11777, -12683, -15344, 1377, -3509, -5027,
  -10631, 14709, -4699, -11622, 8234, 8218, -1216, 1426, 11394, -13858,
  15479, 9841, 12822, 5154, 18769, 14500, -6096, 19562, -5801, -7629,
  13082, -13433, -748, 6938, -17552, 3677, -7471, 2434, -5726, -11046,
  15844, 3562, 19071, -8725, -9267, -197, -7759, -9563, -15198, 403,
  -16616, 5690, -12721, 8156, -9967, -11623, -19718, -13649, -7046, 12589,
  9118, -929, -8407, 8563, -3623, 11710, 5682, -9394, -13470, 2081,
  5534, -16779, 12250, -15164, 10845, -4953, 18389, -1760, 7632, 7346,
  16699, -12370, 6908, -16439, 12610, -882, -4574, 10545, -6492, 11206,
  -1499, 2434, -13514, 167, 17770, -9041, -8437, 4544, -16249, -8825,
  -175, -7710, 11630, 8001, -13489, 13998, 10738, -6044, 15134, 8201,
  -14881, 8821, -9446, 10184, 11348, 5791, -9217, -1010, -6848, -16208,
  -2669, -17942, 252, 8350, -8039, -6375, -5960, 1050, -6809, 4082,
  4654, 5698, 7268, 6074, 11800, 135, 4008, 1937, 3665, -11772,
  5797, 14389, -9974, -4621, -5442, 2737, -4853, 6821, -15570, -15525,
  -12767, 1898, -14767, -9861, 5784, -10137, 285, 14054, -11783, 18773,
  -698, -10642, 15945, -5471, 3997, -10854, -915, 8602, -14808, -9194,
  -8790, 5272, 8633, -2271, 1929, 12143, 11620, -1623, 12206, -2798,
  18202, -10288, 7420, 14010, 11749, 13796, 5425, -6814, -12703, -1519,
  11414, -2044, 8190, -6624, 1493, 6154, 5817, 921, -5626, 14963,
  -7660, 16417, -4158, 2977, -13352, -2708, -11044, -2916, -6690, 9918,
  -10886, 14890, -13979, 628, 10277, -4835, -2138, -15614, 6143, -1003,
  11003, 1677, -13551, 2899, 11925, 2795, 14542, 11052, -2383, 3950,
  -2080, -6303, 18801, -15190, -7206, -1389, -12179, -6635, 11015, -392,
  13500, -1585, -11830, -9720, 10398, -54, 9664, 7948, -2802, 9971,
  4705, -14514, 6223, 4587, 1726, 937, 3228, -5697, -7043, -5639,
  -3111, -2200, 4696, 1981, 3467, -2079, -4773, -5239, 5309, 12856,
  -8910, 544, -10800, 6046, 3572, -2694, -11053, -16951, -8600, 8644,
  -6053, -2194, 3494, 3018, -5731, 16455, -7018, 18745, -1782, -11400,
  9634, -5463, -1001, -16386, -7860, 3316, -9184, -12170, 4619, 93,
  5449, -4039, -4839, 11123, 4162, -2189, 3920, 924, 18393, -9400,
  2629, 12117, -30, 9859, 1880, 1569, -12346, -3523, 11031, 5313,
  10531, 564, 8542, 1132, -3906, 4015, -3782, 8705, -632, 12900,
  4273, -13, -4161, -6464, -11062, 2850, 5801, 4194, -11796, 8623,
  -11116, 294, 13140, 2575, -10744, -15438, 9271, 728, 4848, 3241,
  -5118, -4749, 11729, 9618, 8517, 9759, -4627, -1310, 8532, -2753,
  18637, -11724, -1380, -8726, -5480, -2763, 3639, 8387, 13558, 7916,
  -8842, -11069, 8513, -1304, 9852, -3048, -7999, -1316, 8672, -16498,
  2189, 1089, -3404, 2920, -1691, -5618, -7282, -3892, 2256, 2700,
  9796, -11383, 14934, -3461, 12494, -5024, -4791, 5890, -22442, 3064,
  -3270, 12161, -1850, 10861, -12634, -9629, -16600, -8785, -7150, -1434,
  18903, -7251, -1056, 7674, -8767, 11142, -13087, 1185, 11348, -12057,
  12420, -19480, -2432, 8251, -10698, -6396, -1966, 15755, 19295, 5616,
  6101, -514, 5328, -12203, 8310, 775, 13677, -9034, -792, 7870,
  10939, 3980, 326, -12014, -20489, 12640, 16815, 7173, -2579, -9453,
  -995, -2427, -1727, 1364, -10500, 10445, -6493, 14503, 1818, 15947,
  -10261, 6676, -16371, -9160, -4949, 13152, -18026, 13039, -6492, 9068,
  21012, -6096, -4476, -17696, 2312, -6722, 3194, 8710, -5161, 11381,
  19176, -550, 6987, 19974, 5391, 17374, -1461, 4180, 14096, -7495,
  -17317, -10132, -8328, -14765, 12635, 5837, 12310, 1507, -1373, -2712,
  4533, 251, 11966, 14912, 11443, 3598, 2025, -12010, 7325, 8619,
  10896, -3362, -4011, -15133, 2183, -428, -14155, -15087, -13619, -7778,
  2878, -5438, 1564, 16532, -12722, -19729, 2045, 9857, 6478, 3826,
  7158, -4662, 17697, 19261, 10154, -8262, 20018, 15874, 2825, 12490,
  -1361, -17782, 14086, -23563, -7609, 18216, -19362, 911, 1323, 4823,
  -220, -8938, 17596, 10555, 13973, 1175, -1974, 7075, 436, -20187,
  -15814, -5496, -15147, 5480, -20869, 11036, -13077, -17771, -13035, -20323,
  -8653, 3622, 7275, 10392, -7749, 8533, -14937, 5348, -2616, -12201,
  -11298, -682, 2278, -18308, 8888, -17856, 8317, 5247, 15929, 8374,
  7255, -1043, 8557, -7922, 6152, -16172, 18767, 4663, -3065, 4481,
  297, 14043, -8485, -2505, -16097, 2819, 19451, 2487, -6870, -4467,
  -19825, -4954, 7544, 4551, 3156, 13372, -21604, 20081, 1043, -4761,
  15051, 1322, -10332, 5150, -14007, 4151, 18734, 14244, -14217, 339,
  -8247, -4143, 11974, -14782, -6351, 15760, -5428, -1899, 4069, -3778,
  -7962, -493, 12755, 9074, -3779, -6015, 958, 6359, -11990, 8653,
  1588, -4136, 4011, -3794, 17900, -9540, 10890, -14741, -10284, 4255,
  5332, 11479, 8482, -2577, -5436, -8804, -12503, -12309, 9652, -10886,
  1539, -10794, 12131, 1141, -1834, 10115, -3200, 24882, 12342, 211,
  1918, 10174, -16880, -5983, -12111, -2012, 4635, 890, 5548, 10739,
  4004, -5581, -13033, 7022, 6766, -4788, 6803, 1110, 4578, -1886,
  17123, -7474, -14159, -16193, -1993, -1845, -9429, 8431, 14835, -5890,
  6204, -1057, -4005, -8419, -13432, -9033, -3499, 40, 14195, -774,
  -13295, -3264, 17090, -2837, 2352, -7150, -22256, -5192, 16458, 15554,
  -7056, 3194, 5482, -9694, -6621, 1757, -16238, -9578, 1493, -15198,
  -691, -6912, -13853, -7846, -12922, 2359, 6525, 18956, -1652, 6893,
  -731, -17199, -11248, -14773, -2053, 5192, -1937, 1757, -11104, 2810,
  -1349, 12324, -7983, 13882, -489, -2193, -1538, -368, 10289, 12755,
  -981, -1650, 4101, 5347, 9739, -1170, -3793, 9148, 13770, -9861,
  956, -1350, 5943, -10734, 13388, -10617, -16363, 15839, -2774, 9043,
  -1873, -12290, -13396, -13561, -1229, -23887, 13061, -10067, -5085, -6977,
  5723, 3660, 6745, 4159, 6543, 19181, 15741, 7242, -5920, 9845,
  -25918, 5618, -308, 2633, 12342, -281, 12016, 4592, 12669, -7344,
  -7904, 2720, 8640, -968, 19376, 4232, 6410, -13301, 7178, 1136,
  -6030, -16936, -6058, -11150, -14947, 9741, 19715, -7288, -106, 7104,
  -11410, -49, -17548, 1477, -13738, 6670, 6569, -9339, -23642, 6614,
  9066, 6709, -1382, -1929, -13822, -12983, 20013, 7613, -8647, -1606,
  9960, -6087, -13474, 12811, -7026, -14864, 7624, -4697, 4066, 5777,
  -21582, -7142, -7396, -2173, -6139, 18466, -9270, -3036, 9874, -19879,
  -6199, -20154, -3336, 5805, 528, 2713, -5777, 17539, 8821, 20697,
  -10098, 10428, 5456, 4323, 7733, -3657, 10923, 5024, 1334, -2349,
  -6990, -6039, -650, 9337, -14998, 9163, -2091, -3742, 5947, -3223,
  21852, -10181, 10018, -16683, -9307, 1281, 6638, 11179, 11083, 820,
  -4671, -8791, -16428, -10145, 9035, -10188, 2549, -10573, 14942, -872,
  -3057, 12121, -6281, 26988, 11731, -1228, 3044, 9824, -15710, -9694,
  -15845, -3961, 2459, 2709, 4932, 13279, 2636, -5616, -13460, 7724,
  7348, -4794, 4207, 1668, 4797, 1180, 20071, -11003, -16448, -17074,
  220, 482, -7891, 9166, 14645, -5611, 8098, -2207, -2562, -9887,
  -13218, -12803, -1702, -2528, 16368, 1814, -11240, -5726, 19554, -4598,
  2189, -9254, -25219, -3357, 15888, 17380, -6195, 4897, 5475, -11265,
  -6177, -1641, -18971, -7981, 1132, -18418, -2657, -11212, -12206, -9247,
  -13411, 2338, 10410, 20019, -515, 9951, -3163, -17292, -12086, -13923,
  -3072, 4154, -1712, 1506, -12438, -1182, -5258, 11269, -7149, 14202,
  -1875, -4053, -4624, 863, 10988, 15473, -2613, -2141, 7787, 9316,
  -3200, -2263, -3047, 2545, 5299, 3667, -4587, -10694, 7610, -1194,
  10020, -5408, -4350, 3724, 8917, 14869, 6514, -8268, 3891, 976,
  -2450, -4656, 5905, -14327, 5496, -16083, 1454, 9952, -7552, 4433,
  1711, 14790, 7974, -1964, 7000, 10678, -5819, 611, -4311, 3565,
  5169, -9313, -2306, 1727, -2212, -1156, -15709, 7904, -1697, -9933,
  1556, -7959, -894, -2801, 10232, 3185, -9299, -5489, -9367, -1344,
  -8280, -500, 4656, -4105, 2730, -6739, -348, -10678, -5017, 447,
  2393, 5944, 9242, -3498, -6701, -2622, 10256, -6347, 9030, -334,
  -11642, -3209, 10620, 13106, -8493, -790, -3074, -3139, 3276, 5483,
  -9755, -9164, -6601, -7875, 4565, 1986, -8768, 1991, -15871, 9412,
  420, 8468, 3826, 1589, -2081, -8235, -11494, -8122, 7226, 9833,
  -7037, 1448, -8620, 4088, 7891, 2634, -8178, 14302, -1047, -195,
  3808, -2966, 2339, 4748, 6120, 3102, -2754, -3176, 2059, -16178,
  14135, -3988, 17154, 4355, -13380, -10086, -16329, 6274, 6716, 9743,
  -2059, 11751, 1010, 9027, -7649, -18410, 3908, 5687, 18331, -5479,
  2621, -10155, 875, -10233, -15149, 15956, -1927, -8401, 14263, -6819,
  3149, 3138, 1616, 5829, -534, 16882, 15580, 11297, 10102, -15713,
  -2944, -13184, 557, 2088, -6352, 1232, -7352, -6768, 6920, -10144,
  -4022, -12541, -10014, 19464, 6914, 6664, -15626, -8438, -8187, -7691,
  -2933, -1776, -7514, -1824, -3226, -457, 1676, 18597, -2138, 14638,
  -6623, -12107, -6426, 8006, -8166, 1765, 7850, 10919, 11410, -6703,
  3277, -2419, -7327, -8454, -5784, 7745, 5142, 16347, 9222, -9152,
  -5848, 12175, 11730, 20817, -6646, 11106, -6348, 7691, -16803, -5950,
  538, -13068, 6994, 1849, -1847, -2738, 11584, 10245, -6432, 1361,
  2463, 16419, 22101, -455, -6458, 4924, 4240, 7635, 15381, -7017,
  -5733, -11976, 12046, 5571, -17846, -19951, -14174, -6681, 4500, -7871,
  -2932, 16854, -11089, -15384, -1640, 12098, 374, 7661, 11590, -8863,
  14862, 12115, 8032, -2869, 20820, 17850, 3857, 18329, -5796, -10576,
  12949, -16274, -9073, 13753, -17744, -1461, -524, -3954, -5860, -9441,
  15966, 4770, 20626, -181, -475, 5148, -3689, -16502, -16936, -6885,
  -16516, 7207, -13563, 7598, -13904, -13782, -17055, -18012, -9324, 6988,
  2217, 8802, -3269, 13473, -10263, 7891, 3133, -13697, -16427, 2054,
  1268, -17049, 11043, -13893, 13150, 4667, 17459, 4840, 2659, 1906,
  15199, -8104, 838, -14927, 15538, 4986, 3570, 7988, -7086, 7830,
  -3792, -1836, -16552, 4930, 20529, -1811, -2018, 1608, -18669, -1220,
  5121, 2668, 10219, 13802, -14326, 16831, 2109, -11066, 15238, 1297,
  -11319, 11691, -8592, 10681, 16531, 9530, -11627, -635, -4100, -8858,
  7405, -19354, -1557, 8546, -5937, -2565, 1230, -2034, -10609, -3043,
  10089, 8276, -1409, -3665, -17348, -3223, 3323, -10171, -10881, 18817,
  -8527, -12064, -1170, 14408, -5984, 9770, 17456, -16298, 14727, 6273,
  9324, 5164, 23895, 21002, 1170, 27166, -10867, -4177, 13906, -10703,
  -8282, 8760, -18842, -1711, -5305, -10094, -12024, -12052, 16832, -438,
  29375, -5111, -2867, 1865, -9867, -12621, -19862, -6129, -20372, 9276,
  -8419, 5768, -15127, -11239, -24566, -16737, -10432, 13625, 758, 4529,
  -1749, 18085, -4617, 13100, 10098, -15352, -22502, 4971, 2346, -18347,
  15264, -12824, 18741, 747, 21955, -536, 878, 7302, 24405, -11342,
  -1452, -16697, 13644, 3570, 6892, 13591, -14876, 4630, 1023, 320,
  -18240, 5657, 23506, -9229, -515, 8810, -19399, -1153, 1353, -3114,
  19020, 13843, -9327, 15160, 7096, -16550, 17696, 4425, -15493, 18395,
  -5190, 18244, 14782, 4955, -9947, -1820, -1984, -17764, -63, -26008,
  3496, 2998, -8239, -5223, -4320, 620, -13123, -2874, 6830, 7696,
  4296, 2136, 3748, 4151, -3628, 3145, -1593, -5564, 5169, 6031,
  3150, -4579, -954, -3651, -3307, 1009, -4398, -4637, -1365, 3556,
  -6809, -6043, -3766, -4905, 1547, 4550, -3803, 6135, 4832, -6292,
  5339, 1573, -1837, 2410, 1607, 2428, -4972, -2266, -6162, -2494,
  -2327, -3289, -275, 7205, 5636, 3885, 4810, -2364, 4828, -2356,
  5144, 5126, 3993, 6736, 3547, -470, 765, -5589, -124, -5038,
  5256, -1002, 185, 5060, 5381, -589, 594, 5147, -2750, 3969,
  -4394, -4163, -4774, -3644, 154, 1000, -3668, 1314, 1146, 4228,
  -5757, -3232, -2941, -1405, 1950, -1854, 2017, 1863, 5937, -2793,
  -6803, -1561, -721, 777, 6244, -1344, -2999, -3790, -2170, -5661,
  5051, -6156, 1936, 4301, -4525, 1413, 2307, -3758, 2772, -2913,
  -6516, -4112, 4328, 128, 608, 200, -5168, 5837, 1161, -3162,
  1327, -189, -2482, 1471, 4222, 2735, -4847, -3253, 3001, 3902,
  -1916, 9333, -8797, 2537, -10239, -1971, 7561, 5302, 10422, -3594,
  -3552, -5842, 1226, -7126, 283, -4311, 4982, 10798, -1727, -2836,
  -11032, 3366, -1309, 5275, 198, 4979, 8908, -8810, 192, 5117,
  -8499, 4814, -1430, -2138, -292, -3018, 547, -10301, -9815, -6697,
  -5923, 8753, 1434, 7775, -876, -1026, 2783, -172, 3957, 3421,
  -4662, 5275, 2358, 7445, 6454, -11585, -4703, -3941, 8777, 5394,
  4662, 4134, 1582, 729, 4550, 209, 2302, -720, -1103, -11193,
  1957, -8600, 4392, 7046, 3963, -5082, 5556, -1643, -4010, -6662,
  -7466, 4149, -1448, 2274, 3841, 5134, 3138, -4885, -2398, -9449,
  -5965, 5172, 2639, -7617, -6555, -12426, 3874, -6223, 2751, -3906,
  10370, 3768, 306, 7893, -4653, -1119, 422, 1504, -6224, -5369,
  3263, -642, -2180, -10076, -12633, -126, 3316, -2138, -2571, -4527,
  -9012, 3922, 3523, 7434, -6906, -3022, 10652, 11770, -6926, -9667,
  11423, -9343, 486, 11059, -9769, -6493, -13968, 12311, -5192, 14018,
  11111, -4706, 3963, 369, -2673, -2747, 13518, 14549, 12303, 14836,
  -7924, -55, 5338, -2846, -13997, 8355, -7583, -8173, 4046, -17726,
  -9405, -3943, 6518, -2958, 19547, 6184, 9445, 5348, -2793, -10722,
  -11546, -11835, -9986, 7089, 428, -442, -11743, -4579, -10922, -10725,
  -7597, 2195, -10906, 11630, 8052, 17014, -6138, 3479, 5742, -12751,
  -16958, 4044, -4440, -7691, 7047, -1610, 14277, 10557, 9922, 4540,
  -8383, -744, 13938, -452, -11064, -4898, 7065, 8268, 16729, 5734,
  -12428, -6026, 1176, -4081, -11787, 9230, 14362, 941, 10330, 4967,
  -10606, 10583, 4845, 8784, 11919, 12952, 6, 7609, -5585, -17387,
  8201, -5727, -3703, 16046, 2442, 13294, 10831, 3101, -5312, -1037,
  5000, -3166, 7992, -16441, 2866, -3518, -1651, 1473, 4068, -1963,
  -11872, -10956, 7154, 5743, -6018, -8205, 1828, -6099, 1778, 2447,
  11172, 240, -5735, -8120, 198, -1602, 10098, -2431, -7000, 9437,
  3526, 11763, 146, -12467, -752, -1576, 3977, -10191, 6962, -12134,
  1329, -12100, -2261, 10147, -2106, 635, 6750, 9812, 8770, 2017,
  1994, 9168, -9806, 6781, 2587, 5642, 8645, -8872, 1368, -1867,
  2622, -1899, -11041, 4634, -576, -6698, 8007, -5396, 156, -8566,
  3571, 7474, -3755, -5093, -10441, -6123, -10179, 159, 6577, -4338,
  -1024, -1615, -4211, -4917, -6518, 6087, -3299, 8788, 3963, -7672,
  -11319, 2988, 4638, -491, 5974, 2548, -5594, -6942, 11152, 7212,
  -8306, -3284, -372, -772, -685, 10753, -3550, -10836, -2599, -1206,
  6603, 8598, -11747, 2222, -10974, 5883, -6439, 7050, -654, -3969,
  3819, -8541, -7366, -9917, 5737, 8992, -4897, 1785, -4694, 11440,
  12441, 6672, -8303, 10678, 2265, 3339, 8340, -4388, 2323, -45,
  6651, 2390, -8395, -8945, 10717, -2582, 5138, 1758, 6966, -9676,
  2606, 9817, -10083, -3701, -2058, 2770, -5740, 8826, -12607, -10195,
  -11648, -2564, -12476, -8272, 7463, -11226, 1853, 8730, -9802, 12799,
  -2451, -5658, 13132, -5349, 6097, -8037, 1218, 8080, -12184, -5537,
  -9547, 7461, 9406, 233, 4308, 7211, 9970, -2984, 11069, -2598,
  12873, -7816, 5587, 10077, 12345, 9853, 4301, -8706, -11137, 2006,
  9717, -2145, 3517, -7710, -1496, 4621, 6030, -212, -5726, 12392,
  -7730, 13116, -4691, 5507, -12345, 790, -9319, -5139, -8593, 9858,
  -9216, 12862, -10099, 2079, 8805, -6161, 653, -12225, 2965, -2311,
  8829, 2029, -11313, 6123, 10400, -597, 11457, 10386, 332, 7039,
  -4734, -3950, 13402, -11169, -9051, -359, -10559, -7698, 10884, -1864,
  9973, -3577, -7960, -5636, 7373, 421, 7629, 10641, 2096, 9856,
  1817, -9904, 6176, 5301, 4561, -704, 2680, -6029, -3601, -3856,
  -6003, -5517, 4000, 3479, -2445, 2487, -1432, -5501, 4861, 6591,
  1330, -3893, -1864, -2328, -2663, 988, -5203, -5827, -2443, 3605,
  -6732, -5553, -2443, -4282, 840, 5649, -4216, 7346, 3705, -6481,
  5871, 551, -1326, 128, 669, 2673, -5490, -3232, -5091, -1710,
  -997, -3072, -471, 7282, 5482, 2863, 4824, -1979, 6242, -3154,
  4731, 5791, 3846, 6897, 3295, -645, -1006, -4840, 1346, -3764,
  5452, -1121, 864, 4479, 4352, -134, -120, 5595, -2673, 5040,
  -3449, -3183, -4872, -3560, -1309, 846, -2884, 1916, -548, 4858,
  -6219, -2546, -827, -1202, 662, -3492, 2640, 1499, 5741, -1918,
  -6586, -1435, 952, 1491, 6440, 259, -2873, -2922, -1225, -5094,
  6472, -6653, 1061, 2733, -4707, 559, 2727, -2414, 3976, -1842,
  -6537, -4651, 4678, 9, 1742, 368, -4888, 5137, 1826, -4562,
  1579, 189, -2146, 1443, 3452, 1468, -4826, -3211, 2406, 3209,
  -12611, -12338, 5699, -5220, 8169, 17261, -16786, -24215, -387, 10237,
  11124, 4363, 4364, 483, 19106, 24827, 9130, -15557, 20371, 16130,
  6968, 8067, 1496, -23721, 14663, -29468, -10656, 24267, -20372, -63,
  5866, 7329, 3336, -7781, 18590, 14785, 10370, 6177, 1336, 10856,
  5052, -25786, -15836, -8102, -14125, 5073, -25833, 12902, -14372, -21264,
  -9084, -23792, -9271, -1275, 7130, 16061, -8085, 7689, -21059, 1833,
  -7523, -13250, -9369, -2447, 844, -19132, 6865, -19671, 6280, 10247,
  14397, 13786, 7748, -5565, 3515, -5688, 6582, -16136, 22139, 7269,
  -3357, 964, 4745, 16305, -12554, -4987, -17175, 3754, 19974, 8733,
  -6829, -9759, -21615, -3633, 11618, 10759, -2079, 15823, -26543, 23412,
  -3828, -3119, 14887, -2016, -7908, 2312, -16979, 176, 22541, 18991,
  -16957, 1144, -9525, 2469, 19712, -12440, -10264, 20384, -4048, 387,
  9349, -6368, -8054, -2306, 17018, 10778, -9480, -12204, -6164, -9027,
  2853, -1019, 9731, 9399, -11599, -17598, 1582, 4118, 11804, -64,
  -1658, 4892, 12813, 20293, 6022, -14560, 10587, 7500, 4478, -1192,
  4869, -19795, 8968, -22991, -5818, 18268, -12548, 1233, 5995, 10890,
  6962, -3456, 11520, 13386, -179, 5927, 749, 8433, 7141, -18365,
  -7762, -4341, -6376, 1456, -20697, 9992, -7673, -15405, -864, -15663,
  -4710, -4709, 7260, 11649, -7583, 483, -16683, -1892, -9680, -6548,
  -896, -3865, 626, -11559, 1584, -14046, -665, 7607, 6269, 11680,
  7498, -6614, -4361, -2182, 7408, -9563, 15334, 4542, -6522, -3061,
  9216, 13878, -11433, -3966, -9298, 841, 10272, 9859, -6995, -11244,
  -13149, -4055, 9393, 9214, -7748, 9119, -21055, 16012, -4404, 3220,
  7906, -2231, -2805, -4179, -13914, -5750, 15022, 15173, -11897, 1600,
  -8504, 6772, 16483, -2818, -10230, 17558, -1323, 1485, 8820, -5562,
  -2509, -88, 12444, 6962, -8678, -10328, 12520, 177, 3273, 2985,
  4979, -12573, 5853, 13826, -8750, -5794, -3740, 1272, -6590, 8324,
  -15363, -14011, -12446, 572, -15869, -11184, 5230, -12536, 1785, 12473,
  -11984, 17397, 174, -10008, 16208, -4687, 4471, -8130, 934, 9116,
  -15000, -7762, -11539, 5571, 8129, -1995, 3209, 11847, 12654, -873,
  13268, -3596, 16691, -9616, 8263, 13467, 13556, 13921, 6026, -8001,
  -11288, -1535, 10221, -4049, 7353, -7624, -240, 7180, 7976, 55,
  -5350, 15301, -8708, 15842, -6097, 2847, -14487, -1976, -9798, -3778,
  -9181, 10258, -9344, 15133, -13730, 266, 8158, -6129, 260, -14134,
  4987, -1070, 11846, 821, -14724, 4123, 10565, 1036, 14999, 9965,
  -1955, 4266, -4488, -7049, 17329, -14988, -7500, 908, -12854, -6611,
  11719, -2755, 12306, -3882, -11934, -8807, 10163, 248, 8620, 9568,
  -1909, 12074, 3422, -12818, 6593, 4845, 2408, 554, 4459, -4772,
  -6760, -5778, -3634, -2616, 9658, -3261, 1209, 5391, 12083, -8685,
  135, 1832, -2048, -6772, 7468, -3966, -11546, 13382, -6117, 2249,
  -6134, -9754, -11753, -10116, 3934, -18158, 8307, -3487, -6398, -249,
  774, 1602, 8456, -487, 7393, 7140, 9634, 7382, -7668, 4100,
  -18181, 7647, 4895, 2727, 9575, 897, 10146, 141, 11282, -4886,
  -349, -1228, 6181, 2481, 16184, 4987, 4784, -11985, -1088, 3373,
  897, -9653, -3711, -9994, -9810, 6412, 13034, -4361, -2938, 8395,
  -9614, 4772, -11443, 4767, -12519, 5548, -414, -8392, -17149, 8182,
  868, 8707, -3704, 800, -3368, -10275, 11846, -472, -4523, -2624,
  8276, -1885, -11244, 11143, 821, -9530, 7931, 2429, 3607, 7980,
  -14586, -4349, 133, -4560, -8520, 9662, -9068, -5885, 10297, -11701,
  0, -12954, -3636, 2233, 2363, 1820, -182, 15490, 7997, 15254,
  -5674, 2722, 5783, 5169, 7610, -3034, 6553, -620, 656, -2178,
  -7978, -7476, 3898, -11523, 18791, -10063, 3834, 1299, -5729, 7663,
  -28536, 10755, -13080, 20714, 9395, 710, -11981, -17055, -16933, -719,
  1378, 7841, 21419, 8724, -10288, 15721, -6078, 17342, -18209, -1529,
  7773, -16117, 8898, -34750, -13649, 4021, -7714, -14094, 15955, 13108,
  21157, 4088, -2065, -46, -2394, -16483, 294, 5997, 20744, -11890,
  -6807, 9541, -1650, 1603, -3969, -3805, -27506, 12730, 22648, 19642,
  1682, -2421, 9510, -9411, -15638, 6552, -11440, 6533, 907, 15990,
  14173, 16197, -1634, 2380, -22587, -3424, 11190, 9780, -26040, 9706,
  -6371, 11092, 32605, 2490, -18908, -24810, 8692, -6101, -3255, 13658,
  3650, 3397, 25958, 9963, 2438, 25167, 2973, 14760, 13603, 9428,
  20850, -6939, -14461, -23967, -2691, -13983, 6897, 20346, 17978, 15790,
  619, -7187, 4748, -1593, 17128, 3850, 6132, -10509, 9346, -20654,
  4269, 6417, 6372, -1079, -11876, -19980, 1194, 1067, -10402, -12089,
  1198, 4101, -3998, 2255, -2993, -2994, 4099, 3751, 4340, -3119,
  -894, -3351, -1497, -1051, -1678, -2637, 765, 3966, -3549, -3533,
  -4526, -1785, 697, 2880, -1543, 3485, 4492, -4722, 2289, 2133,
  -2827, 2920, 797, 598, -2192, -1396, -3082, -3644, -3657, -3059,
  -1325, 5195, 2996, 3775, 2020, -1414, 2358, -856, 3344, 2906,
  863, 4176, 2267, 1400, 2295, -5349, -1554, -3588, 4246, 768,
  865, 3380, 3161, -309, 1454, 2237, -780, 1289, -2614, -4663,
  -1724, -3584, 1474, 1990, -1098, -666, 2306, 1408, -3377, -3182,
  -3681, 185, 1060, 176, 1527, 2103, 3517, -2663, -3713, -2741,
  -2141, 1237, 3354, -2754, -2789, -4700, -480, -4121, 2451, -3536,
  3436, 3321, -1945, 2603, -83, -2398, 982, -1383, -4326, -2842,
  2578, -12, -602, -2150, -5148, 2887, 991, -1462, 17, -1149,
  -3172, 1501, 3002, 3285, -3757, -2163, 3871, 4542, -17975, -3140,
  3016, -10232, -11165, 19400, -8750, -12754, -535, 14600, -5726, 9562,
  17703, -16710, 15537, 7045, 10031, 5169, 24629, 21475, 758, 27700,
  -10880, -4858, 14518, -11632, -8152, 9225, -19665, -1375, -5592, -9463,
  -11971, -12511, 17590, 13, 29813, -5488, -3420, 1912, -10016, -13158,
  -20434, -5964, -21003, 9407, -9340, 6302, -15465, -11927, -25209, -17395,
  -10678, 14038, 1485, 4485, -2394, 18136, -4956, 13493, 10056, -15624,
  -22770, 4919, 2680, -19118, 15677, -13686, 18925, 477, 22658, -482,
  1498, 7513, 24772, -11900, -820, -17477, 14324, 3463, 6268, 13874,
  -14757, 5469, 734, 426, -18764, 5510, 24173, -9459, -1197, 8706,
  -20122, -1804, 1418, -3441, 19149, 14101, -10279, 15902, 7574, -16422,
  18324, 4844, -16104, 18389, -5889, 18323, 15329, 5412, -10452, -1818,
  -2517, -18267, -35, -26509, 3273, 3736, -8578, -5499, -4493, 605,
  -13239, -2497, 7121, 7955, 4561, 2364, 4642, -6269, 5081, 751,
  9807, -2293, -3857, -1708, -6408, -632, 4396, 1890, -4942, 8742,
  -2677, 2761, -5306, -9062, -3693, -2248, 7506, -8630, 3743, -3591,
  -2590, -2245, -4582, 4990, 3204, -3167, 7309, -300, 4318, 4058,
  -3004, 2708, -6965, 8267, 7087, 4355, 6623, -3939, 3282, -4235,
  4778, -1170, -1073, -628, 229, -447, 8440, -693, 732, -8537,
  -4304, 7201, 3157, -1345, -5747, -6478, -5890, 112, 3914, -2053,
  -3746, 3163, -4770, 2428, -3699, 7687, -5755, 6364, -2898, -6928,
  -8345, 5950, -2892, 4447, 380, 3736, 3020, -5943, 5046, -1832,
  -3543, -3620, 1704, 1863, -3036, 9231, 3913, -6022, 1711, 5357,
  4855, 9572, -7262, 1655, -871, -44, -8652, 1386, -3656, -6573,
  6401, -3465, 208, -5442, 1728, 3473, -617, 1080, 1242, 10986,
  9625, 5698, -3762, 1650, 3735, 4497, 7610, -3238, 677, -4324,
  3600, 682, -8578, -9032, -7865, -11766, 11013, -8292, 4448, 12681,
  -12696, -12022, -11621, 11918, 112, 11937, 8593, -1783, 7884, 7823,
  -305, -8104, 15154, 14943, 12421, 11755, -4785, -7453, 7645, -10899,
  -14199, 13986, -10819, -6613, 5965, -11091, -5267, -4420, 9588, 2525,
