#define M_DIM 128
#define K_DIM 3
#define N_DIM 128


static int8_t a_matrix [M_DIM*K_DIM] = {
  73, -93, 102, -127, 9, 9, 37, 75, 25, 22,
  21, -40, 55, 125, -5, 61, -66, -82, -121, 117,
  -76, -28, -20, -20, 90, 113, 85, 96, -27, -80,
  -31, -94, -46, 92, -66, -21, -98, 50, -62, 112,
  74, -52, 29, 11, -46, 15, 24, 123, -12, 46,
  59, 56, 42, 97, 85, 69, 102, 76, 108, 34,
  -39, 61, 59, -14, 10, -9, 23, 1, -74, 65,
  125, -82, 91, 9, 79, -21, 67, -25, -56, 26,
  -110, -61, -9, 65, 90, -45, 110, 107, -36, -60,
  5, -109, -49, -101, 99, 85, 48, 67, 35, 124,
  -73, -29, -8, 52, 104, -89, -5, 74, -100, -112,
  -25, 68, 84, 12, -95, 39, 69, -124, -46, -31,
  71, 86, -89, -90, -27, 118, -10, -94, 64, -64,
  -21, -110, -75, 76, -93, -123, -52, 111, -12, -125,
  -5, -58, -30, -2, -62, -81, -62, 105, -83, -108,
  -26, 42, -93, -11, -11, 11, 98, -44, -118, -107,
  108, 82, -108, -34, -113, 100, -33, 72, -17, -35,
  97, -30, 78, 102, 75, 98, 20, 108, -26, -42,
  -79, 24, -17, 73, 72, 38, -32, 115, -119, 70,
  -24, -50, -47, -61, 35, -105, -121, 6, 103, 32,
  -22, -118, 84, -49, 121, -26, 100, 95, -9, 61,
  -33, -78, 22, -3, 114, -85, -113, 24, -4, 19,
  31, 32, 60, 111, -8, -23, 9, -106, -92, -83,
  -95, 57, 72, 44, -110, -74, -74, 3, -41, 101,
  5, -106, 90, -22, 55, -90, 116, 119, 116, -44,
  117, -27, 40, 95, -35, -51, -81, 45, 69, 25,
  88, 95, -50, -90, -45, 88, 11, 108, 81, 7,
  116, 102, 44, -125, -92, 109, 39, 68, -20, -54,
  -37, 9, -80, -97, -125, 117, 15, 54, 99, 60,
  94, 28, -37, 122, 52, -98, 116, -39, 48, 97,
  27, 108, -118, 10, -26, -81, 53, 123, -13, 10,
  -35, 25, 8, 37, -48, -54, -25, -49, 35, 9,
  -24, 121, 23, -23, 21, -51, 94, 2, -23, 28,
  23, 33, 97, -126, -8, 25, 15, 56, 116, 31,
  -49, -118, 4, 21, 72, 66, 36, 24, -123, -38,
  -123, -84, 124, 76, -43, -71, 103, -47, 66, -111,
  -51, 58, -21, 87, 106, 80, -120, 2, -26, 81,
  97, -24, -127, -35, -65, 90, 12, 106, 75, -11,
  -104, 12, 6, -116,
};
static int8_t b_matrix [K_DIM*N_DIM] = {
  11, 48, 36, -68, 99, 121, -40, -68, 23, -14,
  89, -119, -76, 104, -55, -102, 56, -87, -118, 54,
  112, -4, -11, 25, 107, -6, 4, 113, 119, -71,
  -102, -67, -88, 81, -82, -123, -97, -13, 24, 24,
  41, 23, 94, 15, 81, 32, -63, 80, 7, 10,
  -21, -67, -60, 23, -103, 46, -61, -53, -88, -107,
  99, 9, -4, 6, 28, -53, 44, 94, -90, -85,
  -105, 67, -12, 69, 64, -119, 117, 122, -49, -70,
  -54, -106, 105, -97, 48, -54, 30, -50, -65, -122,
  52, -30, 57, -91, -83, 110, 62, 88, -45, 103,
  -70, -19, -106, 30, 27, 47, -12, 29, 25, 102,
  113, 12, 36, -81, 85, -117, 62, 39, 113, -22,
  -10, -53, 57, -79, 5, -1, 104, 29, -62, -22,
  -8, -108, 42, -78, 107, 29, -100, 84, -49, 9,
  111, 117, 55, -48, 90, 4, 0, -127, -107, 80,
  91, 20, 20, -51, 66, 53, 62, -93, -46, -5,
  -72, 24, 34, -67, 7, -57, 38, -90, -47, -112,
  22, -104, 61, -95, -59, 97, -120, 30, 85, 97,
  88, 93, 26, 43, 33, -96, 48, -48, 102, 48,
  103, -14, -119, -53, 35, 7, -116, 45, 118, 55,
  118, -87, -32, 81, -81, 105, 99, 69, -65, -82,
  -64, 123, 61, 103, -60, -114, -33, -66, 114, -31,
  126, -73, -6, -17, 71, -103, 54, -81, 89, 120,
  33, 22, 60, 34, 38, 0, -90, 50, 125, -1,
  -2, -78, -39, -54, -34, 114, 8, 40, -118, 46,
  -9, -108, 97, -19, 119, -91, 83, 66, 77, 123,
  -82, -127, -84, -31, -29, 24, -63, 70, 74, -74,
  91, -113, 94, -42, 17, -64, 0, -95, 109, -93,
  60, -49, 47, 126, -36, 18, 22, 112, 35, 116,
  -70, 99, -79, -2, 76, 111, -127, 114, 16, -38,
  -21, 72, 123, 76, -28, 13, -49, -43, -114, -22,
  -62, 10, -99, -82, 67, -117, 42, 73, -42, -34,
  50, 55, 19, 34, 40, 77, 117, -119, 49, -53,
  41, 100, -23, -75, 10, -23, -13, -121, 113, -101,
  120, 110, 124, -98, -57, 89, 16, -60, -102, 1,
  96, 47, 100, -59, -39, -60, -35, -62, -13, -92,
  -94, 16, 11, -35, -20, -84, 114, 0, -46, 81,
  111, -85, -54, -91, 10, -83, -109, -94, 103, -35,
  -30, 9, 29, -77,
};
static int32_t c_bias [N_DIM] = {
  82, -29, 5, -83, 115, 2, -73, 64, -47, -40,
  -110, 9, -108, -89, -49, 7, -65, -21, 46, -109,
  120, -9, 102, -63, -82, 91, -86, 102, 55, -18,
  -116, -65, 17, 34, -84, 46, 33, -50, 37, 115,
  -26, -19, 76, -66, 14, -51, -26, -82, 99, 114,
  51, 41, 123, 101, 105, 68, -30, -55, -65, 27,
  -50, 109, 76, -70, 78, -124, -3, 115, -67, 70,
  40, 29, 54, 0, 35, -19, 67, -11, 72, 113,
  36, 36, 23, 83, 7, -33, -80, -99, 57, -50,
  111, -9, -103, 85, -11, -36, 110, 115, -42, -109,
  16, 50, 34, -120, 119, -12, 12, -66, -84, 38,
  9, -33, 53, -85, 37, 113, -58, -120, -20, -22,
  2, -102, -12, 80, 98, 67, -67, 10,
};
static int32_t verify_data [M_DIM*N_DIM] = {
  -9806, 6762, 8233, 7580, 12135, 3354, 2105, 1063, -154, 746,
  1970, 16356, 7720, 5634, 11515, 9343, 6852, -6173, -5041, 3906,
  7629, 12114, -186, -7224, 3767, 2754, -4941, -7595, -16666, 11641,
  8302, 10164, 1097, 990, 13854, 4283, 2939, 4558, 5762, -11284,
  11578, -1557, -1629, 10114, -3019, 2887, -14098, -3811, -3448, -12831,
  6742, 13511, 4363, 491, -834, -1610, -2596, 1633, -730, -11156,
  4956, -7654, 5124, 3775, 1114, 13808, 74, 4694, 8513, -3808,
  2873, -2638, 538, 9821, -2348, 5628, 1368, -9039, -7398, -3447,
  675, 277, 11657, 8206, -4359, -10021, -5444, 8272, 12668, 3412,
  3373, -303, -12588, -6167, -12758, -12837, 11398, 8553, -3660, 2125,
  13532, 1008, 11362, -12093, -7471, 1189, 5104, 12705, 12368, 5304,
  -7611, -5266, -1462, 13509, 1508, -117, -13110, 1393, -13011, -167,
  -5333, 12554, -1926, -147, -11327, -3514, 2640, -7418, -3279, -115,
  9883, -2055, 7861, 5001, 493, 337, -655, 4393, 1969, 7929,
  8067, 7709, 8047, 9675, 1071, -10433, -10545, 10471, 723, 5491,
  -1737, -5477, 3895, 6231, -987, -2065, -11731, 4821, 2069, 1377,
  1921, 6543, 5383, 1559, -4689, 8223, 1153, -2705, 11553, -4329,
  2397, 7561, -2171, 5575, -8315, 4379, -2761, -5543, 6873, 11701,
  2867, 4759, 2115, 3327, 3811, 5225, 2691, -4491, -933, -1875,
  5641, 993, -99, 8867, 1823, 811, 467, -407, 9909, -4537,
  3305, 4847, 3433, 2219, 6927, -8973, -5445, 779, -4121, -603,
  7921, 6853, 573, -9911, 3007, 8363, 5481, 919, 2675, -4095,
  -11181, -8089, -4715, -3935, 10635, 8709, -1385, 3569, 5289, -2697,
  6033, -6113, 13, -1441, 765, 10893, 3795, -191, -8247, 1145,
  2177, 8225, -167, 743, -6309, -6311, -9079, 1805, 1619, 12063,
  -1925, -4481, -9069, 4337, 657, -11075, -4116, 634, 9158, -1762,
  7705, 7036, -1769, -3241, -2144, 6685, 1704, 7881, 8262, 5508,
  8997, 10071, 1513, -11924, -10939, 11770, 936, 5097, -2047, -5209,
  1140, 4854, -3007, -4096, -11376, 6486, 988, 1635, 5108, 7281,
  5731, 1677, -5468, 10399, 2041, -4085, 11737, -4590, 3969, 8110,
  -196, 8045, -8817, 4419, -2589, -5440, 6418, 11828, 1148, 4075,
  506, 3830, 3717, 5286, 453, -3849, -2372, -2132, 5016, 594,
  -1107, 9486, 2324, -890, -74, -1630, 10919, -3049, 1686, 3429,
  3948, 2182, 8918, -10389, -3427, 2106, -2728, 1633, 8877, 5356,
  -704, -10677, 3361, 6154, 5157, 2735, 2989, -2223, -11478, -6813,
  -6382, -4291, 11345, 8453, -2118, -150, 6044, -3994, 5559, -7126,
  -754, 915, -912, 9960, 5159, 2109, -9807, 1799, 987, 7522,
  3334, -263, -7730, -6434, -7584, 4867, 2557, 11615, 1640, -3866,
  -9295, 4417, 387, -11903, -21922, 18688, 3736, 23508, 18229, 2782,
  1295, -2969, -1702, -2743, 1138, 29421, 6680, -1458, 17765, 8531,
  16513, -1134, 3525, -5972, 18846, 21849, 1625, -9901, -710, -5472,
  -14515, -19730, -24206, 24500, 16614, 24507, 3558, -7815, 27631, 8461,
  14234, 723, 14093, -27529, 10989, 2436, -6627, 14340, -2058, 1165,
  -24329, -17801, -4625, -24838, 5232, 15774, 3994, -8041, -8332, -9584,
  -13811, -4804, -9875, -21457, 12346, -17818, 2802, 7376, 1361, 22000,
  -2598, 8360, 20600, -11424, -8145, 2283, -6724, 15493, -11698, 10696,
  -5776, -11073, -8059, -9036, 10214, 4365, 18361, 7734, -14606, -11213,
  -19383, 4404, 23425, 9523, 4437, 8229, -15228, -1345, -28424, -28183,
  12769, 7193, -8724, -5800, 27486, 5072, 18839, -23428, -21204, 8351,
  9554, 13578, 27747, 17049, -8715, -15369, -9533, 20512, 8588, -3311,
  -26336, 13764, -17478, 243, -15963, 11859, 2558, 7600, -15359, -16891,
  5115, -2451, 16672, -15470, 3673, -19128, -9360, -3592, 3972, 9754,
  4096, -261, 788, -17951, -1292, 9480, -11152, -2294, -12631, -1155,
  -6924, 7170, -14093, -12769, -1317, 4327, 8153, 10102, 14628, 18035,
  11808, -19247, -9140, -18113, -8021, 7747, -18663, -5688, -11299, -739,
  -11673, 22263, -2785, -3305, 3124, -8010, -3377, -2972, 15317, 15588,
  1899, 15847, 518, -6191, 2021, 9906, 10686, 7962, 12581, 6201,
  13399, 12739, -6694, 13112, 2078, -4109, 1099, -13260, 1976, -2310,
  -14015, 10984, 9108, -6823, 10086, -6246, 9578, -6728, 3876, 6880,
  -573, 4629, -12383, -7954, -11674, 732, 13967, 5210, 15465, 5416,
  -14099, -10229, -2510, -11846, 6652, -5424, 22522, 20080, -5637, -450,
  7484, 13761, -19422, -2388, -10079, 16759, 17617, -11604, -3278, -2801,
  -21585, -17407, 5758, 10925, 10773, -9791, -13464, 5020, 19670, -13071,
  5763, -5336, 11032, -1911, -9932, -9027, 7650, 14803, -2837, -1821,
  14130, -11974, 5219, -9960, -4235, -16902, 18083, 30101, 12798, -17170,
  2082, -8804, -3240, 18762, -12995, -5415, -8736, 12273, 1881, -7874,
  -7673, -3598, 2150, 1164, 22845, 13390, 21305, 23079, 4966, -21105,
  3550, -9884, -26561, -2882, -11498, -3443, 1657, -17242, -11530, 20384,
  -4450, 1393, -10151, -8646, -15077, -19855, 12042, 5971, 292, 7431,
  2438, -5567, 12897, 8597, 16058, -518, 5712, 1535, 21662, 2004,
  7740, 8146, 4568, 1065, 7926, -11696, -2866, 11234, -2181, 13876,
  -4845, -12670, 15650, 6739, 88, -2908, -13648, 15007, -13558, -7437,
  -14511, -19249, -13245, 10014, 15399, 9777, 3912, 16912, -4684, -17512,
  -3653, -17717, 7276, -9889, 22922, 12297, -9314, 251, 8996, 32291,
  -14736, 8936, -1938, 15945, 13447, -21565, 10644, 3679, -19788, -23944,
  15415, 98, 13078, -565, -30832, 9485, 20190, -3537, -6357, -24461,
  -1979, 378, -29418, -7385, 6823, 5346, 760, 7338, 10659, -6981,
  -12196, -8863, -15850, -281, -7304, -8674, -2857, 3532, -3121, -20920,
  -9612, -11867, -12827, -11295, -7763, 5040, 5861, -2674, -9190, -16221,
  -375, 9757, -10516, -6526, 2070, 5412, 21993, -11409, -12719, -12298,
  5007, -19, -16885, -5223, -5136, -1621, -5492, 11383, -14596, 1538,
  5114, -11871, 7845, 1169, 16904, 4653, 4731, 16447, -9667, -17139,
  -9114, -2225, -2352, 2878, 2879, -2155, -3785, 15408, -9146, 9093,
  -7941, -5619, -3486, -16404, 820, -9416, -11824, 2253, -1948, 6463,
  -4135, -15411, 3823, -7248, 2046, 8729, 13539, 6952, 2104, 4190,
  -12988, -13623, 2797, 11318, 7389, -15212, -16772, -649, -3725, 4304,
  15536, 10583, 12719, 15460, -13265, -11598, 3102, -10411, -15649, -3846,
  -15462, 13270, 7755, 3323, -9879, -18259, -12895, -1992, 6620, 7846,
  -714, -18699, 5209, -1971, 13720, -1803, 19639, 6340, 8491, -17125,
  9706, 1562, 14023, 4364, -3922, 7974, -533, 3137, -9620, 4735,
  -5451, -1289, -3599, -5813, -1749, -941, -2053, -4189, -6332, -10335,
  -4062, -7304, 1390, 7166, 9346, -8226, 1616, -3272, 1290, 4316,
  -7606, -8218, -3555, -3138, 8617, 601, -1715, 1679, 3255, -5674,
  -1494, -362, 4598, -4218, 1711, -2426, -9057, 3794, -583, -4561,
  4617, -1346, 4265, -5768, 2266, 2579, -6345, -8775, -4680, -6146,
  -5124, -3286, -5032, -5149, -6720, 2761, 40, -535, -5729, -713,
  -1235, -4844, -1198, -2336, 936, -2601, -8363, 6506, -6049, -4838,
  -3585, -952, -3990, 4916, 7020, 276, 6818, 4245, -3877, -7579,
  -3899, 6695, -4234, -10328, -2997, 2794, -1508, 7283, 8108, 9038,
  -1115, 107, -7276, -7515, -722, -9241, -833, 1086, -4193, 1622,
  -3339, 5594, -2135, -9811, 1432, 5287, 4295, -1693, -4697, -6337,
  6127, -2482, 904, 6971, 8571, 2833, -1772, -10346, 7184, 5742,
  6284, -5577, -457, 8573, -2419, 2909, 2398, 7307, 5108, -10195,
  11554, 16588, 7033, -13193, 1317, 8401, -631, 8425, -526, -1402,
  3359, 9792, 6038, -11017, 5374, 8137, 2673, -3141, 12396, 3391,
  5328, 3874, -6843, -880, 10605, 6925, -14776, -7871, 6509, 2058,
  10072, -12435, 319, -1829, -9, 3388, -10472, 393, -9688, -13034,
  -3573, -7308, -1569, -7440, 2373, 1874, 9196, -506, 4623, -6485,
  -5133, -3172, 7029, -9199, 11681, -4223, 2695, 4370, 5579, 2337,
  -3685, 11143, 9742, 2327, -10198, -5191, 4913, 11148, -7297, 3413,
  -13419, 5632, -11103, -9674, -2112, -9174, -318, 8349, 1244, 2640,
  -9033, 10305, 8337, -5741, -576, -5150, -707, -4468, -203, -6756,
  -1739, 1590, 1105, 15464, 4487, 8949, 7355, -1332, -3376, -8176,
  11447, 6532, 1979, -5243, 6958, -8641, 2139, 8480, -14045, 3746,
  -277, 7116, -10820, -15270, -10362, 3257, -15969, 902, -1652, -7181,
  3049, 6255, 2370, -3034, -1576, -6902, -4354, 8498, -9570, -13582,
  -5838, 11088, -1078, -7388, 714, -6494, 294, 1386, -3268, -8696,
  -5762, 9758, -5012, -7088, -2424, 2472, -10000, -2330, -4074, -2788,
  5570, 192, -9158, -6416, 12052, 7000, -5932, -1930, -9048, 10588,
  -696, 2088, 280, -3188, 8854, -386, 7804, 10910, 3092, 6710,
  1184, 6444, -1778, -1400, -7576, 858, -3498, 5726, 4772, 2976,
  -5392, 7848, -10090, 3810, -2042, -3828, -4704, -2134, 3130, -9426,
  -8664, -1670, 9118, 3844, -3714, -9406, 6462, -3070, 11514, -4898,
  8952, 8176, 1104, 7282, 98, -6758, -628, -2494, 8092, -8174,
  -7300, 4400, 418, 3658, 298, 3150, 662, 6078, 1592, -1086,
  -806, -12384, -4274, -7734, -6324, 1356, 3328, 6294, -9714, -5204,
  -2312, 3700, -6014, 7540, -1420, -7168, 11178, -3010, 566, -6704,
  8788, 12550, 8998, -2396, 12834, -1312, 1202, 6576, -2696, -5792,
  8354, -8086, 5650, -7598, -1178, -9018, 10890, 18262, 7498, -9135,
  1654, -4349, -73, 13416, -6393, -1009, -5718, 4436, -2045, -1709,
  -5264, -1594, 644, -546, 14788, 9919, 13034, 14006, 560, -12445,
  1968, -6635, -15733, 280, -6614, -2077, -964, -8246, -7287, 12504,
  1, -566, -5306, -3772, -9727, -10577, 5785, 5405, -520, 3795,
  3076, -817, 8318, 6717, 10493, 879, 4936, 2461, 14094, 683,
  3825, 4976, 4112, 527, 4595, -5545, -1227, 6573, -2090, 8594,
  46, -9102, 10516, 4709, 1356, -1657, -6187, 6877, -9490, -4026,
  -10404, -12056, -6602, 7544, 9909, 3466, 3842, 12255, -2313, -10784,
  -1737, -12254, 1759, -8273, 13510, 7308, -3258, 2192, 5273, 20593,
  -8588, 4337, -325, 8718, 8831, -13841, 6158, 4621, -12062, -15265,
  7234, 867, 8759, 1049, -19086, 5951, 11337, -4531, -5793, -14370,
  -231, 3022, -18489, -6104, 2079, 4981, 337, 1331, -13772, 13650,
  -7488, 15882, 4423, 6272, -8731, -16323, -6584, 4550, -1828, 11204,
  -911, -14898, 8454, -128, 10385, 288, 7410, -5339, 11036, 7129,
  755, -1013, -14128, -12907, -15805, -18106, -4646, 17323, 3686, 14012,
  13385, -6001, 13471, 4162, 8064, 3499, 10730, -19531, -830, 3152,
  791, 5220, 8075, 6702, -10432, -13046, -203, -10163, -3536, 1577,
  -6610, -10618, -12709, -5795, -10921, -6103, -16491, -6782, 1829, -10050,
  -4778, 1855, -3284, 9001, -803, -2665, 9196, -11242, -7359, 10195,
  -12628, -164, -7026, 4377, -85, -6070, 7013, -480, 14068, 11737,
  8903, -6258, -13933, -2923, -11775, -12019, 8316, 11985, 1898, 14831,
  -2491, 9656, -19842, -14987, 2905, -2851, -7085, -20671, 15078, -577,
  4726, -13436, -15289, 15056, -1856, -3373, 18663, 18964, -5785, -7034,
  -11762, 3297, 18914, -6510, -16597, 11505, 1977, 11069, -6556, -3201,
  16903, 9706, -3698, -12338, 1304, 2616, -4546, 3186, -5085, -816,
  -2605, 14674, -16943, -26121, -11110, 17053, -2222, -2951, 1151, -15528,
  5526, 2582, 1282, -12117, -4602, 10721, -659, -4936, -2954, 2078,
  -20009, -9251, -13709, -13361, 3572, 9746, -9740, -845, 22702, 6442,
  -124, -214, -7941, 16220, 4789, -7880, 965, -2927, 12007, 2904,
  14044, 18066, -2339, 2162, 1100, 2390, -3556, 76, -13031, -4076,
  -11045, 4601, 724, 1072, -15420, 6077, -12203, -600, -4666, -3928,
  -7861, 2759, 3731, -13541, -6361, -8156, 8781, 9824, -11168, -11818,
  4914, -1509, 15409, -10418, 14656, 10311, 8363, 15443, 5497, -11412,
  -8132, -5753, 4482, -16121, -4587, 12000, 1732, 12061, -2045, 8308,
  -10074, -463, 4532, -2129, -4951, -26552, 2850, -10595, -5161, -5947,
  -3794, 15832, -13492, -7508, 7122, 14657, -11639, 6083, -7861, -6792,
  24280, -7290, -8645, -3264, 11454, 22117, 8260, -3684, 25193, 2921,
  -1312, 2357, -2789, -7209, 20985, -20579, 2956, -28017, -14440, 2709,
  -3422, -20, -243, 8674, -123, -26866, -948, 5607, -12703, -1527,
  -17463, -8844, -13119, 16298, -20590, -20669, -3731, 6741, 1128, 9710,
  13384, 18360, 17819, -22215, -18229, -26380, 437, 14633, -26545, -8323,
  -20764, 7783, -14246, 27235, -2966, -6706, 10724, -9633, 2255, 5413,
  19914, 23429, 2927, 23325, -917, -8281, -4002, 12067, 9352, 13778,
  18351, 9523, 10951, 20898, -16218, 18071, 649, -8061, -2772, -17116,
  4696, -10568, -23496, 11147, 18006, -5021, 8503, -15031, 16253, -10448,
  13858, 3593, 6379, 11880, -13692, -3440, -13470, -4749, 15471, 3612,
  24393, -460, -22382, -8405, -2701, -10978, 7544, -4037, 26329, 27954,
  -5209, -1436, 7786, 5659, -26067, -9338, -16920, 20202, 22925, -8489,
  -11925, -7489, -26991, -17306, 1394, 18652, 11156, -17237, -6617, 3169,
  22920, -20925, 13509, 3950, 19979, -4137, -1206, -11794, 9479, 22410,
  -5668, -7248, -7915, 5641, -535, 3161, 3339, 12281, -11749, -19129,
  -8379, 12854, -863, 5104, 4022, -9477, 9132, 5768, 4175, -11369,
  -5176, 9210, 3115, 1739, -2199, -1553, -13481, -6050, -12609, -13551,
  -4549, 12578, -3469, 4150, 17430, 4861, 6195, 1784, -4241, 13803,
  6278, -11167, 5502, -2663, 8059, 6523, 9228, 14564, -7982, -514,
  -655, -4010, 99, 5754, -7887, -3154, -8844, 2446, -971, 1228,
  -12117, -508, -6724, -4013, -1429, -1210, -5368, 8102, 2704, -7972,
  -723, -7935, 7295, 6403, -8357, -4486, 2319, 1414, 11748, -11570,
  7803, 6021, 6871, 11757, 9187, -5093, -8248, -8477, 535, -8698,
  2268, 10577, 2732, 9175, -6842, 3808, -13387, -6263, 8155, 1917,
  -5392, -19160, 8279, -7296, 1172, -9875, -6450, 12544, -7735, -272,
  11027, 13556, -11849, 1948, -6760, 832, 18953, -5588, -12376, -1364,
  2946, 16391, 3518, 2447, 18106, 2415, -5828, -222, -878, -8240,
  -1358, 7480, -17186, 15416, -7255, -15294, 6347, 8431, 5038, -17509,
  -2802, -2117, -14516, -10750, -11151, -17645, 4743, 26384, 25721, -29284,
  7336, 363, 5555, 6133, -528, -12008, 905, 648, 12182, -2942,
  7138, 8629, -11672, -20093, 1301, 617, 19608, -23679, 2039, -3799,
  -19833, 11398, -13031, -10636, -2096, -18623, 7293, -18373, 3209, -716,
  -10752, -17588, 984, -12169, -3892, -13360, -14757, -13750, -4049, -2879,
  12522, -4038, -8814, 2818, 3955, -9820, -6618, 7544, 10990, -1148,
  -28309, 6609, -5620, 1589, -14682, 772, -23596, 18043, 1823, -10030,
  9964, -3027, -10599, -6382, -4692, 18075, -17137, -9200, 967, -2483,
  -4379, 7501, 17416, 13067, 928, -4499, -18517, -14311, 864, 470,
  230, 12260, -2075, 4510, -8294, 419, 8170, -13820, 1781, 2247,
  18085, -12003, -5863, -5282, -5584, -203, 4680, 20930, 6476, -12713,
  -14159, -18631, -5006, 11726, 12593, -17945, 2029, 25151, 2169, -6803,
  10243, -14727, 1961, 16209, -11063, -15395, -7575, 19429, 1065, -3403,
  10179, 2373, 7859, 12759, -5205, -23697, -21069, 26183, -8125, -4961,
  -5405, -2481, -6873, 6119, -3815, -2817, -4507, 2493, -11011, -9883,
  16385, 18107, -4645, -1669, -19201, 23203, -1619, 3475, 13453, -9793,
  14801, 6969, 6917, 20107, -3063, 16583, -1381, 4617, 5881, 10853,
  -6045, 8467, -125, 12719, 12879, 11089, -1409, 7113, -15309, 5045,
  4369, -4503, -5991, 5315, 6535, -11621, -13125, -679, 25041, -1589,
  889, -7549, 14081, -2549, 23695, -15649, 5047, 12291, -5625, 7273,
  7365, -531, 2349, -13947, 16731, 251, -5483, 4939, 3239, -2203,
  -11581, -6413, -683, 6789, 13559, 8761, -1337, -9335, -2751, -13577,
  -2859, -2457, 7445, 4363, -12219, 5597, -2361, 1453, -16435, 13021,
  2645, -1319, 11833, -2117, -3189, -18399, 1689, 17369, 15479, 10755,
  12531, -8569, -7753, 16221, -3211, -20823, -2714, 5924, -11877, 9538,
  -4800, -4490, -1512, -3258, -514, -5187, -2358, -1577, -8228, -11422,
  -4578, -9620, 3625, 12039, 14122, -14358, 4621, -873, 2455, 4155,
  -6669, -10274, -4100, -4255, 7970, 1849, 1574, 5461, 255, -10217,
  1341, 494, 9607, -9095, 3057, -5361, -11399, 6001, -4172, -5172,
  3159, -5454, 3147, -10750, 2195, -189, -7484, -10227, -3445, -8784,
  -6014, -6782, -8943, -8035, -7529, -251, 3946, -2990, -6720, 619,
  -71, -4564, -2848, 438, 5051, -3510, -14432, 7157, -7060, -2452,
  -7524, 224, -9440, 7342, 5587, -2953, 8883, 3178, -4242, -7290,
  -5705, 8838, -9303, -10552, -365, 2523, -1984, 8530, 9532, 10490,
  -3228, -3444, -9437, -9134, -1224, -8251, 1636, 4144, -2477, 345,
  -6639, 5462, 856, -10409, 3931, 6375, 7030, -5617, -6217, -4891,
  4530, -2494, -470, 11877, 7175, -628, -6238, -12131, 5040, 8163,
  6856, -10411, 457, 12825, -9945, 11785, -10817, 15457, 480, 599,
  -5170, -10334, -3669, -1054, -2245, 6602, -5067, -14585, 2608, -5418,
  8582, 7597, 12760, -11907, 9677, 4506, 2066, 1488, -11203, -13135,
  -11344, -12931, 1107, 11475, 3959, 12056, 7157, -9790, 9432, 3000,
  10981, -3780, 8246, -14836, -6714, 5519, -2560, 397, 5933, 112,
  -4792, -14298, 1020, -6759, -6015, -4471, -5131, -11230, -10579, -7671,
  -11854, -8293, -13514, -4884, 4223, -7985, -6321, 1851, -1542, 3165,
  -2277, -463, 9135, -8491, -13106, 9756, -11083, -540, -8885, 3085,
  -6211, 854, 6518, -2597, 13281, 8196, 3080, -7097, -11407, 3350,
  -12866, -12223, 5518, 8248, 68, 13316, 3737, 11318, -13727, -11412,
  -3510, -6568, -4815, -15793, 10411, 2669, 2112, -7977, -13093, 11534,
  279, -7207, 13648, 14622, 956, -7944, -10308, 7, 12905, -4964,
  -10255, 14083, 4369, 5234, -8128, -8300, 11823, 10479, 1464, -13674,
  1328, 9166, 889, 117, 3650, 5403, 4270, -15355, 16900, 25322,
  10725, -18650, 1845, 6694, -1688, 13559, -3993, -3089, 1385, 13750,
  7119, -14102, 3832, 7743, 3393, -3067, 18930, 6814, 10998, 9886,
  -6013, -6329, 12243, 4948, -22645, -9395, 4027, 1283, 11318, -17917,
  -2594, 3067, -1378, 4024, -13934, -1913, -14227, -19165, -786, -6553,
  -1633, -6157, 2987, 377, 13024, 1441, 8880, -7254, -4257, -3199,
  12859, -9422, 14498, -2569, 3885, 4909, 7936, -592, -4784, 14752,
  9918, 5903, -12456, -8729, 9071, 13571, -7983, 2868, -18066, 9907,
  -15321, -12370, -5866, -14734, -3828, 11323, 5093, 5394, -8903, 15120,
  7690, -10621, -1635, -9944, 1180, -7195, 5489, -4240, -4437, 1566,
  3390, 24593, 1041, 11874, 7300, 2564, -373, -14215, 14935, 7717,
  -2895, -11658, 11428, -9392, 5456, 8817, -22877, 6327, 4760, 6865,
  -13165, -22656, -11775, 3339, -24574, -836, 9, -6570, 3412, 8716,
  1448, -3448, 13791, -2334, 9153, -7004, 14215, 21681, 8484, -9293,
  3756, 9015, 6815, 20326, 2770, 7166, -638, -397, -6798, 1989,
  489, 8540, 662, -6614, 20151, 13953, 10817, 9695, -13390, -4132,
  9274, 1041, -16588, 1650, 4284, 1406, 1235, -4980, -3293, 4960,
  10227, -1959, -7011, 4562, -13378, -9114, -5217, 3410, -3364, -6284,
  9510, 10886, 13277, 8416, 11459, 37, 3840, 4566, 15640, -8377,
  8485, -538, 9296, 3902, 6269, 5639, -1049, 11467, 4779, 6758,
  3099, -12488, 12666, 13754, -20, 3011, -5323, 102, -16852, -7133,
  -11237, -13239, 2643, 15746, 7846, -4599, 242, 21199, 8179, -9168,
  1108, -14121, -8685, -14616, 4788, -2237, 6352, 10085, 3077, 25350,
  1788, 5753, 9389, -155, 4064, -14556, 11330, 16326, -3162, -12745,
  1707, -3071, 8993, 12806, -20150, 6842, 1963, -4138, -17444, -16085,
  -4340, 14460, -22367, -7071, -7184, 3171, 2745, -4951, 12514, -9032,
  -8652, -10676, -14405, -2990, -2847, -1599, 6, 423, -2098, -20109,
  -8324, -5814, -13409, -10103, -8885, 5714, 4255, -2432, -10050, -14997,
  -109, 8561, -4294, -2196, 6371, 9702, 19814, -14324, -10750, -13323,
  -590, 483, -17315, -5305, -5142, -3799, -7341, 14613, -12685, 1104,
  3075, -11668, 3850, -2169, 17105, 6389, 4109, 16142, -7360, -15278,
  -5262, 573, 1616, 3180, 4583, -788, 1559, 14185, -6998, 10002,
  -5490, -4808, -1529, -16348, 514, -6228, -11388, 5056, -1199, 2689,
  52, -12145, 4210, -6980, 188, 9981, 8975, 5112, -1714, -205,
  -13633, -9454, 6046, 11141, 8291, -9232, -15745, -4119, -3769, -333,
  14352, 6565, 16080, 16511, -12621, -9337, 4656, -2240, -16862, -2068,
  -13847, 14888, 10180, -1643, -6794, -14490, -15599, -6921, 8211, 7609,
  2525, -16232, -1644, 355, 16180, -3388, 15630, 1085, 7847, -13943,
  2582, -764, 13179, 5979, -3339, 7307, -3706, 206, 4590, -5786,
  2770, 17274, -14218, -21726, -9810, 19553, -22, 939, 7871, -5788,
  10071, 10367, -18, -19992, -14237, 20251, -2364, -2006, -4224, -1742,
  -13384, -1161, -10554, -10526, -4308, 9731, -8660, -2715, 21227, 13092,
  1246, 291, -13136, 21950, 3449, -5260, 10385, -6762, 13842, 7824,
  10649, 20991, -6199, 8757, -780, 595, 2864, 9071, -8966, 2309,
  -6195, 8711, 6404, 6757, -9230, 4307, -13023, 460, 1084, -3313,
  -6901, 7839, 5541, -11971, -7806, -5626, 18346, 4134, -5408, -7683,
  9384, -529, 20949, -15723, 8946, 11186, 2128, 12428, 9842, -4332,
  -4227, -12538, 9702, -6521, -1937, 10140, 3607, 5646, -9945, -17,
  -8934, 112, 12362, 5556, -4151, -18647, 3760, -12255, -1261, -7382,
  -49, 11407, -12142, 2037, 6022, 10327, -16434, 8763, -3201, -847,
  19910, -4945, -9495, -10539, 4079, 21082, 11185, 6706, 19903, -2564,
  -7297, 8757, -2319, -16149, 10575, -7853, -4350, -7763, -9522, -7153,
  3652, 7722, 3707, -5477, -801, -13607, -6321, 1251, -11576, -8064,
  -7045, 7892, 4228, -5175, -7250, -9247, 777, 5299, 3768, 1705,
  9282, 11578, 12847, -13824, -4593, -9575, -8260, -1703, -12615, -3872,
  -1332, -8159, -7109, 13291, -9341, 1564, -1862, -9409, -2164, -7692,
  13011, 4042, 2455, 10780, -4037, -10942, 616, 1912, 4977, 797,
  3183, -844, 6461, 8109, -1093, 7419, -2323, -2250, 1479, -12761,
  -927, 1, -6286, 6425, -3620, -1659, 3911, -4802, 1453, -4637,
  -4989, 10510, 1281, 162, -4388, -5576, -11736, -2881, 7184, 9726,
  4595, -1041, -9919, -7221, -3366, -4640, 10771, 1586, 15051, 12094,
  -10555, -5916, 4991, 7520, -13307, 1923, -8301, 12700, 8720, -6802,
  -435, -7784, -13901, -10243, 9652, 3471, 4555, -9416, -9659, 2704,
  14573, -1708, 7152, -6828, 2916, -8651, -6923, -1830, 9734, 3671,
  -1571, 7355, 4149, -8613, 14552, -14371, 4661, 8101, -983, 83,
  -1147, 9772, 2585, -382, 10563, 12553, 5743, 12525, -5744, -17976,
  -19789, 21077, -7534, -1158, -3942, -4622, 5468, 12329, 3993, 4590,
  -8511, -2502, -4859, -9040, 3096, 15002, -3664, -1329, -15048, 14588,
  -4256, 7462, 14456, -8686, 7841, 6315, -1824, 10043, -3094, 15639,
  -2526, 2140, 8891, 12450, 2052, 11377, 6573, 10261, 12752, 11030,
  7954, 2616, -8135, 4905, 7851, -2040, -1392, 4995, 4459, -3455,
  -9160, 3933, 20993, -8096, 7835, 201, 11431, -1329, 15327, -10837,
  -4554, 6100, -11132, -2029, 5255, 7173, 7048, -12037, 14208, 10927,
  -1874, -2062, 2533, -9925, -12085, -12529, 4331, 6193, 12334, 11187,
  1263, 6806, -3553, -7665, 1122, -38, 9426, -5245, -4077, 11576,
  -5902, -7206, -10777, 9334, 7446, 3942, -2627, 2211, 781, -17250,
  -6584, 4381, 10555, 14600, -2765, -10912, -8411, 15164, -1492, -18120,
  358, 1708, -2831, 5238, -450, -8494, 7062, 10324, 4798, -10014,
  38, 1414, -3953, 1956, -4033, -5171, 1493, 10839, 8487, -11307,
  2869, 2435, 2517, 715, 6107, -467, 4062, 3707, 1380, -2918,
  5560, 3466, -9992, -7583, 1389, 579, 8255, -11287, -402, 549,
  -5170, 4099, -7382, -3198, -4934, -10493, 1904, -6135, 417, -1724,
  -1534, -4130, 4505, -2205, 2163, -5271, -4585, -4116, 3427, -3332,
  7619, -1444, -754, 2284, 3604, -2673, -2959, 6567, 5677, 1894,
  -10518, -1147, 1794, 4683, -5794, 1099, -11235, 7741, -4281, -6135,
  475, -5398, -3856, 2160, 830, 6296, -6579, 2755, 2542, -4007,
  -1499, -1400, 4831, 927, 2464, -1964, -5865, -2862, 1529, 8232,
  174, 6801, 1750, 2311, -1706, -4461, 6760, -842, -729, -3310,
  8212, -5566, 606, 1456, -8682, 2155, 3095, 7140, -2364, -10202,
  -6839, -3375, -9017, 2547, 3309, -6050, 1642, 8940, 623, -2567,
  2179, -6679, -864, 9431, -8426, -12134, -5533, 11464, -277, -3420,
  3611, -3085, 3366, 4820, -2374, -11635, -8986, 12435, -4035, -4130,
  -2822, 68, -7603, 63, -4232, -3535, 399, 2189, -7293, -4986,
  11511, 8514, -3060, -1098, -9675, 12448, -68, 508, 4540, -4437,
  8688, 2537, 6147, 11782, -586, 7344, -36, 3419, 925, 3147,
  -5743, 2356, -2513, 6183, 5450, 4465, -4022, 5102, -9271, 2475,
  211, -3019, -4276, 1539, 3397, -8093, -7381, -1827, 11630, 1792,
  -2255, -6522, 6855, -1853, 12727, -7824, 5914, 7463, -415, 6328,
  3152, -3517, -577, -6010, 8066, -4281, -4304, 4360, 1362, 1860,
  -4017, -164, -1511, 3632, 5406, 2236, -1373, -9923, -1609, -7889,
  -3286, -1333, 2685, 5188, -8353, -585, -388, 3424, -8532, 6946,
  -642, -3227, 10033, -2510, -2149, -8167, 4331, 11874, 8418, 2336,
  10805, -2745, -2442, 7220, -2154, -9280, 1537, -8129, 19209, -16929,
  8232, 17117, -6946, -9282, -5499, 19559, 3225, 2565, 16258, 12035,
  12563, 19741, -5098, -29207, -28449, 32622, -7971, -218, -6056, -6736,
  681, 13422, -956, -689, -13505, 3472, -7765, -9387, 13102, 22404,
  -1236, -545, -21623, 26424, -2101, 4226, 22179, -12543, 14568, 11977,
  2440, 20811, -8079, 20455, -3470, 818, 12069, 19702, -977, 13595,
  4396, 14918, 16452, 15366, 4562, 3235, -13762, 4531, 9907, -2996,
  -4283, 11098, 7454, -8248, -12027, 1339, 31530, -7216, 6321, -1607,
  16379, -710, 26308, -19977, -1934, 11225, -10915, 3498, 11952, 7219,
  5264, -20010, 19078, 10334, -883, 2910, 4991, -8184, -19290, -14403,
  -1029, 5006, 20726, 16030, -884, -450, -45, -13496, 2479, -4987,
  9244, -315, -8939, 15504, -1764, -2315, -20016, 13391, 6583, 6046,
  6359, 319, -5188, -23090, -7138, 14246, 15785, 20844, 5696, -12885,
  -13933, 19983, -2127, -27839, 15626, -16600, 8407, -22778, -6692, 2418,
  492, 4594, 1426, 6387, 1414, -16343, 3374, 11082, -6576, 3518,
  -13227, -10225, -14876, 16564, -15539, -12421, -3217, 2223, 6331, 12496,
  12368, 15653, 7418, -16405, -11490, -19709, -2287, 13927, -17879, -5560,
  -17281, 7813, -11241, 21375, 3631, -6899, 7792, -3988, -1555, 4276,
  11809, 20408, 803, 15141, 3556, -313, 623, 12726, 10376, 11892,
  16369, 10123, 12651, 13175, -11064, 13418, 4328, -5035, -805, -9154,
  4134, -5508, -17009, 9998, 17932, -7791, 10348, -7198, 13836, -6670,
  12038, 4, -121, 8139, -14133, -5438, -7238, 1838, 13893, -1238,
  20069, 6762, -13827, -7973, -894, -12602, 574, -8612, 19984, 20076,
  807, 3866, 6326, 10795, -18044, -6850, -9163, 13773, 18731, -9896,
  -6604, 1141, -20249, -15967, -1142, 14337, 11297, -8005, -9162, 4196,
  16248, -19021, 4113, 504, 15264, 3745, -5982, -11933, 3066, 19555,
  -3521, -10117, -12611, 13347, -4065, 19679, 7902, -6015, 5104, 4476,
  2233, -10319, -195, 16391, -2000, -3373, 5215, -2327, 11226, 11087,
  12683, -16128, 13799, 13238, 3460, -3476, 1575, -6856, -6470, -9603,
  -9465, 11860, 13427, 17579, -5014, -13096, 16404, 5139, 16783, -10672,
  8389, -16430, -1603, 6227, -10234, 3737, -3520, -8625, -10821, -17685,
  -1494, -14786, -835, 2126, 4113, -8957, -5102, -11256, -13812, -8282,
  -5574, -14099, 13368, -11741, -1345, 5788, 3211, 8472, -4492, 9262,
  16867, -6109, -16780, 2864, -4847, 10821, -13025, 6624, -14282, 1907,
  -5486, -10249, 8899, -352, 5778, 3179, -9336, 1332, -18358, 668,
  14343, 3198, 647, 6386, -1636, 3493, -14841, -17888, -450, -1268,
  -4114, -242, 15575, 8914, 10573, -11009, -15016, 3253, 10189, 3176,
  15872, 9095, 3410, -14203, -6915, 10446, 103, -1173, -12318, 16526,
  -8710, -7264, -15631, -124, -3230, 8685, -3693, -17015, 4055, 9311,
  -12288, 13304, -8036, 18448, 4352, -2440, -712, -4088, -1264, -5530,
  -1464, 12090, -3714, -10044, 4326, -4002, 10436, 9224, 13054, -14482,
  12312, 9204, 2680, -1196, -5832, -10938, -10040, -12548, -4620, 12642,
  8804, 15582, 1786, -11952, 13652, 4206, 14264, -7132, 8870, -17008,
  -4330, 5940, -6480, 2276, 1582, -3962, -8610, -16950, -384, -11558,
  -3772, -1190, -1052, -10894, -8774, -9962, -13656, -8802, -10716, -10062,
  8786, -10636, -4260, 3810, 498, 6270, -3566, 4106, 13460, -8144,
  -15536, 6820, -8892, 5010, -11532, 5006, -10382, 858, 820, -6588,
  11848, 4532, 4872, -2476, -11386, 2016, -16492, -6658, 10338, 6352,
  350, 10656, 750, 7878, -15680, -15740, -1916, -4220, -5046, -9450,
  13828, 5626, 6522, -10484, -15158, 8214, 4992, -2346, 15820, 12930,
  1680, -11654, -9486, 5318, 7568, -3610, -12478, 15902, -2190, -448,
  -12430, -4532, 5230, 10064, -1490, -16258, 2646, 9266, -14348, 11526,
  934, 11794, 9563, 9592, -7679, -14555, -6520, 7762, -180, 15336,
  5347, -7366, 13412, 7282, 9595, -8166, -1952, 3779, 9810, 9967,
  -835, -4983, -9774, -6573, -14665, -17416, -12746, 18619, 4282, 12816,
  13565, 81, 15425, 4648, 2922, 9749, 10078, -18905, 8054, -774,
  2883, 10212, 5651, 10516, -15264, -7676, -2273, -12759, 2048, 10169,
  -3940, -5564, -9595, -2253, -6363, -1203, -12517, -8966, 343, -9990,
  22, 2131, -3188, 14395, 795, -2183, 7850, -10162, 1573, 5493,
  -8628, 3058, -3202, 5283, 5705, -12372, 2291, 518, 9030, 9989,
  13695, -558, -11693, -10251, -7557, -4457, 10976, 11227, 3652, 9831,
  -10713, 2286, -20774, -15723, 10647, 4073, -7271, -15795, 16822, -2971,
  8338, -16266, -13105, 12174, -1532, 5091, 18877, 16384, -11625, -4902,
  -8630, 8733, 16714, -5256, -19187, 4773, -4843, 11497, -4058, 6265,
  13713, 4868, -10104, -7102, 1452, -6504, -13850, 14384, -5032, 19988,
  7705, -2922, 1707, -877, -14, -6831, -582, 16317, -1628, -6562,
  6677, -1637, 11829, 8690, 11909, -14024, 14046, 12637, 2949, -3137,
  -2502, -8820, -9471, -12618, -9038, 14320, 11766, 17883, -246, -11883,
  16891, 5293, 15482, -7313, 9669, -18453, -1211, 5748, -7839, 4604,
  -606, -4867, -11625, -17513, -1277, -14642, -1448, 2418, 1554, -9897,
  -7464, -10436, -13863, -8112, -8863, -13145, 11142, -12106, -2222, 5164,
  1681, 9436, -3722, 6684, 15976, -7920, -15109, 4999, -7212, 8701,
  -12178, 6548, -11196, -321, -2535, -8236, 10870, 2953, 7245, 998,
  -11202, 63, -17731, -2544, 13841, 5879, 1125, 9081, -2208, 5271,
  -17320, -18395, 709, -1563, -5216, -5748, 16670, 6900, 9871, -12548,
  -16104, 6711, 7642, 1878, 17855, 12457, 969, -13169, -8645, 9428,
  5292, -2671, -14460, 16184, -6562, -2673, -14163, -673, 2050, 9496,
  -4127, -16787, 3627, 7901, -1913, -3815, 15796, -9993, 9171, 13607,
  -5001, -7283, -4409, 14688, 2723, 6322, 13765, 9579, 12365, 16759,
  -1696, -23052, -21927, 24675, -3590, 3062, -4530, -6842, 800, 9967,
  -2625, -3178, -14301, 6070, -3569, -3884, 10384, 16414, 3000, 765,
  -14908, 20636, 252, -534, 19076, -9542, 10279, 11457, 1312, 16225,
  -9910, 13509, -3474, -3044, 10337, 17830, 32, 9627, 2451, 10275,
  10952, 11394, 2446, -716, -8881, 971, 8297, -1256, -3068, 11877,
  5405, -5073, -6428, -473, 23535, -5608, 4209, 1179, 11117, 985,
  19617, -17231, -3030, 7320, -7352, 3053, 11969, 7023, 2168, -17371,
  12144, 9097, 2758, 3406, 4519, -5555, -17459, -11787, -4775, -161,
  18114, 13725, -1903, -702, 3861, -9759, 4762, -7262, 4270, 609,
  -5447, 14344, 2454, 314, -16895, 8198, 3942, 7858, 5751, -119,
  -7789, -16230, -8448, 10819, 9961, 18240, 4333, -9180, -13257, 13264,
  -920, -22260, 1776, 2216, -13992, 4840, -9532, -4888, -2780, -4116,
  -752, -4274, -2984, -8614, -10434, -12796, -8814, -12294, 140, 12636,
  14170, -13738, 596, -6220, 2072, 6764, -8036, -10354, -1828, -792,
  14212, -3210, -2604, 206, 430, -9040, -4924, -1478, 6700, -9324,
  238, 40, -14850, 5720, -2524, -8796, 4450, -5406, 8758, -7538,
  3400, 5486, -9516, -14714, -5304, -7922, -5182, -5010, -6560, -7614,
  -6668, 4818, 818, 724, -8188, -1266, -822, -9890, -2390, -2126,
  400, -1640, -13412, 7588, -6684, -6794, -5316, -2338, -8254, 9902,
  8468, -736, 7580, 3072, -8588, -10236, -3286, 11764, -5508, -13218,
  -6014, 1032, -3150, 7820, 13598, 11946, 2448, 2600, -12972, -11680,
  362, -8886, -4436, 2762, -7278, 5360, -2594, 4650, -1944, -14758,
  -1820, 3602, 8972, -2366, -4982, -10342, 3976, -2350, 5018, 9474,
  12182, 204, -2802, -16052, 5942, 7148, 10770, -7370, -874, 14010,
  -21240, 20228, -4262, 25512, 12676, 3252, -3224, -9848, -4000, -1385,
  -644, 24033, 1635, -10750, 14155, 2775, 16674, 3184, 9975, -10589,
  18816, 17458, 2268, -5654, -8456, -12225, -17592, -22102, -15574, 24417,
  13250, 24123, 8269, -10824, 24706, 7679, 16008, -726, 15031, -28256,
  3567, 4926, -5268, 10306, 3151, 2059, -19613, -20659, -2392, -20867,
  -222, 8149, -1114, -12503, -12735, -10857, -16532, -8185, -15846, -17187,
  10341, -16998, -2138, 6009, -411, 17219, -2851, 4681, 19334, -13400,
  -12924, 8186, -11950, 9617, -13022, 9179, -6699, -7611, -558, -7042,
  15664, 9006, 14848, 346, -17349, -5900, -20726, -5341, 19173, 12352,
  3263, 14556, -8181, 6563, -28328, -26162, 6954, 870, -9119, -15133,
  25386, 4521, 13929, -21158, -22619, 13787, 5952, 4515, 27798, 21541,
  -6012, -14887, -13195, 13691, 15304, -5653, -24699, 17863, -8503, 4796,
  -15271, 2910, 10579, 11836, -9609, -19645, 4215, 3541, -201, 5051,
  -15459, 9607, -8317, -7813, -257, -993, 799, -8276, -2957, -5494,
  -11736, -13051, -8856, -13956, 2525, 17295, 18604, -19192, 3743, -3379,
  3371, 6533, -6425, -11716, -1969, -1539, 13213, -1758, 1029, 4136,
  -2570, -13057, -1747, -380, 11671, -13755, 1708, -2585, -16428, 7913,
  -5893, -8907, 2908, -9240, 7552, -12002, 3391, 2726, -10059, -15410,
  -3567, -9998, -5566, -8124, -9989, -9996, -6875, 1806, 4958, -1523,
  -8623, 330, 630, -9080, -3770, 1018, 4705, -2201, -18797, 8053,
  -7131, -3878, -8859, -880, -13282, 12230, 6797, -3799, 9455, 1953,
  -8489, -9267, -4672, 13699, -10155, -12600, -2954, 807, -3324, 8843,
  14720, 13056, 567, -799, -14475, -12631, 98, -7128, -1667, 5978,
  -5070, 4157, -5522, 4392, 1407, -14536, 841, 4598, 11651, -6014,
  -6026, -8272, 2215, -2008, 3758, 14196, 10442, -3237, -6990, -16991,
  3560, 9443, 11148, -11696, 284, 17958, -4485, 4717, -317, 7821,
  3932, -4689, 4870, 6166, 2679, -6839, 339, 7379, -642, 1617,
  1493, -933, 4254, 5883, 5241, -7774, 5591, 6334, 1732, -2076,
  4155, -910, -368, -1731, -5035, 3264, 7049, 7163, -5806, -6040,
  6776, 2105, 7739, -6644, 2533, -5414, -275, 2699, -6052, 1323,
  -3952, -6275, -4401, -7255, -982, -6642, 559, 1370, 3933, -2699,
  -116, -5158, -5496, -3278, 466, -6939, 7290, -4735, 481, 2964,
  2547, 3302, -2390, 5968, 7767, -1135, -7734, -812, 67, 6503,
  -5911, 2950, -8012, 2009, -5006, -5853, 1863, -2846, 1716, 3489,
  -2376, 942, -7986, 3362, 6715, -770, 41, 236, -934, -485,
  -4511, -7314, -466, 238, -932, 4522, 5937, 5152, 5337, -3753,
  -5404, -1517, 6327, 3032, 5256, 1075, 2852, -6695, -1375, 5674,
  -4139, 745, -3828, 6762, -5934, -6610, -7609, 1128, -5712, 2681,
  -1771, -7023, 2063, 4311, -1935, -1207, 6931, -5291, 4091, 10361,
  -6409, -9677, -4759, 11471, 921, 2535, 7323, 1365, 7593, 9177,
  -559, -14509, -12215, 15119, -1977, 429, -2951, -2951, -4149, 3015,
  -4421, -4613, -6387, 5337, -4051, -2181, 10561, 9921, 1493, 369,
  -9421, 14309, 1247, -1987, 9983, -5505, 8067, 6533, 3949, 12481,
  -5505, 7473, -1467, -911, 4493, 9133, -2945, 4037, -1229, 6367,
  5829, 6117, -2235, 1119, -7321, 437, 3201, -1515, -3333, 6699,
  3667, -5677, -4741, -2051, 14095, -563, -363, -2103, 6873, 179,
  13615, -11127, 1885, 6171, -1805, 5147, 7383, 989, -691, -10125,
  7313, 971, 351, 4525, 2741, -33, -9309, -4059, -4655, -89,
  10309, 6547, -2049, -6411, 2617, -7385, 1251, -4985, 1393, 3981,
  -5859, 5613, 2881, 3543, -11241, 5659, 267, 2453, 8549, -1687,
  -5869, -9019, -1599, 10655, 7061, 8485, 8047, -3985, -6995, 7391,
  -1077, -12973, -12884, 8638, 12112, 9742, 16849, 4036, 3823, 2995,
  400, 421, 2920, 22393, 10876, 9112, 15571, 13081, 8995, -8438,
  -7421, 5572, 10090, 16711, -245, -10139, 6538, 4816, -5735, -9338,
  -23228, 15142, 11656, 13483, 280, 1603, 18685, 5779, 3826, 5857,
  7369, -14555, 16297, -2312, -2591, 13846, -5012, 3283, -19157, -4643,
  -4859, -17492, 9754, 18892, 6790, 1393, -200, -2024, -3029, 2626,
  259, -15413, 7114, -10160, 7576, 5278, 1921, 18820, 70, 7036,
  11560, -4526, 4279, -4511, 1726, 14059, -2996, 7684, 1600, -12131,
  -11117, -5036, -50, -623, 15745, 12136, -5144, -13793, -7061, 12664,
  17413, 3841, 4591, -1547, -17504, -9407, -16562, -17159, 15751, 12229,
  -4628, 4750, 18076, 1672, 15799, -16088, -9530, 457, 7564, 18208,
  16141, 6037, -10115, -7121, -1205, 18934, 502, 367, -17276, 1354,
  -18644, -1349, -7289, 17905, -4226, -836, -15677, -4271, 3691, -10427,
  10246, -6546, -3620, -3238, -7308, -15294, 12212, 20260, 9158, -15517,
  2, -9507, -7823, 6936, -13553, -10385, -5406, 16294, 9611, -14007,
  -4194, -4734, 2916, 4038, 12734, 3981, 14136, 15712, 10136, -16097,
  2344, -5709, -19561, -7728, -9594, -2845, 5966, -18170, -7621, 13628,
  -10925, 4440, -9492, -10484, -9007, -17921, 12419, -859, 1844, 7071,
  -3116, -11377, 7060, 1553, 8703, -3803, -244, -3395, 12002, 2821,
  7143, 5408, -924, 607, 5641, -12895, -3649, 7871, -40, 8834,
  -11680, -5146, 7660, 2333, -3656, -2775, -15285, 16173, -6006, -6600,
  -6018, -12506, -13576, 2368, 8853, 13256, -1382, 5689, -5335, -11996,
  -4205, -8436, 12129, -845, 16834, 8910, -13430, -5850, 6447, 19057,
  -11776, 8655, -4271, 13524, 7331, -13109, 7606, -4563, -14110, -14919,
  16116, -2239, 6485, -4839, -20470, 5655, 16347, 3565, 891, -18320,
  -4091, -7894, -18699, -1050, 10195, -1177, 447, 13249, -14742, 10140,
  12545, 12230, 18620, 2506, 5548, 5222, 1250, -1913, 3062, 25373,
  11040, 10150, 16450, 13236, 10423, -7083, -6346, 3338, 11975, 19185,
  153, -11339, 8249, 4838, -5952, -10101, -25866, 16407, 14194, 15959,
  -1887, -247, 21275, 6498, 6165, 3839, 8179, -16679, 16811, -1741,
  -4744, 14652, -6735, 1214, -21319, -7026, -5499, -20291, 10292, 19995,
  8313, 664, -150, -3758, -4825, 1691, 577, -18273, 9562, -12042,
  8016, 6285, 2739, 20400, -788, 9142, 14225, -5010, 2036, -5261,
  1916, 16596, -4988, 8748, -972, -12046, -13419, -7211, 169, -1870,
  16694, 13746, -5999, -14170, -9801, 14356, 20017, 3437, 4648, -1918,
  -18640, -10258, -18484, -20072, 16117, 12762, -5124, 6611, 20348, 3252,
  17961, -17861, -11505, -382, 9792, 19889, 18053, 6189, -9682, -9539,
  -1611, 21363, -1226, 606, -19070, 3219, -21479, -3800, -10010, 18971,
  -6620, -319, -16976, -6577, 4355, -9693, 7050, -9354, 10306, -13882,
  680, 4114, 708, 2980, 562, 5994, 1962, -4706, 6432, 10662,
  802, 7398, -6788, -11414, -14134, 15128, -8270, -3844, -2696, -1744,
  5898, 10600, 6544, 7790, -2306, -6540, -5194, -10250, -288, 11488,
  -7000, -2198, -12214, 8928, -5646, 10620, 8514, -6206, 5704, 2002,
  -2100, 5458, 2094, 13954, -1028, 5480, 5898, 6384, 2078, 9882,
  7132, 8568, 11376, 8648, 8756, 4938, -6608, 6566, 5654, -2196,
  -402, -176, 3376, -2508, -9206, 5502, 15596, -6896, 7778, -1226,
  9718, -2448, 10588, -4862, -3116, 5010, -10222, -3420, 360, 4966,
  8236, -6108, 12988, 8600, -4642, -3980, 1034, -9368, -5816, -9322,
  8734, 9164, 6396, 7084, 2876, 8264, -7162, -5228, -1710, 4442,
  10620, -6394, -3150, 6796, -9256, -9106, -5096, 8722, 7666, 168,
  -5322, 2874, 5740, -14120, -2736, 1220, 9494, 8888, -4516, -9154,
  -3246, 13450, -1538, -11738, -2549, 3485, 1026, 8519, 4525, -11445,
  12061, 17271, 7427, -14624, 1079, 8230, -1799, 7575, -1429, -2819,
  3720, 11878, 8063, -13373, 5944, 8162, 3098, -2682, 12362, 2431,
  5393, 3916, -5913, -1136, 11171, 7600, -15750, -9494, 6604, 2091,
  11622, -14352, 460, -2150, -1596, 4276, -11543, -467, -9894, -14553,
  -3022, -8793, -1338, -7530, 1509, 468, 9274, -1487, 4307, -7573,
  -6328, -4284, 6706, -9464, 12675, -4569, 1985, 4582, 5884, 1545,
  -4235, 11743, 10610, 2223, -12475, -4700, 4461, 11277, -8491, 3461,
  -15331, 7051, -11002, -10506, -1350, -9453, -1177, 7843, 858, 4055,
  -10424, 9581, 8410, -5970, -943, -4589, 649, -3465, -147, -7143,
  -3226, 443, 1157, 15516, 4493, 9917, 7186, -996, -4056, -8181,
  12097, 5434, 2102, -5098, 8383, -9626, 1662, 8060, -14537, 3719,
  75, 8764, -10350, -16327, -11521, 1772, -16419, 1810, -679, -8632,
  3196, 8236, 11532, -12368, 5546, -17508, -5680, 3384, -1612, 476,
  -188, 6719, 752, -13119, 2463, 6454, -4657, 2691, -10038, -8944,
  -11637, 13607, -12024, -10270, -2772, 2090, 2408, 8307, 7908, 10498,
  6430, -11607, -10010, -15261, 797, 11208, -13894, -4349, -14040, 7602,
  -8113, 15536, 2535, -5514, 7272, -2962, 479, 5183, 9011, 15745,
  808, 12029, 2094, -595, -1130, 9125, 6597, 9531, 12500, 7711,
  7818, 10917, -9879, 10254, 2594, -4359, -1539, -6977, 3529, -5827,
  -13802, 6716, 14448, -4718, 6526, -7043, 11054, -5369, 10785, -951,
  1746, 7390, -9760, -2382, -5164, -130, 9675, -1336, 15794, 3055,
  -11307, -4768, -581, -8160, 519, -5417, 14276, 15434, 810, 2442,
  4301, 5083, -13674, -6411, -7815, 10034, 13901, -5729, -6660, -333,
  -14826, -10555, -1992, 11641, 7669, -7181, -4228, 2335, 11625, -14785,
  4729, 2872, 12589, 2070, -1633, -8692, 2451, 15115, -3057, -8275,
  -9627, 6293, 10176, 8135, 13698, -143, 6368, 7554, 2449, -3556,
  2553, 18320, 8016, 9963, 10991, 9435, 6895, -3980, -4657, 1566,
  8210, 14209, 339, -8569, 9000, 5258, -2046, -5008, -19225, 9993,
  11247, 10994, -4655, -577, 14865, 4523, 4884, 833, 4844, -10363,
  12284, -1198, -4882, 10135, -6989, -1485, -14904, -4705, -4207, -14671,
  8123, 14587, 7862, 1493, 1764, -2978, -3051, 1435, 2989, -13776,
  8206, -8277, 6637, 4899, 3006, 14168, -984, 8300, 10588, -2213,
  932, -5571, 3295, 13463, -3847, 6308, -2418, -7453, -11919, -6444,
  -1636, -3766, 11148, 11671, -2789, -9702, -7073, 12960, 14716, 501,
  3081, -3616, -13420, -9059, -11439, -13924, 11173, 9750, -2882, 8875,
  13769, 3522, 13470, -11794, -7235, -2903, 8727, 15611, 11411, 1840,
  -5596, -7326, 290, 16235, -4657, 1559, -12212, 2011, -17223, -5868,
  -7935, 14513, -8614, -1158, -12203, -4436, 3386, -6566, -18364, 15144,
  3274, 17540, 14656, 6608, -3020, -8564, -4068, 2863, 712, 23153,
  6767, -3618, 16327, 8795, 13202, -5456, -61, -185, 14456, 16474,
  308, -7886, -4760, -5389, -14572, -18654, -19482, 22001, 10734, 18851,
  8677, -3280, 22066, 6747, 8264, 5930, 12223, -23384, 10583, 518,
  -1672, 12982, 1591, 6295, -20477, -12327, -3648, -19259, 4310, 14053,
  390, -6323, -8683, -5605, -9716, -2505, -10846, -15595, 6377, -14026,
  1978, 4913, -835, 19023, -711, 3277, 14358, -10748, -2416, 3498,
  -7290, 9813, -7130, 8247, 545, -12415, -3382, -4194, 9280, 7106,
  16756, 4294, -13021, -11528, -13190, 831, 17765, 10456, 4323, 8672,
  -13897, -225, -24932, -22262, 12674, 6458, -8051, -10317, 22670, 917,
  14201, -20318, -17099, 10119, 4196, 10379, 23678, 16693, -10792, -10023,
  -8811, 15435, 12580, -4137, -23239, 8791, -11967, 5976, -9867, 10190,
  7903, 5884, -13477, -11589, 3407, -5363, 5810, -10310, 11285, -19012,
  51, 15230, -9943, -12853, -6546, 19133, 1270, -7199, 9989, 4824,
  5424, 12356, -8032, -23999, -22768, 27747, -11249, -7630, -5724, -1712,
  -4715, 8575, -429, 1293, -2236, -1858, -12868, -13877, 14238, 19792,
  -8694, -2932, -21695, 22890, -4291, 8414, 13005, -10601, 15295, 5260,
  5856, 19220, 145, 20024, -1078, 7918, 6144, 9672, -5373, 10766,
  2409, 14419, 15670, 12496, 1806, 9689, -16645, 7864, 4970, -5368,
  -5665, 2477, 6901, -11935, -16143, 1824, 27053, -3386, 3316, -8680,
  16134, -4007, 24387, -14180, 4530, 13113, -8615, 5211, 4813, -92,
  5528, -12941, 20080, 1829, -8451, 2462, 2666, -5135, -10343, -7946,
  4310, 11101, 12406, 8823, 323, -5840, -7018, -14025, -4921, 1171,
  11346, 1474, -12748, 5272, -7204, -2671, -15179, 15307, 5147, -3248,
  8420, -920, 1121, -21392, 2550, 15821, 17762, 10586, 9847, -10737,
  -6266, 19485, -3821, -21365, -4802, 5868, 1401, 11710, 6698, -11618,
  12918, 17904, 7774, -15531, 1378, 11795, -1184, 7738, 416, -2090,
  5845, 12745, 9268, -14734, 8435, 10959, 3639, -3569, 12925, 1958,
  4254, 2167, -8350, 1543, 13622, 10769, -15955, -10777, 9965, 3248,
  14009, -14967, 2169, -5013, -591, 5027, -12682, 1060, -10339, -15060,
  -5429, -11080, -1657, -10271, 2148, 2087, 10237, -2382, 3714, -8878,
  -8051, -4965, 6039, -11951, 14806, -6502, 2412, 5749, 6481, 3968,
  -4584, 13350, 13513, 1262, -14018, -4371, 4020, 13538, -10072, 4908,
  -16668, 6572, -12069, -11819, -11, -9216, 748, 9046, -539, 3448,
  -12923, 10460, 11391, -5049, -394, -3616, -520, -3384, -2964, -10274,
  -2077, 1200, 468, 15675, 7744, 11172, 9595, -3269, -6385, -7428,
  13852, 7061, 5311, -3285, 8204, -11601, 815, 10635, -14082, 3684,
  -2462, 11011, -12323, -16918, -13660, 3013, -16664, 3017, -1978, -10811,
  4061, 8809, 1711, -2151, 1401, -4131, -902, 3719, -2956, -3996,
  -1781, 4808, 107, -2632, 1567, -285, 672, 1990, -1834, -4761,
  -4152, 5851, -2629, -2522, -1126, 472, -2257, 1031, -406, 143,
  1159, -485, -3541, -3334, 4181, 4274, -2564, -752, -4737, 5200,
  -820, 2120, 1852, -1963, 3938, 585, 2345, 4728, 1070, 4414,
  256, 2761, 613, 1013, -2005, 1934, -1, 3319, 3398, 2495,
  -390, 3202, -4171, 2187, 439, -1409, -1508, -233, 1693, -3325,
  -3983, 281, 5676, 280, 65, -2972, 3723, -1137, 5675, -2554,
  2450, 3549, -1061, 2062, 542, -1173, 1037, -1960, 4686, -1093,
  -2700, 1092, 512, -94, -1045, -430, 1305, 3202, 1966, 1082,
  175, -2749, -2037, -3277, -1958, 901, 2651, 1298, -3509, -235,
  -1728, 124, -2926, 3850, 766, -1893, 3125, -468, 803, -4281,
  2289, 4544, 4460, 1032, 3709, -1739, -308, 4300, -958, -3864,
  7927, -5641, -7257, -7857, -10825, 1667, -6181, -7569, -2689, 4712,
  -1949, -15026, -5498, -7847, -8078, -6398, -5989, 1013, 1830, 1178,
  -7319, -11873, -759, 6687, -7931, -3698, 1251, 3723, 15073, -7742,
  -10063, -9716, 5346, 2149, -12349, -3770, -5683, 1523, -4000, 8621,
  -8632, 79, 5335, -7483, 6324, 3114, 11704, 5308, 3277, 12234,
  -5995, -10722, -6909, -436, -1464, 3582, 3637, -128, -2585, 11758,
  -8020, 7121, -4943, -4346, -2978, -10874, 1416, -7768, -9709, 1695,
  1575, 4395, -2603, -11540, 4405, -5290, 4176, 4540, 10119, 6355,
  861, 3773, -8249, -9463, 2432, 6523, 7235, -10450, -12326, 117,
  -2158, 2779, 9742, 6754, 9099, 11817, -7713, -7035, 2188, -8084,
  -11283, -4092, -11090, 9243, 6486, 2818, -8165, -12056, -9333, -1262,
  2971, 7110, -14, -13180, 4943, -1462, 9500, -3280, 14062, 6407,
  7832, -10689, 8190, 185, 9114, 5060, -3008, 3374, 4841, -1871,
  -11797, -3195, -11621, 2725, -9309, -13045, -4743, 5550, -3003, -14048,
  -7612, -14261, -7522, -8626, -3443, 3053, 6090, -2300, -4595, -11483,
  -281, 7777, -13419, -8984, -3281, -1153, 16731, -3898, -9973, -6362,
  9342, -749, -10055, -3054, -2763, 1145, -1242, 3735, -11554, 1807,
  5443, -7777, 9528, 4286, 10782, 876, 3903, 10918, -8713, -13074,
  -9877, -4560, -5798, 1424, -153, -2956, -8235, 11240, -7814, 4851,
  -7745, -4258, -4156, -10476, 906, -9222, -7641, -1539, -2385, 8553,
  -7201, -13212, 1907, -4724, 3118, 4612, 13837, 6439, 5893, 7637,
  -7545, -13213, -1748, 7839, 3557, -16276, -11604, 3551, -2230, 8155,
  11620, 11546, 4517, 8725, -9283, -9947, 418, -15496, -8421, -4046,
  -11476, 6859, 2250, 7778, -9391, -15836, -4995, 4396, 2899, 5196,
  -3984, -14528, 10965, -3674, 6214, 1124, 17170, 9791, 6020, -14547,
  14128, 3925, 10202, 834, -2942, 6380, 10609, -5059, -15711, -4787,
  -17049, -4559, -4581, -4941, -823, -1461, -3447, -20789, -12851, -13279,
  -15441, -15341, -6389, 12165, 12415, -10083, -7067, -15453, 1315, 11175,
  -9243, -8651, 3175, 6389, 24617, -12287, -10111, -9809, 1101, -5021,
  -16137, -4801, 277, -7985, -4989, 10911, -19037, 4609, 1447, -14235,
  6669, -4113, 18735, 227, 5567, 16101, -11747, -20955, -7867, -4725,
  -2483, -443, -573, -5311, -3701, 14359, -5159, 8209, -9519, -4463,
  -1877, -18499, -799, -6555, -8479, 2565, -9029, 7631, -4651, -13993,
  153, -6691, -4307, 13699, 13195, 4073, 4221, 2767, -15465, -14175,
  2245, 16011, 3099, -16171, -15869, -1689, -4633, 5599, 19813, 13331,
  13485, 14367, -17597, -14585, 3717, -8551, -15335, -83, -15281, 14673,
  6033, 2723, -6863, -20747, -12473, -2013, 11695, 4703, -1513, -19159,
  2685, -1417, 15301, 3633, 20501, 2195, 4703, -20993, 7209, 4401,
  17119, 35, -3041, 14499, 9514, -8980, -1024, -13600, -8603, 5286,
  -6597, -7633, -3170, 8994, -774, -14820, -881, -2572, -5356, -926,
  -8151, -6568, -6424, 10159, -10224, -12083, -2337, 4735, -5664, 1479,
  2793, 5466, 11344, -8405, -11916, -13200, 6909, 8523, -13529, -4160,
  -11848, 7867, -5538, 11529, -2330, -3492, 8733, -4570, 5703, 7556,
  10224, 11824, 2257, 12985, -2126, -5223, -5994, 4344, 1245, 7927,
  8967, 4569, 665, 12766, -11313, 9092, -1544, -5069, -3512, -8441,
  3379, -9135, -13316, 3276, 10487, 1147, 654, -11282, 9224, -5665,
  10761, -120, 8289, 8984, -3596, 3139, -5727, -6340, 5295, 1383,
  13145, -5805, -12820, -499, -948, -1167, 4563, 1590, 10664, 14227,
  -2267, -2169, 2689, -5343, -12400, -7251, -10370, 9040, 10311, 870,
  -9782, -6993, -11413, -3956, -1647, 11014, 3070, -11263, 4152, -520,
  9597, -10351, 11261, 8475, 12258, -4345, 7285, -4238, 5488, 11386,
  -3516, -4252, -728, 5230, -15225, 8776, -8228, -4736, -3024, -5238,
  -1032, -4731, -3052, -5721, -10712, -14712, -7352, -12554, 2563, 14195,
  16660, -15974, 3357, -4035, 2729, 6605, -9289, -12378, -3976, -3483,
  13184, -53, -700, 3657, 1513, -10959, -1733, -352, 9555, -10009,
  2409, -3483, -15151, 6969, -3336, -7822, 5197, -5484, 6899, -10636,
  3473, 3197, -9934, -14381, -5469, -9882, -6922, -6654, -9025, -9029,
  -8875, 2941, 2578, -1320, -8766, -311, -659, -8056, -2780, -1302,
  3279, -3272, -15920, 9259, -8414, -5626, -7274, -1052, -9664, 9816,
  8969, -1653, 10271, 4502, -7018, -10540, -5555, 11978, -8509, -14428,
  -3589, 2817, -2746, 10338, 13584, 13696, -906, -556, -12735, -12106,
  -600, -11021, -1154, 3848, -5633, 3113, -5573, 6820, -938, -14835,
  1909, 6759, 9054, -4397, -6805, -8909, 6216, -2996, 2302, 12707,
  11889, 812, -4936, -16469, 7664, 9355, 10374, -10323, -147, 15653,
  5368, -6512, 4547, -10254, -1863, 4700, -2729, -2671, -1468, 6733,
  628, -6067, 3193, 3394, -292, 3808, -5194, -8437, -9084, 11055,
  -6607, -5184, -2170, 414, -161, 4883, 2705, 3987, 1790, -4334,
  -6282, -8317, 3586, 8426, -6672, -2080, -9669, 7888, -3683, 7336,
  3901, -4219, 6053, 254, 1576, 6224, 3217, 10040, 116, 6018,
  2194, 2068, -1527, 5662, 2897, 6631, 7936, 5568, 3180, 6037,
  -7093, 5394, 2100, -2636, -1733, -1759, 2861, -4631, -8329, 2806,
  11187, -2308, 3078, -4312, 7544, -2675, 9323, -3460, 1712, 5599,
  -5229, 445, -605, 14, 4664, -3311, 10070, 1545, -5727, -1000,
  486, -3889, -2083, -3582, 5972, 7911, 3172, 2921, 1635, 504,
  -6216, -5305, -3725, 3801, 7438, -1554, -5102, 1160, -6654, -4155,
  -4045, 7559, 3887, -3128, 538, 676, 4337, -9856, 2290, 4659,
  8442, 3192, 1755, -5343, -494, 9701, -1837, -7609, 5648, -924,
  -13776, 1612, -11766, -7476, -406, 246, 1184, -6421, -2796, -12407,
  -11569, -10262, -12199, -13915, -2406, 14674, 14413, -14493, -1994, -8618,
  2312, 7922, -4926, -8177, 2342, 4080, 17226, -8185, -3518, -3173,
  -3461, -8876, -8874, -2643, 5882, -11858, -2485, 5216, -16589, 5848,
  -3350, -11294, 2677, -8271, 12663, -5289, 3936, 8747, -9734, -17009,
  -3912, -6145, -2311, -4305, -4668, -7075, -2922, 7037, 897, 3410,
  -7886, -1717, 185, -13473, -2555, -1279, -1588, 1252, -13562, 5830,
  -4030, -7245, -4354, -3633, -9727, 13111, 7478, -956, 4898, 160,
  -12054, -9638, 57, 14298, -3374, -11441, -8691, -2112, -4031, 4870,
  16159, 10949, 8088, 6764, -15498, -12400, 2389, -4063, -8810, 3653,
  -9211, 9668, 1051, 1109, -1276, -15599, -6866, -1019, 12022, -1043,
  -2415, -12279, -868, -759, 10149, 8029, 13039, -3122, -1721, -17222,
  1835, 5658, 13233, -5281, -1169, 15505, -3426, 7328, -9103, 15186,
  -548, -15618, 11012, 15158, 7302, -19093, -918, 5209, -9132, -1686,
  -6422, -11460, 5787, 22317, 19854, -25274, 8743, 6221, 5141, 1401,
  7137, -5726, 3056, 1755, 2218, -1185, 11686, 10771, -16103, -17723,
  6103, 2026, 19021, -22309, 2135, -4867, -11857, 9259, -14840, -5712,
  -7319, -19498, 1149, -16802, 793, -6219, -5032, -9077, 6369, -8320,
  -58, -12770, -13029, -10765, 1229, -8469, 15486, -5990, -3748, 4749,
  5895, -3644, -6520, 11858, 13761, 106, -24276, 1055, -880, 8500,
  -14192, 3056, -23176, 14098, -6031, -12603, 5409, -7270, -5922, 1446,
  -2919, 12294, -17157, 712, 6797, -4591, -2888, 1930, 9652, 5342,
  -976, -8328, -11999, -7630, 752, 9371, 4200, 13304, 4077, 819,
  -8297, -4318, 12492, -4007, 3657, -967, 15046, -13519, -2855, 2843,
  -11614, 1958, 1422, 18027, -3423, -17216, -15938, -9081, -12720, 8209,
  6064, -16413, 3343, 19335, -8844, 8062, -5426, 7506, 1439, 9156,
  -11135, -18599, -7776, 9223, -1752, 4691, 282, -13380, 6707, 1305,
  5715, -5112, 1443, 1982, 5252, 1771, -893, 93, -14928, -9934,
  -13433, -14484, -1360, 12702, -1996, 6689, 15800, -205, 6857, 2027,
  656, 8509, 7291, -13031, 379, 218, 5255, 4026, 9536, 10747,
  -6483, -5515, 209, -4356, -2954, 1232, -8424, -6779, -10706, -958,
  -5049, -2450, -14321, -1155, -4020, -5356, -4064, -630, -4809, 5906,
  1132, -6734, 2046, -8914, 177, 8821, -10670, -4645, -1444, 1642,
  6346, -7555, 9127, 3882, 10188, 11983, 6915, -7452, -10212, -4155,
  -4005, -12154, 2503, 10789, 1715, 12047, -2506, 7813, -14138, -7845,
  3635, -1973, -5594, -20822, 8844, -4646, 501, -9342, -9178, 13765,
  -6312, -4300, 12285, 15295, -7873, -1067, -8959, -782, 19114, -6161,
  -12006, 4182, 5196, 14405, 59, -2643, 18408, 5822, -2737, -5085,
  -463, -2013, -1379, 7785, -17952, 15971, -7632, -15699, 6382, 8436,
  5113, -17951, -2931, -2329, -15095, -11383, -11570, -18338, 4917, 27314,
  26714, -30285, 7580, 251, 5755, 6469, -810, -12589, 820, 576,
  12837, -2990, 7253, 8903, -11818, -20773, 1275, 630, 20266, -24397,
  2161, -3947, -20647, 11834, -13348, -11059, -1954, -19110, 7665, -19008,
  3393, -602, -11239, -18340, 846, -12674, -4157, -13785, -15279, -14258,
  -4377, -2813, 12837, -4127, -9229, 2872, 4021, -10239, -6805, 7651,
  11296, -1249, -29290, 7031, -5963, 1452, -15149, 765, -24299, 18692,
  2155, -10240, 10474, -2926, -10998, -6811, -4926, 18792, -17683, -9799,
  879, -2427, -4528, 7970, 18173, 13744, 945, -4568, -19233, -14930,
  881, 154, 203, 12613, -2279, 4714, -8590, 652, 8299, -14518,
  1877, 2507, 18710, -12331, -6159, -5646, -5477, -282, 4863, 21710,
  6986, -12898, -14542, -19465, -4841, 12240, 13164, -18563, 2075, 26105,
  10303, -13895, 10804, -22793, -3113, 12583, -7973, -8951, -4769, 17146,
  1267, -12224, 8287, 6703, 1267, 10069, -11060, -21680, -22217, 26821,
  -14402, -10982, -5522, -14, -2180, 10393, 3883, 6502, 2023, -7544,
  -14525, -18002, 10570, 19942, -13652, -4421, -22832, 20224, -7370, 14266,
  10414, -10406, 14731, 2053, 4486, 16375, 5020, 22543, -290, 12118,
  5365, 6376, -4496, 12421, 5161, 15277, 17728, 12904, 5362, 12778,
  -17099, 11071, 4813, -6158, -4862, -2081, 6763, -11627, -18836, 4855,
  26779, -4820, 5749, -10019, 17305, -5741, 22999, -10469, 4270, 13264,
  -11228, 2485, 565, -269, 9046, -9767, 22636, 2755, -12116, -770,
  1549, -7895, -6905, -8381, 10705, 16159, 9094, 7429, 2527, -1568,
  -12335, -13361, -7760, 6250, 15448, -1937, -12647, 3382, -13046, -7472,
  -11747, 17068, 7684, -6272, 3799, 559, 7057, -22976, 4498, 12799,
  19315, 8428, 6223, -12176, -3011, 21826, -4358, -19430, -2075, -515,
  5056, -4489, 3014, 10773, -7672, -11690, -5447, 12059, 525, 1633,
  6277, -1039, 7092, 8008, -249, -13642, -10672, 14159, -1712, -363,
  -2779, -1997, -6246, 1255, -5494, -5580, -4555, 5818, -4739, -1931,
  12106, 9253, 1193, 332, -8898, 14265, 1763, -2581, 8427, -4886,
  8530, 5849, 5410, 13024, -4689, 6650, -937, -206, 3261, 7576,
  -4254, 2864, -2497, 6059, 5067, 5318, -3959, 1993, -7779, 441,
  2043, -1760, -3809, 5933, 3675, -6601, -4832, -2741, 13040, 1053,
  -1807, -3430, 6531, -23, 13601, -10562, 3821, 6728, -218, 6576,
  6912, -787, -1602, -9054, 6863, -1475, -383, 5539, 2590, 1792,
  -7823, -2038, -5099, 70, 9209, 5156, -2283, -9046, 2555, -7567,
  295, -4790, 778, 5654, -6749, 3574, 3395, 5085, -10844, 5715,
  -793, 1042, 10655, -2348, -5901, -7882, 518, 12112, 7192, 6509,
  10399, -2800, -5806, 6607, -1223, -11653, 9778, -8034, -5393, -11796,
  -11381, 3878, -7551, -9113, -3490, 7725, -1706, -17175, -4061, -6692,
  -7866, -4658, -7894, -2689, -1962, 5845, -9807, -13792, -1682, 6750,
  -8309, -1887, 1963, 4899, 15528, -9050, -12584, -12837, 7226, 5634,
  -14732, -4518, -9617, 5052, -5259, 11160, -6843, -1683, 7935, -7132,
  7160, 5986, 12661, 9258, 3276, 14418, -5064, -9640, -7683, 1740,
  -545, 6269, 6748, 2132, -1636, 14053, -10975, 9100, -4102, -5396,
  -3797, -11253, 2623, -9777, -12973, 2576, 6237, 3616, -1588, -13290,
  7446, -6273, 8197, 2790, 10936, 8707, -1041, 4251, -8159, -9520,
  4040, 4903, 11210, -9989, -14443, 16, -1868, 1461, 8631, 5372,
  11026, 14697, -6148, -5753, 2669, -8356, -13434, -6383, -12449, 10401,
  9218, 2528, -10352, -11496, -11598, -2527, 993, 10123, 1347, -14292,
  5652, -1338, 10799, -7228, 14938, 8677, 11236, -9252, 9333, -1883,
  8672, 8885, -3741, 71, 2226, -1262, -1510, -142, -1958, -4310,
  3154, 5162, 2338, -4484, -150, -2232, -2424, 1254, -3624, -3144,
  -1094, 4822, 3200, -4544, -690, -1038, 854, 1058, 3030, 456,
  3314, 3650, 2646, -3912, 886, -972, -5224, -2706, -2150, -672,
  2182, -5318, -1748, 2926, -3332, 1434, -2886, -2882, -2356, -5080,
  3036, -1044, 462, 1448, -1154, -3328, 1730, -164, 1868, -1528,
  -738, -1404, 2658, 360, 2212, 982, -570, 240, 1464, -3384,
  -1204, 2188, 466, 1970, -3958, -1078, 1566, 684, -1554, -632,
  -4660, 4428, -1534, -2094, -1114, -3194, -3606, 358, 1828, 3714,
  -1142, 1048, -1152, -3010, -1208, -1806, 3384, 168, 3866, 1742,
  -3886, -1930, 1476, 4572, -2722, 2516, -1032, 3218, 1280, -3192,
  2154, -1548, -3238, -3504, 4434, -1144, 1248, -1268, -5198, 1288,
  3892, 1636, 240, -4982, -1676, -2542, -4792, 142, 2744, -1100,
  156, 4024, -9544, 7340, 8883, 10862, 13655, -3964, 9681, 12315,
  4716, -8115, 2644, 19233, 6263, 10830, 9308, 7124, 7808, 1171,
  -532, -3691, 9777, 15546, 1612, -8180, 11815, 5001, -233, -3393,
  -18590, 8924, 14002, 12879, -9112, -4104, 15782, 4936, 8931, -4322,
  4869, -10254, 9973, 837, -8253, 8806, -9142, -6240, -14075, -7640,
  -3938, -15536, 7474, 12794, 10005, 438, 2731, -5427, -5234, -466,
  4510, -15355, 11897, -8994, 6336, 6086, 4751, 13135, -2293, 11451,
  13455, -1366, -3979, -5926, 4094, 15772, -6556, 6971, -7595, -3828,
  -13790, -9249, -1181, -6089, 9553, 12730, -2470, -6725, -10208, 14239,
  16117, -1158, 2494, -4035, -11133, -8458, -10440, -14951, 8574, 8491,
  -2163, 12614, 14132, 6793, 14459, -10799, -8128, -4750, 11978, 15306,
  11384, 585, -1743, -9937, 535, 17078, -8442, 2588, -10885, 5566,
  -18264, -10451, -11138, 13022, -12587, 221, -10638, -7323, 4263, -2285,
  -11840, 10672, -622, 13812, 8214, 596, 94, -2530, -1168, -2333,
  4, 14561, 1681, -3290, 8111, 2359, 9080, 1640, 4515, -5895,
  10448, 10824, 1214, -4260, -2000, -5035, -8446, -11130, -10762, 12883,
  8598, 13499, 2035, -6046, 14268, 4331, 9024, -1364, 7771, -15266,
  3235, 2342, -4162, 6218, -335, -385, -11861, -11287, -1978, -12741,
  1042, 5899, 1122, -5987, -5653, -6275, -8906, -4131, -6792, -10991,
  6875, -9762, -54, 3763, 517, 10241, -1933, 4123, 11366, -6692,
  -7038, 2636, -5046, 7193, -7498, 5401, -4753, -4351, -2896, -5162,
  7008, 2956, 8482, 2270, -8755, -4070, -11776, -135, 11733, 5414,
  1803, 5966, -5935, 1443, -15316, -15132, 4576, 1724, -4821, -4983,
  14286, 3227, 8965, -12006, -12257, 5451, 4816, 4661, 14928, 10053,
  -3226, -8971, -6271, 9313, 5476, -2345, -13681, 9293, -7409, 162,
  -9375, 3480, 2517, 5472, -6533, -10753, 2591, 1181, 3910, -5480,
  5061, -8966, -560, 4858, -2580, -2718, -1578, 6522, 710, -4086,
  3781, 3600, 931, 4549, -4241, -8821, -9245, 10891, -5511, -3723,
  -2173, -439, -1, 4755, 1832, 2763, -136, -2840, -5212, -6858,
  3634, 8055, -4901, -1585, -8973, 8015, -2898, 5583, 4862, -4257,
  5580, 1274, 1216, 6279, 1436, 9029, -325, 4262, 2690, 3328,
  -1167, 5295, 2477, 6063, 7157, 5374, 2717, 4492, -6359, 4200,
  2418, -2198, -1664, -235, 2671, -4071, -7095, 2098, 10888, -2453,
  2794, -3205, 6850, -2015, 9023, -4407, 881, 4941, -4873, 512,
  650, 716, 3796, -4330, 8903, 2129, -4174, -549, 761, -3678,
  -3411, -4049, 4116, 6026, 4185, 3584, 1035, 394, -4478, -5077,
  -2426, 2171, 6124, -1277, -4472, 2316, -4979, -3306, -4818, 6562,
  3374, -1646, 810, 487, 2545, -9274, 798, 4508, 7409, 4255,
  1601, -5117, -1767, 8742, -1554, -8128, 4671, -7545, 11902, -11743,
  3428, 4723, 1242, 3244, 571, 5952, 2379, -848, 8004, 11697,
  3379, 9303, -5027, -12410, -14821, 15554, -6284, -961, -2627, -3307,
  6666, 10966, 5308, 5918, -5987, -3735, -3115, -7634, -87, 11377,
  -3649, -1145, -11146, 9663, -4176, 7815, 10896, -6344, 5152, 4237,
  -2745, 5911, -1116, 12703, -1757, 2441, 7281, 9267, 3068, 9741,
  6796, 7962, 10479, 8783, 8411, 2280, -5234, 4673, 6683, -1245,
  -90, 2956, 3304, -1308, -6974, 4533, 15782, -7301, 7733, 1087,
  8911, -1080, 10558, -6701, -4721, 4074, -9778, -3288, 2982, 6733,
  7063, -8148, 11389, 10292, -1612, -3113, 1781, -9182, -8456, -10447,
  5659, 6026, 8787, 8836, 2006, 8615, -3889, -4790, 942, 1628,
  8661, -5971, -1839, 9511, -6199, -7672, -6602, 7282, 7162, 3255,
  -4887, 2811, 2668, -13361, -5607, 1094, 8009, 11495, -4882, -8908,
  -5679, 12280, -866, -13022, -17301, 17527, -4051, 25123, 11343, -5893,
  5391, 3851, 1915, -11403, -125, 22353, -1197, -4309, 8503, -1245,
  14825, 11709, 14335, -18417, 17961, 17701, 3949, -5299, 1141, -8601,
  -9641, -13863, -14005, 16917, 17011, 22965, -4495, -15459, 22161, 6887,
  20381, -11287, 11421, -22419, -115, 7113, -12009, 6303, -3895, -8929,
  -15647, -22105, -2347, -19975, -241, 4685, 4797, -11181, -7145, -13745,
  -17279, -9835, -7995, -18627, 16247, -15637, -1193, 7353, 3525, 12659,
  -5277, 11103, 21469, -8653, -19505, 3681, -6625, 13931, -16001, 8827,
  -16253, 159, -6947, -12427, 11477, 587, 9211, 4371, -12679, -389,
  -23031, 1003, 19161, 5189, 1387, 8499, -4173, 3791, -20857, -23953,
  1501, -389, -5981, -1771, 21295, 10291, 14313, -15799, -19819, 5159,
  12303, 5337, 21757, 12865, 2139, -17823, -9247, 14389, 1923, -1985,
  -17737, 20133, -11983, -7481, -19433, 1537, -2629, 10725, -6437, -21227,
  5133, 9669, -9492, 8560, -4232, 7840, 2706, 10040, -11110, -18770,
  -7860, 9971, -1408, 6161, 1407, -12626, 8077, 2649, 6278, -6230,
  481, 3243, 5798, 2826, -940, -498, -14614, -9337, -13810, -15064,
  -2850, 13899, -1450, 7403, 16463, 560, 8058, 2481, 466, 9714,
  7859, -13756, 1947, -88, 5666, 5254, 9569, 11701, -7681, -5205,
  -12, -5217, -2034, 2891, -8056, -6325, -10615, -585, -4744, -1831,
  -14246, -1803, -3895, -5738, -3330, -297, -4743, 7407, 1461, -6511,
  2532, -9112, 1318, 8634, -10426, -3849, -1094, 2191, 7289, -8677,
  8714, 4060, 10170, 12312, 8282, -6578, -10363, -5326, -3842, -11233,
  3589, 11332, 2237, 12038, -3841, 7169, -15116, -8628, 5178, -808,
  -5811, -20707, 10066, -4819, 1557, -10332, -9457, 14081, -6072, -2851,
  13402, 15885, -8890, -1011, -8847, 517, 19664, -6083, -13099, 3865,
  4195, 14990, 179, -1058, 18675, 5658, -3843, -4761, -193, -3167,
  -9550, 7518, -5075, 3320, 541, 19178, -20669, -32879, -13986, 21124,
  -2294, 2126, 3152, -19110, 10597, 5333, 4802, -15533, -5335, 12898,
  2789, -1808, -3268, 778, -24713, -12070, -19543, -20091, -186, 16937,
  -8874, 3602, 29197, 7076, 5224, 1509, -7333, 20864, 8740, -14690,
  3836, -3193, 14057, 6694, 17233, 23137, -7436, -141, 618, -1523,
  -3022, 3595, -15213, -6143, -14986, 4334, -1238, 873, -20692, 3722,
  -12832, -3838, -4892, -3337, -9364, 7944, 4446, -15146, -4011, -12044,
  10067, 12660, -14802, -11553, 4348, 324, 18632, -15145, 16784, 11445,
  12283, 20195, 10663, -12362, -12547, -9395, 2410, -18768, -1090, 16894,
  3255, 16535, -5548, 9975, -17666, -5615, 8564, -817, -7604, -33795,
  8900, -12208, -2608, -11681, -8351, 21363, -14872, -6283, 14210, 21514,
  -16213, 5052, -11232, -4251, 31984, -9459, -15574, -1655, 10953, 27867,
  7677, -1780, 31966, 5017, -4573, 264, -2338, -9680, 18079, -15077,
  -2503, -17505, -13965, -6493, 3343, 8999, 4199, -2864, -533, -22378,
  -6200, 4381, -15760, -8132, -13039, 4955, -540, 672, -14269, -15879,
  -361, 7425, 5347, 5924, 14639, 18609, 18485, -21674, -10323, -18580,
  -8894, 3563, -21519, -6580, -8349, -5639, -12128, 23155, -9752, -739,
  1595, -12427, -1976, -6208, 19804, 12470, 3419, 18690, -3755, -13166,
  45, 6658, 8954, 5692, 9871, 2808, 11217, 15058, -6154, 13797,
  -1503, -4730, 970, -18328, 758, -2942, -14083, 10783, 2883, -3943,
  7653, -9190, 7205, -8000, -370, 11918, 2729, 4021, -9621, -7367,
  -16193, -3595, 13100, 10891, 13193, 24, -17166, -10525, -4140, -9085,
  13088, -456, 24599, 21825, -11951, -5791, 7986, 10956, -22179, -886,
  -13586, 19857, 17026, -10416, -3857, -9436, -23355, -16830, 10379, 9902,
  9026, -14636, -12929, 4288, 22790, -9064, 11062, -6213, 9738, -9243,
  -8424, -6177, 12796, 11732, -3280, 4730, 2761, -4177, -267, -10177,
  -4592, 13569, -13814, -19770, -8587, 17200, -1075, -8924, 2773, -7947,
  2258, 4084, -4314, -14645, -10318, 16381, -6917, -9022, -3754, 2604,
  -13813, -2159, -6184, -4553, 5817, 1555, -12763, -8798, 18201, 11566,
  -7292, -2334, -13917, 17232, -548, 2404, 2844, -5363, 13504, 1135,
  11133, 17202, 2834, 10632, 1284, 8277, -1125, 453, -10409, 2212,
  -4687, 9065, 7718, 5439, -7370, 10570, -14745, 5181, -1771, -5237,
  -6788, -1107, 5035, -13475, -12307, -2517, 15314, 4912, -4761, -12606,
  10145, -3859, 18281, -8888, 12134, 12177, 1047, 10728, 1952, -8411,
  -831, -5542, 12382, -10231, -9320, 6840, 1286, 4780, -1727, 3180,
  -81, 8016, 4610, 260, -1411, -17421, -4879, -11695, -7826, 717,
  4803, 9156, -13895, -5303, -2284, 5672, -10364, 11254, -1638, -8629,
  16567, -4186, -507, -10793, 11109, 18878, 13478, -976, 18603, -2591,
  2, 10436, -3662, -10520, 3762, -3234, 5208, -518, 2482, -11026,
  13294, 20646, 8634, -12803, 1910, 2391, -63, 13300, -3883, -1023,
  -1492, 8014, 1921, -6839, -90, 3860, 1942, -2172, 16262, 8277,
  11062, 10808, -3764, -7893, 7332, -39, -17817, -3966, -140, 25,
  5030, -11716, -4163, 6658, 437, 1524, -8982, -1772, -11391, -13563,
  1385, -569, -1190, -1929, 3524, 999, 10460, 4075, 9199, -2915,
  350, -23, 12780, -4797, 8987, 716, 4304, 2907, 6051, -1727,
  -2677, 10423, 4308, 6666, -5318, -8548, 9412, 9403, -3076, 1065,
  -11045, 7215, -12140, -7796, -7602, -12484, -3898, 9628, 6893, 3410,
  -2540, 13665, 3531, -9726, -1215, -10446, 441, -7739, 8130, 660,
  -2564, 2596, 3911, 21541, -2492, 7711, 4215, 4512, 3615, -13043,
  10338, 6933, -6080, -12229, 8202, -4201, 6739, 5757, -19526, 5877,
  6707, 1129, -9821, -17262, -5829, 4144, -20295, -3278, 169, -759,
  2037, 4099, -662, -2024, 10064, -3548, 6619, 2074, 3329, 5081,
  1454, 1499, 2214, 5903, 7036, 10178, 5431, 8185, -401, -7746,
  -9497, 8632, -574, 4487, -1233, -4803, 7254, 7988, 2547, 1850,
  -9954, 1120, 2442, -343, -2306, 5759, 3121, 927, -4138, 5037,
  -745, 881, 10071, -3772, 755, 5676, -4298, 2159, -5667, 5181,
  -2439, -3798, 6816, 10006, 4718, 5885, 4584, 3140, 4587, 5200,
  6003, -3683, 322, -310, 6014, 1108, 1195, 6372, 1330, 2516,
  32, 1912, 8593, -6155, 5620, 5535, 3346, 1612, 4428, -5899,
  -7077, -316, -6102, -3525, 5271, 7962, 3082, -7587, 3591, 10464,
  4299, -1867, 1959, -6565, -9136, -9011, -592, -1521, 8447, 8175,
  224, 8452, 2530, -1092, 5269, -3012, 2296, -4691, 2374, 10706,
  349, -3949, -5173, 1237, 4185, 7516, -4948, 2251, -2516, -6456,
  -9286, -2067, 1359, 11293, -6330, -5312, -7237, 5039, 761, -9105,
  -11622, 10364, -6958, 8684, 1635, 14566, -16955, -27907, -11706, 15154,
  -2390, 5416, 1131, -18892, 9746, 2760, 7213, -9322, 158, 5463,
  6202, 1365, -1745, 363, -21962, -13457, -19025, -20252, -1368, 17637,
  -4388, 7900, 24103, 1675, 8487, 2526, -1210, 14331, 9886, -17315,
  1398, -566, 9187, 5942, 14473, 17258, -8600, -5718, 429, -4845,
  -3846, 2215, -12716, -8618, -15011, 183, -5525, -2285, -20263, -150,
  -7517, -6508, -5484, -1503, -7416, 8211, 2379, -10943, 1086, -12368,
  2849, 12531, -14930, -7848, -316, 1811, 11509, -11750, 13945, 7082,
  13842, 17781, 9979, -10972, -13847, -6707, -3475, -17537, 2312, 15665,
  2662, 16891, -3977, 10792, -19240, -9543, 6021, -2255, -7755, -30461,
  11516, -7991, -162, -12690, -11663, 19936, -10434, -6119, 16487, 21552,
  -12365, 270, -12210, -1933, 28276, -8842, -16475, 3947, 8351, 22309,
  2128, -3217, 27549, 7404, -3966, -5166, -1064, -4564, 5287, -6665,
  12115, -6457, 5171, -7221, 13079, 20875, 8239, -8374, 3243, 3028,
  5044, 19229, -756, 5020, -3645, -91, -6952, 2744, -2999, 3975,
  293, -4433, 18981, 13972, 12743, 12639, -8155, -8420, 5653, -3506,
  -16340, 2809, -1069, -280, -1395, -4989, -5710, 9593, 7434, -2285,
  -5501, 1553, -12254, -8924, -486, 6290, -2359, -1436, 7857, 7192,
  11679, 9242, 12194, 1652, 5985, 5030, 16399, -4028, 5718, 2661,
  8109, 2272, 5596, 1172, -606, 9218, 727, 8359, 4187, -12165,
  13025, 10034, 1977, 820, -4126, 2146, -14401, -5161, -12419, -13299,
  -981, 13277, 9942, -2241, 3611, 18988, 3352, -10415, 148, -14777,
  -5348, -13468, 9619, 2953, 3479, 8021, 4422, 24794, -3391, 4478,
  5308, 4087, 7576, -15244, 8875, 12718, -8077, -15120, 3223, -204,
  10088, 8194, -20569, 6964, 6606, -6346, -13216, -15269, -1298, 11255,
  -21548, -8023, -3940, 5902, 1594, -4132, 21690, -21452, 5053, -28930,
  -13388, 1942, -1512, 2974, 954, 7728, 466, -26116, 99, 8624,
  -12471, -429, -17873, -9145, -14383, 17113, -20923, -19867, -3681, 6009,
  3979, 11945, 15204, 20131, 16360, -23166, -17308, -26764, -1708, 15323,
  -26453, -8243, -21057, 7439, -14940, 28563, -1468, -7105, 10112, -9094,
  542, 4429, 19642, 24535, 2575, 23016, 482, -6814, -2207, 13593,
  11199, 14197, 19393, 10476, 13405, 20262, -15389, 18456, 2042, -7644,
  -1926, -16589, 4745, -9189, -23319, 12374, 19004, -6805, 10506, -13403,
  16722, -10193, 13593, 3659, 4257, 11261, -15501, -5248, -13274, -2596,
  16954, 3034, 25079, 2543, -21668, -9761, -2521, -13114, 6491, -6123,
  27592, 28314, -4295, 48, 8429, 9312, -26302, -8739, -15912, 20643,
  24062, -10599, -10596, -5278, -27931, -19360, 1634, 18740, 12712, -15752,
  -9426, 4237, 23707, -21964, 11432, 1952, 19931, -2089, -4209, -13001,
  8695, 23460, -5356, -8134, 2021, -1257, -6315, -4345, -6914, 8105,
  -11448, -16680, -6751, 10863, -2035, -9263, -2308, -11725, -1493, -2095,
  -2392, -5179, -1057, 5824, -4031, -8568, -1722, 4670, -13915, -6464,
  -5982, -4513, 9847, 806, -9941, -5375, 14008, 4282, -6446, -1985,
  -6683, 8742, 363, 732, -4077, -1235, 8734, -2467, 10318, 10515,
  5141, 3847, 2380, 7700, -4863, -5600, -9937, -2205, -6126, 4168,
  2282, 480, -8868, 9251, -10048, 3523, -4845, -4102, -5311, -4316,
  2640, -10602, -8071, -3029, 5084, 7278, -6795, -11771, 4747, -3420,
  9738, -2537, 12636, 8453, 4721, 9660, -1594, -10525, -2650, 800,
  6008, -13376, -8631, 6048, -209, 7534, 4312, 7809, -69, 6056,
  -1832, -4728, -1182, -17208, -4429, -7194, -8281, 2057, 1594, 9369,
  -10783, -10010, -1294, 6657, -3962, 6759, -3809, -10200, 14607, -4257,
  866, -3112, 13160, 14272, 8197, -7438, 16766, 1699, 4315, 3815,
  -2843, -1531, 1282, 1172, -10063, 838, -7716, 2542, -7744, -11554,
  -4190, 4208, -2438, -8196, -5945, -12800, -4275, -6641, -557, 3139,
  6421, -3339, -1191, -6943, 179, 5653, -11753, -8763, -4756, -3617,
  11640, -14, -6204, -1932, 8508, -2049, -4881, -1407, 27, 707,
  980, -505, -8908, 2235, 3672, -4958, 8094, 3617, 6322, -1965,
  2931, 6208, -7030, -9534, -7979, -5251, -6205, -255, -2243, -3436,
  -8551, 6910, -4793, 1800, -6478, -2564, -3278, -6249, 389, -6673,
  -3539, -2850, -3692, 8015, -7246, -9303, -150, -2557, 1541, 2967,
  11117, 4273, 6847, 7304, -4202, -10532, -3542, 5770, 187, -13725,
  -6820, 4451, -1341, 8502, 8511, 10265, 152, 3754, -6651, -7912,
  -727, -14248, -3494, -2503, -7400, 2959, -1026, 8045, -6644, -12174,
  -431, 6320, 1794, 2276, -4824, -9904, 10742, -3583, 1999, 3388,
  12832, 8424, 2871, -11381, 12691, 4803, 7155, -1868, -1740, 5842,
  -7013, 8633, -5004, 13719, 3281, -6625, 4733, 5151, 2651, -9511,
  -461, 8917, -3662, -3035, 748, -4454, 7058, 11354, 11796, -14524,
  9028, 7684, 3066, -912, 1702, -5468, -2799, -4602, -3251, 5695,
  9185, 11365, -5787, -11042, 9398, 3016, 13154, -10750, 4853, -9418,
  -4363, 5626, -8459, 131, -2901, -8808, -4601, -13106, -278, -8415,
  -2149, -1857, 3072, -6892, -2994, -8760, -10256, -7019, -3092, -8573,
  10202, -7171, -2045, 3925, 2863, 2914, -3780, 7106, 11624, -3201,
  -14631, 2358, -3149, 6856, -9989, 3926, -12708, 4714, -3336, -7868,
  6366, -1363, 1159, 1193, -5617, 4195, -13366, -490, 8389, 858,
  -442, 4375, 2266, 3904, -7611, -10677, -3648, -3075, -1880, 1153,
  8619, 7608, 5785, -5034, -9597, 1228, 7729, -281, 8868, 4849,
  5611, -10227, -4487, 5225, -1945, -328, -5614, 13037, -4175, -7195,
  -11494, -3126, -3738, 6794, 246, -12667, 2773, 9935, -3149, 9697,
  -17403, 19493, -5416, -18645, 9790, 13062, 7095, -22046, -2537, 1458,
  -15185, -9305, -11010, -18608, 6792, 30495, 29078, -34165, 10179, 3632,
  6708, 5246, 2599, -12129, 1608, 695, 9987, -2033, 11183, 12240,
  -15923, -23700, 4514, 1662, 24167, -28226, 3022, -5882, -20450, 13137,
  -16800, -10407, -4751, -22986, 5620, -22248, 2814, -3895, -10499, -17339,
  3635, -13424, -3345, -16289, -17648, -15613, -2980, -6464, 16953, -6241,
  -8485, 4531, 5734, -8649, -8055, 11323, 15261, -1175, -33034, 5862,
  -5023, 5370, -18009, 2287, -28725, 20064, -1260, -13535, 10619, -5276,
  -10340, -4209, -5379, 19330, -21456, -6877, 4406, -3558, -4522, 7128,
  17571, 12716, -495, -7912, -19400, -14376, 791, 4175, 2855, 15603,
  688, 3281, -10721, -1156, 12127, -12267, 3878, 1982, 20568, -15696,
  -6132, -2345, -9011, 610, 3579, 24795, 3265, -17326, -18454, -18298,
  -9199, 13121, 12202, -21714, 3240, 28218, -5561, -561, 19874, -3447,
  15712, 6839, 4210, 5600, 891, 5173, 4239, 16027, 15271, 17651,
  14526, 18082, 2033, -17528, -19110, 17905, 1762, 11679, -2673, -10867,
  11244, 13609, 612, -1562, -23209, 7660, 6015, 3103, -532, 11215,
  10627, 3158, -7216, 12659, 1501, -3899, 21989, -7604, 2284, 14059,
  -6748, 7274, -15591, 7796, -5455, -11212, 13871, 22490, 8020, 9802,
  6081, 5421, 7029, 9752, 7987, -9869, 719, -3589, 11709, 2770,
  1369, 16655, 2797, 4249, 2370, 701, 17178, -10409, 8387, 11684,
  5541, 4683, 10275, -15176, -13161, -502, -9256, -3958, 14298, 15343,
  2528, -17844, 4729, 19071, 11611, -355, 4872, -9926, -21005, -16924,
  -7321, -7648, 19587, 17118, -1737, 11804, 9885, -3021, 12721, -10708,
  572, -5584, 4165, 22360, 6237, -2889, -13538, 925, 5585, 17220,
  -4751, 2814, -10603, -11192, -19576, -678, 1410, 23847, -8335, -8942,
  -17124, 7689, 1891, -19691, 9055, -3313, -19363, -3653, -18903, -1037,
  -9895, -13231, -4193, 2714, -4541, -22320, -14048, -19883, -14838, -16382,
  -5585, 10699, 13486, -9360, -6693, -17353, 845, 12643, -16349, -13140,
  -1435, 1921, 27381, -9386, -12939, -9414, 7830, -4815, -16293, -4890,
  -573, -4789, -3214, 7973, -20902, 4761, 4353, -14471, 11412, 266,
  18898, -804, 6333, 17086, -14191, -22938, -12395, -7384, -6718, -156,
  -1763, -6352, -9481, 16384, -8246, 7725, -12127, -5618, -4244, -18768,
  -166, -10606, -9743, -333, -8867, 11771, -9127, -18132, 429, -7240,
  -1330, 12036, 18623, 6721, 8131, 7847, -14819, -18947, -992, 15997,
  3031, -22872, -17596, 2189, -4530, 10569, 21072, 17654, 10283, 13975,
  -18081, -16921, 2138, -17812, -14555, -2566, -17492, 13261, 4002, 8270,
  -10841, -24984, -10025, 3236, 9585, 5708, -4824, -22300, 10571, -3982,
  12982, 4576, 25378, 8637, 6252, -24377, 15532, 6603, 18126, -890,
  -3858, 14644, -2305, -2961, 11902, -9799, 6424, 16475, -9890, -14696,
  -7365, 18394, 1603, 3422, 12062, 3309, 11857, 15053, -1663, -23870,
  -20623, 25108, -4024, 235, -4939, -4871, -5786, 5840, -6184, -6354,
  -10311, 7523, -6879, -4552, 16267, 16625, 1531, 285, -16030, 23147,
  1258, -1985, 16442, -9304, 13076, 10345, 5797, 19909, -8426, 13089,
  -2469, -917, 7613, 14893, -4356, 7327, -1150, 10772, 10255, 10413,
  -2521, 2174, -12124, 1325, 5575, -2635, -5260, 10374, 6006, -9110,
  -8406, -2627, 23570, -1737, 273, -3399, 11683, -30, 22244, -17899,
  2459, 10050, -4022, 7520, 11482, 2089, -211, -16496, 12721, 2478,
  26, 6511, 4323, -1186, -15214, -7449, -6341, 778, 16703, 10940,
  -2924, -9027, 3251, -12088, 1748, -7340, 3271, 5379, -9463, 9485,
  3413, 4414, -18094, 9672, 1224, 3837, 12577, -2343, -8566, -15635,
  -2925, 16578, 11931, 14171, 11872, -7280, -11329, 12906, -1888, -21536,
  -6293, 3347, -114, -1755, 1436, 17759, -17110, -26652, -11689, 19892,
  -1193, 1132, 5392, -11987, 9907, 7687, 1985, -17698, -10005, 16454,
  -188, -2165, -3831, -567, -18542, -6278, -14556, -14754, -2231, 12625,
  -8863, -38, 24465, 10045, 2747, 679, -10450, 20987, 5636, -9445,
  6980, -5120, 13672, 6953, 13455, 21543, -6584, 4519, -185, -303,
  -67, 6147, -11868, -1699, -10224, 6510, 2755, 3847, -14441, 4036,
  -12934, -1507, -1841, -3437, -8054, 7480, 4860, -13432, -6190, -8535,
  14166, 7911, -9743, -9593, 6883, -316, 19482, -15221, 12411, 11098,
  6630, 15704, 9814, -8167, -8017, -10892, 6209, -12256, -1808, 12939,
  3245, 10450, -7724, 4537, -12729, -2430, 10191, 2340, -5726, -25457,
  5763, -12186, -2126, -9180, -3843, 15685, -13403, -2081, 9405, 15124,
  -16106, 6918, -6914, -2689, 25037, -7045, -12064, -6457, 7249, 23798,
  9401, 2451, 25074, 836, -5895, 4700, -2438, -12970, -11774, 6550,
  12796, 5810, 15602, 7410, 410, -1610, -1790, 4832, 2634, 19612,
  11914, 8018, 15954, 14518, 7116, -13180, -11398, 10646, 7456, 13992,
  -1600, -9896, 3612, 5086, -6790, -9888, -22270, 14668, 7930, 10216,
  4336, 5200, 16076, 4802, -828, 10548, 6488, -13192, 17544, -4376,
  922, 14078, -2792, 7642, -18492, -1030, -4864, -15224, 9822, 19372,
  4308, 2630, -850, 710, -348, 4508, -872, -12656, 2790, -8526,
  7470, 3616, 64, 18314, 1362, 3398, 7564, -4814, 9146, -4212,
  1118, 10742, 102, 6322, 6698, -14894, -8752, -1900, -980, 1374,
  16014, 10394, -4776, -15882, -3124, 10834, 14548, 4864, 4774, -1514,
  -18662, -9742, -15962, -14606, 17216, 12734, -4902, 1196, 16022, -1798,
  13564, -15704, -7604, 1802, 3766, 17368, 14504, 6300, -13250, -3852,
  -1084, 16684, 3698, -566, -17058, -2740, -16480, 3010, -3422, 18284,
  -470, -2524, -16186, -752, 2464, -14224, -3107, 7437, -9567, 16341,
  -623, -18523, 13553, 18993, 8989, -22477, -859, 5567, -10217, -423,
  -7797, -12917, 5957, 25485, 22035, -28601, 9341, 6949, 5825, 1405,
  9629, -5377, 4745, 3353, 2329, -2549, 13433, 11507, -19813, -19927,
  6301, 2083, 21309, -25955, 1667, -4303, -13229, 10313, -17311, -6735,
  -9337, -23061, 1715, -18401, 769, -6773, -5279, -10165, 8081, -8665,
  1019, -14321, -14191, -11857, 2853, -9617, 17867, -6327, -3743, 5419,
  7111, -4553, -7493, 14075, 15337, 965, -27303, 157, 113, 10159,
  -15879, 3303, -26749, 16463, -7915, -14679, 4957, -9491, -7255, 2505,
  -2305, 14057, -18987, 2183, 7527, -6303, -3421, 833, 10871, 5027,
  165, -8771, -13739, -8275, 1339, 12743, 3945, 15419, 4663, 1681,
  -8509, -6349, 14749, -3889, 2949, -2681, 17585, -15209, -2321, 3447,
  -15115, 2811, 2627, 19791, -4653, -20935, -18049, -9771, -16337, 8557,
  6883, -18005, 3803, 21783, -2183, 5649, -9813, 10517, -3069, -8451,
  3571, 4371, 2713, -10052, -1539, 626, -7970, -6553, -5240, -9656,
  3885, 15185, 15212, -17226, 5513, 1565, 3355, 3049, -615, -7438,
  -545, -1017, 5703, 40, 5111, 6620, -6160, -12049, 2553, 948,
  12265, -13447, 2212, -4013, -10804, 6815, -7765, -5197, -1066, -10440,
  2748, -11742, 1659, -1880, -5941, -9208, 675, -7610, -2912, -8262,
  -9405, -8246, -3171, -2870, 7944, -3425, -4981, 2104, 2326, -4242,
  -3904, 4768, 7663, -1459, -16825, 4217, -3821, 1770, -9161, 1158,
  -13820, 9722, 853, -6193, 6649, -1183, -4881, -3361, -3726, 9807,
  -11083, -5290, 2022, -597, -2188, 5147, 9230, 7732, -1347, -4343,
  -9867, -7871, -64, -458, 1967, 7360, -50, 1123, -6172, 1084,
  5209, -7270, 2957, 2678, 9875, -7810, -4086, -1842, -2267, -384,
  996, 13082, 2924, -6985, -9070, -10123, -2294, 7425, 6420, -11432,
  1520, 14462, -20389, 19525, -4967, 24929, 11634, 2291, -2876, -9092,
  -3673, -2228, -841, 22692, 779, -10849, 12864, 1718, 16010, 4175,
  10616, -11553, 18171, 16546, 2326, -5188, -8185, -12309, -16814, -21121,
  -14349, 23027, 12855, 23286, 7245, -11346, 23496, 7248, 16071, -1892,
  14320, -27188, 2368, 5133, -5718, 9221, 2817, 1000, -18430, -20634,
  -2220, -19999, -815, 6837, -1117, -12578, -12413, -11061, -16534, -8537,
  -15386, -16594, 10337, -16473, -2549, 5759, -304, 15843, -3119, 4711,
  18833, -12915, -13732, 8020, -11747, 9132, -13185, 8683, -7577, -6498,
  -530, -7267, 15299, 8350, 13550, -73, -16843, -4864, -20638, -5625,
  18208, 11560, 2808, 14130, -7065, 6778, -27035, -25222, 5658, 58,
  -8741, -14501, 24095, 4783, 13070, -20035, -22029, 13066, 5951, 3549,
  26468, 20536, -4974, -14834, -12942, 12691, 14233, -5492, -23401, 17903,
  -7879, 3888, -15300, 1796, 9761, 11733, -8652, -19648, 4014, 4460,
  9907, -11301, 4125, -18633, -6563, 10763, -9367, -11451, -5237, 15317,
  11, -14491, 3697, 111, -1713, 4687, -9685, -15387, -14721, 19909,
  -12679, -12569, -4213, 2995, -6403, 4877, 1997, 4805, 7879, -7193,
  -14713, -16111, 11615, 15203, -14129, -4409, -18459, 16063, -6043, 12575,
  3877, -7207, 13445, -1185, 7043, 14247, 8021, 17839, 1351, 13519,
  1063, 203, -6919, 8051, 2033, 12421, 13751, 8987, 1311, 14125,
  -15883, 10479, 1003, -6173, -5111, -5375, 5665, -12175, -17195, 3359,
  19857, -473, 1967, -12425, 14163, -6039, 18941, -6169, 8471, 12693,
  -6395, 4789, -2263, -4905, 6515, -4459, 18891, -3679, -13491, 783,
  491, -3007, -871, -2101, 10131, 15841, 3679, 2189, 2269, -6661,
  -12525, -11611, -10079, 7537, 12911, 1427, -13025, -3085, -11829, -4091,
  -7783, 15193, 4633, -10053, 6983, -753, 7937, -17157, 9903, 13505,
  17219, 1263, 10021, -7823, 1603, 17269, -4303, -12447, 677, 2065,
  -6558, 5711, -3234, -8335, 4764, 6954, 3553, -9390, -927, -1414,
  -6364, -2381, -5889, -7897, 1253, 12462, 11063, -13314, 2504, 99,
  2597, 2529, 2394, -3598, 2582, 2590, 5263, -3265, 3679, 2888,
  -7917, -8911, -321, -5, 8654, -11929, -246, 279, -8662, 4976,
  -6766, -5229, -2667, -10101, 4026, -7337, 1291, 123, -4153, -7767,
  1960, -4263, 68, -5842, -5781, -5687, 623, -1354, 6350, -1069,
  -3135, 1421, 2588, -5108, -3164, 4596, 4702, 915, -12592, 1339,
  -677, 1699, -6363, 160, -11590, 9107, -949, -5234, 2670, -3430,
  -5676, -1401, -451, 8514, -7083, -1844, 254, -2913, -2195, 1232,
  7880, 4309, 2541, -960, -8641, -5866, 1242, 3817, -1147, 6254,
  -784, 3324, -2301, -2183, 4811, -5155, -1075, -1542, 9212, -5300,
  -1124, -1943, -5769, 943, 3836, 8601, 1675, -8168, -6455, -7585,
  -5466, 4188, 5801, -7214, 1016, 11352, 20384, -18058, -3973, -23752,
  -18016, 296, -4612, -2146, -640, 6161, -1540, -29149, -5860, -1000,
  -16000, -7282, -16165, -2233, -5428, 8678, -18871, -22243, -2479, 9557,
  -2917, 4034, 11516, 16649, 23456, -22141, -18268, -24451, 785, 9353,
  -27061, -8440, -16153, 2903, -13099, 25349, -9859, -3499, 8876, -13150,
  4349, 2588, 22751, 18236, 4385, 24389, -5422, -14749, -6337, 7430,
  6170, 10478, 13967, 5243, 6917, 21833, -14770, 17192, -3334, -8119,
  -3007, -20644, 3272, -10930, -21709, 9560, 10412, -949, 4658, -17314,
  12638, -10840, 9068, 8048, 10121, 10799, -9037, -1606, -16606, -9388,
  12797, 8990, 20123, -6856, -23737, -7231, -3994, -6370, 13556, 2048,
  25646, 27296, -11023, -6934, 7412, 851, -26362, -7420, -19261, 21365,
  20099, -5548, -12106, -14083, -25939, -14269, 5546, 16295, 7967, -21037,
  -4072, 1796, 23714, -14941, 18521, 3944, 17336, -11557, 1916, -7513,
  14006, 17369, -5695, -55, -11311, 13265, -7595, 19697, 4829, -6187,
  3457, 2149, 1561, -9932, -939, 12958, -4474, -7049, 2846, -5218,
  10661, 13335, 15530, -18118, 13099, 10585, 3783, -1215, -1353, -9386,
  -6927, -9551, -4737, 10694, 11535, 16504, -3514, -14213, 14069, 4506,
  17215, -11643, 8188, -15461, -5292, 7333, -9587, 1371, -1396, -8618,
  -7692, -18252, -309, -12066, -3333, -1822, 2017, -10484, -6444, -11498,
  -14445, -9568, -7455, -11458, 12296, -10625, -3497, 5018, 2582, 5478,
  -4540, 7636, 15673, -6319, -18715, 5213, -6613, 7908, -13213, 5606,
  -14748, 4132, -2127, -9191, 10767, 1239, 3429, -105, -9760, 4281,
  -18243, -3426, 11682, 3859, -42, 8641, 2158, 6902, -13427, -15837,
  -3575, -4257, -3800, -3532, 13547, 8736, 7814, -8919, -14686, 5030,
  8549, -1160, 14693, 10138, 5233, -13474, -7950, 6812, 2257, -1882,
  -10336, 17904, -4262, -5691, -14832, -4423, -282, 10235, -482, -17576,
  3556, 12246, -14230, 12412, -1727, 13590, 8140, 7906, -7324, -14138,
  -6094, 5945, -626, 14427, 3230, -9366, 11720, 4730, 10063, -4719,
  1572, 112, 10539, 9489, -115, -3787, -10475, -8460, -14680, -17357,
  -10358, 18125, 4710, 13617, 12663, -2379, 15139, 4624, 5249, 6951,
  10325, -19147, 5085, 771, 1608, 8568, 5931, 8500, -13781, -9848,
  -1631, -12253, 336, 7401, -4271, -7246, -10324, -3776, -8141, -2995,
  -13391, -8707, 1540, -10198, -1404, 2315, -2863, 12718, 78, -1672,
  8873, -10338, -1980, 6795, -9640, 2638, -4864, 5194, 3014, -9876,
  3269, -339, 10613, 10062, 12070, -1962, -12317, -7586, -9441, -6366,
  10567, 11161, 3054, 11226, -7938, 4532, -20396, -15796, 7957, 1862,
  -7098, -16483, 16488, -1618, 7559, -15325, -13971, 12680, -952, 2643,
  18909, 16947, -9210, -6069, -9509, 7405, 16646, -5420, -18260, 7461,
  -3129, 10488, -5448, 3291, 13874, 6565, -7994, -9223, 1605, -3039,
  3099, -7063, 14784, -10961, 6365, 4127, 3265, 6075, 1483, 4633,
  2995, 2765, 9906, 15029, 5376, 11502, -4174, -13554, -16616, 16172,
  -5152, 1916, -2734, -5488, 9706, 13004, 5741, 5778, -10547, -2589,
  -735, -6019, -2279, 11510, -1042, -452, -10634, 9498, -3851, 6454,
  13845, -6994, 3761, 6243, -5153, 4956, -4217, 12298, -2918, -619,
  9387, 12619, 5316, 10696, 7958, 7488, 10336, 9417, 10132, -789,
  -3478, 3181, 8507, -303, 735, 5698, 2980, 778, -5132, 4615,
  16381, -9506, 9267, 4276, 8307, 38, 9836, -8266, -8272, 2384,
  -11278, -5151, 4987, 9897, 7187, -10481, 10314, 14166, 1309, -3942,
  2274, -11221, -11734, -13476, 4053, 3479, 11208, 11297, 1640, 12069,
  -1661, -4024, 3801, -502, 7783, -7848, 297, 13451, -4796, -8647,
  -7729, 5821, 7897, 6893, -7457, 3500, 650, -13791, -10123, -1239,
  6366, 15154, -8290, -9994, -8574, 11893, -259, -14961, 1080, -5700,
  11843, -13074, 4143, 15564, -9199, -12973, -6532, 18155, 1660, -445,
  11265, 4442, 9270, 13950, -3984, -23225, -20994, 25719, -6595, -2494,
  -4976, -3548, -4613, 7235, -3401, -2857, -7106, 3726, -8690, -7915,
  14826, 17636, -2250, -806, -17689, 22510, -877, 2366, 15091, -9499,
  13595, 8362, 5496, 19082, -4877, 15694, -1814, 2530, 7222, 12900,
  -4195, 8828, 673, 12071, 12346, 11220, -266, 4983, -13257, 3962,
  5564, -3408, -5007, 7321, 6321, -9583, -10969, -534, 24573, -2502,
  1890, -4910, 13272, -1371, 22555, -15886, 2938, 10967, -5849, 6259,
  8809, 1702, 2352, -14693, 15424, 2809, -2945, 4694, 3736, -2899,
  -13027, -7680, -1792, 4861, 14918, 10231, -1381, -6828, -648, -12281,
  -531, -3719, 6570, 3516, -10110, 8144, -744, 1379, -16351, 11697,
  3073, 1428, 10310, -1434, -4407, -17468, -1006, 15637, 13948, 12918,
  10399, -8487, -9124, 15371, -2395, -20939, 4726, -4132, 7183, -1206,
  3440, -12526, 15900, 24694, 10326, -14574, 2550, 3098, 691, 16676,
  -4079, -329, -1903, 8617, 1281, -6835, -325, 4763, 2213, -2785,
  19797, 10661, 13448, 13153, -4980, -9296, 8656, -322, -20898, -3775,
  -115, 117, 5313, -12983, -5010, 8337, 1534, 1445, -10156, -1550,
  -13560, -15443, 1464, 255, -1467, -2182, 4858, 2112, 12715, 5589,
  11411, -2807, 1203, 706, 15747, -5552, 10415, 1164, 5714, 3502,
  7252, -1533, -2823, 12375, 4827, 8226, -5040, -10515, 11746, 11409,
  -2942, 1367, -12175, 8027, -14641, -8857, -9523, -14840, -4122, 12040,
  8660, 3426, -2183, 17047, 4338, -11531, -1157, -12850, -133, -9827,
  9904, 1118, -2153, 3896, 4805, 26134, -2910, 8885, 5302, 5369,
  4860, -15671, 12244, 9116, -7317, -14770, 9218, -4422, 8526, 7310,
  -23238, 7229, 8015, 538, -12046, -20180, -6293, 5961, -24193, -4375,
  -245, 6, 2486, 3940, 3288, -1068, -8457, -1242, -7929, -48,
  -4779, -6549, -2220, 1530, -2064, -9204, -5946, -9072, -5961, -6873,
  -2136, 4149, 5643, -3888, -2625, -7266, 234, 5232, -7671, -6072,
  -1341, 15, 11340, -3381, -5604, -3696, 3999, -2094, -6570, -2025,
  -291, -1650, -1062, 2628, -8814, 1929, 2019, -5940, 5187, 579,
  7530, -675, 2592, 6879, -6168, -9627, -5691, -3501, -3420, -180,
  -1056, -2853, -4758, 6744, -3738, 2904, -5358, -2463, -2094, -7650,
  -84, -4860, -4065, -654, -3771, 5298, -4428, -7911, 42, -3030,
  -306, 4593, 8190, 2943, 3837, 3813, -5943, -8388, -993, 6423,
  1008, -10266, -7332, 1380, -1887, 4953, 8634, 7713, 3540, 5403,
  -7470, -7263, 546, -8577, -5742, -1386, -7386, 5025, 1155, 4077,
  -4938, -10761, -3672, 2040, 3549, 2274, -2538, -9465, 5310, -2049,
  4776, 2043, 10827, 4269, 2559, -10422, 7356, 2979, 7389, -690,
  -1716, 5958, 7086, -7204, 7958, -5780, 1613, -11038, 14235, 22979,
  9378, -12114, 2366, -584, 1101, 17044, -5154, 216, -4525, 5506,
  -2030, -3103, -3554, 1675, 1137, -2331, 18914, 11881, 14337, 14708,
  -3328, -11805, 5356, -4364, -19535, -875, -3799, -1198, 1170, -10379,
  -6942, 11475, 1930, -290, -7859, -2366, -12785, -13306, 3368, 4022,
  -1405, 741, 4894, 1681, 11396, 7338, 12123, -415, 4085, 2421,
  16487, -2682, 7013, 3444, 5812, 1959, 6168, -3355, -1955, 9879,
  810, 9160, -1217, -11267, 12426, 8696, -156, -283, -8829, 6982,
  -13497, -6626, -11610, -14693, -5323, 11044, 10319, 2579, 1747, 16537,
  1016, -12193, -1430, -14315, -287, -10824, 12608, 4695, -1957, 4095,
  5347, 25509, -6356, 6447, 2802, 7290, 7831, -16320, 9546, 8287,
  -10775, -16688, 7837, -1406, 9698, 4853, -23004, 7130, 10163, -3491,
  -10343, -18341, -2912, 5953, -23253, -6532, 110, 3630, 1336, 1300,
  3437, -745, -11408, -1759, -10369, 2825, -9101, -13031, -4787, 5275,
  -2907, -12089, -7114, -14141, -6364, -8002, -2422, 2922, 6188, -2644,
  -3416, -10016, -198, 7044, -13266, -9188, -4113, -2330, 15003, -2395,
  -8841, -4817, 9383, -1226, -8266, -2520, -1886, 1146, -401, 2014,
  -10737, 1906, 4939, -6819, 9233, 4264, 9141, -222, 3546, 9243,
  -8283, -11947, -9500, -4988, -6222, 808, -996, -3217, -8712, 9761,
  -6970, 3691, -7475, -3769, -4027, -9018, 716, -8594, -6308, -2215,
  -2857, 8534, -7507, -12096, 1157, -4030, 2700, 3862, 13116, 5776,
  6390, 7755, -6351, -12561, -2611, 7029, 2322, -15774, -10041, 4042,
  -1950, 8497, 10510, 11264, 2731, 6885, -8396, -9381, -128, -15613,
  -6667, -3696, -10189, 5334, 929, 8132, -8689, -14795, -3280, 5323,
  2317, 4175, -4509, -13093, 11281, -3832, 4526, 1911, 15835, 9627,
  4950, -13630, 14034, 4298, 9106, -209, -2609, 6117, 11365, -8653,
  -8686, -12287, -14577, 3109, -8713, -10555, -3875, 7496, -2471, -20886,
  -6617, -9719, -10647, -7673, -8864, -362, 613, 3669, -10884, -16594,
  -1450, 8818, -10526, -3975, 2075, 5560, 20073, -10964, -14451, -14352,
  7746, 4422, -17484, -5367, -9354, 3536, -5956, 12638, -10588, -744,
  8163, -9773, 8610, 5309, 15910, 8853, 4290, 17158, -7477, -13680,
  -9422, 467, -1435, 5949, 6256, 872, -2866, 16552, -11939, 10329,
  -6121, -6242, -4292, -14601, 2387, -11143, -14366, 2697, 4207, 5324,
  -2893, -16017, 7203, -7477, 7283, 5217, 13610, 9406, 130, 5057,
  -10931, -12467, 4018, 7861, 11392, -13485, -17290, -22, -2757, 2913,
  12327, 8165, 12995, 16963, -9510, -8695, 3131, -10624, -15989, -6445,
  -15290, 12784, 9876, 3425, -11753, -15630, -13502, -2422, 3045, 10754,
  666, -17920, 6641, -1843, 13213, -6224, 18874, 9339, 11877, -13436,
  11131, -798, 11811, 8464, -4332, 2908, -4539, 7195, -12368, 9541,
  -4539, 353, -6307, -10805, -3747, 221, -2731, -1255, -7014, -15221,
  -1934, -7824, 4412, 7678, 12010, -10320, 4844, -1446, 1556, 4242,
  -12094, -12424, -8299, -8518, 7755, 5541, -769, 5765, 7187, -7792,
  2244, 774, 7174, -3552, 4841, -8188, -9879, 4898, -463, -3383,
  7133, 406, 1499, -9900, 2304, -225, -7767, -8887, -6856, -9586,
  -9082, -5196, -8506, -7249, -11846, 927, 566, -3485, -7467, -249,
  -2265, -2598, -1548, -3238, 3612, -5995, -11039, 9756, -10039, -5178,
  -5867, 214, -4336, 3464, 9374, 88, 11202, 7785, -1609, -9833,
  -8143, 6239, -7916, -14386, -815, 6328, -1096, 11903, 7850, 12290,
  -6881, -4221, -6930, -8815, -2820, -15685, 3397, 980, -3111, -2154,
  -7951, 10166, -2793, -11383, 6814, 10965, 2891, -3867, -8367, -5789,
  11813, -4514, -3814, 10663, 9583, 6077, -3820, -11912, 12354, 8826,
  5568, -9495, -139, 9823, 10930, -8458, -3870, -8650, -9596, -6918,
  3544, 7704, 3626, -5114, -766, -14006, -6032, 1710, -11602, -7718,
  -7512, 7138, 3350, -4328, -7814, -9592, 548, 5172, 3938, 2200,
  9548, 11926, 12726, -14252, -5026, -10262, -8232, -1076, -13124, -4074,
  -2142, -7644, -7490, 13840, -8946, 1138, -1532, -9374, -2268, -7362,
  13106, 4806, 2352, 11088, -3798, -10680, 598, 2398, 5276, 1256,
  3788, -408, 6832, 8398, -1608, 7758, -2098, -2468, 1354, -12864,
  -776, -284, -6934, 6654, -2752, -2060, 4242, -5022, 1982, -4864,
  -4372, 10150, 1136, 450, -4998, -5760, -11788, -2738, 7572, 9320,
  5320, -712, -10310, -7464, -3370, -5180, 10408, 1050, 15486, 12600,
  -10264, -5608, 5084, 7800, -13810, 1508, -8522, 12906, 9276, -7158,
  -758, -7532, -14500, -10774, 9268, 3958, 4902, -9544, -9914, 2774,
  14844, -2600, 7032, -6712, 3458, -8260, -7116, -2402, 9518, 4406,
  -1742, 6610, 13544, -10462, -4873, -12260, -12410, -4008, 238, 3224,
  1904, -899, -1068, -18613, -6310, -644, -12720, -7942, -9519, 4795,
  1780, -668, -10579, -13509, -101, 7175, 447, 1664, 9274, 12489,
  17020, -15679, -9208, -13915, -3949, 1883, -16979, -5120, -5829, -3999,
  -8423, 16675, -9807, 281, 2210, -10502, 1019, -3508, 16359, 8380,
  3439, 15455, -4830, -12451, -2265, 3238, 4684, 4012, 6441, 973,
  5627, 13013, -5724, 10572, -3018, -4105, -175, -15158, 678, -3992,
  -11113, 7028, 838, -363, 3418, -9350, 5130, -6490, 70, 9728,
  5359, 4171, -4801, -3132, -13008, -5720, 8475, 9816, 9553, -4066,
  -14401, -6265, -3370, -3940, 12218, 2884, 17954, 16970, -10721, -6596,
  5646, 3781, -17054, -1226, -12001, 15377, 12041, -5096, -4642, -10501,
  -16985, -10245, 8264, 7827, 5131, -13531, -6164, 2108, 17220, -5339,
  11947, -2038, 7868, -10163, -2314, -2897, 11566, 7877, -2815, 5425,
  4299, -5839, 5172, -9321, -731, 4515, -2235, -2109, -1325, 6204,
  743, -4414, 3699, 4003, 589, 4419, -4518, -8620, -9279, 10801,
  -5782, -3912, -2156, -388, 464, 5069, 2329, 3322, 51, -3396,
  -5241, -7204, 3082, 8060, -5282, -1707, -9052, 7690, -3216, 6132,
  4744, -4270, 5417, 1037, 910, 5889, 1778, 9261, -312, 4526,
  2725, 3160, -932, 5523, 2845, 6113, 7358, 5444, 3208, 4632,
  -6291, 4451, 2505, -2226, -1524, -573, 2627, -3903, -7268, 2431,
  10869, -2746, 3149, -3153, 6925, -2137, 8803, -4087, 628, 4840,
  -5248, 91, 299, 887, 4182, -4117, 9098, 2463, -4394, -960,
  663, -4105, -3229, -4279, 4713, 6413, 3956, 3571, 1251, 1076,
  -4923, -4949, -2562, 2594, 6508, -1771, -4323, 2342, -5532, -3894,
  -4501, 6650, 3690, -1756, 135, 689, 3069, -9460, 730, 4017,
  7461, 4230, 983, -5336, -1585, 8956, -1576, -8020, 677, -809,
  -1251, -2369, -1978, 3837, -4516, -6552, -2759, 4934, -575, -3070,
  53, -3615, 208, 326, -1068, -3457, -1904, 3797, -1801, -3008,
  -956, 1254, -5009, -1663, -2306, -1789, 2685, 587, -3935, -2332,
  5757, 2684, -2266, -720, -3513, 4554, 74, 326, -246, -1123,
  3878, -193, 3825, 4896, 1276, 2370, 630, 2673, -1101, -903,
  -3637, -130, -2039, 2233, 1612, 951, -3028, 3380, -4317, 1401,
  -1223, -1621, -2158, -867, 1319, -4243, -3467, -1101, 3460, 2234,
  -2169, -4272, 2509, -1235, 4873, -2062, 4396, 3585, 1155, 3678,
  142, -3391, -771, -860, 3068, -4271, -3058, 2370, 196, 2306,
  425, 2022, -249, 2286, 496, -830, -539, -6285, -1475, -3311,
  -2776, 333, 939, 3390, -4339, -2731, -434, 2350, -2566, 3056,
  -1092, -3269, 5639, -1556, -123, -2305, 4257, 5896, 3700, -1526,
  6351, -55, 712, 2338, -1132, -2074, 4886, -4338, 477, -4624,
  -2885, -3130, 2757, 5259, 2234, -2508, 158, -5006, -1306, 3314,
  -4271, -1867, -3520, 1931, -355, -488, -3635, -3258, 54, 1244,
  3839, 2896, 5199, 6113, 3526, -6481, -1490, -4682, -4865, 502,
  -5270, -1655, -1613, -2886, -3684, 6612, -1980, -209, -905, -3142,
  -2345, -3411, 4760, 3151, 496, 4103, -210, -2747, 1607, 2397,
  3624, 1060, 2612, 843, 4746, 2810, -322, 3418, 420, -787,
  1064, -4562, -204, 768, -2947, 3604, 269, -2514, 3378, -785,
  1420, -1830, -1518, 3619, -1410, -187, -3781, -3795, -4387, 734,
  4259, 2759, 2984, 2302, -3630, -4116, -1181, -4067, 2818, -1665,
  7110, 5339, -3014, -783, 2454, 6015, -5788, 738, -2608, 5327,
  4735, -4677, 524, -965, -6676, -6114, 3409, 1836, 3280, -2553,
  -6216, 1905, 6380, -2437, 875, -4115, 1573, -1282, -5272, -2291,
  2791, 2936, -566, 1268, -2399, 2451, 2976, 6141, 5131, -8599,
  10211, 14661, 6121, -11284, 1301, 8006, 121, 8121, 171, -419,
  2966, 7656, 4311, -8789, 4706, 7576, 2156, -3284, 11276, 3551,
  4631, 3266, -7079, -464, 9461, 6116, -12934, -6364, 6106, 1891,
  8376, -10274, 296, -1804, 976, 2546, -9049, 951, -8794, -11049,
