#define M_DIM 49
#define K_DIM 3
#define N_DIM 49


static int8_t a_matrix [M_DIM*K_DIM] = {
  0, 1, 2, 3, 4, 5, 6, 7, 8, 9,
  10, 11, 12, 13, 14, 15, 16, 17, 18, 19,
  20, 21, 22, 23, 24, 25, 26, 27, 28, 29,
  30, 31, 32, 33, 34, 35, 36, 37, 38, 39,
  40, 41, 42, 43, 44, 45, 46, 47, 48, 49,
  50, 51, 52, 53, 54, 55, 56, 57, 58, 59,
  60, 61, 62, 63, 64, 65, 66, 67, 68, 69,
  70, 71, 72, 73, 74, 75, 76, 77, 78, 79,
  80, 81, 82, 83, 84, 85, 86, 87, 88, 89,
  90, 91, 92, 93, 94, 95, 96, 97, 98, 99,
  100, 101, 102, 103, 104, 105, 106, 107, 108, 109,
  110, 111, 112, 113, 114, 115, 116, 117, 118, 119,
  120, 121, 122, 123, 124, 125, 126, 127, -128, -127,
  -126, -125, -124, -123, -122, -121, -120, -119, -118, -117,
  -116, -115, -114, -113, -112, -111, -110,
};
static int8_t b_matrix [K_DIM*N_DIM] = {
  0, 1, 2, 3, 4, 5, 6, 7, 8, 9,
  10, 11, 12, 13, 14, 15, 16, 17, 18, 19,
  20, 21, 22, 23, 24, 25, 26, 27, 28, 29,
  30, 31, 32, 33, 34, 35, 36, 37, 38, 39,
  40, 41, 42, 43, 44, 45, 46, 47, 48, 49,
  50, 51, 52, 53, 54, 55, 56, 57, 58, 59,
  60, 61, 62, 63, 64, 65, 66, 67, 68, 69,
  70, 71, 72, 73, 74, 75, 76, 77, 78, 79,
  80, 81, 82, 83, 84, 85, 86, 87, 88, 89,
  90, 91, 92, 93, 94, 95, 96, 97, 98, 99,
  100, 101, 102, 103, 104, 105, 106, 107, 108, 109,
  110, 111, 112, 113, 114, 115, 116, 117, 118, 119,
  120, 121, 122, 123, 124, 125, 126, 127, -128, -127,
  -126, -125, -124, -123, -122, -121, -120, -119, -118, -117,
  -116, -115, -114, -113, -112, -111, -110,
};
static int32_t c_bias [N_DIM] = {
  0, 1, 2, 3, 4, 5, 6, 7, 8, 9,
  10, 11, 12, 13, 14, 15, 16, 17, 18, 19,
  20, 21, 22, 23, 24, 25, 26, 27, 28, 29,
  30, 31, 32, 33, 34, 35, 36, 37, 38, 39,
  40, 41, 42, 43, 44, 45, 46, 47, 48,
};
static int32_t verify_data [M_DIM*N_DIM] = {
  12005, 12152, 12299, 12446, 12593, 12740, 12887, 13034, 13181, 13328,
  13475, 13622, 13769, 13916, 14063, 14210, 14357, 14504, 14651, 14798,
  14945, 15092, 15239, 15386, 15533, 15680, 15827, 15974, 16121, 16268,
  -8673, -8526, -8379, -8232, -8085, -7938, -7791, -7644, -7497, -7350,
  -7203, -7056, -6909, -6762, -6615, -6468, -6321, -6174, -6027, 12153,
  12303, 12453, 12603, 12753, 12903, 13053, 13203, 13353, 13503, 13653,
  13803, 13953, 14103, 14253, 14403, 14553, 14703, 14853, 15003, 15153,
  15303, 15453, 15603, 15753, 15903, 16053, 16203, 16353, 16503, -8691,
  -8541, -8391, -8241, -8091, -7941, -7791, -7641, -7491, -7341, -7191,
  -7041, -6891, -6741, -6591, -6441, -6291, -6141, -5991, 12301, 12454,
  12607, 12760, 12913, 13066, 13219, 13372, 13525, 13678, 13831, 13984,
  14137, 14290, 14443, 14596, 14749, 14902, 15055, 15208, 15361, 15514,
  15667, 15820, 15973, 16126, 16279, 16432, 16585, 16738, -8709, -8556,
  -8403, -8250, -8097, -7944, -7791, -7638, -7485, -7332, -7179, -7026,
  -6873, -6720, -6567, -6414, -6261, -6108, -5955, 12449, 12605, 12761,
  12917, 13073, 13229, 13385, 13541, 13697, 13853, 14009, 14165, 14321,
  14477, 14633, 14789, 14945, 15101, 15257, 15413, 15569, 15725, 15881,
  16037, 16193, 16349, 16505, 16661, 16817, 16973, -8727, -8571, -8415,
  -8259, -8103, -7947, -7791, -7635, -7479, -7323, -7167, -7011, -6855,
  -6699, -6543, -6387, -6231, -6075, -5919, 12597, 12756, 12915, 13074,
  13233, 13392, 13551, 13710, 13869, 14028, 14187, 14346, 14505, 14664,
  14823, 14982, 15141, 15300, 15459, 15618, 15777, 15936, 16095, 16254,
  16413, 16572, 16731, 16890, 17049, 17208, -8745, -8586, -8427, -8268,
  -8109, -7950, -7791, -7632, -7473, -7314, -7155, -6996, -6837, -6678,
  -6519, -6360, -6201, -6042, -5883, 12745, 12907, 13069, 13231, 13393,
  13555, 13717, 13879, 14041, 14203, 14365, 14527, 14689, 14851, 15013,
  15175, 15337, 15499, 15661, 15823, 15985, 16147, 16309, 16471, 16633,
  16795, 16957, 17119, 17281, 17443, -8763, -8601, -8439, -8277, -8115,
  -7953, -7791, -7629, -7467, -7305, -7143, -6981, -6819, -6657, -6495,
  -6333, -6171, -6009, -5847, 12893, 13058, 13223, 13388, 13553, 13718,
  13883, 14048, 14213, 14378, 14543, 14708, 14873, 15038, 15203, 15368,
  15533, 15698, 15863, 16028, 16193, 16358, 16523, 16688, 16853, 17018,
  17183, 17348, 17513, 17678, -8781, -8616, -8451, -8286, -8121, -7956,
  -7791, -7626, -7461, -7296, -7131, -6966, -6801, -6636, -6471, -6306,
  -6141, -5976, -5811, 13041, 13209, 13377, 13545, 13713, 13881, 14049,
  14217, 14385, 14553, 14721, 14889, 15057, 15225, 15393, 15561, 15729,
  15897, 16065, 16233, 16401, 16569, 16737, 16905, 17073, 17241, 17409,
  17577, 17745, 17913, -8799, -8631, -8463, -8295, -8127, -7959, -7791,
  -7623, -7455, -7287, -7119, -6951, -6783, -6615, -6447, -6279, -6111,
  -5943, -5775, 13189, 13360, 13531, 13702, 13873, 14044, 14215, 14386,
  14557, 14728, 14899, 15070, 15241, 15412, 15583, 15754, 15925, 16096,
  16267, 16438, 16609, 16780, 16951, 17122, 17293, 17464, 17635, 17806,
  17977, 18148, -8817, -8646, -8475, -8304, -8133, -7962, -7791, -7620,
  -7449, -7278, -7107, -6936, -6765, -6594, -6423, -6252, -6081, -5910,
  -5739, 13337, 13511, 13685, 13859, 14033, 14207, 14381, 14555, 14729,
  14903, 15077, 15251, 15425, 15599, 15773, 15947, 16121, 16295, 16469,
  16643, 16817, 16991, 17165, 17339, 17513, 17687, 17861, 18035, 18209,
  18383, -8835, -8661, -8487, -8313, -8139, -7965, -7791, -7617, -7443,
  -7269, -7095, -6921, -6747, -6573, -6399, -6225, -6051, -5877, -5703,
  13485, 13662, 13839, 14016, 14193, 14370, 14547, 14724, 14901, 15078,
  15255, 15432, 15609, 15786, 15963, 16140, 16317, 16494, 16671, 16848,
  17025, 17202, 17379, 17556, 17733, 17910, 18087, 18264, 18441, 18618,
  -8853, -8676, -8499, -8322, -8145, -7968, -7791, -7614, -7437, -7260,
  -7083, -6906, -6729, -6552, -6375, -6198, -6021, -5844, -5667, 13633,
  13813, 13993, 14173, 14353, 14533, 14713, 14893, 15073, 15253, 15433,
  15613, 15793, 15973, 16153, 16333, 16513, 16693, 16873, 17053, 17233,
  17413, 17593, 17773, 17953, 18133, 18313, 18493, 18673, 18853, -8871,
  -8691, -8511, -8331, -8151, -7971, -7791, -7611, -7431, -7251, -7071,
  -6891, -6711, -6531, -6351, -6171, -5991, -5811, -5631, 13781, 13964,
  14147, 14330, 14513, 14696, 14879, 15062, 15245, 15428, 15611, 15794,
  15977, 16160, 16343, 16526, 16709, 16892, 17075, 17258, 17441, 17624,
  17807, 17990, 18173, 18356, 18539, 18722, 18905, 19088, -8889, -8706,
  -8523, -8340, -8157, -7974, -7791, -7608, -7425, -7242, -7059, -6876,
  -6693, -6510, -6327, -6144, -5961, -5778, -5595, 13929, 14115, 14301,
  14487, 14673, 14859, 15045, 15231, 15417, 15603, 15789, 15975, 16161,
  16347, 16533, 16719, 16905, 17091, 17277, 17463, 17649, 17835, 18021,
  18207, 18393, 18579, 18765, 18951, 19137, 19323, -8907, -8721, -8535,
  -8349, -8163, -7977, -7791, -7605, -7419, -7233, -7047, -6861, -6675,
  -6489, -6303, -6117, -5931, -5745, -5559, 14077, 14266, 14455, 14644,
  14833, 15022, 15211, 15400, 15589, 15778, 15967, 16156, 16345, 16534,
  16723, 16912, 17101, 17290, 17479, 17668, 17857, 18046, 18235, 18424,
  18613, 18802, 18991, 19180, 19369, 19558, -8925, -8736, -8547, -8358,
  -8169, -7980, -7791, -7602, -7413, -7224, -7035, -6846, -6657, -6468,
  -6279, -6090, -5901, -5712, -5523, 14225, 14417, 14609, 14801, 14993,
  15185, 15377, 15569, 15761, 15953, 16145, 16337, 16529, 16721, 16913,
  17105, 17297, 17489, 17681, 17873, 18065, 18257, 18449, 18641, 18833,
  19025, 19217, 19409, 19601, 19793, -8943, -8751, -8559, -8367, -8175,
  -7983, -7791, -7599, -7407, -7215, -7023, -6831, -6639, -6447, -6255,
  -6063, -5871, -5679, -5487, 14373, 14568, 14763, 14958, 15153, 15348,
  15543, 15738, 15933, 16128, 16323, 16518, 16713, 16908, 17103, 17298,
  17493, 17688, 17883, 18078, 18273, 18468, 18663, 18858, 19053, 19248,
  19443, 19638, 19833, 20028, -8961, -8766, -8571, -8376, -8181, -7986,
  -7791, -7596, -7401, -7206, -7011, -6816, -6621, -6426, -6231, -6036,
  -5841, -5646, -5451, 14521, 14719, 14917, 15115, 15313, 15511, 15709,
  15907, 16105, 16303, 16501, 16699, 16897, 17095, 17293, 17491, 17689,
  17887, 18085, 18283, 18481, 18679, 18877, 19075, 19273, 19471, 19669,
  19867, 20065, 20263, -8979, -8781, -8583, -8385, -8187, -7989, -7791,
  -7593, -7395, -7197, -6999, -6801, -6603, -6405, -6207, -6009, -5811,
  -5613, -5415, 14669, 14870, 15071, 15272, 15473, 15674, 15875, 16076,
  16277, 16478, 16679, 16880, 17081, 17282, 17483, 17684, 17885, 18086,
  18287, 18488, 18689, 18890, 19091, 19292, 19493, 19694, 19895, 20096,
  20297, 20498, -8997, -8796, -8595, -8394, -8193, -7992, -7791, -7590,
  -7389, -7188, -6987, -6786, -6585, -6384, -6183, -5982, -5781, -5580,
  -5379, 14817, 15021, 15225, 15429, 15633, 15837, 16041, 16245, 16449,
  16653, 16857, 17061, 17265, 17469, 17673, 17877, 18081, 18285, 18489,
  18693, 18897, 19101, 19305, 19509, 19713, 19917, 20121, 20325, 20529,
  20733, -9015, -8811, -8607, -8403, -8199, -7995, -7791, -7587, -7383,
  -7179, -6975, -6771, -6567, -6363, -6159, -5955, -5751, -5547, -5343,
  14965, 15172, 15379, 15586, 15793, 16000, 16207, 16414, 16621, 16828,
  17035, 17242, 17449, 17656, 17863, 18070, 18277, 18484, 18691, 18898,
  19105, 19312, 19519, 19726, 19933, 20140, 20347, 20554, 20761, 20968,
  -9033, -8826, -8619, -8412, -8205, -7998, -7791, -7584, -7377, -7170,
  -6963, -6756, -6549, -6342, -6135, -5928, -5721, -5514, -5307, 15113,
  15323, 15533, 15743, 15953, 16163, 16373, 16583, 16793, 17003, 17213,
  17423, 17633, 17843, 18053, 18263, 18473, 18683, 18893, 19103, 19313,
  19523, 19733, 19943, 20153, 20363, 20573, 20783, 20993, 21203, -9051,
  -8841, -8631, -8421, -8211, -8001, -7791, -7581, -7371, -7161, -6951,
  -6741, -6531, -6321, -6111, -5901, -5691, -5481, -5271, 15261, 15474,
  15687, 15900, 16113, 16326, 16539, 16752, 16965, 17178, 17391, 17604,
  17817, 18030, 18243, 18456, 18669, 18882, 19095, 19308, 19521, 19734,
  19947, 20160, 20373, 20586, 20799, 21012, 21225, 21438, -9069, -8856,
  -8643, -8430, -8217, -8004, -7791, -7578, -7365, -7152, -6939, -6726,
  -6513, -6300, -6087, -5874, -5661, -5448, -5235, 15409, 15625, 15841,
  16057, 16273, 16489, 16705, 16921, 17137, 17353, 17569, 17785, 18001,
  18217, 18433, 18649, 18865, 19081, 19297, 19513, 19729, 19945, 20161,
  20377, 20593, 20809, 21025, 21241, 21457, 21673, -9087, -8871, -8655,
  -8439, -8223, -8007, -7791, -7575, -7359, -7143, -6927, -6711, -6495,
  -6279, -6063, -5847, -5631, -5415, -5199, 15557, 15776, 15995, 16214,
  16433, 16652, 16871, 17090, 17309, 17528, 17747, 17966, 18185, 18404,
  18623, 18842, 19061, 19280, 19499, 19718, 19937, 20156, 20375, 20594,
  20813, 21032, 21251, 21470, 21689, 21908, -9105, -8886, -8667, -8448,
  -8229, -8010, -7791, -7572, -7353, -7134, -6915, -6696, -6477, -6258,
  -6039, -5820, -5601, -5382, -5163, 15705, 15927, 16149, 16371, 16593,
  16815, 17037, 17259, 17481, 17703, 17925, 18147, 18369, 18591, 18813,
  19035, 19257, 19479, 19701, 19923, 20145, 20367, 20589, 20811, 21033,
  21255, 21477, 21699, 21921, 22143, -9123, -8901, -8679, -8457, -8235,
  -8013, -7791, -7569, -7347, -7125, -6903, -6681, -6459, -6237, -6015,
  -5793, -5571, -5349, -5127, 15853, 16078, 16303, 16528, 16753, 16978,
  17203, 17428, 17653, 17878, 18103, 18328, 18553, 18778, 19003, 19228,
  19453, 19678, 19903, 20128, 20353, 20578, 20803, 21028, 21253, 21478,
  21703, 21928, 22153, 22378, -9141, -8916, -8691, -8466, -8241, -8016,
  -7791, -7566, -7341, -7116, -6891, -6666, -6441, -6216, -5991, -5766,
  -5541, -5316, -5091, 16001, 16229, 16457, 16685, 16913, 17141, 17369,
  17597, 17825, 18053, 18281, 18509, 18737, 18965, 19193, 19421, 19649,
  19877, 20105, 20333, 20561, 20789, 21017, 21245, 21473, 21701, 21929,
  22157, 22385, 22613, -9159, -8931, -8703, -8475, -8247, -8019, -7791,
  -7563, -7335, -7107, -6879, -6651, -6423, -6195, -5967, -5739, -5511,
  -5283, -5055, 16149, 16380, 16611, 16842, 17073, 17304, 17535, 17766,
  17997, 18228, 18459, 18690, 18921, 19152, 19383, 19614, 19845, 20076,
  20307, 20538, 20769, 21000, 21231, 21462, 21693, 21924, 22155, 22386,
  22617, 22848, -9177, -8946, -8715, -8484, -8253, -8022, -7791, -7560,
  -7329, -7098, -6867, -6636, -6405, -6174, -5943, -5712, -5481, -5250,
  -5019, 16297, 16531, 16765, 16999, 17233, 17467, 17701, 17935, 18169,
  18403, 18637, 18871, 19105, 19339, 19573, 19807, 20041, 20275, 20509,
  20743, 20977, 21211, 21445, 21679, 21913, 22147, 22381, 22615, 22849,
  23083, -9195, -8961, -8727, -8493, -8259, -8025, -7791, -7557, -7323,
  -7089, -6855, -6621, -6387, -6153, -5919, -5685, -5451, -5217, -4983,
  -8643, -8662, -8681, -8700, -8719, -8738, -8757, -8776, -8795, -8814,
  -8833, -8852, -8871, -8890, -8909, -8928, -8947, -8966, -8985, -9004,
  -9023, -9042, -9061, -9080, -9099, -9118, -9137, -9156, -9175, -9194,
  23555, 23536, 23517, 23498, 23479, 23460, 23441, 23422, 23403, 23384,
  23365, 23346, 23327, 23308, 23289, 23270, 23251, 23232, 23213, -8495,
  -8511, -8527, -8543, -8559, -8575, -8591, -8607, -8623, -8639, -8655,
  -8671, -8687, -8703, -8719, -8735, -8751, -8767, -8783, -8799, -8815,
  -8831, -8847, -8863, -8879, -8895, -8911, -8927, -8943, -8959, 23537,
  23521, 23505, 23489, 23473, 23457, 23441, 23425, 23409, 23393, 23377,
  23361, 23345, 23329, 23313, 23297, 23281, 23265, 23249, -8347, -8360,
  -8373, -8386, -8399, -8412, -8425, -8438, -8451, -8464, -8477, -8490,
  -8503, -8516, -8529, -8542, -8555, -8568, -8581, -8594, -8607, -8620,
  -8633, -8646, -8659, -8672, -8685, -8698, -8711, -8724, 23519, 23506,
  23493, 23480, 23467, 23454, 23441, 23428, 23415, 23402, 23389, 23376,
  23363, 23350, 23337, 23324, 23311, 23298, 23285, -8199, -8209, -8219,
  -8229, -8239, -8249, -8259, -8269, -8279, -8289, -8299, -8309, -8319,
  -8329, -8339, -8349, -8359, -8369, -8379, -8389, -8399, -8409, -8419,
  -8429, -8439, -8449, -8459, -8469, -8479, -8489, 23501, 23491, 23481,
  23471, 23461, 23451, 23441, 23431, 23421, 23411, 23401, 23391, 23381,
  23371, 23361, 23351, 23341, 23331, 23321, -8051, -8058, -8065, -8072,
  -8079, -8086, -8093, -8100, -8107, -8114, -8121, -8128, -8135, -8142,
  -8149, -8156, -8163, -8170, -8177, -8184, -8191, -8198, -8205, -8212,
  -8219, -8226, -8233, -8240, -8247, -8254, 23483, 23476, 23469, 23462,
  23455, 23448, 23441, 23434, 23427, 23420, 23413, 23406, 23399, 23392,
  23385, 23378, 23371, 23364, 23357, -7903, -7907, -7911, -7915, -7919,
  -7923, -7927, -7931, -7935, -7939, -7943, -7947, -7951, -7955, -7959,
  -7963, -7967, -7971, -7975, -7979, -7983, -7987, -7991, -7995, -7999,
  -8003, -8007, -8011, -8015, -8019, 23465, 23461, 23457, 23453, 23449,
  23445, 23441, 23437, 23433, 23429, 23425, 23421, 23417, 23413, 23409,
  23405, 23401, 23397, 23393, -7755, -7756, -7757, -7758, -7759, -7760,
  -7761, -7762, -7763, -7764, -7765, -7766, -7767, -7768, -7769, -7770,
  -7771, -7772, -7773, -7774, -7775, -7776, -7777, -7778, -7779, -7780,
  -7781, -7782, -7783, -7784, 23447, 23446, 23445, 23444, 23443, 23442,
  23441, 23440, 23439, 23438, 23437, 23436, 23435, 23434, 23433, 23432,
  23431, 23430, 23429, -7607, -7605, -7603, -7601, -7599, -7597, -7595,
  -7593, -7591, -7589, -7587, -7585, -7583, -7581, -7579, -7577, -7575,
  -7573, -7571, -7569, -7567, -7565, -7563, -7561, -7559, -7557, -7555,
  -7553, -7551, -7549, 23429, 23431, 23433, 23435, 23437, 23439, 23441,
  23443, 23445, 23447, 23449, 23451, 23453, 23455, 23457, 23459, 23461,
  23463, 23465, -7459, -7454, -7449, -7444, -7439, -7434, -7429, -7424,
  -7419, -7414, -7409, -7404, -7399, -7394, -7389, -7384, -7379, -7374,
  -7369, -7364, -7359, -7354, -7349, -7344, -7339, -7334, -7329, -7324,
  -7319, -7314, 23411, 23416, 23421, 23426, 23431, 23436, 23441, 23446,
  23451, 23456, 23461, 23466, 23471, 23476, 23481, 23486, 23491, 23496,
  23501, -7311, -7303, -7295, -7287, -7279, -7271, -7263, -7255, -7247,
  -7239, -7231, -7223, -7215, -7207, -7199, -7191, -7183, -7175, -7167,
  -7159, -7151, -7143, -7135, -7127, -7119, -7111, -7103, -7095, -7087,
  -7079, 23393, 23401, 23409, 23417, 23425, 23433, 23441, 23449, 23457,
  23465, 23473, 23481, 23489, 23497, 23505, 23513, 23521, 23529, 23537,
  -7163, -7152, -7141, -7130, -7119, -7108, -7097, -7086, -7075, -7064,
  -7053, -7042, -7031, -7020, -7009, -6998, -6987, -6976, -6965, -6954,
  -6943, -6932, -6921, -6910, -6899, -6888, -6877, -6866, -6855, -6844,
  23375, 23386, 23397, 23408, 23419, 23430, 23441, 23452, 23463, 23474,
  23485, 23496, 23507, 23518, 23529, 23540, 23551, 23562, 23573, -7015,
  -7001, -6987, -6973, -6959, -6945, -6931, -6917, -6903, -6889, -6875,
  -6861, -6847, -6833, -6819, -6805, -6791, -6777, -6763, -6749, -6735,
  -6721, -6707, -6693, -6679, -6665, -6651, -6637, -6623, -6609, 23357,
  23371, 23385, 23399, 23413, 23427, 23441, 23455, 23469, 23483, 23497,
  23511, 23525, 23539, 23553, 23567, 23581, 23595, 23609, -6867, -6850,
  -6833, -6816, -6799, -6782, -6765, -6748, -6731, -6714, -6697, -6680,
  -6663, -6646, -6629, -6612, -6595, -6578, -6561, -6544, -6527, -6510,
  -6493, -6476, -6459, -6442, -6425, -6408, -6391, -6374, 23339, 23356,
  23373, 23390, 23407, 23424, 23441, 23458, 23475, 23492, 23509, 23526,
  23543, 23560, 23577, 23594, 23611, 23628, 23645, -6719, -6699, -6679,
  -6659, -6639, -6619, -6599, -6579, -6559, -6539, -6519, -6499, -6479,
  -6459, -6439, -6419, -6399, -6379, -6359, -6339, -6319, -6299, -6279,
  -6259, -6239, -6219, -6199, -6179, -6159, -6139, 23321, 23341, 23361,
  23381, 23401, 23421, 23441, 23461, 23481, 23501, 23521, 23541, 23561,
  23581, 23601, 23621, 23641, 23661, 23681, -6571, -6548, -6525, -6502,
  -6479, -6456, -6433, -6410, -6387, -6364, -6341, -6318, -6295, -6272,
  -6249, -6226, -6203, -6180, -6157, -6134, -6111, -6088, -6065, -6042,
  -6019, -5996, -5973, -5950, -5927, -5904, 23303, 23326, 23349, 23372,
  23395, 23418, 23441, 23464, 23487, 23510, 23533, 23556, 23579, 23602,
  23625, 23648, 23671, 23694, 23717, -6423, -6397, -6371, -6345, -6319,
  -6293, -6267, -6241, -6215, -6189, -6163, -6137, -6111, -6085, -6059,
  -6033, -6007, -5981, -5955, -5929, -5903, -5877, -5851, -5825, -5799,
  -5773, -5747, -5721, -5695, -5669, 23285, 23311, 23337, 23363, 23389,
  23415, 23441, 23467, 23493, 23519, 23545, 23571, 23597, 23623, 23649,
  23675, 23701, 23727, 23753, -6275, -6246, -6217, -6188, -6159, -6130,
  -6101, -6072, -6043, -6014, -5985, -5956, -5927, -5898, -5869, -5840,
  -5811, -5782, -5753, -5724, -5695, -5666, -5637, -5608, -5579, -5550,
  -5521, -5492, -5463, -5434, 23267, 23296, 23325, 23354, 23383, 23412,
  23441, 23470, 23499, 23528, 23557, 23586, 23615, 23644, 23673, 23702,
  23731, 23760, 23789, -6127, -6095, -6063, -6031, -5999, -5967, -5935,
  -5903, -5871, -5839, -5807, -5775, -5743, -5711, -5679, -5647, -5615,
  -5583, -5551, -5519, -5487, -5455, -5423, -5391, -5359, -5327, -5295,
  -5263, -5231, -5199, 23249, 23281, 23313, 23345, 23377, 23409, 23441,
  23473, 23505, 23537, 23569, 23601, 23633, 23665, 23697, 23729, 23761,
  23793, 23825, -5979, -5944, -5909, -5874, -5839, -5804, -5769, -5734,
  -5699, -5664, -5629, -5594, -5559, -5524, -5489, -5454, -5419, -5384,
  -5349, -5314, -5279, -5244, -5209, -5174, -5139, -5104, -5069, -5034,
  -4999, -4964, 23231, 23266, 23301, 23336, 23371, 23406, 23441, 23476,
  23511, 23546, 23581, 23616, 23651, 23686, 23721, 23756, 23791, 23826,
  23861,
};
