#define M_DIM 128
#define K_DIM 3
#define N_DIM 128


static int8_t a_matrix [M_DIM*K_DIM] = {
  67, 16, 12, -1, -53, -47, 103, -21, 52, -82,
  121, -16, -54, -110, -110, 9, -51, 66, -91, -114,
  -105, 92, -64, 92, 65, 38, 110, 123, 70, 105,
  126, 20, 70, -42, 24, 89, 104, -6, 100, 1,
  22, -51, 113, 15, 86, 60, 58, -33, -12, -62,
  -94, -28, -45, -93, 50, 20, 102, 82, 78, 72,
  -71, -85, -38, 11, 114, 102, -13, -68, -113, 91,
  102, -72, -28, -4, -43, 33, -1, 49, -79, -12,
  103, -90, 38, -19, -54, 54, -107, -49, -16, 65,
  -50, 96, 27, 28, -58, -41, -52, 79, -18, 67,
  36, -80, -32, 3, 26, -3, 110, 21, -113, 107,
  22, 78, -69, -48, -37, 66, 10, 48, 5, 102,
  123, 41, -86, 95, 47, -53, -105, -62, -61, 72,
  -43, -111, 110, -34, 16, 110, -23, -34, -3, -116,
  15, 81, 54, -86, 68, 112, 19, 38, -76, -83,
  86, 69, -74, 88, 41, -126, 93, -87, 97, 29,
  121, -64, 80, -13, -10, -113, -6, 55, -110, 19,
  -11, 103, 3, -37, 78, 57, 125, -49, 120, 60,
  17, 71, 103, -109, 60, -27, -16, -62, 59, -55,
  -103, 69, 72, 113, -33, 81, -39, 35, 87, -9,
  1, 77, 100, 35, -99, 72, -31, 93, 114, -116,
  56, 3, 117, -11, 81, -43, -49, 28, 79, 64,
  -80, -24, -5, 88, 1, -112, -123, -33, -90, 13,
  -100, -81, -28, -45, 116, 69, -5, 13, 105, 25,
  -113, 61, 69, 95, -96, -15, 23, 57, 89, -120,
  118, 104, -121, 88, 75, 55, -111, -11, 119, -72,
  -100, -118, 126, -127, -127, 110, -32, 43, -24, -110,
  21, 19, -88, 70, -63, -4, -117, 119, 89, 87,
  126, -13, 80, 116, 83, 99, -17, -22, 59, -70,
  58, 55, 46, 107, -17, 49, 27, -37, -59, 114,
  64, -6, 6, -45, -126, 103, -8, 2, -122, -104,
  100, -70, -61, -75, 30, 126, 82, -104, -47, 53,
  1, 56, 65, -116, -111, -4, 55, -92, 109, 76,
  122, -84, 119, -104, -25, -119, 83, 62, 47, 10,
  -25, 33, 72, 88, -82, -64, 21, -18, -3, 94,
  7, -124, 17, -111, 21, -60, -13, 121, 48, 45,
  48, -1, 99, 96, 109, 36, 26, 60, 5, 113,
  97, -55, 53, 64, 119, 42, 69, -98, -101, -36,
  40, 57, -42, 126,
};
static int8_t b_matrix [K_DIM*N_DIM] = {
  -108, 109, 57, -10, 10, 57, -2, 70, 92, -119,
  47, -116, -8, 121, 39, -39, -107, -4, 67, 16,
  3, 41, -61, 91, -108, -4, 103, -47, -48, 77,
  21, 81, -118, -82, 72, -120, 93, 11, 77, 40,
  -117, 111, 27, 15, 46, -29, 95, 92, 93, 16,
  -53, -31, 59, 91, -38, 117, 3, -95, 37, -108,
  114, 17, -92, -5, -2, 111, -2, -26, 30, -68,
  -92, -2, -115, 96, -58, -77, -37, 62, 121, -55,
  -76, -63, -32, 110, -63, 83, -70, 90, -36, -34,
  117, 48, -89, 14, -30, -76, 100, 86, -128, 124,
  91, 35, 87, 64, 35, -13, -79, 96, 110, 96,
  118, -92, -32, -36, 70, -21, -57, 17, -2, 31,
  -36, -24, 58, 82, -126, 126, 16, -78, 56, -80,
  -56, 48, 9, -69, 4, -109, 60, -72, 125, -62,
  66, 96, 39, -7, -71, -117, -49, 51, -46, -62,
  -115, -118, -116, -127, 60, 30, 1, -77, 82, -109,
  -35, 97, 99, -39, 82, -125, -65, 59, -53, 39,
  69, -8, 123, 119, 27, 36, -36, -107, -99, 66,
  24, -109, 2, 18, -109, -102, 26, -80, 51, -80,
  39, -53, -94, -66, -105, -63, -113, -10, 38, -14,
  -128, 82, -30, -110, -35, -44, 85, -7, -36, -114,
  67, -82, -10, 61, -105, 97, -94, -20, 104, 99,
  47, -97, 52, 94, -125, 20, -118, 99, 84, 82,
  50, 61, -107, 27, 78, 93, 58, 52, -127, -81,
  23, 106, -116, -47, -125, -69, -123, 94, 55, 26,
  -95, -16, -76, 10, -114, 111, -27, -69, -104, -44,
  -9, -16, 84, 1, -115, -25, -8, 91, -43, -67,
  46, 98, -94, -66, -106, -101, -103, -100, 93, 33,
  81, 6, 67, -20, 19, 69, 13, -99, 27, 90,
  -45, -17, 89, -68, -117, -72, -44, -22, -4, 90,
  53, -75, 67, 98, 49, 99, 61, -19, -83, 119,
  2, -15, -20, -47, 114, -33, -14, 7, 50, 72,
  -65, -119, 58, 121, -84, 73, -87, -105, -95, -78,
  88, 6, -98, 61, -76, 48, -96, -18, 48, -104,
  24, 78, -51, -102, 22, 25, -23, 115, 93, -74,
  33, 18, -59, -4, -76, 78, 56, -3, 64, -113,
  -105, 12, -126, 95, 114, 7, 74, 120, 36, -122,
  -112, -12, 109, -82, -118, -109, 118, -62, 87, -74,
  -106, 21, 122, 36,
};
static int32_t c_bias [N_DIM] = {
  -77, -83, 55, 124, 43, 115, -104, -1, -110, -12,
  7, -15, -98, 78, -75, 97, -20, -41, 115, -68,
  -108, 101, 93, -82, -46, 118, 106, -115, 111, 123,
  102, 89, 20, -77, 97, 78, -10, 98, 21, 101,
  -115, 74, -24, -5, 51, 77, -28, -119, 6, 65,
  -45, 106, 44, 37, -14, 74, -111, 13, 49, 94,
  -72, -9, 66, -78, 124, 42, 117, 44, 106, -65,
  62, -81, -88, 84, 90, -73, -10, -114, 35, -127,
  -128, -41, 109, 120, 64, -49, -71, -18, -79, -1,
  1, 65, -90, 0, 5, 22, 13, -76, 121, 85,
  22, -91, 46, 37, 67, 24, 0, 47, 10, 22,
  78, -49, -11, -86, 94, 15, -59, -112, 87, 90,
  -43, 104, -8, -90, -1, -19, 100, 37,
};
static int32_t verify_data [M_DIM*N_DIM] = {
  -7732, 2524, -6994, -4241, 14507, 6281, -13707, 11780, -3552, 3905,
  -12449, -6006, 7243, 19309, 14260, -6378, 11615, -2823, 12516, 14471,
  10166, -17874, 9248, -8498, -14643, 1098, -11821, -23549, -4670, -18962,
  -7794, -19, -2454, 2765, 245, -11902, -13111, -8646, -10754, 1572,
  -9342, 7494, -11304, 993, -10925, -8467, -2135, 7894, 11621, 1094,
  17011, 6253, 9029, 16751, -2409, -6451, -6086, -8420, -10207, -14727,
  8681, 8831, -472, 1168, -8384, -6277, -2276, 14935, 12940, -7837,
  -7706, 9679, 60, 2615, 6873, 587, -8726, 1471, 7394, 9640,
  -7058, 1473, -2314, 1873, 12982, -7416, 14071, 431, 1121, -3801,
  9180, -6375, -7392, -6983, 5718, 12627, 5136, -11884, -5588, -7541,
  -8654, 6024, -3517, -6152, -5749, -2246, -8134, -1073, 8904, -11877,
  2725, -8721, 912, 5472, 5164, -400, -7964, -7829, -2542, -9035,
  -10240, -8579, 18546, -3541, -13009, 9036, 16597, 6297, 19759, -3340,
  -3546, 13656, -7760, 5656, 1170, -2409, 16188, -13891, 15554, 4486,
  -5513, -10963, -17842, 6467, -5010, -6679, -7175, -15273, 2625, 8374,
  -20080, -1578, 4228, -2084, 3107, 15400, -5620, 11491, 7064, 1295,
  -6204, 5289, -7869, 6863, 8879, 920, 12470, -7755, 9252, -4609,
  17185, -14554, 4635, 9831, -415, -5135, -2697, -10028, -19377, -8073,
  2070, -8724, -9773, 15647, 10444, 16190, 7629, 4031, -18200, 2228,
  7258, -8061, 6514, -1869, -3345, -5971, -1621, 7312, 280, -863,
  -10736, -11923, -21188, 6510, -483, 6674, -4489, -620, -3703, -4891,
  -3664, -3084, -13604, 4406, -23194, -8056, 7751, 9178, -13302, 6503,
  9467, -1597, -6488, -3036, -7004, 25147, 6346, 14000, 11938, -18192,
  1117, 3619, 1679, 3259, -4204, -9938, -19521, 8056, -7879, 2279,
  1091, -17992, -16329, 3306, 5030, 1933, -9589, 3577, 1443, 20748,
  -11928, 4436, 11960, -16833, -14630, -19935, 18834, -1921, -9229, 13702,
  1274, 11552, -8074, 5906, 17515, -14155, 10448, 1167, -1367, 689,
  -11423, 3408, 2492, -9735, 356, -8155, 10494, -2429, -17665, -7613,
  -5200, -1355, -4291, 2058, -9795, 616, 3573, 1859, -8867, 8525,
  -9089, 136, 1759, -5087, 7859, -8064, 4661, -68, 13248, -16714,
  -1867, 6171, -1631, -338, 5475, -11447, -11191, -5109, 9226, 1594,
  -13263, 14579, 8853, 14041, 2277, -5473, -15824, 9106, 8545, -8694,
  2417, -6283, -5598, 3707, 7342, 3698, -4723, 6023, -12933, -12389,
  -20684, 8712, -6834, 9632, -112, 6539, -9090, -5027, -5803, -2236,
  -6975, 317, -18068, -9482, 10415, 8848, -9403, 3815, 6386, -6781,
  -3699, 5686, -4733, 22374, 3733, 11962, 8499, -17817, -1161, 82,
  -1887, 2508, -10467, -12596, -17442, 1682, -7275, -3139, 1930, -17849,
  -16006, 4217, 489, -3025, -13324, -1691, -5094, 19304, -951, 3390,
  5350, -13822, -5762, -19663, 1410, 3904, -7296, -2026, 10334, 4154,
  -5682, 11202, 4088, -5528, 178, -7176, 2440, 9952, 2892, -4930,
  7770, 1760, 4718, 3264, 2674, -10016, 976, -1312, -9622, 4540,
  -2528, -12258, 236, -9458, 4268, 2284, 2636, 552, 1172, -3810,
  -3420, -9948, -416, 598, -6564, 3174, 1062, -98, -3408, -1988,
  3024, 5170, 11788, -6140, 7176, 3196, 6758, 9038, 168, -2228,
  4668, 1308, -2744, -9116, 58, 2910, -2372, 994, 2396, 2064,
  -4190, 9796, 4266, 1070, 860, 4460, -4344, 516, -14, 5170,
  -9854, 7666, 526, 9944, 914, -7272, 364, 18, 7380, -2396,
  1914, -5322, 1540, 3634, 3492, 3028, -3854, -5444, 156, 10214,
  -56, -1158, -6524, 510, -3984, -3776, -6468, -5774, -3592, -1962,
  236, -998, -3782, -1906, 3800, -2096, -4830, -1440, -462, 6444,
  -6916, -3892, -4058, -8, 130, -1734, 11092, 5750, -7914, 2370,
  6622, -2160, 1163, 950, -1295, -318, 1403, 329, 83, 1966,
  1499, -2073, 1514, -1548, -146, 662, -760, -812, 937, 1081,
  -129, -719, -638, -855, -624, 801, -1107, 1332, 792, -905,
  833, -581, 2329, 702, 1301, -323, 481, 321, 579, -1997,
  1142, 107, -970, 37, 1605, 94, 354, 364, 1271, 631,
  2182, -1945, 255, 285, 844, 688, 570, -108, 2152, 1295,
  409, -929, -874, -366, -841, 297, 1822, 1576, -969, 1136,
  -439, 1304, 1351, 70, -1209, 12, -585, 1444, -1929, 2117,
  -801, 1831, 1352, -2459, 504, -210, 781, 187, -946, -1626,
  180, 1521, 65, 1741, -380, -739, -645, 1541, -621, 824,
  -1433, 956, -290, -1729, -1609, -1061, -381, -383, 1296, 10,
  -2113, 906, 974, 508, -1709, -905, -579, 2053, -1198, -188,
  -771, 1198, 1453, 255, 1154, 2253, -936, -208, 46, -1216,
  9919, -3765, 1862, 8869, -8896, 1670, 2866, -6640, 6698, -3973,
  7731, 6519, -3614, -9984, -10217, 6258, -6076, -4971, -5375, -8941,
  1246, 9182, -10891, -794, 6910, -3583, 2276, 13964, -3640, 10519,
  876, -394, -5188, 3257, -4965, 5205, 5997, 5858, 6501, -4407,
  8527, -3511, 8259, -7961, 3786, 6184, -2057, -4979, -7178, -1686,
  -13395, -5653, -1671, -8421, -5742, 9896, 2765, 7852, 5185, 6481,
  -9315, 729, 5808, -4867, 1629, -2764, 611, -7494, -1859, 2951,
  -954, -1896, -3294, -6642, -11188, 925, 4985, -396, -1849, -5082,
  -3208, 1997, -2335, -1335, -10636, 3424, -12725, -1119, 3896, 2912,
  -8522, 1459, 7222, 1863, -2958, -6310, -3190, 14122, 7240, 7171,
  8585, -7278, 4423, 5155, 2761, 3065, -3203, -4985, -7725, 4741,
  -6292, 1876, 3899, -8638, -8307, -1798, 6461, 2862, -3091, 1324,
  -119, 12300, -11313, -1070, 10503, -9890, -10373, -9230, -9806, -772,
  9696, -6594, -7958, -10058, 10338, -10290, -10968, 9164, -3046, 3076,
  -1952, -8800, 2096, 1130, -7122, 6092, -5138, -60, -10026, 9376,
  7844, 7296, 10054, -920, 6560, 8890, 7100, 7654, -1396, -1876,
  5196, -6156, 5040, 4286, 3512, 8444, -1756, 4230, 1680, -3034,
  -5330, 9854, 5112, -876, 596, -3590, -10164, 8476, -108, 360,
  -10194, -8370, 8608, -6460, -5192, -6676, 2196, 10088, 7162, -8890,
  -4388, 4602, 40, 4848, 5250, -9388, -9358, -482, 4660, -7724,
  9112, 6596, 10630, -7086, 9498, -8650, -2170, -9704, 7118, 4820,
  3992, 786, -1628, 2516, 6482, 7214, -7156, -5498, 2076, -1552,
  -730, 7640, 580, -10086, 1432, -10034, 1204, -5410, -1628, 10272,
  3592, 3346, 3764, -362, 8456, 8194, 9258, 2758, 2456, 4880,
  2, 9728, 8394, -4476, 3944, 5116, 9974, 3448, 5802, -8898,
  -7944, -2902, 2678, 5142, -3122, 10824, 11227, -6740, 5645, 11956,
  -15801, 297, 5591, -13588, 6019, -1925, 8764, 11566, -5440, -16640,
  -13566, 10022, -11071, -7519, -8505, -12127, 816, 15605, -13766, -995,
  12741, -6946, 3310, 22459, -5155, 16931, -1771, -1784, -8231, 3965,
  -6983, 7701, 8415, 12003, 7636, -5877, 13556, -5679, 9049, -10064,
  5756, 8226, -4437, -8569, -14592, 1103, -19669, -8499, -5126, -14354,
  -7628, 13210, 538, 8607, 7233, 11923, -11320, -60, 8519, -6699,
  132, -5122, 2751, -13706, -3771, 2550, -2289, -4152, -1961, -8598,
  -13789, -1590, 10839, -4523, -2177, -11097, -5134, 6405, -3398, -1648,
  -16559, 5011, -16248, 1344, 4138, 1433, -12091, -275, 10606, 4669,
  -3509, -12587, -3733, 17626, 12167, 8226, 12316, -6897, 8707, 9083,
  4919, 4693, -4846, -5956, -7257, 6108, -9880, 2794, 7491, -9897,
  -10015, -5791, 11216, 5058, -2039, 968, -1023, 15851, -18984, -4723,
  16518, -13246, -15568, -10210, 15159, 6947, -15271, 1418, 13114, 7096,
  -4164, 19163, 17899, -22344, 14522, -13487, -1418, 7280, -9405, -6627,
  9398, 4632, -97, -7858, -875, -10311, -11073, 2489, -13060, 10161,
  3270, -9694, 2365, -7055, 19257, 6000, 6805, 236, 228, 973,
  3568, -19747, 10685, -2353, -7791, 593, 16411, -5660, 622, 3880,
  9216, 5449, 20776, -20599, -638, 684, 10800, 7554, -830, 3240,
  19889, 14439, 2656, -11696, -12532, 730, -4381, -1053, 14583, 9614,
  -10761, 11834, -81, 10822, 8169, 3306, -15161, -4598, -12096, 14686,
  -19827, 20678, -6363, 18051, 6661, -22480, 1341, -2828, 4817, 403,
  -13374, -17318, 4908, 14910, -2385, 14632, -2081, -9784, -6551, 15658,
  -6789, 13203, -11561, 10974, -703, -20605, -14574, -9869, -4918, -2971,
  5585, -5078, -23341, 6374, 5224, 1666, -13813, -13861, -10529, 17987,
  -11045, -3954, -11955, 7864, 8611, 7732, 10673, 19010, -7646, -6261,
  -440, -17004, -818, -6825, -1319, 9899, 875, 10979, -16571, -2258,
  -1369, 9444, -13395, 9169, 5934, 9996, 8665, 4634, 3361, -17680,
  11024, 10918, 20880, -7959, -813, -18103, -5569, -10545, -18054, -8477,
  -17113, -8718, -21565, -3930, -18529, 11344, -10078, -11042, -12818, 6163,
  -11055, -5316, 4615, 5614, -11192, -12063, -12062, -4338, -12680, 936,
  -4434, 8319, 2734, -1050, 7169, 8543, -15878, 7206, -14945, -5951,
  -8892, -7266, 2139, 16663, 13101, -7614, -18787, -21686, 2286, 5148,
  19018, -13261, -19789, 11504, 523, -6980, -5145, -4359, 4260, -8427,
  12246, -2305, -22552, 17500, -9741, 1783, -1385, -6471, 5089, 6715,
  7470, -8163, -275, -15594, 2610, -3966, 7075, 1631, 5679, 1426,
  10461, -4109, 2509, 5547, 9796, 4338, -2290, 3610, -23929, -9879,
  11070, -14581, -10840, -12594, 16210, -1517, -3002, -13331, 4385, -6244,
  -5238, -17304, -22782, 6199, 4251, -17905, 2107, -1466, 8133, 256,
  -3581, 9847, -5756, -13339, 12066, -5508, 5840, 13786, 592, -8977,
  5575, -15589, -464, 5842, 1419, -10472, 6814, 16549, -1391, -569,
  -13492, -6996, 7037, 12260, -7196, 12897, 9662, -10890, 14258, -6725,
  18190, 4748, 17950, -9407, 10671, 2125, 3277, -15256, 4093, 6537,
  -12925, 281, 4415, 12675, 3912, -1750, 12435, 5941, 16076, -9856,
  10653, 6175, 993, 5343, 14432, -12118, 12789, 1086, 1433, -5367,
  3389, -10031, -14278, 8725, 14357, 18478, -5249, 7864, -9291, 8691,
  15236, -3766, -2056, 8836, 9510, 6605, -13367, 12142, -7381, 12020,
  18434, -19219, 8417, -591, 12294, 906, 4527, -8375, -6214, 7074,
  7364, 12663, -8700, -2429, -3400, 10072, -2448, -9392, -16382, -489,
  -9447, -3096, -14381, -10337, -2655, -5751, 18885, 8851, -6801, 6373,
  13958, 6318, -17401, 4472, 6117, 15424, -11947, -124, 2165, 11590,
  16361, -12282, 11523, 17760, -13229, 8060, 4783, 2960, -14106, -7336,
  12088, 431, -9787, -3193, -1489, -15956, -16178, 21615, -16777, 12946,
  3135, -2287, 11308, 6002, -6323, -8245, 3630, 10489, 6230, 5288,
  10176, -7048, 8499, -11062, -8037, 4085, -6348, 2208, -22192, -6135,
  -10268, 2455, -2481, -4528, -7273, 17424, -12790, 918, 6710, 1356,
  -17810, 2233, -4353, -5227, -11033, -3816, -17839, 19588, 2721, -305,
  -6951, -3093, -3101, -1947, -21118, -14678, -5341, 6943, 12025, 3791,
  6502, -746, -17612, -13757, 9454, -7705, 5410, -13105, -12236, 523,
  13090, 2591, 9875, -13657, 17068, -19627, 8796, -15218, -11478, 23259,
  -3618, 2913, -3280, -2594, 13927, 16343, -2583, -15115, 2798, -16757,
  1540, 6779, 7660, -11999, 7502, -12336, 11610, -11201, 206, 19470,
  14265, 8754, 3073, 3032, -10958, 2007, 23322, -9957, -6711, -5153,
  15450, 12054, 8826, -18566, 9600, 1171, 8808, -11559, -13522, -6249,
  -6546, -20759, 5675, 5864, 3693, 15233, 113, 4999, -8149, -4320,
  11886, 3108, -5284, 12791, 3429, -6416, 112, -9475, 2356, 10858,
  3443, -6663, 8582, 3756, 4593, 3494, 757, -11429, 2263, -21,
  -10920, 5965, -1712, -14386, 1911, -10937, 6027, 2602, 4791, -976,
  2496, -4033, -3568, -12109, -563, 1417, -8695, 3155, 809, 1678,
  -3340, -2762, 4328, 5863, 13666, -7265, 8918, 4000, 6630, 9804,
  2000, -4442, 5669, 689, -3068, -10184, 838, 1424, -4571, 2089,
  3699, 4136, -4967, 10780, 3005, 1656, 2463, 3840, -4495, 1748,
  1600, 5560, -11741, 8734, -437, 11253, 3033, -9700, 1273, -178,
  9131, -2675, 3008, -6328, 322, 3982, 4613, 4132, -5465, -5948,
  -265, 11370, -347, -3349, -8975, -232, -5767, -3803, -8506, -7403,
  -4218, -3001, 2421, 160, -4211, -1644, 5538, -1652, -7219, -547,
  581, 8009, -8793, -4224, -3737, 1042, 1825, -4132, 12721, 7554,
  -10180, 3683, 7498, -1390, 9766, 9663, -10571, -5875, 10925, -967,
  5635, 16606, 12671, -20478, 16575, -15875, -3408, 1914, -9455, -8362,
  6331, 14126, -4888, -9800, -12084, -4731, -5373, 12005, -7603, 13995,
  11964, -4907, 11915, -2202, 25775, 6756, 16211, -6458, 6776, 5914,
  8620, -18665, 12741, 2196, -9629, -1790, 16648, 4143, 6484, 4188,
  14182, 4572, 19068, -19029, 760, 2316, 4439, 2609, 9316, -3276,
  22267, 12433, 5970, -5604, -8343, -8519, -11259, 4482, 20717, 19516,
  -9018, 7398, -9902, 14717, 17087, -3334, -10517, 1894, -3699, 13059,
  -17520, 19887, -10782, 15527, 17924, -26102, 6903, -2603, 6451, 3345,
  -9917, -15875, -1068, 14919, 205, 19044, -4134, -5136, -7889, 11873,
  -7257, 6322, -15315, 9037, -3335, -16461, -16610, -10350, -2680, -4538,
  17891, 2811, -21378, 11861, 11078, 7896, -19454, -7445, -4274, 20869,
  -11479, 158, -5082, 15078, 18882, 85, 7767, 23969, -8531, -1706,
  -2613, -10586, -4947, 2851, 4190, -7755, -2452, -8662, 10362, -2446,
  -4786, 461, 3055, -3245, -2700, -6266, -1293, -2204, -3460, 10087,
  -5781, -3223, -12516, 5750, 4877, 10206, 5370, 4241, 9494, 5144,
  10100, 5181, 7840, 824, 10088, -7429, 6649, 5419, 5707, 206,
  2809, 4363, -2265, -3025, 1189, 9771, 6340, 546, 5505, -1209,
  -1464, 334, 571, 1265, -6779, -5717, 10492, -6766, 3437, -1380,
  3723, 6111, 3229, -10319, -7736, 5483, 7225, 10886, 1121, -4904,
  -11109, 4655, 9826, -7466, 3886, 6268, 7760, -1287, 1499, -140,
  -5515, -2390, 12206, -5257, 5753, -239, 1232, 3120, 2223, 385,
  -6382, 608, 2022, 5337, -2280, 4405, -2210, -3946, -1282, -6468,
  -4608, -1509, -2779, 2878, -3015, -1047, 2055, -1993, 13293, 7851,
  337, 6261, 6074, 6702, -6943, 5630, 5635, 3674, -991, 4156,
  6491, 8058, 11367, -7664, -3473, 6030, -1121, 3912, -3177, 5448,
  -12967, -2109, 11592, -6143, -8406, -9396, 8316, -12300, -14216, 14313,
  -7737, 5747, -254, -6960, 6067, 2210, -7014, 3599, -2661, 3885,
  -6742, 8752, 10713, 4552, 10428, -3275, 3360, 7550, 4850, 6313,
  -7162, -3042, 2302, -4677, 4285, 2107, 619, 11608, -5427, 4475,
  2655, -1673, -10015, 9963, 2994, -2572, -2123, -3425, -12658, 12952,
  2139, 965, -10223, -6965, 7226, -6780, -10279, -10262, 107, 10071,
  10489, -6395, -2306, 4379, -4755, 816, 7205, -9186, -6101, -4089,
  900, -6048, 11864, 7162, 13030, -9667, 12491, -12510, 945, -11748,
  3416, 10495, 2829, 1797, -1066, 1302, 10759, 10933, -6972, -8906,
  3552, -5859, -690, 8385, 3080, -11072, 3784, -13078, 3718, -8165,
  -1951, 14984, 6749, 4957, 3983, 431, 4697, 8203, 15221, -639,
  1052, 2760, 4069, 12616, 10563, -8532, 5573, 4602, 11403, -164,
  1439, -10266, -7273, -7864, 3031, 7134, -449, 14478, 7576, -5810,
  -9437, 14736, 7241, 18515, -24021, 6355, 7987, 828, -9746, 5886,
  6949, 16339, 5942, 3337, 8881, -21614, 14290, 9856, 27609, -15157,
  -7644, -22941, -13565, -9112, -22221, -15139, -21915, -14384, -18791, -2151,
  -21647, 15598, -13720, -13790, -14762, -1413, -8696, -8638, 2898, 7566,
  -5784, -19654, -15451, -3249, -12328, 3694, 4233, 411, 2270, -1472,
  15056, 14666, -22083, 12159, -9460, 173, -10050, -15166, -4320, 22756,
  15777, -11078, -17424, -24221, -2396, 12409, 25274, -11866, -22281, 16971,
  -7341, -12203, -13987, 1860, -4070, -599, 12984, 5847, -26937, 12018,
  -12480, 860, -199, -8119, -1090, 4, 12879, -2947, -2253, -13144,
  3053, -10148, 5883, 9775, 3875, 9913, 8665, 794, 3740, -3757,
  5992, 1180, -5326, 3590, -29332, -16190, 2180, -15776, -12273, -15781,
  14916, -9837, -10078, -8657, 744, -10107, -13374, -18929, -25986, 13325,
  10298, -14185, -218, -5955, 9838, -9135, 14154, -7803, -2912, 17702,
  -6099, 11913, -10641, -4445, 10824, -2995, 1938, 10757, 4, -1818,
  -7305, 8731, -1985, -18029, 2258, -3767, 16993, 1448, -15721, -14224,
  41, -9631, -10558, 6553, -16680, 3184, -10772, -2062, -18372, 12235,
  -13325, -2506, -2323, 6142, 1383, -9714, 10959, 382, 4688, -19676,
  -4960, 4444, -9795, -3608, -6302, -858, -13177, -7081, 6202, -1112,
  -18892, 17252, -3443, 7740, -461, -1391, -12072, 13598, 15264, -11656,
  -8987, -17366, -418, -1590, 12300, -4236, -14258, 7372, -7240, -14050,
  -19621, 1276, 3692, -1797, 5552, -3020, -19269, 9799, -9847, -976,
  -11864, -1148, -13842, -622, 11168, 647, -10470, -6725, 9409, -3549,
  314, -1989, -1072, 20073, 13036, 7512, 11203, -9228, 8619, 6454,
  -37, 5302, -20587, -14534, -6198, -4366, -14130, -7238, 13126, -14444,
  -14368, -7790, 7653, -2702, -10606, -9890, -15500, 20303, -6837, -10213,
  11288, -13887, -5624, -14544, 19359, -1175, -9588, 13119, 1774, 11140,
  -7124, 6780, 18188, -15373, 11761, 169, -1694, 436, -12127, 2918,
  2694, -8371, -235, -8961, 9206, -2268, -17821, -6324, -5260, -273,
  -3004, 2234, -8550, 919, 5606, 2366, -7378, 7857, -8345, 885,
  2697, -6092, 8911, -7707, 4117, -311, 14479, -16011, -1054, 6584,
  -457, -119, 6542, -12556, -11215, -4913, 9199, 1429, -12182, 14216,
  10475, 14882, 2945, -5379, -16225, 8139, 7598, -8147, 4119, -4524,
  -6029, 3886, 6221, 4921, -3144, 5484, -13364, -11982, -20598, 9515,
  -7715, 10894, -1009, 7368, -7368, -6803, -5065, -2365, -6586, 774,
  -18655, -10389, 10136, 9882, -9332, 5319, 6162, -6797, -4268, 6200,
  -5220, 22662, 2710, 12581, 8315, -18708, -2217, -485, -1859, 2225,
  -8693, -12035, -18765, 2831, -6312, -2244, 499, -18068, -16027, 5712,
  -129, -2718, -13291, -296, -3319, 19130, -723, 5200, 4953, -13790,
  -6143, -20090, 9104, 4971, -14088, 1527, 14794, 9364, -10330, 18033,
  12418, -14224, 4947, -10583, 2257, 13413, -1195, -6229, 11472, -370,
  5808, 450, 6193, -14848, -5695, -3864, -15528, 6341, -4297, -16242,
  -2588, -12824, 8612, 3953, 1264, 3066, -1462, -4862, -3560, -16734,
  2943, -2196, -8053, 3822, 7138, -6089, -5003, -389, 4232, 6856,
  18841, -13962, 5356, 2342, 12401, 12569, -4115, 1763, 10785, 7442,
  -2666, -14804, -6477, 6271, -1182, -1726, 5327, 1671, -8524, 14691,
  7346, 3577, 446, 7613, -11474, -3881, -7978, 10729, -17152, 14892,
  -388, 16502, -989, -13686, -1351, -1229, 7560, -3098, -4921, -11933,
  5459, 8864, 1040, 6550, -3413, -10338, -1958, 16288, -2566, 6695,
  -8750, 5381, -2769, -12906, -10528, -8696, -5928, -2310, -2391, -5909,
  -13140, -1329, 3013, -3605, -7440, -9138, -6938, 11388, -10157, -6529,
  -10834, 229, -530, 4366, 14775, 10392, -9527, -2185, 6319, -10981,
  14332, -2239, -10351, 12411, 4973, 13469, -13513, 7850, 14187, -10120,
  3689, 751, 1512, 7166, -5085, 1918, 5675, -12272, 5234, -1786,
  15124, -8271, -13423, -11967, -9487, -2703, -9904, -5891, -12725, -5988,
  -2441, 884, -11541, 9920, -9690, -4908, -4074, -5949, 2219, -7682,
  2237, 2676, 6814, -16543, -6580, 2392, -4140, 1806, 7084, -8649,
  -5086, -3158, 11541, 7059, -14996, 12176, 3721, 9105, -2228, -10018,
  -11481, 12879, 9357, -8708, -3181, -10768, -5324, 7910, 12780, -1033,
  -9469, 9566, -11465, -11490, -17403, 7033, -7814, 7439, 3656, 7835,
  -13592, -1428, -7411, -1333, -3077, -2839, -11571, -7341, 10544, 5391,
  -6055, -910, 3962, -8602, -773, 8493, -2061, 16714, 3333, 7791,
  5479, -13409, -548, -1008, -3686, 2056, -15311, -13107, -11444, -4093,
  -7550, -7204, 4368, -14697, -13384, 1385, -1121, -5866, -13408, -6750,
  -10940, 15629, 4609, -899, 1479, -10186, 453, -15802, 17730, -2607,
  -8641, 14142, 1108, 12082, -9268, 5120, 16359, -12153, 8448, 2337,
  -643, 1569, -9857, 3902, 2594, -11137, 1492, -6529, 12208, -2881,
  -16755, -9105, -5246, -2497, -5931, 1356, -11095, -100, 953, 1323,
  -10431, 9347, -9675, -944, 385, -3839, 6273, -8168, 5123, 532,
  11316, -17070, -2959, 5455, -2957, -286, 4459, -9703, -10393, -4967,
  9402, 2286, -14235, 14679, 6663, 12637, 1291, -5703, -14668, 10426,
  9629, -9026, 211, -8323, -4886, 3891, 8986, 2062, -6611, 6907,
  -12009, -12437, -20062, 7684, -5702, 8046, 1284, 5743, -11044, -2597,
  -6513, -1864, -6867, -303, -16508, -8042, 10683, 7430, -8947, 1869,
  6468, -6663, -2667, 5364, -3793, 21384, 4889, 10894, 8457, -16085,
  189, 746, -1897, 2868, -12481, -12916, -15122, 82, -8107, -4251,
  3778, -16949, -15394, 2417, 1163, -3401, -13020, -3451, -7274, 19022,
  -641, 1148, 5530, -13228, -4654, -18451, -7302, -10186, 15373, 6223,
  -18624, -4104, 3688, -23087, -12245, 19235, -9919, 18408, -570, -12742,
  2546, 11201, -12800, -10303, -2400, 2305, 4357, 15093, 2384, -5363,
  16356, -13554, -3892, 17868, -7153, 12900, -20329, -6508, -12605, 3505,
  -5177, 1274, -823, 23405, -6898, -1736, 13912, -2422, -11022, -2065,
  454, 130, -11857, -8634, -25268, 19089, -8717, -4913, -10463, -12071,
  -5502, 4898, -18702, -8779, -35, 14549, 5265, 1931, 9885, -3584,
  -15048, -13916, 10726, -15862, 1148, -9855, -11019, -3036, 11823, -1450,
  2562, -13757, 22606, -20848, 6152, -20937, -11581, 24689, -4294, 1837,
  -12393, 1133, 4001, 16211, -922, -13044, -3989, -14797, 7367, 9887,
  4857, -19058, 4731, -2169, 17289, -5779, 7038, 14731, 18009, 13410,
  6191, 5358, -10750, -195, 17698, -4581, -10906, -1960, 17762, 6515,
  3436, -19973, 15452, 4842, 8210, -8778, -11228, 2278, -17624, -21010,
  14861, -1493, -6033, 9268, 9550, -7485, 10011, 10549, -21185, -4241,
  11561, -19164, 3173, 98, 10227, 13569, -7558, -23280, -15771, 11512,
  -15651, -4982, -12684, -15072, -4530, 22011, -13117, 3019, 18723, -7437,
  7730, 29807, -1947, 23006, -623, -2410, -6043, 1338, -5424, 11366,
  12080, 16237, 9165, -4864, 15791, -8186, 9552, -7109, 9502, 9546,
  -3810, -11296, -20082, 3457, -23060, -9644, -10209, -20355, -4386, 12290,
  107, 8091, 9894, 17944, -10799, -4759, 7063, -5474, 1829, -2286,
  4774, -19656, -9426, 3937, 749, -8608, 849, -7024, -11769, -3981,
  15436, -7551, -4438, -16075, -1422, 7462, -1681, -1835, -19627, 7219,
  -17001, 3437, 1538, 417, -13261, 508, 11716, 8400, -4539, -18289,
  -4371, 16660, 13487, 7929, 13385, -4903, 10390, 11234, 7172, 4922,
  -493, -3145, -6178, 9309, -9612, 6046, 7138, -7919, -8390, -7101,
  13905, 8168, 1586, 3860, 2886, 14575, -25165, -4897, 19793, -13408,
  -19873, -8056, -9197, -11017, 13285, 7106, -15182, -584, -2820, -20825,
  -13281, 21664, -15358, 18621, 2102, -6472, 7271, 10497, -9554, -14496,
  2475, 7534, 10633, 9285, 4099, -10939, 11724, -15411, -10202, 10682,
  -11671, 6725, -26283, -7352, -16863, 6244, -7220, -3695, -6392, 22377,
  -11527, -2565, 12525, 261, -15753, -4380, -4498, -2720, -14872, -6739,
  -23456, 20677, -4462, -3820, -7040, -6662, -9294, 4768, -22963, -11845,
  -4184, 9576, 7420, 7090, 12199, -4945, -20629, -19634, 10451, -11494,
  7691, -14258, -16699, 1322, 11691, -2390, 2880, -14474, 21185, -22114,
  10057, -19177, -17671, 28152, -6839, 2468, -9811, -1929, 7946, 17362,
  724, -15498, -2109, -19296, 6075, 7328, 7365, -15870, 6831, -4577,
  17867, -8314, 5453, 16887, 18898, 12671, 4282, 5417, -17363, -2542,
  21567, -10194, -12496, -6510, 20919, 7215, 3803, -22649, 14303, 1694,
  6385, -14272, -18065, 1508, -12627, -25286, 12154, 87, -808, 10476,
  6931, -9156, 6245, 13787, -14240, 3916, -1570, -14530, 2069, 5424,
  -177, 15172, -1715, -10389, -6174, 11118, -8842, -13950, -2309, -4276,
  9488, 11005, -10014, -8491, 10012, -11288, -5049, 16324, -11475, 11341,
  -12807, -3777, -15175, 7994, -9790, 1743, 1248, 15135, 378, -6577,
  14162, -2313, 709, -12339, -223, 4541, -9984, -7259, -16465, 7207,
  -14794, -7378, -2593, -9151, -12563, 13461, -8276, 2769, 2018, 8460,
  -6599, 6819, 13069, -8371, -9476, -14305, 4751, -10593, 4857, -4715,
  -11009, 997, 757, -9189, -11678, -4963, 13409, -9846, 4221, -12359,
  -14274, 15582, -6864, -127, -14675, 1497, -9309, 6303, 5913, -4082,
  -9589, -8502, 10152, 3618, 1027, -11638, 301, 13360, 15937, 3681,
  11326, -487, 13234, 10663, 3858, 5839, -14460, -8153, 1859, -1745,
  -13149, -3009, 14775, -6759, -7915, -12541, 12588, 2215, -2109, -7277,
  -11263, 14606, -15130, -13686, 15537, -10504, -9239, -5863, -4090, 5337,
  6735, -11481, -5453, -14681, 20117, -3966, -4427, -3010, 10245, -5621,
  -6164, -13734, -6577, -2854, -6963, 18314, -12348, -9624, -23108, 12575,
  4637, 19551, 10803, 8429, 19256, 12987, 18457, 12334, 17765, 2432,
  18529, -12750, 11264, 12178, 13300, -123, 8907, 6792, -2419, -6486,
  7132, 15469, 13432, 3664, 11162, -2888, -2072, -2319, -2912, 956,
  -11683, -12181, 18136, -9064, 10125, 1907, 9190, 12244, 1827, -18917,
  -13137, 8930, 16235, 21144, 1142, -9810, -21310, 11311, 19517, -14014,
  4585, 9406, 9851, -23, 2036, 2505, -11566, -3523, 23116, -11970,
  10529, -1001, -111, 7219, -1231, -1625, -9976, 4193, 1103, 12628,
  -2114, 7848, -5699, -7145, -4051, -5914, -7721, 1007, -2457, 753,
  -5974, -1430, 4320, -2970, 25029, 12841, -4530, 14319, 10414, 13660,
  -13446, 6393, 6934, 8919, -1073, 8438, 9974, 16846, 22738, -9437,
  -8439, 13719, 367, 3746, -9023, 5462, -2874, 1513, -4349, -1958,
  7676, 3434, -6996, 6712, -709, 519, -5252, -3703, 3353, 9685,
  6255, -3498, 6082, -1257, 5992, 6463, 4880, -9309, 3693, -4109,
  -7910, 999, -5655, -11996, -2275, -9640, -2787, 255, -955, 1339,
  -3, -5788, -6223, -5363, -4655, 508, -4989, 3592, -4576, -10,
  -5347, -3925, -621, 4046, 6719, -731, 8063, 2961, 4950, 8466,
  -1375, -2925, -1889, -3279, -4861, -7879, 3352, 4310, -479, 378,
  -3333, -2639, -1794, 7831, 6246, -3262, -3399, 4839, -949, 863,
  2466, 1064, -5418, 1822, 3168, 5619, -3196, -605, -1161, 668,
  6433, -3643, 5904, -862, 807, -1050, 4185, -2347, -3724, -4031,
  2321, 6932, 2019, -4968, -3379, -3054, -4247, 1615, -2571, -3586,
  -3137, -1304, -3785, -952, 2866, -5474, 1481, -4231, -362, 1711,
  1754, 733, -4525, -4101, -2040, -4039, -4606, -3682, 9487, -740,
  -6754, 3876, 7910, 1929, -5275, -794, 1753, -1320, 865, 91,
  -2423, -1184, -4821, 6103, -6308, 1580, 2262, 3382, 5844, -46,
  955, -1615, 3301, 5545, 2852, -2127, 4960, -2583, -689, -1872,
  -3608, -3715, -1579, -3135, -6163, -1238, -2007, 733, 141, -3129,
  -4017, 2319, -5018, 1049, -542, 1875, -6445, 1660, -2798, -2920,
  -2481, 897, -1582, 4995, 4591, 1553, -30, 2670, -286, -2288,
  -5884, -5277, -3079, -1013, 5136, 2160, 939, 659, -5270, -3608,
  1937, 1252, 3387, -4298, -3653, 1810, 3527, 1824, 4593, -3034,
  2321, -4145, 3397, -1481, -3142, 5493, -764, 1216, 2345, -1865,
  6696, 4092, -728, -4197, 2989, -4775, -1322, 529, 3023, -189,
  2931, -5902, 1251, -4278, -1954, 6263, 2459, 741, -253, 191,
  -3172, 996, 7601, -4328, -346, -2468, 3405, 4623, 3799, -4007,
  542, -992, 2155, -3930, -4393, -3839, 2438, -5029, -1506, 3826,
  4428, 5536, 2320, -4948, 12569, 3625, -19328, -9020, 15516, -18727,
  -2865, 4017, 7463, 10790, -6846, -22174, -11056, 8749, -15112, 1411,
  -12694, -11857, -10183, 21809, -5286, 7897, 19520, -4624, 10956, 27300,
  4079, 21738, 1183, -2088, 267, -3013, -187, 11772, 12075, 15745,
  7112, -654, 12150, -7820, 5600, 1213, 10930, 7178, -1003, -9912,
  -19120, 6229, -16907, -6515, -13069, -19681, 2942, 5226, -852, 3341,
  9431, 19135, -4229, -9363, 1885, -686, 3426, 3140, 6148, -19354,
  -13234, 4159, 5073, -11076, 5411, -870, -2470, -5827, 15880, -8824,
  -5298, -16173, 5003, 6403, 1980, -881, -14769, 7405, -9385, 5733,
  -2994, -1444, -8361, 1345, 8155, 10613, -3475, -18366, -2785, 7171,
  9657, 3683, 8928, 1311, 8671, 9696, 7593, 3288, 6492, 3051,
  -672, 9845, -4474, 8344, 3856, -473, -1346, -5905, 11942, 9390,
  6948, 6486, 7502, 5758, -22554, -3054, 15819, -6801, -16635, -192,
  -4936, 6199, -1625, -9957, 6709, -5207, 5215, 7030, -2343, -2978,
  1981, -9187, -114, 3004, 2493, -6514, 3463, 11582, -1070, 772,
  -9856, -3225, 6967, 8823, -2963, 7947, 6814, -6139, 10277, -3540,
  10481, 2614, 12261, -6938, 7920, 1620, 2064, -7899, 1489, 5270,
  -8105, 108, 806, 10345, 2986, -1750, 7794, 3498, 8462, -3879,
  7864, 4460, -1035, 2619, 10898, -9326, 6371, -1365, 818, -1832,
  4515, -7545, -9753, 6680, 8413, 12238, -2032, 3808, -6912, 4831,
  10093, -3344, 1013, 7320, 8985, 2573, -6490, 5683, -4424, 5929,
  12692, -10494, 6103, 79, 8237, 763, 5433, -3309, -5318, 2931,
  5803, 7132, -5930, -56, -1435, 4845, -687, -8866, -10089, -1977,
  -6691, 1061, -8146, -5892, -1024, -3664, 13211, 7449, -1264, 3883,
  9512, 4570, -10548, 5565, 6244, 8563, -6871, 712, 3640, 7464,
  10880, -10151, 6659, 10157, -8313, 6946, 3501, 4948, 23154, -5374,
  -6033, 19235, -6294, 11670, -5786, -1029, 19381, -13737, 13385, 7180,
  -3544, -6760, -16786, 8311, -2742, -13703, -3116, -12891, 11451, 4807,
  -23280, -8593, 946, -5138, -3390, 12302, -12595, 8276, 1405, 726,
  -13271, 10593, -12429, 3270, 5049, 1327, 10526, -10676, 11188, -2450,
  16282, -21209, 392, 9576, -4309, -4342, -2034, -9789, -19813, -8917,
  6669, -4887, -16988, 20520, 7850, 17099, 5181, 205, -20211, 9495,
  12891, -11788, 1376, -9510, -3802, -2764, 6176, 4041, -6577, 4346,
  -13079, -16152, -26372, 7263, -982, 6506, -456, 761, -12211, -695,
  -7590, -2767, -14563, 2395, -24535, -7905, 12252, 8638, -14651, 2671,
  11293, -4333, -4757, -548, -5915, 29685, 9959, 15053, 14102, -19787,
  3645, 4706, 495, 4850, -13446, -15235, -19310, 3775, -12148, -2258,
  6322, -21635, -20032, 525, 6116, -724, -13794, -2020, -6480, 26192,
  -9740, 12, 13125, -19439, -12433, -23402, -8748, -4685, 3322, 2079,
  -276, 3570, -9292, -4781, -8740, 13856, -15017, 7129, 5219, 7195,
  11677, 2481, 1282, -9798, 8392, 12034, 11911, -4718, 6965, -10902,
  -1658, -7895, -12235, -6952, -9254, -6652, -18702, -3949, -10882, 5326,
  -4046, -8542, -10660, 7572, -12029, -700, 2003, 4374, -14522, -2277,
  -8505, -5927, -9392, 704, -6341, 11832, 6696, 1278, 1441, 5701,
  -6785, -415, -15763, -10736, -7814, -2904, 8547, 9167, 6840, -2262,
  -15925, -14459, 4464, 2077, 11722, -12051, -13576, 6347, 6232, -151,
  4888, -7367, 6816, -11090, 9752, -5032, -13883, 16374, -5155, 2427,
  1622, -5076, 11755, 9683, 1409, -10358, 3722, -14034, -447, 94,
  7228, -1570, 6580, -8379, 7016, -8351, -1429, 12272, 8592, 3716,
  -772, 1922, -14347, -2281, 16472, -12089, -5549, -8439, 12252, 6600,
  4590, -12578, 3631, -3391, 1838, -12877, -15746, -3264, 3311, -15802,
  -211, 4733, 8651, 8813, -21478, 4605, 5478, -17242, 5939, -10141,
  4369, 885, -18002, 13249, -13170, -6147, 3646, 6900, 16071, -7447,
  2781, 11675, 3558, 12597, -9369, -4962, 21523, 6902, -1245, 4173,
  2080, -11945, 10674, -8216, -2530, -884, 11230, -9141, 10935, -3686,
  -5435, -916, -10389, 9586, -10121, 2618, -15720, 18944, -1078, -9126,
  3273, 4108, 1692, 9524, 18551, 8219, -5718, 5076, 14814, -18590,
  -8111, -16170, -5325, -655, 18848, -7802, -11182, 10484, -2351, 7560,
  3638, 2916, -4584, -4504, 4948, -3326, 12126, 14560, 24129, -6948,
  1112, -6471, 1144, -782, 10005, 1631, 6469, 2672, 13450, -2602,
  23034, 7690, -10898, -8451, 13576, -3361, -10321, 3759, 4824, 661,
  5814, -27409, -8642, -14172, -12929, 18634, -2833, -4130, -605, -4286,
  11065, 13534, 18514, -4350, 10644, 1352, -4930, 19946, 18380, -1224,
  -5439, 292, 12454, 868, 4680, -23899, 9331, -1019, -12068, 17935,
  12028, 21682, 3877, 8872, -8651, -7724, 11671, -1343, 3427, 15190,
  7279, -14123, 9952, -14474, -1226, 5146, -3422, -8624, 7117, 12787,
  -1739, -4169, -9722, -6851, -2, 9637, -8219, 12130, 8476, -8741,
  10609, -5411, 19537, 5398, 14461, -6113, 7135, 2743, 4525, -16337,
  7468, 3409, -10424, -29, 9799, 6244, 3706, 1024, 11725, 5389,
  17278, -13853, 5569, 3931, 4030, 5110, 9394, -6104, 16126, 6703,
  2779, -6527, -2864, -6788, -10721, 5335, 15388, 16108, -7031, 8440,
  -6905, 10294, 13579, -1838, -6725, 4012, 1411, 9718, -15131, 15433,
  -7535, 13795, 15064, -20657, 6262, -1424, 8917, 1411, -2828, -11648,
  -2216, 10429, 3373, 14155, -5744, -4493, -4889, 11437, -4313, -308,
  -14321, 4354, -5636, -9821, -14267, -9731, -2963, -4529, 15046, 4120,
  -13439, 7468, 10906, 5488, -16283, -2405, -101, 16729, -11072, -812,
  -2621, 11194, 14659, -4421, 10132, 18853, -10298, 2428, 1852, -4592,
  -3696, -4463, -1708, 5751, 3848, 9050, -15048, 467, -3106, 9374,
  -13781, 5791, 6381, 11989, 10815, 2029, 5042, -13400, 11328, 12344,
  17631, -9748, 2891, -15132, -6978, -7693, -16081, -11740, -13360, -10812,
  -18536, -3079, -14044, 8804, -6908, -11030, -12794, 3386, -11399, -3020,
  1269, 6086, -12050, -7677, -11447, -5577, -10026, 2580, -1215, 7678,
  6814, 1064, 6889, 10237, -11639, 3119, -13465, -7434, -9168, -8286,
  4903, 14191, 9454, -4834, -16427, -17521, 1820, 7051, 17046, -12139,
  -16490, 10633, 1546, -3737, -736, -3819, 2036, -6842, 11192, -86,
  -18139, 14348, -7465, 2071, 2420, -6534, 8535, 6139, 5303, -7726,
  2640, -13632, 9, -3944, 7114, 3674, 5990, -3147, 6678, -5655,
  -511, 7114, 7002, 2112, -2766, 2210, -19329, -6765, 11980, -13881,
  -7099, -11277, 12680, 1538, 178, -10612, 1721, -6185, -3442, -15099,
  -19326, 1504, 7513, -14766, -1523, 2037, 10467, 3231, -8660, 6403,
  8171, -15613, -4819, -17671, 22095, -4246, -8363, -634, 8149, -7183,
  -5938, -13388, -3943, -4534, -7009, 21542, -12522, -7852, -26420, 12331,
  9011, 21947, 11181, 9583, 20702, 11421, 21513, 11432, 18149, 2270,
  21673, -15394, 13944, 12096, 12936, -311, 7285, 8954, -4581, -6488,
  4346, 19977, 13930, 2002, 12314, -2410, -2090, -627, 376, 2484,
  -13659, -12093, 21986, -13318, 8967, -1273, 8602, 12816, 5523, -21681,
  -16173, 11388, 16585, 23726, 1860, -10016, -23596, 10967, 21505, -15632,
  7169, 12696, 15049, -1547, 2370, 1195, -12124, -4091, 26304, -12374,
  12299, -641, 2337, 7047, 3089, -261, -12814, 2635, 3687, 12564,
  -4326, 8992, -5191, -7643, -3251, -11726, -9901, -1825, -5199, 4385,
  -6914, -2368, 4384, -4068, 28543, 16145, -1228, 14211, 12960, 14634,
  -15248, 10585, 10840, 9023, -2235, 8920, 12932, 17888, 24868, -14759,
  -7321, 14149, -2001, 7350, -7363, 9948, 16008, -7978, -2487, 18858,
  -7435, 11855, -9337, -5247, 12181, -4034, 3980, 11498, -739, -3757,
  -9290, 9655, -2979, -17936, 1006, -5634, 16399, 3393, -17408, -13431,
  1495, -9600, -9257, 9313, -16401, 5396, -9485, -1811, -18269, 12396,
  -13582, -1038, -636, 6881, 3104, -10098, 12254, -322, 6728, -20364,
  -3683, 5791, -9422, -4330, -7091, -1463, -15392, -7846, 5774, -2728,
  -19027, 18703, -2132, 9475, 916, 72, -13634, 13110, 15751, -12010,
  -7716, -16713, -340, -2887, 11278, -3004, -13395, 6687, -7747, -14739,
  -21171, 1798, 4370, -1291, 4804, -3567, -18663, 9392, -9680, -1166,
  -13421, -177, -16100, -1050, 11623, 1665, -11755, -5622, 10599, -2986,
  -391, -2921, -1755, 22515, 13847, 9040, 12628, -10635, 8982, 7196,
  620, 5758, -19924, -14824, -7932, -2798, -14553, -6249, 13124, -15739,
  -15530, -7311, 8604, -1851, -10814, -8761, -14366, 22213, -8730, -9409,
  13020, -15361, -7576, -16027, 22132, -2140, -10183, 15583, 490, 12418,
  -7830, 6113, 20379, -16953, 13277, 1298, -2304, -844, -14416, 4081,
  1970, -10367, -850, -10759, 10565, -1423, -20910, -7559, -4906, -1252,
  -3534, 4110, -10345, 2178, 5407, 2250, -9357, 9137, -10117, 1284,
  3297, -5615, 10100, -9210, 5706, -812, 16340, -18857, -1040, 7748,
  -1285, -960, 5714, -13619, -14081, -6269, 9725, 413, -14524, 16836,
  11112, 16865, 3557, -5147, -18875, 9219, 9289, -9818, 4002, -6022,
  -6440, 3092, 6842, 5221, -4215, 5826, -14953, -14184, -24064, 10115,
  -7544, 11282, -1122, 6975, -9169, -6623, -6192, -2807, -8817, 1033,
  -21907, -11253, 11568, 10694, -11421, 5359, 7651, -7261, -4939, 5652,
  -6037, 26371, 4173, 14345, 10164, -21141, -1559, 252, -1773, 2832,
  -10632, -14079, -21108, 3203, -8152, -2618, 1468, -20861, -18662, 5363,
  830, -2796, -15012, -744, -4366, 22444, -2454, 4788, 6825, -16449,
  -8025, -23070, 7174, 5781, -10524, -1304, 11671, 4711, -3907, 14895,
  9968, -13105, 7068, -10479, 554, 8400, -2625, -5981, 8409, 4309,
  2118, -1929, -159, -9684, -3793, 1588, -10737, 7749, 1160, -10765,
  2412, -7960, 12088, 4196, 5792, -315, 1605, -1066, 359, -14510,
  4971, -142, -7453, 1846, 8220, -1430, -890, 750, 6591, 5384,
  16068, -12686, 3997, 2377, 8088, 8058, 978, -490, 12113, 7188,
  117, -9749, -5162, 944, -4112, 796, 8837, 6816, -7046, 10512,
  1272, 6094, 5354, 3314, -8808, -988, -4503, 9534, -14348, 13797,
  -3088, 13676, 4971, -14807, 1541, -1202, 6644, -764, -4584, -10732,
  2474, 8961, 1250, 9013, -3323, -6963, -3018, 12581, -3144, 4645,
  -9388, 5154, -2833, -11044, -10535, -7798, -3967, -2602, 4217, -1900,
  -12562, 2556, 5304, 376, -9686, -6356, -4292, 12306, -8979, -3472,
  -6910, 4520, 5304, 1717, 10895, 12629, -8038, -931, 3350, -8206,
  163, -5319, -4476, 9053, 4656, 12378, -18558, 2100, 608, 6441,
  -12705, 6013, 6464, 13302, 8969, 2554, 6120, -16853, 12297, 11385,
  21346, -11716, -1101, -18364, -9342, -8653, -18678, -12932, -16886, -12145,
  -19250, -3024, -17314, 11271, -9715, -12259, -13777, 1868, -10749, -5303,
  1953, 6473, -10157, -12345, -13152, -4910, -11299, 2705, 208, 5204,
  4875, -107, 9617, 11579, -15824, 6402, -12545, -4978, -9713, -10797,
  1457, 17321, 11858, -7391, -17313, -20502, 295, 8652, 20057, -12441,
  -19080, 12834, -1688, -7072, -5752, -2135, 13, -5088, 11871, 1596,
  -21860, 13835, -9597, 1509, 1102, -7302, 4943, 4025, 7962, -6388,
  624, -13947, 1098, -6255, 6628, 5474, 5168, 1462, 7586, -3565,
  1015, 3232, 6817, 1847, -3785, 2665, -23489, -10453, 8575, -14907,
  -9398, -13206, 13727, -2704, -3711, -10452, 1471, -7752, -7155, -16918,
  -22259, 5760, 8137, -15158, -961, -1086, 10043, -1320, 7574, 4900,
  -2889, -2782, 681, -3873, 9359, 4827, 7743, -12774, 14092, -7172,
  -4807, -6557, -10492, -2699, -999, 10228, -7900, -11010, -11971, 4431,
  -5634, 11063, 1631, 8010, 12123, 6261, 9645, 6158, 18217, 3909,
  11265, -5544, 4582, 8236, 10216, -7353, 11314, 1252, -2368, -4032,
  13486, 3248, 8329, 5423, 9422, -376, 6389, -10985, -5504, -738,
  -1574, -5192, 7441, -417, 15078, 9773, 7448, 2876, -7310, -9218,
  -7127, 2820, 15514, 14571, -4086, -1763, -11548, 11628, 13579, -6245,
  -5393, 961, -3483, 6950, -6516, 10609, -9354, 4987, 14127, -15804,
  5442, -2138, -807, 4913, -10228, -8978, -1809, 9789, -2857, 13622,
  17, 178, -6713, 1683, -6033, 6917, -7183, 7544, 846, -10961,
  -8434, -3742, 812, -1992, 14630, 2984, -15062, 11666, 6039, 8387,
  -12102, -5361, -3476, 12315, -3726, 3409, -1092, 12695, 15680, 2101,
  -2648, 15467, -308, -3631, -7732, -7435, -1980, 5420, -3143, -7422,
  6535, -3167, 3357, 7507, 301, -5024, 3164, -8632, -351, 3035,
  648, -5791, 3643, 9206, -918, -464, -7635, -3743, 3826, 6873,
  -3879, 7126, 5455, -5861, 7951, -3588, 10139, 2605, 9979, -5294,
  5912, 1262, 1910, -8411, 2330, 3602, -7128, 58, 2504, 7032,
  2249, -933, 6900, 3198, 8781, -5491, 5750, 3352, 422, 2780,
  8033, -6725, 7114, 627, 858, -2862, 1802, -5698, -7969, 4822,
  8018, 10303, -2912, 4193, -5322, 4864, 8513, -2221, -1147, 4877,
  5227, 3618, -7358, 6683, -4196, 6545, 10291, -10706, 4678, -370,
  6691, 543, 2388, -4666, -3509, 3919, 3993, 7056, -4803, -1300,
  -1963, 5437, -1427, -5175, -9081, -252, -5210, -1771, -7980, -5712,
  -1446, -3206, 10554, 4920, -3856, 3618, 7711, 3567, -9704, 2437,
  3350, 8533, -6590, -19, 1222, 6495, 9162, -6805, 6200, 9861,
  -7264, 4389, 2484, 1593, -8502, -1331, 11229, -5612, -10680, -11058,
  12752, -12630, -10471, 8937, -1046, 4553, -3095, -12203, -197, 2528,
  -9234, 6389, -7192, -2379, -11502, 12749, 6357, 8653, 12902, -1309,
  8517, 13288, 7771, 11176, -421, -1917, 5387, -6423, 4935, 6384,
  5775, 10439, 13, 3980, 3635, -4252, -3532, 9656, 7021, 651,
  781, -5006, -12525, 8727, -3095, -725, -11796, -11328, 8921, -5133,
  -4445, -5309, 3993, 12911, 5838, -10200, -3981, 4378, 1219, 5661,
  5914, -12113, -11378, 720, 5779, -9293, 9377, 6159, 9530, -7350,
  11482, -9206, -3192, -11639, 8098, 5153, 4347, 586, -4001, 3863,
  4222, 7524, -7233, -5014, 503, -697, 770, 9067, -205, -12484,
  737, -7914, 2599, -4136, 85, 9581, 4635, 4738, 4929, 220,
  9627, 8398, 8150, 4736, 1825, 6365, 314, 8957, 7618, -4725,
  5683, 6595, 10596, 4849, 7338, -7250, -11329, -2652, 5268, 3626,
  -5960, 9965, -10253, 9060, 1621, -17464, 5843, -12547, 13435, 5884,
  -7117, -2073, 3552, -12674, -1860, -876, 2746, -9106, 1405, 20573,
  -5137, -731, -20328, 381, 12402, 17381, 617, 11934, 14394, -3641,
  19109, -573, 16877, 3372, 21281, -13463, 14069, 5461, 6043, -8453,
  3012, 9459, -11036, -1919, 769, 19452, 7768, -2058, 12631, 3159,
  8196, -3369, 10063, 6249, -6394, -1006, 20320, -16146, 8890, -3473,
  3261, 2415, 8388, -16136, -16857, 11853, 14204, 21610, -1161, 738,
  -15827, 8330, 18359, -9244, 4663, 13366, 16839, 1422, -5865, 5649,
  -8721, 4631, 23210, -15071, 11178, 76, 10633, 2931, 8908, -2828,
  -11058, 3093, 8581, 11385, -8706, 3369, -2861, 2417, -1317, -15974,
  -14793, -4106, -10052, 4383, -11177, -7389, 347, -5675, 24626, 14592,
  15, 8480, 15356, 9894, -16757, 11335, 11977, 11857, -8488, 3806,
  9417, 13980, 20313, -18017, 5256, 15305, -10550, 11458, 2220, 10642,
  -800, 9006, -14313, -7703, 22204, 6244, -10456, 23301, 5357, -9841,
  -1389, -16488, 5228, 21156, 8118, -11843, 16248, 6241, 9702, 8205,
  2853, -21393, 5492, -905, -20064, 10422, -4234, -27184, 2889, -20746,
  9241, 4598, 8021, -1071, 4551, -8176, -7579, -21221, -2262, 2918,
  -15676, 6592, -84, 3349, -6860, -5616, 7227, 11192, 24750, -11681,
  17683, 7879, 12555, 19023, 3384, -8224, 8834, 111, -6339, -18839,
  3007, 3797, -7553, 3994, 5264, 6366, -8348, 20388, 7038, 1903,
  3347, 7994, -7167, 3656, 4074, 9585, -20600, 15024, 554, 20417,
  4431, -15767, 2114, 235, 17441, -5273, 7419, -10219, 860, 6324,
  9353, 6259, -10001, -10641, 639, 21038, 429, -7217, -15613, -1293,
  -10702, -5131, -14495, -13024, -7609, -5116, 3266, 479, -5416, -4179,
  9984, -3710, -11744, 253, 2086, 13593, -15612, -7900, -6256, 752,
  1926, -8042, 24188, 12398, -18685, 7811, 15197, -1030, -2747, 2699,
  7924, -7944, -8793, -13317, 18631, -7562, -4218, -1366, 9242, -1799,
  -6361, -15661, -7613, -222, -8933, 13956, -12381, -10100, -19894, 14444,
  2177, 16404, 12591, 5087, 16889, 16027, 14694, 14231, 13422, 1181,
  13842, -10436, 8298, 11761, 12664, 3520, 8171, 4835, 901, -6839,
  6457, 11816, 12511, 4271, 7990, -4639, -6235, -340, -6254, -934,
  -12018, -13914, 14203, -5761, 7195, 2008, 8960, 13580, 314, -16556,
  -9568, 6431, 12813, 16465, 2201, -12073, -19253, 9294, 15696, -13275,
  4642, 6763, 6761, -1576, 5177, -397, -10045, -6630, 18396, -7556,
  8243, -1082, -3674, 7016, -3182, 52, -8365, 2615, -1238, 9614,
  176, 8282, -5204, -9855, -3802, -2984, -3652, 1426, 91, 830,
  -2552, 1085, 4902, -1595, 20187, 10262, -3595, 12900, 6639, 12077,
  -9299, 4630, 4819, 5122, 1881, 8415, 9041, 14015, 18683, -5939,
  -11779, 9393, 3850, 1132, -10792, 4009, -7029, 2867, 11099, -11263,
  -10835, -17231, 22281, -10537, -8609, 1893, 7769, -1553, -6899, -18103,
  -6237, -525, -10987, 16845, -13981, -9631, -23981, 17019, 5811, 19355,
  15545, 5271, 19317, 18029, 17803, 16111, 13299, 609, 16459, -13147,
  10653, 12991, 13597, 5747, 7199, 6755, 591, -7753, 4099, 16141,
  14173, 3481, 8613, -5513, -9071, 2507, -5231, -339, -15603, -16311,
  17989, -9063, 5447, -897, 9421, 16621, 3509, -20111, -11929, 8571,
  13059, 18821, 3867, -14827, -22797, 9121, 17787, -16083, 8023, 9733,
  11481, -4055, 7887, -3211, -10953, -9537, 21595, -6499, 9999, -779,
  -3325, 7687, 9, 2449, -11391, 597, 183, 9253, -809, 10805,
  -4949, -12875, -3201, -7761, -4145, -1023, -1321, 4847, -1959, 1651,
  5969, -2113, 23879, 13705, -13, 13721, 8233, 13837, -10045, 8735,
  8467, 3983, 2539, 10029, 12831, 15433, 21163, -10271, -13681, 8837,
  3769, 3759, -11195, 8505, 2994, -1637, 8501, 381, -13783, -8923,
  15183, -12130, -553, -1006, 9799, 4801, -6732, -18530, -11139, 4870,
  -11497, 5542, -12228, -12160, -12756, 17381, -4681, 10341, 14889, -265,
  12680, 21665, 7235, 17754, 7399, -256, 5051, -5026, 2200, 11446,
  12292, 8759, 8689, 520, 7335, -7234, 8020, 3279, 11032, 6624,
  2886, -7320, -11784, 1051, -13448, -4660, -10769, -16295, 5848, 2360,
  4343, 4929, 9306, 15108, -4703, -11015, -2123, 1142, 8065, 8168,
  3170, -14918, -14538, 7013, 9055, -10874, 2707, 586, -1615, -2301,
  9308, -3125, -7450, -10289, 9548, -1150, 3827, -1379, -10453, 7041,
  -9333, 1309, -3736, 1907, -6459, 5748, 5250, 8080, -4865, -13051,
  -4033, 5946, 3789, 4485, 5957, -1973, 2982, 5406, 5784, 1298,
  10911, 4179, -4982, 11253, -454, 9300, -2098, -1117, -1166, 29,
  6989, 8146, 5474, 9498, 11622, 3337, -17189, 3333, 10693, -5298,
  -14517, -1566, -3325, -8472, 16639, 4798, -22453, -8731, 12475, -24614,
  -9215, 13281, -846, 16478, -4780, -21252, -5394, 11292, -16739, -3933,
  -9661, -6221, -5066, 22199, -1350, 2767, 21497, -10030, 5358, 26999,
  -549, 20855, -9981, -4896, -5921, -689, -2369, 8325, 7353, 22653,
  624, -953, 14860, -6447, -2791, 570, 7456, 4390, -6759, -11017,
  -25976, 14513, -15071, -6605, -14552, -19316, -256, 5118, -10762, -3159,
  5995, 20325, 734, -5706, 5825, -1895, -5716, -4850, 9823, -21174,
  -8559, -2620, -2167, -9232, 10301, -714, 755, -11468, 22423, -17151,
  -357, -21859, -2268, 17175, -666, 430, -15793, 5373, -3186, 12594,
  -3066, -8227, -7109, -7029, 8760, 12387, 365, -22283, 809, 2324,
  15017, -1272, 8984, 9373, 15005, 13235, 8229, 4733, -786, 2522,
  9583, 3950, -8244, 4578, 11547, 3957, 1693, -14489, 15744, 8774,
  9465, -244, -659, 3859, -23936, -13107, 17724, -4556, -13798, 5662,
  -4328, -8692, 10835, 6605, -14226, -1386, 598, -17569, -8271, 14377,
  -8113, 14910, -132, -8944, 1720, 9151, -9442, -10361, -946, 1991,
  5907, 10555, 262, -6445, 11522, -11564, -5054, 12986, -7899, 9042,
  -17363, -5318, -12135, 4247, -5699, -120, -1761, 17987, -5788, -2554,
  11326, -1480, -8544, -4083, -996, 72, -10475, -6684, -19470, 14375,
  -7431, -4379, -6785, -8489, -6792, 5416, -15112, -6293, -765, 9963,
  2879, 3561, 9299, -4226, -13154, -13222, 7876, -11536, 3034, -8577,
  -10709, -950, 7989, -2820, -224, -10383, 17068, -16114, 5686, -15875,
  -11727, 19991, -4736, 1275, -10291, 195, 1999, 12177, 652, -10166,
  -3935, -12567, 6261, 6581, 3951, -14148, 3649, 85, 14367, -3989,
  6164, 10289, 14479, 10560, 4277, 4508, -11320, -2133, 13088, -4807,
  -10020, -2994, 15104, 3353, 1002, -16303, 12162, 2800, 4672, -8532,
  -11166, 3684, -13330, -17572, 11883, -2471, -4467, 5482, -3888, 4571,
  -5365, -5821, 10909, 1561, -4425, 10430, -611, -1686, -3235, -7871,
  3226, 10952, 6681, -6210, 7847, 4122, 5378, 6224, 568, -10485,
  6075, 155, -9187, 4983, -2118, -14227, 2497, -10772, 2925, 1818,
  4801, -1486, 3540, -4556, -4652, -9199, -3067, 2774, -8349, 3644,
  -3002, 4273, -3578, -4082, 3342, 5746, 11122, -3163, 11092, 4896,
  4941, 9651, 3454, -6378, 2063, -2793, -3938, -8612, 4643, 1087,
  -4621, 3312, 1305, 3338, -2904, 9764, 3144, -329, 1641, 3492,
  -1031, 3868, 5721, 2989, -8658, 5315, 984, 8877, 2860, -5938,
  1731, 703, 9977, -2921, 7401, -2885, -1074, 1155, 6471, 1696,
  -5954, -4132, 1441, 9541, 1461, -7626, -7853, -3009, -6703, 1145,
  -6414, -6188, -3460, -2752, 2471, 2185, 1208, -3037, 5860, -1802,
  -5308, 3473, 3964, 5375, -7547, -3588, -792, -92, 856, -7223,
  12479, 4709, -10097, 6474, 9109, 3264, 11746, 3629, -10157, 3297,
  7857, 6249, -3953, 11986, 13101, -14740, 9767, -7253, -790, 4628,
  -6893, -3066, 5971, 816, 360, -5438, 1736, -6397, -9055, -93,
  -8355, 5477, 878, -5351, -483, -4066, 11217, 3746, 2181, 1840,
  -1434, 418, 2122, -11903, 7211, -2644, -3539, 562, 11344, -6061,
  -122, 3194, 4840, 3200, 12794, -13339, -1958, -334, 7923, 4893,
  -2834, 4418, 12565, 10459, 1772, -7654, -9535, 2341, -769, -2050,
  8415, 4126, -6910, 7604, 1654, 6585, 3585, 3216, -10631, -4652,
  -10219, 9803, -12268, 13295, -3286, 11445, 1968, -13196, -271, -1835,
  1741, 227, -10301, -11183, 4730, 9863, -2753, 8738, -34, -6682,
  -4079, 10029, -4411, 11230, -5713, 8185, 1087, -14407, -8228, -5458,
  -3078, -1130, 1101, -5029, -15790, 3681, 1704, 266, -7154, -10703,
  -8534, 10783, -6069, -2796, -8986, 3944, 3710, 7717, 6185, 11133,
  -3407, -5702, -865, -12752, -426, -7664, 19977, 3477, -28676, -14576,
  22660, -28977, -7837, 9371, 7567, 16342, -9368, -31892, -13360, 12491,
  -22488, 2165, -17812, -14955, -15157, 31617, -4570, 11241, 29012, -7644,
  15098, 38768, 6147, 30856, -1093, -3922, 239, -5139, 403, 16098,
  16065, 24541, 7768, -36, 17242, -11078, 4498, 3741, 15152, 8816,
  -2473, -14534, -29674, 11993, -22549, -8813, -20429, -28541, 5260, 5408,
  -4480, 1517, 12449, 28341, -3097, -14079, 2213, -176, 2682, 3666,
  10186, -28784, -19204, 4027, 6381, -16482, 10351, 324, -258, -10771,
  24898, -15728, -6748, -25353, 6861, 11869, 2984, -829, -20605, 10077,
  -9961, 10737, -5836, -4716, -10625, -345, 10857, 16387, -3863, -28042,
  -2781, 6225, 14305, 2591, 11576, 5739, 13737, 14494, 11167, 4550,
  9184, 5851, 3270, 12641, -6312, 11550, 6670, 2467, 692, -10857,
  17718, 13656, 12146, 8104, 9740, 5186, -32670, -6938, 22263, -7595,
  -22691, 3394, -2904, -500, -318, -342, 2020, 1468, -3644, 750,
  -2290, 3254, -4682, 448, 2020, 4108, 4316, -490, 1884, -2158,
  3356, 4386, 3590, -3438, 2768, -3198, -2380, -1308, -3952, -4708,
  -2322, -3980, -4642, -760, -2314, 1314, -650, -3312, -3894, 202,
  -3860, 156, -1016, 1888, -4448, -150, -3148, -2380, -2050, 1264,
  440, 2450, 3782, 1174, 1486, 3454, -1508, -1132, -3892, -3334,
  -2950, -2622, 2966, 2898, 1130, -188, -4200, -3552, 544, 2500,
  3980, -3410, -3606, 2520, 1270, 444, 2064, -1366, 64, -1940,
  2876, 390, -3534, 3298, -1252, 734, 2222, -2022, 4358, 1938,
  332, -2556, 2086, -3570, -1206, -938, 2194, 1472, 1998, -3462,
  466, -2746, -1588, 3294, 1098, -200, -962, 8, -3764, -482,
  4488, -3982, -588, -2808, 2392, 2158, 1724, -2442, -480, -1740,
  80, -3692, -4372, -2008, 3288, -3488, -1962, 2290, 4042, 2704,
  8480, 3407, -1081, -961, -2647, -4267, 10523, 1502, 7649, -11782,
  14657, -4531, -5614, -9688, -12139, -706, -3349, 8762, -9286, -12520,
  -11824, 7559, -7201, 10775, 4457, 6299, 12482, 10457, 8693, 9308,
  16817, 3266, 9557, -4942, 3452, 9428, 11372, -4267, 11921, 446,
  263, -4996, 13982, 1973, 9230, 6518, 8174, -2086, 2810, -9607,
  -8644, -2152, -3055, -7969, 6278, 1502, 14003, 10307, 8462, 5492,
  -8401, -9301, -5521, 1808, 14693, 13202, -3016, -4684, -12184, 11411,
  12749, -7132, -4819, -148, -4987, 5825, -3610, 8663, -9352, 2129,
  12932, -13474, 4823, -2245, -3763, 5699, -12067, -7753, -1450, 9143,
  -4669, 12728, 1838, 1508, -6907, -1279, -6247, 8966, -4561, 8219,
  2861, -10867, -6190, -1708, 1892, -1072, 13547, 2333, -14872, 12287,
  4148, 8750, -10108, -6139, -4468, 10331, -1279, 4460, -712, 12404,
  15032, 4181, -6349, 13601, 2795, -5398, -10231, -8080, 8959, -7691,
  2232, 13425, -10260, 5814, -4066, -9624, 5092, 1149, 1219, 11625,
  -1428, -7070, -6747, 8910, -5916, -13521, -1195, -4515, 10198, 6832,
  -11457, -9096, 5630, -9329, -5850, 11672, -11698, 7707, -9966, -2772,
  -14270, 8139, -9919, 473, 371, 10048, 1183, -7083, 11405, -1595,
  2607, -13573, -1460, 4222, -8559, -5523, -11252, 2984, -13313, -6775,
  341, -6049, -13188, 13230, -5125, 4578, 1267, 4343, -8395, 7709,
  11942, -8659, -7637, -13242, 2147, -6824, 6021, -3573, -10388, 2494,
  -2484, -10036, -13580, -2147, 8297, -5732, 3531, -7904, -13888, 11023,
  -7041, -695, -12526, 590, -10701, 2669, 6822, -1688, -9292, -6439,
  8750, 709, 120, -7346, -716, 14554, 12822, 4887, 10067, -4188,
  9733, 7827, 2059, 4805, -14405, -9489, -2085, -1927, -12010, -3802,
  11899, -9164, -9683, -9168, 9323, 388, -4983, -6858, -10823, 15052,
  -11211, -10442, 12419, -11002, -7761, -8812, 5087, -8334, -2334, 14814,
  -1472, 13492, -17326, -3243, 3388, 6101, -9672, 11344, 4741, 7371,
  3968, 7037, 2058, -20971, 9681, 7155, 23239, -5854, -6862, -19854,
  -4536, -11962, -18379, -4272, -20024, -5741, -21052, -3811, -21752, 13821,
  -13153, -9701, -11009, 7080, -8076, -7995, 7874, 4659, -6827, -17276,
  -11471, -1631, -13735, -551, -5675, 6060, -2921, -3541, 8288, 6494,
  -19943, 12521, -12930, -1498, -7175, -6425, -3114, 18586, 16338, -10561,
  -18208, -23835, 1559, 3663, 19943, -12014, -21136, 12095, -2552, -11033,
  -11836, -2744, 4613, -7098, 11855, -2740, -25301, 17481, -11518, 1042,
  -5616, -5546, -1468, 4918, 10385, -6010, -4282, -14789, 5749, -4617,
  5704, 760, 4052, 9149, 13282, -166, 6384, 600, 10997, 5875,
  -1857, 4935, -26922, -13532, 6135, -13170, -14009, -12767, 17859, -6960,
  -8069, -13362, 6364, -6025, -8401, -17465, -23993, 12964, 894, -17928,
  6010, -6607, 4312, -5629, -11712, 1259, 12941, -11082, -10452, -16026,
  18640, -12346, -13103, 8671, 800, 1343, -4295, -14455, -223, 312,
  -10102, 13383, -10006, -3637, -19150, 14861, 10063, 15165, 14894, 2261,
  14305, 14548, 14519, 12958, 5295, -965, 12511, -11149, 9629, 9274,
  8881, 9087, 1655, 7102, 1081, -5562, -2782, 16278, 10605, 623,
  4907, -4820, -11509, 8223, -1221, 801, -15082, -13402, 15977, -10025,
  -1571, -6169, 5939, 15465, 8304, -16382, -9393, 8292, 6253, 13145,
  6120, -13585, -17800, 3870, 12355, -13337, 11465, 10567, 14966, -7396,
  11004, -8122, -6530, -11543, 16286, 771, 8269, 564, -1757, 5523,
  6404, 7150, -11165, -4114, 2647, 3213, -1374, 11177, -1429, -13316,
  89, -12594, -1421, -5170, -2441, 11221, 1737, 3184, 5755, -1346,
  18421, 13564, 8164, 8450, 6557, 10425, -4872, 12741, 11532, -1309,
  3965, 8731, 14398, 10093, 14780, -12726, -11579, 2164, 3202, 6874,
  -6674, 13549, 1401, -7031, -1689, 11458, 318, 11784, -16468, -2247,
  509, 8040, -11678, 9683, 5518, 9124, 6961, 5375, 3066, -18304,
  10481, 9498, 21375, -7129, -2811, -18233, -5164, -10621, -17706, -6938,
  -17645, -7553, -20713, -3660, -19093, 12060, -10812, -10293, -11856, 6251,
  -9665, -6031, 5627, 5303, -9283, -13528, -11546, -3228, -12608, 583,
  -4452, 7311, 910, -1748, 7620, 7890, -16846, 8964, -13709, -4127,
  -8040, -6880, 336, 17106, 13989, -8363, -18011, -21810, 1993, 4786,
  19081, -12402, -19697, 11626, -559, -8142, -7288, -3498, 4195, -7526,
  11931, -2123, -22889, 17048, -10041, 1576, -2609, -5947, 2794, 5922,
  8448, -7054, -1519, -14800, 3677, -4112, 6527, 1574, 5069, 4185,
  11185, -2522, 3835, 3701, 9966, 4765, -2058, 4051, -24333, -10862,
  9101, -13690, -11540, -12310, 16421, -3331, -4631, -12819, 4945, -6002,
  -6213, -16868, -22587, 8500, 3275, -17298, 3378, -3103, 6820, -1768,
  6009, 5578, -2563, -4839, 896, -5512, 10722, 4922, 6461, -12694,
  14017, -8414, -5127, -6941, -10152, -3698, -1186, 12184, -8595, -11074,
  -14280, 4517, -4228, 12717, 1800, 8930, 13439, 5900, 11489, 6075,
  19477, 3995, 13253, -7144, 5932, 8641, 10630, -8017, 11260, 2161,
  -3552, -4399, 13075, 5295, 8989, 4965, 10434, -297, 6699, -11081,
  -4556, -232, -2627, -5597, 9481, -2371, 15470, 8949, 7584, 3210,
  -6305, -11111, -8999, 3959, 16582, 16535, -4147, -2069, -13389, 12143,
  15223, -7451, -4739, 2335, -1582, 6651, -6901, 10642, -10309, 4969,
  16322, -17116, 6458, -2225, 89, 5061, -9147, -9083, -3247, 9662,
  -2037, 14388, -1032, 580, -7037, 1478, -6187, 4776, -8691, 6723,
  -376, -10223, -9492, -4491, 792, -2695, 16998, 4497, -14735, 12285,
  7427, 9255, -13771, -4015, -2129, 13067, -4570, 3739, 5, 13875,
  17523, -146, -2444, 16566, -1445, -2424, -7629, -6099, 5233, -5574,
  4468, 8350, -10410, 1086, 1344, -10055, 1826, 2087, 2064, 9300,
  -2295, -9129, -6052, 7157, -6932, -7357, -3517, -5015, 3467, 9028,
  -7354, -3356, 7898, -6494, -859, 12974, -5678, 9429, -5746, -2143,
  -8086, 3907, -5595, 2929, 2881, 9678, 2052, -4049, 9354, -2655,
  2379, -7196, 1661, 3929, -5221, -5445, -11095, 3578, -11263, -5271,
  -2988, -7998, -6699, 8561, -3502, 3020, 2807, 7057, -5362, 2218,
  7256, -4971, -3824, -6923, 2865, -8457, 413, -1290, -4850, -1157,
  198, -5705, -7886, -2836, 8727, -5664, 953, -8486, -6797, 8175,
  -3514, -502, -10462, 2020, -7804, 3214, 3065, -1592, -7032, -3623,
  6829, 3045, -546, -8614, -854, 9517, 9672, 3350, 7712, -1562,
  7783, 6837, 3009, 3533, -6726, -4500, -767, 1022, -7853, -263,
  7893, -4914, -5479, -6872, 8212, 2455, -931, -2541, -4555, 9602,
  -11618, -6966, 10750, -7551, -8088, -4581, -14027, 852, 3235, -7771,
  4232, -2836, -2486, -62, -11965, 11784, -12783, -836, 4419, 7845,
  13342, -3166, 3010, 1862, 6029, 11836, 912, -5685, 13758, -1357,
  -2500, -648, -4455, -10364, 1403, -8037, -8593, -1743, 1295, -2066,
  3878, -5879, -7592, 1561, -10218, 4569, -4898, 3649, -13709, 8403,
  -4529, -7197, -1928, 3075, -255, 9009, 12994, 5082, -1231, 6191,
  4483, -9525, -10028, -12281, -6234, -2676, 12999, 541, -2805, 4395,
  -7564, -2111, 3225, 3681, 3391, -7141, -3175, 1739, 8131, 7237,
  14022, -5805, 2247, -6834, 4875, -1153, -814, 6922, 1104, 2431,
  8347, -3681, 16669, 7297, -4473, -8022, 8797, -7170, -5688, 1254,
  5557, 1070, 5739, -17120, -2025, -10385, -7406, 13983, 1510, -1119,
  -1018, -1463, -580, 5625, 15717, -7471, 3437, -3135, 2257, 12511,
  11011, -5051, -1948, -1735, 6453, -4995, -4329, -13286, 7530, -6418,
  -6977, 11224, 10551, 14215, -5172, -4766, 10709, 626, -12843, -6537,
  7631, -14947, -8263, 10054, -2828, 9246, -2331, -11741, -878, 5803,
  -9763, -1304, -5166, -1810, -3949, 12429, 2092, 2069, 12591, -5868,
  2959, 14337, 619, 11136, -7073, -3299, -2593, -1516, -262, 4126,
  3244, 13645, -1484, 530, 7586, -3494, -4308, 2596, 3941, 1151,
  -4070, -6174, -15715, 10245, -6544, -2974, -9538, -10864, 1413, 559,
  -8160, -4457, 2540, 11920, 3054, -4226, 2187, 26, -4392, -2545,
  6416, -12383, -5438, -2676, -1239, -5865, 7857, 1333, 3621, -8146,
  13742, -11627, 160, -13515, -659, 10984, 148, 578, -7809, 2611,
  1348, 8782, -3305, -6495, -2503, -5246, 3811, 7822, 981, -13465,
  1353, -2529, 8043, -2984, 3576, 8345, 8838, 7440, 4732, 2250,
  352, 3072, 8600, 1290, -3881, 2527, 6616, 5065, 3434, -9403,
  8776, 5085, 7246, -585, -442, -979, -13174, -8657, 8980, -373,
  -6552, 6389, 12939, -5961, -3593, 15240, -3610, 11084, -9776, -1919,
  10437, -3666, 2244, 8265, 382, -120, -6097, 6955, -446, -15086,
  2615, -2960, 15083, 7, -13617, -12201, -1240, -7379, -9150, 4182,
  -14153, 1657, -8141, -1212, -15225, 10774, -11214, -2407, -2134, 3803,
  1593, -8233, 8665, 845, 4767, -16998, -4490, 3872, -7714, -2243,
  -3412, -1841, -10448, -5590, 6546, 396, -16158, 14880, -1755, 7373,
  -478, -2382, -10610, 12224, 12937, -9829, -6937, -14342, -973, 186,
  11231, -3088, -11833, 7094, -6999, -12046, -17120, 2228, 1697, 18,
  4821, -859, -16193, 7178, -8271, -770, -9141, -1095, -11956, -1456,
  10092, 1522, -8567, -4914, 7785, -3786, 255, -6, -971, 17709,
  10357, 6992, 9357, -8803, 6468, 4807, -416, 4425, -17435, -12644,
  -6265, -3652, -11480, -6282, 10559, -12859, -12593, -5363, 5683, -2722,
  -9783, -8168, -12973, 17692, -4231, -7502, 8804, -11747, -3986, -13112,
  24714, -1625, -9949, 15825, -1201, 11111, -4575, 5564, 22445, -19906,
  17479, 805, -4086, -4424, -18231, 4456, 365, -8354, -3816, -14644,
  7326, 1571, -23329, -4653, -2853, -1, 26, 8207, -8203, 5658,
  9649, 2966, -7195, 7934, -9476, 4234, 6772, -5899, 13561, -9308,
  6531, -2470, 20332, -18657, 1774, 9858, 618, -2028, 5454, -15863,
  -17360, -7264, 8443, -2591, -13106, 17786, 14663, 19851, 6186, -2868,
  -21491, 6613, 8215, -9598, 7825, -2758, -6958, 952, 3282, 8309,
  -923, 3592, -16103, -14528, -25849, 11391, -7696, 13105, -3706, 6733,
  -5926, -9670, -5029, -3455, -10699, 2835, -25749, -13031, 11258, 13025,
  -13221, 8616, 8676, -6452, -6899, 4439, -7819, 29412, 3663, 16797,
  11525, -24095, -2622, 366, -936, 2798, -7185, -13605, -25142, 6777,
  -7540, -90, -754, -22759, -20162, 7643, 1181, -1256, -15082, 2604,
  -390, 24175, -5273, 8007, 8485, -18432, -11565, -25464, -50, -8113,
  11510, 7598, -17127, -3063, 5539, -18757, -4938, 10231, -1666, 14823,
  -2742, -14548, -4115, 10231, -12025, -7715, -5350, -3877, 1521, 15550,
  -3623, -2266, 15065, -9953, 232, 19829, -4974, 14784, -11306, -4244,
  -9306, 2861, -4967, 4494, 3627, 18200, -439, -2818, 13189, -3922,
  -2376, -4116, 3342, 3534, -7841, -8412, -20292, 11360, -12759, -6011,
  -8654, -13184, -4998, 7462, -9925, -1562, 3381, 13791, -1180, 30,
  8282, -4076, -7613, -8704, 7378, -14980, -2000, -3972, -6032, -4130,
  6390, -3552, -3221, -8496, 17416, -13573, 2080, -16526, -7245, 16073,
  -3113, 420, -13510, 3078, -3998, 9834, 538, -6665, -6860, -7839,
  8289, 8033, 1164, -16233, 1102, 5281, 14286, -32, 8741, 5930,
  13465, 11226, 5789, 4790, -6541, -1602, 7190, 626, -9444, 816,
  12410, 362, -1428, -13180, 13251, 5308, 4594, -3636, -5472, 6951,
  -17959, -13081, 15048, -5711, -9984, 1774, -11286, -6239, 16840, -1649,
  -17608, -10870, 11604, -21707, -15226, 17628, -6785, 12971, -2401, -15509,
  2043, 7527, -13562, -258, -6410, 130, -6595, 17280, 7059, 3832,
  18262, -8061, 4281, 18820, 2408, 14774, -11400, -4965, -2260, -3302,
  1398, 5204, 3536, 20266, -4235, 2482, 9669, -4304, -9340, 6959,
  5363, 89, -5652, -8134, -22765, 17206, -6040, -2766, -14619, -14595,
  4355, -2079, -13769, -9462, 2654, 17324, 8095, -6865, 1834, 1824,
  -7335, -2951, 10326, -17327, -7992, -5011, -1434, -8649, 13898, 4493,
  9624, -13183, 20706, -18350, 1026, -19902, 227, 17194, 1215, 1559,
  -8948, 3326, 6435, 14675, -6375, -11154, -1092, -8662, 4019, 12202,
  2714, -19438, 3390, -8385, 10802, -6879, 3205, 15946, 12984, 10514,
  6940, 2836, 1855, 6767, 16486, 799, -3997, 3701, 9562, 11122,
  8396, -14312, 12245, 7485, 12864, -1117, -412, -5320, -17375, -13334,
  11285, 2775, -7033, 13437, 18333, -6626, -4671, 18667, -5514, 12450,
  -9196, -2286, 14933, -7752, 6763, 9122, -1193, -3107, -11060, 8498,
  -1716, -16450, 521, -7272, 15372, 2249, -19008, -12239, -166, -7606,
  -7947, 8290, -15275, 4771, -5647, -723, -16423, 11958, -13086, -375,
  492, 3707, 5212, -10195, 10928, -463, 9695, -20659, -3029, 6591,
  -7472, -3545, -3795, -4869, -15602, -7682, 7083, -1971, -18433, 18903,
  1510, 11917, 1734, -1312, -15579, 12507, 14553, -11813, -4694, -14307,
  -2015, -1343, 10447, -783, -11285, 6691, -10003, -15099, -22732, 4197,
  1267, 2176, 3339, -767, -16658, 5306, -9030, -1643, -12635, 197,
  -18305, -3897, 12051, 4268, -12085, -2734, 10208, -4238, -1657, -652,
  -2995, 24456, 11701, 10885, 12448, -13927, 6414, 5569, 18, 5185,
  -18018, -15125, -11875, -1177, -13283, -5419, 10385, -17719, -16949, -4029,
  6802, -2135, -12339, -6803, -12057, 23128, -7324, -5772, 11829, -16216,
  -7991, -18553, -12114, -2676, 8236, -4143, -4861, -5143, 1969, -9008,
  -12642, 13881, -10599, 5322, 1705, -1425, 8408, 1570, -3701, -563,
  1334, 7015, -706, 3196, 9924, -660, 5453, -4478, -2115, 1299,
  304, 892, -10844, -3321, -1728, -1679, 1737, -1972, -3679, 9284,
  -8046, 2894, 1510, 512, -11946, 6207, -1271, -4213, -4351, -1676,
  -9697, 12160, 4543, 1385, -6081, -2043, 2805, -5445, -12054, -10846,
  -3019, 4857, 10159, -1327, 118, 2366, -8464, -4043, 5894, -4719,
  -94, -6895, -3856, -1795, 9786, 4985, 10765, -8791, 9680, -11709,
  3792, -8866, -2150, 11741, 222, 1927, 612, -1218, 11657, 10121,
  -4473, -9437, 4078, -8547, -1320, 5133, 4440, -7209, 4702, -12420,
  3922, -8671, -2562, 14078, 6615, 3826, 1951, 516, -1478, 4825,
  15626, -4843, -713, -1239, 6122, 10838, 8842, -9518, 4084, 1493,
  8052, -4505, -4282, -8807, -2770, -10193, 869, 6820, 3259, 12799,
  1237, 2283, -13029, 2200, 17818, 13360, -19768, 17223, 5453, -3256,
  -8400, -6615, 7688, 22830, 10407, -5687, 14994, -7844, 14637, 12342,
  17013, -21909, 1475, -13349, -19692, 1041, -15460, -26134, -10065, -21517,
  -6365, 1238, -6913, 7584, -4152, -13405, -13888, -12989, -7887, -2203,
  -8491, 8695, -5619, -7322, -13304, -6342, -2832, 9179, 16878, -5057,
  13966, 4744, 15462, 20364, -9324, 170, -1735, -1983, -10332, -19880,
  1702, 14840, 3733, -2939, -7777, -9900, -5651, 19488, 18633, -6632,
  -10801, 14348, -6807, -3256, -2796, 5664, -13961, 7338, 8327, 15053,
  -12303, -1460, -5395, 1054, 11651, -8195, 6720, -4720, 6806, 714,
  5837, -4772, -5201, -11604, 4599, 17966, 3405, -1805, -4783, -2136,
  -5539, -2611, -4970, -7207, -7570, -1285, -14263, -7600, 785, -12420,
  -234, -11384, 1681, -3035, -2351, 2385, -9117, -10492, -9877, -10810,
  -13875, 256, 21245, -1594, -12340, 3323, 16226, -3106, 12294, 34,
  -11998, 9035, 8985, 12879, -13741, 11756, 13472, -10991, 3079, -2940,
  2337, 10555, -2822, -890, 8309, -9131, 6450, 35, 13478, -11598,
  -10502, -10366, -12405, -24, -9275, -10743, -10238, -9468, 94, 1783,
  -8110, 8249, -7339, -5852, -4979, -9722, 1588, -5998, -1420, 3640,
  6042, -13523, -7015, 947, -1919, 3912, 11423, -10086, -733, -1075,
  12581, 10031, -12123, 8755, 5280, 8008, -3163, -12587, -9375, 11779,
  6372, -6634, -1422, -7747, -6418, 11101, 12346, -333, -7278, 9849,
  -11484, -9131, -14205, 8183, -11188, 9733, 3136, 11136, -10598, -4787,
  -5876, -1135, 1014, -3500, -8561, -8621, 9247, 6117, -3292, 721,
  1300, -9671, -630, 11789, -1776, 12984, -528, 6547, 2472, -12808,
  -3657, -3678, -4781, 660, -12320, -11169, -11230, -4257, -4325, -6887,
  1114, -12704, -11158, 4232, -4322, -6687, -12908, -5493, -8818, 11807,
  9044, 2053, -2681, -7192, 3489, -13957, 10560, -10099, -7269, 21075,
  1427, 20879, -25951, 312, 8941, 3244, -10579, 12515, 6482, 12644,
  3655, 8080, 5433, -28664, 13930, 8538, 32830, -11349, -12191, -27765,
  -10061, -14487, -25586, -9125, -27927, -10432, -25379, -4010, -29231, 19584,
  -18598, -13884, -15138, 4901, -9205, -11898, 8897, 6860, -6070, -25827,
  -16442, -1682, -17312, 686, -2738, 3529, -3878, -4738, 14501, 11399,
  -28522, 18214, -13703, 1063, -9860, -12402, -7265, 26607, 21931, -15220,
  -22509, -31602, -544, 8384, 28444, -14653, -28179, 18084, -7351, -16704,
  -19533, -383, 1394, -5059, 15340, 693, -34410, 19220, -16091, 763,
  -6479, -8025, -4991, 2691, 15814, -5067, -6445, -17610, 7332, -9166,
  6557, 5143, 4149, 15708, 15731, 2131, 8527, -4047, 11832, 5660,
  -4054, 6112, -36991, -20455, 3192, -17477, -18528, -17958, 21836, -13111,
  -13880, -14613, 6015, -9768, -14912, -23104, -32180, 19867, 4293, -20905,
  6195, -10672, 6377, -11968, 10172, 8382, -11572, -3498, 11816, 1988,
  1456, 16994, 13096, -19156, 13950, -14318, -1998, 4746, -7686, -7586,
  7628, 10144, -2180, -7432, -7102, -7172, -5950, 7788, -9572, 11962,
  7766, -7488, 7956, -4692, 21460, 6098, 12124, -3736, 4424, 3272,
  5660, -18104, 10518, 868, -8930, -368, 14632, 1078, 3594, 3278,
  11580, 5100, 19010, -17920, 1524, 2160, 6674, 5090, 5530, -1474,
  19554, 11592, 3920, -7916, -8290, -4474, -8344, 2664, 16854, 14774,
  -8940, 9246, -5304, 12002, 12720, -390, -11024, 86, -5360, 12674,
  -17412, 18804, -8092, 15840, 12846, -22904, 4658, -2274, 6444, 1792,
  -9162, -15010, 926, 13612, 124, 15952, -3650, -6528, -6440, 13036,
  -6152, 7142, -13368, 8490, -2826, -15968, -14932, -9780, -3460, -3816,
  12434, 270, -19676, 8614, 8778, 4942, -16196, -8336, -5376, 18500,
  -10962, -1530, -6832, 11274, 13808, 1824, 9382, 20540, -8446, -2234,
  -570, -11186, -11734, -3966, 11156, -2858, -8936, -6548, 4724, -13168,
  -13412, 15546, -9654, 8282, 660, -5640, 6698, 3820, -6736, -938,
  -746, 5210, -1836, 7716, 9054, 340, 9628, -5898, -480, 6944,
  544, 5322, -11624, -3876, -2408, -1714, 1402, 158, -1594, 13244,
  -7026, 2694, 4490, -778, -11326, 6162, 644, -2808, -5086, -3666,
  -14052, 14220, 1238, 90, -8546, -5798, 2900, -3960, -12994, -10456,
  -1314, 8862, 9654, -2482, 1248, 2046, -8594, -4288, 7554, -8604,
  -1954, -6590, -3596, -3560, 11276, 4700, 10320, -10266, 13590, -14064,
  3402, -12476, -2000, 14246, 342, 1982, -2488, 192, 10202, 11966,
  -4728, -10152, 2468, -8982, 660, 7458, 4220, -11084, 4572, -10900,
  6672, -8086, -442, 14988, 9170, 6306, 3646, 1526, -1058, 5250,
  16386, -3338, -2048, 96, 7922, 10988, 8702, -11428, 7054, 3388,
  9582, -3840, -3642, -7312, -7350, -11708, 4514, 5540, 234, 13124,
  812, -9291, 4447, 11782, -8692, 6578, -9008, -11318, -2309, 10641,
  -9252, 14177, 2291, -1173, 2583, 8808, -4154, -17055, 4466, 4501,
  15670, 2687, -4071, -14225, 3818, -12757, -12573, 5012, -15195, 2006,
  -20547, -4935, -18419, 9781, -10373, -5166, -6705, 13461, -7215, -5906,
  10495, 1542, -7918, -11874, -6641, -659, -13083, -4072, -13655, 10709,
  -6083, -4505, 790, -1346, -14653, 9957, -14893, -3867, -4139, 1959,
  -604, 11898, 13901, -8192, -16765, -20021, 4948, -4443, 12252, -10954,
  -17167, 5909, 2627, -7779, -7030, -6968, 11608, -12390, 9270, -10093,
  -20046, 19989, -8877, 1120, -8935, -2823, -312, 8958, 6057, -8542,
  -4787, -14613, 6630, 975, 4985, -7340, 3923, 5498, 14969, -1962,
  6977, 5383, 13679, 8876, 1293, 5102, -20709, -8704, 9832, -9526,
  -13161, -8469, 17700, -2409, -4232, -15935, 10035, -1735, -2274, -13945,
  -18920, 9382, -7037, -19044, 9858, -5330, -490, -593, 10524, -2044,
  -10611, 10968, 7901, 14483, -16729, 9363, 11317, -6566, -1246, 428,
  3815, 12005, 112, 805, 8121, -13232, 8866, 3270, 18001, -12171,
  -9374, -14355, -12173, -3222, -13355, -11519, -13989, -10552, -6401, 391,
  -12617, 10644, -9382, -8238, -8016, -6319, -1834, -6774, 380, 4838,
  1976, -15342, -9569, -347, -5474, 3626, 8407, -6095, 52, -1270,
  13016, 11138, -15265, 9925, 94, 5251, -5276, -12852, -7484, 15252,
  9607, -8026, -6846, -13227, -4744, 11039, 16414, -4210, -12219, 11985,
  -9691, -10005, -13875, 5776, -8170, 5849, 6448, 8841, -15945, 1304,
  -7982, -392, 343, -4857, -5942, -5316, 10333, 2877, -2983, -4038,
  2085, -9418, 1625, 10579, 213, 11865, 2903, 4546, 3082, -9363,
  -30, -1696, -4696, 1774, -17842, -12610, -6336, -7952, -7047, -9651,
  6008, -11443, -10562, -387, -2214, -7533, -12662, -9895, -14438, 12277,
  8940, -3637, -1434, -6715, 5366, -11989, -47, -2961, 9781, 316,
  -14340, -8730, 13254, -14003, -3625, 3008, 5568, 6621, -5586, -17208,
  -8029, 5387, -11636, 3320, -10435, -9098, -10417, 16501, -2437, 7861,
  14858, -2423, 9782, 20132, 5197, 16263, 2393, -1492, 2501, -4172,
  1392, 9331, 9580, 11013, 5313, 517, 7737, -6369, 3777, 3238,
  8990, 4868, 416, -7413, -14044, 4481, -11710, -4368, -11094, -15348,
  4554, 1652, -151, 1583, 7256, 14764, -2110, -9308, -805, 765,
  3847, 4654, 4497, -14970, -12175, 3744, 5737, -9794, 4755, 886,
  262, -4732, 11439, -6588, -5173, -12209, 6319, 3192, 2645, -814,
  -10135, 5731, -5920, 4108, -3952, -1220, -5409, 1924, 4897, 8412,
  -3063, -14092, -2345, 2941, 5463, 1832, 5285, 1735, 5230, 6381,
  5658, 1619, 7641, 4008, -251, 8144, -1784, 7282, 885, 1119,
  473, -3557, 7963, 7426, 6443, 6264, 7805, 1730, -16799, -996,
  10564, -3795, -12486, 1308, 11393, 8927, -11212, -4049, 10572, 426,
  4282, 16496, 14024, -21137, 16853, -15029, -3400, 1970, -10281, -7630,
  6332, 12221, -4573, -10225, -10238, -4932, -7163, 10420, -7966, 13101,
  10750, -4608, 10102, -2179, 24818, 6592, 14306, -5167, 5331, 5519,
  8273, -18428, 12917, 1107, -8705, -1709, 17257, 1941, 5832, 4606,
  13227, 4307, 18784, -19460, -531, 1595, 5307, 2721, 7240, -1490,
  22113, 13362, 5833, -6099, -9773, -7021, -9746, 3203, 19873, 17726,
  -9283, 7508, -8517, 14325, 15592, -2450, -11552, 320, -5940, 13387,
  -17545, 19988, -10259, 15532, 15880, -25427, 5821, -2769, 5346, 3126,
  -11499, -16237, 166, 15144, -896, 18459, -3270, -5761, -7940, 11978,
  -7464, 8510, -14194, 9897, -2271, -17736, -15985, -9907, -2847, -4077,
  15681, 1145, -22347, 11351, 9646, 7038, -18299, -9176, -5949, 20276,
  -10943, -296, -6449, 14030, 17239, 2244, 7335, 23106, -7603, -3230,
  -3103, -12368, -8713, -2039, 5226, -2751, -2782, -2968, 144, -5838,
  -8922, 9901, -8297, 3629, 1586, 76, 6553, 892, -2022, -1181,
  1721, 5685, 564, 1106, 7063, -1494, 2864, -3457, -2624, -442,
  -644, -541, -8552, -2486, -1992, -729, 777, -2291, -3569, 6130,
  -6401, 1785, 729, 769, -9097, 3799, -1806, -3456, -3575, -871,
  -6390, 8570, 3819, 1089, -3627, -501, 1202, -3824, -9085, -8048,
  -2865, 2395, 7301, -59, 428, 1329, -6853, -3840, 3939, -2522,
  1033, -5569, -3706, -520, 6638, 3202, 7394, -6219, 6333, -8318,
  3235, -5830, -2606, 8611, -353, 1377, 824, -1436, 8647, 7093,
  -2840, -6970, 3078, -6719, -1196, 3013, 3434, -4440, 3542, -9016,
  2732, -6461, -2101, 9990, 4637, 2435, 943, 305, -2237, 2843,
  11355, -4375, -824, -1712, 4699, 7510, 6081, -7062, 2539, 410,
  5149, -4120, -4203, -6246, -1071, -7808, 55, 4908, 3107, 8946,
  7632, -2880, -10916, 10856, 9540, 15996, -20628, 9700, 8940, -3232,
  -6144, 1136, 5740, 15876, 4272, 460, 9748, -15896, 12152, 7552,
  21820, -15556, -6904, -17956, -14500, -4936, -17644, -16076, -16764, -14480,
  -11564, -580, -15468, 12088, -10400, -11704, -12088, -5876, -5880, -6888,
  -432, 6616, -2656, -15920, -12916, -2780, -7920, 4648, 8380, -3540,
  3464, -352, 14392, 14368, -17236, 8996, -4184, 1812, -8360, -15464,
  -4728, 18296, 10980, -8536, -11480, -17324, -4192, 13260, 20520, -7920,
  -16292, 14500, -8500, -9892, -12172, 4168, -7912, 3540, 9392, 8860,
  -20028, 4936, -9544, 248, 2164, -7004, -1824, -3304, 10724, 68,
  -1188, -8000, 988, -10416, 3788, 11724, 2156, 8556, 3652, 1728,
  1624, -6132, 1296, -1760, -5704, 1816, -22168, -13424, -1824, -12184,
  -8076, -12716, 8704, -9524, -9112, -3284, -2520, -9380, -12760, -13964,
  -19304, 10484, 11856, -7636, -3184, -4740, 9184, -9492, 4690, -9059,
  1963, 13972, -7442, 8920, -10622, -8972, 1591, 7021, -6746, 13417,
  2083, -365, 355, 8854, -2996, -18227, 4660, 2881, 17344, 1483,
  -7415, -15269, 2032, -12233, -13085, 4486, -16547, 1480, -18731, -4211,
  -19307, 11161, -11717, -5156, -6281, 11293, -5351, -7256, 10627, 1672,
  -4844, -14780, -6953, 505, -12695, -3650, -11267, 7597, -7655, -5153,
  3052, -404, -16733, 12385, -12209, -779, -3671, 223, -3770, 13456,
  14941, -9554, -15449, -20357, 3370, -2903, 13522, -9692, -17375, 7177,
  -353, -9935, -10928, -4598, 9166, -9464, 8920, -7745, -21020, 17737,
  -9665, 634, -9527, -2783, -3830, 6364, 8029, -6176, -6275, -13061,
  7432, -761, 4057, -5258, 2815, 9748, 14737, 580, 8185, 1339,
  12511, 8194, 649, 5296, -21977, -10958, 5686, -8912, -13865, -8885,
  17098, -6005, -7322, -14039, 9319, -2507, -5120, -13721, -19178, 12820,
  -6257, -17234, 10072, -7760, -1220, -4673, -11450, 3893, 2556, -10752,
  4375, -6329, 3933, 2055, -9192, 5735, -5500, -5087, 1690, 3776,
  8255, -5029, 2073, 8861, 1270, 6111, -7239, -2684, 12191, 5964,
  -881, 4165, 3176, -6701, 8084, -4328, 1760, 356, 8808, -6195,
  7485, -970, -1681, -2134, -4309, 6114, -6669, 1238, -7076, 12002,
  630, -4578, 3767, 2824, 2820, 3754, 10773, 5121, -3168, 2850,
  10210, -11194, -2063, -7924, -2019, -301, 10270, -5848, -7832, 6924,
  1333, 7104, 1434, 2144, -4216, -650, 5314, -2606, 6304, 9044,
  14041, -2634, -780, -1627, -640, 1012, 8435, -1807, 4901, 1398,
  8476, -772, 12416, 3020, -6598, -3167, 8010, 461, -6259, 2117,
  1966, 1365, 2656, -15251, -6548, -7126, -7697, 9348, -3263, -3254,
  -295, -2858, 9113, 8668, 8622, -716, 7688, 2168, -5014, 11156,
  10572, 1722, -4099, 640, 7202, 2680, 5448, -13947, 5919, 2309,
  -7582, 10437, 6478, 11826, 24036, -2880, -7410, 16600, -4330, 10010,
  -2966, 1998, 20934, -17552, 17004, 3400, -4554, -7182, -18592, 6186,
  -1914, -9084, -4896, -15120, 6970, 4670, -23228, -4466, 234, -1564,
  538, 11918, -8438, 8508, 7794, 2230, -8238, 8028, -9832, 5256,
  7596, -2402, 13380, -9376, 8752, -3200, 19588, -18532, 2678, 10378,
  -520, -3504, 1654, -13394, -19228, -8088, 6464, -5116, -13226, 18538,
  12764, 19154, 6892, 20, -21056, 6096, 9274, -9840, 6652, -3750,
  -5364, -1938, 2432, 7676, -1514, 2506, -14378, -14538, -25498, 9616,
  -4248, 10422, -3428, 3550, -6530, -6716, -5180, -3256, -12814, 3530,
  -25780, -10896, 10906, 11630, -14042, 7304, 9962, -4608, -6578, 1290,
  -7450, 29538, 6042, 16436, 12812, -22330, -192, 2412, 284, 3584,
  -7588, -13212, -23236, 7080, -8774, 410, 1276, -21914, -19696, 5310,
  3580, -26, -13592, 2298, -824, 24662, -8512, 5786, 11052, -18854,
  -13212, -24314, -6211, -1928, 2594, -491, -97, 533, -3561, -2761,
  -6030, 8210, -8297, 3264, 2740, 3544, 6958, 813, 485, -3534,
  4095, 6770, 4631, -2046, 5372, -4334, -267, -3522, -5356, -3641,
  -3284, -3305, -9252, -2014, -4140, 1670, -856, -4093, -5284, 4140,
  -6584, 627, 426, 2199, -8361, 825, -3848, -3490, -4226, 493,
  -3454, 6932, 4594, 1276, -199, 2717, -1716, -1786, -8426, -6632,
  -3970, -828, 5915, 3473, 2360, -47, -7814, -6148, 2773, 754,
  4909, -6115, -5912, 2482, 4434, 1370, 4701, -4381, 3973, -6239,
  4751, -2966, -5573, 8382, -1762, 1471, 1696, -2436, 7723, 5693,
  -406, -5847, 2928, -7056, -909, 796, 3936, -1209, 3738, -6457,
  2932, -5267, -1616, 7878, 4232, 1765, -142, 679, -5650, 355,
  9849, -5943, -1748, -3660, 5661, 5190, 4033, -6364, 1666, -1274,
  2375, -5924, -6919, -3671, 1878, -7825, -727, 3891, 4921, 6444,
  -6867, 4813, 7606, -12519, -5538, -15228, 19304, -4988, -7042, -349,
  7315, -5099, -5488, -12818, -4247, -3066, -6998, 17721, -11357, -7505,
  -22526, 11806, 6827, 18582, 10660, 7459, 17822, 11522, 17908, 11081,
  15000, 1664, 17744, -12899, 11347, 10835, 11561, 906, 6559, 7211,
  -2827, -6009, 4057, 16371, 12264, 2206, 9991, -2821, -3248, -150,
  -1155, 1443, -12263, -11549, 18184, -10498, 7319, -740, 7789, 11973,
  4053, -18571, -13152, 9207, 13883, 19678, 1929, -9800, -20465, 9327,
  18014, -13750, 6190, 10244, 11998, -1727, 3111, 298, -10447, -4654,
  21928, -9759, 10187, -663, 656, 6336, 1627, 125, -10762, 2062,
  2258, 10419, -2922, 8143, -4622, -7756, -2978, -8982, -7408, -1181,
  -3565, 3542, -5061, -1231, 4145, -3121, 23879, 13391, -1231, 12433,
  10210, 12630, -12279, 8502, 8655, 6934, -941, 8012, 11051, 15170,
  20971, -11610, -7867, 11372, -409, 5366, -7465, 7988, 7305, -8190,
  -2465, 15326, -2811, 12807, -15387, -3674, 5181, 3629, -6594, 11036,
  3358, 4734, 888, 7360, 847, -20021, 7517, 4123, 21226, -3865,
  -9160, -18193, -3277, -11308, -16156, -1367, -18969, -3335, -18209, -3394,
  -20685, 13159, -13109, -7741, -8647, 6757, -5574, -8415, 8562, 3391,
  -3817, -17750, -9670, -80, -12627, -1451, -5930, 4161, -5683, -4513,
  7516, 4288, -19486, 13544, -10400, 849, -5381, -5027, -5478, 16958,
  15801, -10789, -15662, -21932, 989, 2100, 17595, -9912, -19151, 10606,
  -3775, -11752, -13783, -1772, 4325, -5757, 9989, -2927, -23484, 15247,
  -11008, 434, -7301, -4379, -4758, 3386, 10376, -4297, -5937, -12593,
  6592, -4305, 4157, -117, 2597, 11820, 13033, 1764, 7522, -2007,
  10221, 5929, -1399, 4915, -25000, -13682, 2805, -10762, -13962, -11216,
  16369, -8879, -9673, -11861, 6606, -5120, -8905, -15338, -21545, 14657,
  -1290, -15805, 7304, -8508, 1546, -7932, 11417, 9528, -15247, -3531,
  16082, 4490, -2048, 21716, 15385, -21916, 13845, -17096, -975, 9159,
  -6822, -9488, 10964, 9646, 61, -6184, -4906, -11927, -6514, 6081,
  -14198, 13264, 5699, -13002, 6837, -9105, 22465, 6839, 12001, -2866,
  3986, 1121, 3680, -22433, 10134, 409, -11462, 1009, 15103, -305,
  1485, 2405, 12156, 7131, 23879, -20857, 3978, 3078, 10025, 9107,
  4273, -1651, 21204, 12393, 2390, -12404, -9049, -2395, -8635, 2259,
  17124, 14411, -11019, 13551, -2649, 11975, 11991, 2013, -13559, -661,
  -6632, 14915, -21849, 21984, -7585, 20061, 11844, -25694, 4040, -2457,
  9021, 409, -9135, -17575, 2153, 15076, 1003, 16666, -5042, -9414,
  -6437, 17476, -6335, 7550, -15711, 8931, -4182, -18299, -17494, -12195,
  -5290, -4551, 11036, -1227, -21791, 7201, 9495, 3307, -17699, -9947,
  -6549, 20747, -13836, -3681, -9475, 10407, 12647, 2028, 13990, 22292,
  -11605, -2066, 2091, -13115, 801, -7665, 6149, 8807, -10711, 2213,
  -2519, -12457, -2583, 8489, -4857, 12347, -73, -6153, -733, 8099,
  -6571, -11443, 25, 365, 8271, 7029, -3901, -7963, 7309, -10005,
  -6133, 9889, -9515, 6497, -14107, -4009, -12675, 5909, -7187, -851,
  -1871, 13113, -3489, -4207, 10063, -843, -4411, -7793, -2049, 1107,
  -9367, -5239, -14169, 9025, -8151, -4667, -2741, -5693, -9361, 7907,
  -10733, -2143, -723, 5929, -1265, 5863, 9937, -5795, -10929, -13141,
  4921, -7797, 5213, -6733, -10719, 1335, 3233, -5501, -5247, -6405,
  11881, -10899, 5129, -11007, -12677, 15429, -5677, 543, -9683, -263,
  -2257, 7663, 3299, -6459, -5243, -9947, 6403, 3237, 2633, -9603,
  2073, 5163, 12593, -709, 6799, 4241, 11529, 8417, 2673, 4237,
  -12765, -5209, 6857, -4361, -10169, -3917, 13137, -1599, -3099, -12595,
  9751, 1011, 197, -8185, -11355, 7569, -10297, -14067, 10483, -5189,
  -4273, -245, -3834, -2260, 3426, 453, -2899, -673, -673, -4662,
  -4484, 6217, -4855, 3938, 935, -631, 3184, 1888, -1827, -2735,
  1138, 3015, 2164, 1506, 2680, -2334, 2419, -3378, -2561, 1237,
  -2166, 644, -6650, -1811, -3326, 957, -967, -1392, -2187, 5138,
  -3706, 90, 2126, 428, -5098, 279, -1385, -1451, -3383, -1144,
  -5243, 5662, 595, -199, -1861, -859, -1261, -251, -6194, -4124,
  -1583, 1941, 3283, 1389, 2176, -430, -5292, -4329, 2726, -2209,
  1846, -3895, -3834, 327, 3656, 495, 2511, -3923, 4988, -5707,
  2680, -4428, -3708, 6929, -1238, 835, -1130, -792, 3817, 4725,
  -527, -4371, 644, -4995, 606, 1877, 2246, -3467, 2172, -3222,
  3596, -3119, 250, 5484, 4287, 2642, 875, 976, -3586, 305,
  6666, -2999, -2199, -1653, 4730, 3236, 2302, -5520, 2904, 267,
  2344, -3559, -4238, -1445, -1962, -6211, 1821, 1466, 1019, 4157,
  4049, 9614, -5804, -10004, 7540, -6320, 10818, 11905, 6614, -15659,
  14582, -14924, -4205, -1915, -7736, -8327, 3130, 17761, -7221, -9293,
  -17497, -604, -590, 15940, -2988, 13898, 15295, -1380, 15954, 961,
  25222, 5863, 19418, -9959, 9795, 7797, 10071, -14914, 11468, 4711,
  -9486, -3139, 13435, 9846, 8903, 3311, 14761, 3103, 14495, -14718,
  1667, 2919, -690, -1104, 14263, -7385, 19578, 8512, 6773, -921,
  -4056, -13272, -14076, 7245, 20804, 22399, -6447, 3137, -14723, 14380,
  19718, -7243, -5678, 5793, 2564, 9434, -13149, 15614, -11891, 11006,
  21999, -24019, 9190, -2140, 6426, 4416, -5750, -12228, -5081, 11990,
  1884, 18303, -5091, -1381, -7466, 7208, -6370, 149, -15380, 5788,
  -4848, -10790, -15247, -9107, -973, -5007, 22658, 7426, -16247, 13044,
  12897, 10347, -19939, -1870, 617, 18868, -10032, 2585, 241, 16897,
  22061, -5428, 4534, 22760, -8004, 1641, -3518, -4431, -15523, 6696,
  10069, -19252, -3089, -19127, 21083, -4658, -14321, 5413, 1896, -7242,
  -3802, -9846, 2546, -5832, -5771, 22371, -9667, -2105, -25954, 9949,
  15742, 21317, 10349, 9106, 18604, 6835, 22177, 7877, 13761, 1366,
  22189, -16337, 15807, 9375, 9357, 895, 2316, 11193, -6664, -4757,
  -2385, 24092, 11850, -1408, 11261, -1051, -2626, 4083, 6513, 4891,
  -14442, -9330, 24162, -17816, 3886, -7297, 5675, 11873, 11928, -21420,
  -17361, 13519, 12780, 22588, 3649, -8520, -21985, 7438, 19899, -14862,
  11355, 16236, 21931, -4546, 3901, -2415, -9671, -4989, 25840, -8609,
  12838, 600, 6181, 5363, 11228, 3576, -14984, -1403, 7901, 8939,
  -6904, 9843, -2409, -7451, -377, -19996, -10561, -6886, -8612, 11427,
  -5851, -2635, 4061, -4649, 28214, 18944, 6681, 10628, 14506, 13184,
  -13859, 16795, 16275, 6313, -2864, 8244, 16267, 15434, 22715, -21117,
  -3996, 10781, -5058, 12788, -2380, 17024, -19243, 847, 7888, -11914,
  497, -8479, 3213, -4862, -17610, 15840, -13976, -119, 3189, 3277,
  14191, -3166, -539, 5810, 3043, 11470, -5198, -1112, 17925, 3056,
  2365, -545, -513, -6171, 5770, -4317, -8326, -2553, 4854, -5870,
  6928, -3507, -5538, 5084, -10853, 6963, -4707, 1901, -16151, 14018,
  -1651, -7727, -1028, 1341, -4865, 12704, 13172, 5408, -6632, 1852,
  9601, -13503, -12021, -15632, -4994, 2306, 16628, -4782, -5920, 7103,
  -6759, 1351, 5561, -1019, -2189, -6916, 36, -2661, 12586, 10953,
  19783, -9194, 6413, -10739, 3159, -5718, 3820, 8234, 3531, 2672,
  7890, -2344, 19936, 10434, -8595, -10511, 10026, -7300, -6532, 5032,
  5488, -3837, 6166, -22708, -2316, -13184, -8733, 18894, 2522, 21,
  744, -2031, 4779, 10212, 19869, -5654, 5305, -277, 1205, 17558,
  15467, -6614, -563, 885, 11613, -2583, -437, -18493, 3717, -7005,
  -6240, 14064, 8874, 19731, 15069, -5946, -4467, 16081, -4012, 11372,
  -9434, -1566, 12357, -5990, 4353, 7846, -435, -1257, -8332, 7062,
  -798, -15120, 1545, -4986, 14560, 533, -15824, -11843, -1236, -7042,
  -8357, 5360, -14183, 2583, -6387, -905, -15123, 10800, -11716, -1563,
  -978, 2959, 3240, -8947, 8980, 181, 7015, -18217, -3823, 4873,
  -7198, -2661, -2969, -3737, -12364, -6360, 6749, -493, -16691, 16033,
  122, 9317, 424, -2302, -12785, 11841, 12937, -10461, -5462, -13677,
  -1791, -225, 10415, -1825, -11081, 6673, -8555, -13149, -19330, 3283,
  783, 1398, 3751, -383, -15758, 5404, -8378, -1297, -10255, -619,
  -14683, -3027, 10597, 2930, -9917, -3532, 8360, -4236, -845, 66,
  -2083, 20184, 10125, 8579, 10196, -11335, 5700, 4569, -472, 4397,
  -17038, -13503, -9163, -2427, -11801, -5773, 9625, -14951, -14389, -4221,
  5530, -2609, -10967, -7209, -12017, 19466, -5176, -6094, 9435, -13496,
  -5637, -15527, -8840, 2906, 1336, -8113, 4015, -4247, 1905, 2164,
  -6942, 4327, -4837, -4128, 1613, 3887, 6806, -4110, 2167, 6159,
  1644, 5269, -4658, -3144, 9334, 3704, -1635, 3012, 1477, -6409,
  5480, -4402, 708, 187, 6144, -4373, 5359, -1526, -2117, -2160,
  -3868, 4452, -5484, 1302, -5904, 8673, -307, -3917, 2519, 2474,
  2707, 2716, 8801, 4031, -1787, 3055, 7161, -8573, -1948, -6334,
  -2177, -1221, 7909, -3737, -5762, 5012, 362, 4669, 824, 2429,
  -2296, -1037, 3284, -1339, 4494, 6637, 10521, -1937, -1186, -1153,
  -62, 1274, 5582, -1281, 3328, 1061, 6884, -1098, 9803, 2143,
  -4769, -2601, 6306, -141, -5064, 1019, 1716, 1719, 2178, -11852,
  -5158, -5701, -6184, 7074, -2651, -2812, -647, -2278, 6004, 6131,
  6732, -1341, 5663, 945, -3636, 8346, 7904, 1150, -3538, -103,
  4978, 1295, 3220, -10699, 5388, 1375, -6377, 8052, 5669, 8883,
  -12802, 5376, -2790, -11632, 12590, -1726, -4034, 9672, -8378, 5038,
  -10032, -8892, 5104, 14016, 13836, -8404, 8706, 6794, 7590, 12186,
  -1248, -12630, 14572, 1082, -9606, 5172, -3044, -19082, 4938, -14354,
  -742, 832, 7138, -4062, 6762, -6974, -7994, -8218, -8448, 5998,
  -11504, 5018, -10662, 10616, -5080, -8124, 3054, 7078, 10416, 1982,
  18302, 7826, 2844, 11892, 7704, -13004, -3188, -10098, -6870, -9010,
  12440, -560, -7618, 6626, -1856, 3900, -922, 10716, 2946, -3676,
  1438, 2992, 4206, 8932, 14886, -708, -7066, 1194, 2662, 7534,
  4404, -2926, 3244, 1928, 14674, -4522, 17064, 1288, -4844, -3438,
  11626, -1582, -9604, -2670, 4086, 9178, 4374, -18508, -9794, -9252,
  -11408, 9502, -6082, -7010, -3722, -3998, 4348, 6640, 10102, -6240,
  8688, -2476, -5266, 11438, 11066, 2946, -8808, -3884, 3946, -1616,
  282, -16138, 15832, 1930, -14204, 13348, 14296, 12172, 20887, -6738,
  -433, 18036, -13137, 6525, 879, -8344, 15581, -10427, 14376, 10376,
  -5846, -14622, -18976, 10542, -8395, -11517, -7745, -15901, 5916, 12567,
  -22388, -4545, 8329, -6420, 1168, 21219, -9509, 15547, 1491, -314,
  -11593, 7943, -11009, 7293, 8949, 7225, 11766, -9653, 14370, -5279,
  16169, -18088, 4462, 10992, -4291, -7757, -9378, -6139, -23915, -10405,
  586, -12026, -13762, 19768, 6312, 16013, 8043, 7529, -19300, 4524,
  11861, -10639, 2354, -7216, -997, -10068, 137, 4974, -3907, -634,
  -9343, -14496, -23985, 3894, 5267, 2049, -2537, -5791, -8834, 1855,
  -5960, -2852, -18537, 4841, -25060, -4704, 9376, 6789, -16101, 2675,
  12890, 267, -5575, -7771, -6315, 28462, 12349, 14378, 15630, -16751,
  6481, 7783, 3281, 5397, -9328, -12176, -17093, 6964, -12446, 1148,
  6943, -19079, -18035, -2017, 9886, 2912, -9383, 610, -2883, 24895,
  -17378, -1363, 17478, -19650, -17384, -20496, 4910, 2784, -380, -2094,
  -2034, -4326, 8598, 826, 4444, -8248, 10398, -3944, -4324, -7476,
  -8540, -1098, -2750, 7560, -7270, -9104, -10158, 5700, -4216, 8868,
  3530, 5004, 9884, 7518, 7472, 6818, 12768, 2312, 8128, -4688,
  3356, 7098, 8484, -3280, 8472, 914, -492, -3934, 9658, 2818,
  7124, 4368, 6448, -1594, 1896, -6800, -5728, -1292, -3118, -6238,
  5884, -256, 10140, 6736, 6192, 4372, -5330, -8070, -5216, 2038,
  11164, 10732, -2114, -3840, -10130, 8466, 10216, -6080, -2900, 816,
  -2262, 3798, -2618, 5994, -7390, 1228, 10730, -10384, 4124, -1690,
  -2280, 4216, -7946, -5502, -2104, 6330, -2880, 9532, 658, 1476,
  -5192, -1346, -4596, 4922, -4168, 5266, 1272, -7180, -5020, -1618,
  1408, -1230, 11308, 2726, -10330, 9242, 3812, 6892, -8290, -3436,
  -2266, 7720, -1348, 3496, 338, 9668, 12006, 1442, -4708, 10318,
  1386, -3102, -7438, -4812, 7179, -9587, -5385, 18819, 1525, 19117,
  -24527, -519, 5831, 6269, -12581, 12589, 7087, 13003, 6233, 7673,
  5313, -26863, 14315, 10533, 31421, -10905, -8599, -26409, -9043, -14139,
  -24877, -9571, -26121, -10577, -26161, -4189, -27601, 18369, -16799, -13917,
  -15507, 6091, -10679, -10221, 8233, 7219, -8561, -22617, -16105, -2737,
  -16963, 1039, -3517, 6011, -1399, -3527, 13147, 11551, -26033, 15743,
  -15379, -1489, -10255, -11355, -3985, 25395, 20711, -13457, -23043, -30525,
  739, 8083, 27623, -15353, -27381, 17391, -4697, -14229, -15447, -1849,
  2887, -6743, 15791, -273, -32823, 20617, -14923, 1439, -4873, -8001,
  -1213, 4779, 14183, -6639, -4397, -18351, 6333, -7775, 7603, 4409,
  5367, 11661, 15343, -1, 7121, -369, 12369, 5875, -3551, 5891,
  -35171, -18005, 6891, -17845, -17061, -17373, 21907, -9521, -10657, -15357,
  6141, -9117, -12277, -22853, -31369, 16481, 4881, -21575, 5343, -7811,
  7903, -8009, -6304, 8339, 6598, -16644, -3397, -18313, 24269, -1535,
  -5650, -4869, 12296, -10029, -6998, -14116, -6571, -5831, -6371, 24817,
  -14232, -10601, -29585, 12558, 7605, 25110, 10647, 12495, 24024, 11911,
  24446, 12214, 23986, 3720, 25346, -16919, 15505, 14124, 15579, -3500,
  10565, 9476, -5971, -7244, 8406, 21034, 16038, 3394, 15467, -1874,
  1144, -4420, -315, 2709, -13328, -12530, 24282, -13686, 13915, 1730,
  10513, 12703, 3518, -24012, -18490, 12414, 21427, 28288, 276, -9376,
  -26446, 14522, 25636, -16910, 5214, 13140, 14169, 1090, -558, 5177,
  -14730, -1478, 30617, -17723, 14007, -1194, 3022, 8266, 452, -3384,
  -13146, 5925, 3344, 16921, -4721, 8513, -7056, -5959, -4938, -9865,
  -12686, 446, -5375, 890, -10039, -4052, 4281, -4820, 32931, 17008,
  -5920, 17448, 15236, 16912, -19268, 8986, 9894, 13384, -4045, 9544,
  12264, 21652, 29530, -14355, -6775, 19353, -2946, 6671, -8786, 7670,
  -5221, 6910, 4166, -13425, -1161, -13719, 17795, 239, -4290, -4136,
  8989, -8770, -4976, -9344, -4276, -5319, -3835, 19356, -10191, -7384,
  -22469, 8086, 6406, 19062, 6777, 10144, 17956, 7127, 18852, 7813,
  18684, 3046, 19860, -13096, 12174, 10109, 11222, -4024, 7666, 7477,
  -5704, -5095, 6077, 16423, 11684, 2038, 12188, -713, 2374, -3968,
  1100, 2626, -9477, -8301, 18824, -11234, 10928, 1016, 7456, 8422,
  3109, -18157, -14720, 9787, 16500, 21932, -293, -5858, -19753, 11019,
  19692, -12438, 3662, 10382, 11341, 1261, -1721, 4705, -11171, 78,
  23619, -14440, 10816, -895, 3536, 5860, 1121, -3121, -10142, 4705,
  3284, 13126, -4409, 5818, -5284, -3261, -3674, -8413, -10772, -13,
  -4990, 610, -8602, -3989, 2724, -4087, 25320, 13105, -4577, 12867,
  12300, 12580, -15469, 7106, 7883, 10928, -4164, 6714, 9073, 16444,
  22555, -11815, -3548, 15387, -3625, 5783, -5585, 6056, -2415, 6406,
  -3554, -9012, 7374, -4170, 4448, 8575, 224, -6079, 3994, -10292,
  -679, 3031, 424, -6885, 3964, 11193, -1529, -953, -9647, -4034,
  4454, 8526, -4262, 8494, 6881, -6466, 9736, -3847, 12324, 3053,
  12104, -6599, 7135, 1793, 2591, -9888, 2968, 4307, -8422, -207,
  3139, 8538, 2973, -1007, 8317, 3563, 10117, -6588, 6483, 3843,
  94, 2788, 9805, -8119, 8582, 790, 1237, -3033, 2016, -7264,
  -9726, 5793, 9800, 12577, -3447, 4519, -6911, 5976, 10448, -3073,
  -1316, 5855, 6238, 4186, -8601, 7840, -5323, 7472, 12613, -12939,
  5690, -540, 7688, 798, 2590, -5596, -4423, 4672, 4574, 8571,
  -5697, -1361, -2552, 6062, -1880, -6177, -10870, -272, -6172, -2188,
  -9555, -6763, -1621, -3883, 12974, 6014, -4783, 4612, 9211, 4509,
  -11787, 2892, 3981, 10174, -7772, 167, 1613, 8027, 11305, -8202,
  6878, 11870, -8488, 5099, 2510, 1871, -4279, 4334, 6556, -10199,
  -5465, -13295, 17871, -4409, -4708, -1748, 8375, -4394, -5438, -12514,
  -5480, -2255, -6623, 15868, -10953, -8228, -20377, 11516, 4474, 17068,
  10065, 6920, 16786, 11871, 16098, 11167, 14770, 1828, 15962, -11288,
  9846, 10659, 11538, 722, 7358, 6019, -1812, -5809, 5551, 13797,
  11774, 3032, 9376, -2855, -2812, -1206, -2644, 738, -10827, -11151,
  15946, -8144, 8016, 1030, 7952, 11274, 2067, -16755, -11418, 7845,
  13628, 18154, 1425, -9244, -18839, 9457, 16790, -12556, 4636, 8412,
  9113, -709, 2625, 1253, -9977, -3964, 20019, -9616, 9160, -817,
  -402, 6306, -605, -735, -9044, 3005, 990, 10446, -1797, 7298,
  -4802, -7057, -3340, -5785, -6326, 385, -2154, 1480, -4666, -863,
  3980, -2529, 21752, 11467, -3059, 12309, 8874, 11922, -11287, 6152,
  6485, 7018, -492, 7568, 9247, 14458, 19613, -8659, -8000, 11207,
  645, 3483, -8027, 5466, 13147, 6696, -15265, 1338, 14655, 8289,
  -6633, 19754, 16313, -19715, 11214, -12922, 208, 10368, -6082, -6780,
  10865, 3183, 2491, -4489, 1902, -12585, -8870, 303, -14555, 9306,
  538, -12885, 811, -9737, 15939, 5572, 5231, 1355, -101, -1275,
  885, -19331, 7992, -2081, -8316, 2113, 13265, -5602, -1508, 2298,
  7829, 6487, 21132, -18559, 2245, 1679, 11980, 10168, -1780, 2578,
  17118, 12113, 663, -13375, -10174, 2994, -3367, -1039, 11612, 7130,
  -10153, 13734, 2969, 8448, 5657, 5276, -14011, -4110, -10401, 13776,
  -19513, 19317, -4085, 18389, 4204, -19805, 574, -2126, 6543, -907,
  -10006, -15666, 5290, 13137, -717, 12119, -2776, -10257, -4771, 16793,
  -5151, 10804, -10991, 9092, -1680, -17963, -13535, -9797, -5431, -2787,
  2966, -5258, -19817, 3610, 4912, -226, -11837, -12083, -9083, 16271,
  -11168, -5038, -11687, 5296, 5541, 6415, 13144, 16529, -8856, -4428,
  2638, -14814, 20594, -5922, -7407, 19469, -3058, 14450, -11270, 897,
  17683, -10715, 7983, 7404, -908, -900, -11766, 7589, 246, -16957,
  1464, -7569, 16809, -327, -20720, -13231, -2970, -6654, -8870, 5674,
  -16149, 2656, -4117, -26, -16625, 12795, -13743, -1202, -53, 713,
  5994, -10928, 9772, 134, 11394, -22399, -3964, 6756, -6879, -2462,
  -498, -7675, -15223, -7543, 9483, 135, -19704, 19780, 3622, 13701,
  1359, -4009, -17341, 13897, 14693, -12496, -3752, -14334, -3682, 1200,
  11940, -73, -11447, 8170, -12465, -16292, -24948, 6297, -1870, 4998,
  3244, 2191, -17241, 2819, -9530, -1969, -11717, -331, -19905, -6287,
  13360, 6066, -12341, -1531, 9887, -6255, -2163, 2236, -3645, 26471,
  10393, 12243, 12322, -16829, 4607, 4114, -1067, 4882, -18890, -16661,
  -14798, -1359, -13128, -6178, 9218, -20005, -18796, -2013, 5124, -3368,
  -14714, -6872, -12396, 24632, -4964, -3956, 10459, -17189, -7223, -21218,
  -3826, 1628, 135, -3824, 2483, -1699, 629, 1743, -2797, 1492,
  -2014, -2384, 843, 2321, 3164, -2187, 1467, 3030, 964, 2484,
  -2067, -1985, 4246, 1735, -1307, 1750, 661, -3585, 2621, -2502,
  801, 283, 3089, -1998, 2568, -824, -1046, -1665, -1642, 2084,
  -2908, 756, -2450, 3978, -245, -1827, 1448, 1452, 2043, 743,
  4390, 2032, -396, 1902, 3355, -4019, -414, -2671, -1062, -1074,
  3524, -1604, -2827, 2380, 498, 2421, 82, 1703, -892, -262,
  1707, -387, 1723, 3067, 4747, -468, -1208, 83, -86, 1263,
  2759, -1194, 1606, 472, 3585, -579, 4466, 556, -2075, -833,
  3059, 288, -2523, 140, 727, 1445, 931, -5359, -2811, -2458,
  -3030, 2867, -1684, -1662, -494, -1164, 2914, 2766, 2666, -584,
  2885, 405, -2070, 3651, 3532, 1071, -2062, -237, 2008, 741,
  1656, -4925, 3116, 1165, -3374, 3773, 2910, 3827, 3935, 5738,
  -19296, 493, 25367, 15929, -22765, 26241, 10100, -10034, -5761, -13202,
  8460, 28868, 10256, -9813, 20421, -5298, 16609, 12474, 17109, -28736,
  550, -12848, -26783, 5500, -15572, -34161, -8734, -27555, -246, 3454,
  -3526, 7146, -2964, -14975, -14792, -21822, -6226, -1963, -13720, 10173,
  -2351, -7515, -14624, -6870, 746, 12723, 26574, -11902, 17794, 6640,
  20253, 25989, -8516, -1262, 4308, 866, -11190, -26400, -121, 15529,
  890, -2165, -3516, -6300, -9737, 26306, 19871, -3955, -8202, 16578,
  -11444, -3254, -4175, 10707, -22637, 14849, 6973, 23196, -9703, -9750,
  -4556, 475, 16542, -9282, 5699, -10571, 7774, 5113, 7466, -324,
  -7995, -15928, 3310, 25727, 2044, -991, -10818, -307, -8226, -7912,
  -11320, -12225, -10286, -3147, -12116, -8373, -5197, -11975, 3176, -11772,
  -3993, -5688, -3917, 9126, -14956, -13026, -13595, -8904, -11469, -251,
  28724, 5143, -18191, 3869, 19437, -6688, -9739, 7234, 8505, -17212,
  -4311, -18837, 23393, -3804, -9165, -537, 8344, -8192, -6022, -13430,
  -3496, -5282, -6885, 23449, -12907, -7743, -28216, 12465, 10356, 23561,
  11375, 10644, 22020, 11157, 23301, 11441, 19549, 2574, 23625, -16587,
  15301, 12607, 13471, -873, 7474, 9913, -5506, -6597, 4267, 21896,
  14662, 1796, 13439, -2095, -1450, -677, 1423, 3129, -14282, -12158,
  23926, -14820, 9624, -1717, 8897, 13163, 6508, -23108, -17645, 12555,
  17782, 25668, 1905, -9968, -24973, 11658, 23155, -16442, 7807, 14044,
  16809, -1510, 2049, 1567, -12795, -3761, 28422, -13491, 13368, -548,
  3369, 7343, 4148, -296, -13836, 2811, 4589, 13505, -5086, 9433,
  -5321, -7485, -3237, -13330, -11125, -2290, -6102, 5071, -7765, -2923,
  4499, -4521, 30800, 17600, -911, 14948, 14394, 15560, -16611, 11847,
  12127, 9993, -2886, 9340, 13971, 19130, 26687, -16487, -6830, 15419,
  -2894, 8558, -7048, 11180, -8812, 4692, 12402, -14746, -10840, -20584,
