#define M_DIM 128
#define K_DIM 3
#define N_DIM 128


int8_t at[M_DIM*K_DIM] = {
  2, 41, -69, 75, -121, 14, 25, -12, 33, -71,
  107, -67, 33, -37, -70, 92, -44, 16, 62, 46,
  -21, -55, 125, 27, -124, -62, -80, -6, -9, -51,
  121, 101, 37, 76, 34, -116, 69, 7, -35, -111,
  -56, 119, 100, 93, -56, -56, 7, -120, -103, 3,
  -67, 119, -109, -90, -88, -8, 81, -37, 71, -67,
  73, -62, -46, -123, 96, 87, -108, -81, -89, -128,
  43, 106, -112, -10, -83, 49, 7, 101, 36, -42,
  63, -45, -29, 25, -106, 82, 53, 91, -119, -77,
  19, 38, 17, -67, 77, 80, 26, 67, 103, 19,
  -83, 124, 62, -3, 126, 48, -44, -47, -75, 65,
  -115, -60, -79, 3, -109, -54, 16, 16, 12, 102,
  -98, -104, -21, 41, 114, 59, -42, -71, -54, -52,
  108, -101, -28, 76, 124, 94, 61, 16, 22, 33,
  78, -41, 88, 8, 89, -80, -29, 11, 111, -59,
  -33, 29, -47, -52, -27, -10, -106, -27, 40, 98,
  17, -91, 48, 100, -77, -63, 125, -37, 42, -74,
  93, 8, -119, -92, 114, 52, 66, -80, 53, 86,
  28, -43, 26, -10, -11, -122, -65, -90, 19, 54,
  -34, -78, -5, 36, 72, 114, -30, 78, -25, -33,
  -2, 59, -35, -107, -41, 84, 89, 62, -24, -126,
  29, 91, -105, 122, 38, 12, 106, -121, -47, 11,
  -51, 12, -13, 34, -71, -105, 12, 12, -51, -1,
  -4, 33, -29, -120, 97, 126, -106, -40, 69, 69,
  -67, -118, -94, 59, -96, 45, 25, -92, 32, 124,
  -9, -67, 106, -8, 10, -124, 111, -125, 84, -126,
  83, 92, -115, -61, -91, -110, 110, 51, 5, 90,
  70, -111, 45, 9, 111, -122, 5, -31, -43, -7,
  85, 34, 28, -9, -8, 72, 28, 36, -23, -6,
  -6, 66, -118, -23, -23, 90, 43, 55, 72, 115,
  78, -64, 101, 24, -46, 64, 84, -93, -86, -115,
  51, -9, -110, -28, -37, 113, -79, 23, 94, 60,
  -126, 63, -2, -17, -106, 111, -54, -81, 112, 86,
  106, 61, 16, 45, -35, 124, -17, 93, -48, 1,
  -77, -38, -33, 52, -36, -25, 126, -127, 104, 4,
  38, 104, -48, -99, 111, 61, -98, 38, -126, 79,
  -48, -36, -105, 8, -75, 2, -45, -9, 47, 1,
  105, 7, 83, 116, 110, 81, 50, 15, -116, 62,
  104, -93, -1, 22,
};
int8_t b[K_DIM*N_DIM] = {
  -33, -96, 82, 48, -65, -109, 70, -102, -128, -96,
  122, -97, -109, -81, 91, 123, -127, 105, 66, -56,
  116, -126, -50, 19, -34, -61, -13, -62, 105, -5,
  -128, 122, -83, 38, 42, 87, 61, -104, 115, -32,
  -23, -19, -68, 80, -37, 57, 85, -103, 38, -102,
  -42, -78, 76, -32, 122, 119, -102, 77, -74, -52,
  -58, -118, 39, -113, 86, 5, -71, -5, 2, 126,
  -115, -85, 79, 102, -71, -120, -10, -65, -12, -33,
  54, 123, -43, 113, 48, -108, 38, -72, -24, -61,
  45, 14, 103, -68, -59, 25, -71, 25, -107, -53,
  -5, 108, -58, -16, -34, -28, 56, -97, 121, 113,
  45, 69, -126, -50, -128, -5, -20, 99, -14, 5,
  106, -111, -87, -5, -45, -110, 9, 51, -5, 45,
  -41, -60, 87, 17, -45, -78, -50, -31, -115, 53,
  39, 44, -114, -63, 47, 52, -88, 26, -18, -76,
  -94, -45, 97, -104, -75, 89, -82, -47, 31, 99,
  -58, -11, -92, -30, 70, -32, -108, 34, -57, -113,
  92, -20, -90, -98, 13, 88, 90, -56, -93, -78,
  -110, 124, 118, -76, -101, -12, -56, 101, 126, 27,
  48, -122, -81, 114, -96, -61, 119, -113, 15, 73,
  99, -67, -34, -22, 104, -63, -120, 73, 52, -26,
  -45, 80, -33, -102, 10, 117, 112, 90, -24, -50,
  49, 4, -17, -104, -92, 72, 27, 80, 82, 95,
  117, -41, 86, 98, -105, -25, -47, 25, -102, 119,
  68, -98, -121, 14, 50, 56, -8, -73, 39, 42,
  -55, -104, 23, 110, -105, -37, -94, -6, 97, -56,
  -61, -17, -41, 116, -69, -95, 55, 58, 48, 125,
  2, 80, -67, 58, -79, -55, 59, 54, 36, -86,
  25, -50, 105, 106, -103, 63, 45, 74, -96, -44,
  52, 53, 74, -60, -70, -72, -22, -40, -101, -44,
  108, 4, 20, -15, 25, 86, -69, -63, 69, 90,
  49, 69, -12, -60, 98, 43, 38, 59, -41, 77,
  66, -80, -15, -80, 30, 66, -117, -4, -44, 123,
  -2, -123, -123, 33, 79, 83, 16, 43, -47, 17,
  31, -79, 5, 96, 102, -110, -107, -68, -41, 103,
  -120, -44, -128, 125, -103, 94, -38, 47, 96, -51,
  31, -122, 63, 35, -12, -53, -63, -21, -96, -119,
  -50, -2, -104, 108, 18, 60, 63, 71, 87, -87,
  70, -22, -46, -77,
};
int32_t c_bias[N_DIM] = {
  -89, 67, 66, -122, 79, 95, 108, -68, 41, -16,
  -50, -60, 73, -52, -46, 118, -13, -23, 22, 68,
  71, 13, -41, 100, -10, -17, -108, -75, 41, -40,
  -1, -11, -115, 69, -116, -128, -110, 2, 41, 120,
  62, 83, 60, 126, 52, 39, -2, 124, -114, -5,
  -127, -65, -5, 71, -69, -82, -40, -10, -110, 19,
  -41, 56, -58, 60, 61, -14, 27, 13, -80, -102,
  90, -97, 92, -112, -45, 29, 28, -8, 10, 52,
  -87, -66, -121, -2, 36, -63, 14, -43, 0, 121,
  -124, 114, -111, -28, 32, -95, -55, -21, 84, -65,
  -25, 13, 89, 16, 116, 61, 67, -63, 55, 11,
  119, -101, 37, 25, 110, -91, -22, -25, -18, -112,
  30, 9, 45, -33, 82, 126, -95, -76,
};
int32_t verify_data[M_DIM*N_DIM] = {
  -10319, -3221, 13211, -3002, -11520, -2928, -1873, 16816, -5174, -9079,
  12509, 3322, 3077, 11285, 6514, 12646, -10242, 3817, -3863, -7553,
  7824, 9859, 8931, -6978, -2541, -73, 15571, 6761, -6754, 9481,
  3064, 3101, -7805, -4145, 10708, 7549, 4446, -5138, -1667, -9772,
  652, 1707, -16255, -3518, 16826, 5889, 1686, -6499, -2123, 12361,
  -2848, -3002, 13746, 3301, -758, 11919, 3878, -5868, 13644, -766,
  -2743, 4911, -7123, 14969, 11933, -15040, 3404, -5583, -3172, 13578,
  -13937, -4653, -9980, 17363, 1427, -12676, -19261, 6927, 15235, 5257,
  -1011, 6357, -2994, -2209, 5355, -3540, 105, 4151, 5226, -17071,
  -10615, -4706, -7102, 11053, -12488, 687, -9437, 10016, -13021, 5943,
  -8681, 316, 4311, -3463, -1155, -18829, 12842, 4978, 1503, -6996,
  -1276, -8720, -14543, -7992, 838, -1079, -14306, 9137, 2384, 10500,
  5129, 5400, 12498, -4084, 6520, -8476, 487, -6523, 10568, -5459,
  -6565, 11966, 515, -3133, 10443, -14694, 6018, 9535, 4057, -14043,
  -12424, -21286, 9363, -1563, 711, -5672, 17179, 3295, -1612, -7951,
  -1703, 13969, -9573, 9140, -9866, -20495, 21485, -5676, -12486, -9407,
  11498, 7699, -110, -1626, -10499, 4902, 19122, 6040, 4833, 10180,
  5113, 9946, -10285, 6972, 307, -6800, -6361, -12025, 11612, 8668,
  206, -18939, -7328, 124, 2530, 11271, -12482, -12740, -13721, -13561,
  4170, -7854, -451, 4263, 3983, 12980, -9936, 2690, 9220, -6878,
  3683, -7821, -938, 11628, 9585, -3522, -4117, -15472, -2577, 954,
  6331, -1654, -155, 10688, 427, -21079, -19558, 6690, 16344, 11788,
  6689, -15899, 13497, 11838, 17818, -18365, 7168, -18148, 256, -6374,
  -20373, 7867, -9625, 9067, -52, -7115, 8960, 9969, 15143, -835,
  3335, 17946, 7404, -774, 9558, -12378, -2426, -3611, -5527, -15601,
  -11537, 16045, -11709, -7354, 11484, 13564, -6248, 11047, -1872, -14618,
  8836, 8024, -13026, 8290, -2323, -4720, -16268, 17229, 15838, 20789,
  -18469, -8453, 8198, 3220, -20672, 2120, -4921, 5035, -3719, -13295,
  14912, -11240, 1509, 22719, -24712, 521, 15959, 8479, -8716, -7437,
  -8582, -4919, 9457, -1318, -25438, -48, -6355, -14170, 6204, -11250,
  1957, -14142, -2783, 15475, 9084, 8209, -13069, -8399, -11333, 23231,
  8373, -10705, -4918, -11659, 7180, 18127, 20761, 16070, -1009, 1149,
  -9077, 5233, -6702, -12950, 15154, -15456, -183, 13316, 1637, -4054,
  1014, -4399, 1618, 445, -5486, 17185, 3147, -7749, -5962, 2269,
  -4236, -10263, -1108, 25625, 22320, 4810, -14809, -11964, -5370, 13748,
  -7813, -16748, -15844, 16530, 1731, 20128, 5984, 6769, 24791, -7592,
  14354, 2329, -9845, 6870, -14378, -9538, -19294, 6226, 8011, -17105,
  -8326, 1598, -1978, 8264, 1596, -3301, 2220, 18168, 7416, -18228,
  11551, 17748, -15920, -14059, 9785, -10922, -1865, 16594, -5897, -7655,
  15069, -14456, 4185, 7885, 13785, -19996, -18089, -26321, 18041, 5626,
  -5843, -4708, 23814, 172, 3155, -8565, 1167, 16906, -15507, 12212,
  -6738, -27070, 29176, -3606, -18402, -10184, 11614, 9574, 5774, 2749,
  -11929, 2994, 28394, 3358, 6866, 15111, -1606, 13690, -7241, 13708,
  2540, -14599, -9504, -12835, 14810, 9901, 8111, -26193, -9011, 7825,
  4023, 14537, -12352, -19500, -21905, -18955, 3185, -5795, 6376, -1073,
  6288, 15879, -15729, 12445, 4692, -13341, 1562, -1193, -1684, 8749,
  4272, -2678, 1276, -20254, -3305, 6367, 7121, -1749, 3063, 12093,
  1224, -29356, -25964, 316, 19157, 14782, 7831, -18510, 12444, 17828,
  20040, -21168, 2310, -23964, -3894, -7404, -28174, 9383, -15026, 3435,
  6934, -9223, 15389, 12639, 21734, -4299, -4185, 21167, 9031, -1628,
  6532, -11864, -2528, 76, -3897, -21504, -11887, 21058, -14436, -16462,
  16981, 17188, -3758, 9925, -657, -8898, 445, 11397, -10505, 24086,
  11202, 4583, -7027, 15007, 16154, 18892, -7699, -6361, 8477, -9370,
  -12057, 1551, -8564, 21869, 11629, -8077, 3463, 6126, 12280, 13733,
  -18917, 7110, 18354, -11403, 3584, -7873, 1694, -5416, -3309, 8502,
  -16660, -2936, 2615, 2226, -2671, -12646, 16013, -3782, -8991, 8878,
  -5157, 21043, 1832, 6328, -394, 7941, -14068, -6626, 14134, -13971,
  18546, 7052, 6603, 18475, -9524, 23540, -2599, -10451, 10061, -4314,
  -1164, -6706, 3874, 7812, -15891, -369, 9332, 4956, -11883, 12360,
  11379, 8890, -6749, -10652, 2441, -14504, -2275, 9304, -4449, 13361,
  8234, -4148, -13778, -5824, -17349, 16637, -2313, -3860, 488, 5313,
  3726, 11910, -4870, -11814, 11799, -1133, 4395, -9421, 1460, 15279,
  -14266, -18761, -7699, -13525, 5411, -1058, 14836, -44, -7634, -4608,
  3394, 6307, -8659, 18157, 19333, -3737, 10693, 8530, -2062, -11602,
  -9579, 1591, 7022, -9162, 169, -1703, -6104, 3248, -11899, -12456,
  -2022, 7946, 5927, 13658, -7252, 4412, -4383, 10735, -13010, -3800,
  5755, -2559, -4573, -10966, 9186, -13375, 3670, 15573, -14197, 2114,
  4703, 16029, -14517, -4283, -1736, 3686, 12872, -9406, -12997, -4368,
  -6616, -12451, -3192, -4322, 2630, -6243, 4016, 3990, 9558, 2223,
  -14131, -12881, -953, 17327, 15115, 2156, -10248, -5364, 3614, 10923,
  12219, 5884, 364, -3710, 1181, 1360, -9643, -12053, 11752, -854,
  -11144, 3893, 4674, 7540, -3807, -14639, -3524, -2670, -2010, 12774,
  6093, 3636, -8467, 9224, 1052, -16595, 1766, 16673, 17560, -4013,
  -11162, -9746, 1283, 8800, -13126, -11697, -19817, 17301, -8838, 13921,
  2641, 13069, 17001, -8016, 9028, -4107, -1333, -101, -2927, -1383,
  -12799, 7977, -5391, -19071, -15478, 719, -6070, 15553, 834, -70,
  10274, 8179, 2651, -16011, 7640, 4922, -12181, -9258, 9276, 3937,
  -14123, 78, 16257, 1433, 993, -25630, -1424, 4665, -17585, -2583,
  -3336, -10996, -12137, -13819, 10345, 2380, -155, 8217, -6046, -18771,
  -17087, 4885, 8293, -8688, -21808, -2779, 4343, -13238, -4532, 6805,
  1658, 4715, -16454, -7768, 1585, 334, -2426, 11816, -5051, -9804,
  21383, 4706, -24453, -11148, 1435, 10186, 9121, -19389, -4774, -4442,
  -19680, 4297, 11978, -14466, -13734, 7327, -20174, 6298, 9763, -6331,
  11584, -26748, -15423, 23447, -11927, 1524, 11276, -18554, 12530, 7290,
  19403, -20015, -5806, 8446, 26819, -13240, -24255, -1266, 5871, -5160,
  -1371, 10788, -6421, -6326, 1629, 1625, 1558, 22406, 10330, 2084,
  13255, -13077, 10249, -7306, 1482, -4843, 12602, -2280, 14388, 9088,
  2107, 397, 6365, 25543, -18798, -9613, -1368, 12031, -4159, 18795,
  16359, 308, -12344, 1750, 17638, -3026, -3430, -15939, 271, -5723,
  -18955, -3049, -6241, 13546, -7600, 5466, 5571, 5815, -10689, -2922,
  12758, 4038, -2461, -13252, 1086, 4017, -15679, 2548, 2119, -2569,
  -11976, -12160, 10016, 67, -4223, 6539, -6612, -8913, -10473, 888,
  7991, -6011, -13407, 2569, -2644, -8241, 1704, 3317, 1285, 1263,
  -12440, -7225, 1224, 1902, -7221, 8092, -3678, -7871, 15685, -30,
  -14552, -10101, -1020, 10547, 6365, -9291, -4156, -2618, -15466, 6621,
  6570, -12863, -7578, 1598, -10464, 7514, 10181, 411, 6487, -14749,
  -12611, 15522, -7230, -781, 9252, -16262, 10017, 8029, 11134, -15137,
  -2267, 6904, 17427, -7163, -15945, 2247, 3177, -6609, -968, 5125,
  -5533, -3536, 193, 5963, 4594, 16023, 3607, -606, 5760, -5119,
  6462, -7487, -43, -1178, 10189, 2357, 10061, 4780, 5927, -535,
  6717, 17051, -14318, -3384, -5083, 4238, -6166, 11538, 13797, -1328,
  -6678, 1407, 11262, -2537, -1700, -10694, -1419, 958, -9388, -4442,
  -1486, 13128, -7267, 531, 7071, 190, -8556, 2898, 8792, -918,
  3404, -18748, -954, 3570, -8044, -5306, -5513, -11416, -4179, -6946,
  4760, 1336, 4021, 4811, -2568, -13695, -10701, 5808, 2510, -3824,
  -14667, -6338, 7877, -8805, -6429, 3320, 2344, 4656, -9074, -3910,
  -561, 78, 3618, 7690, -2172, -3797, 12619, 5550, -16487, -4422,
  1776, 3458, 4355, -14613, -907, -1664, -10486, -1611, 6696, -7070,
  -8475, 7259, -14886, 551, 2273, -7560, 7888, -18118, -8048, 14385,
  -6807, 3407, 4515, -8843, 7857, 1915, 12742, -12026, -4280, 5920,
  17235, -8999, -14895, -4137, 3411, -1506, -8, 7060, -3214, -2660,
  1423, -4018, -3242, 13608, 9634, 3714, 10008, -11401, 7968, -1610,
  3638, -6179, 7573, -5488, 8270, 5095, -3424, 1628, 1419, 16217,
  -10223, -7974, 2273, 10088, 1115, 11346, 8763, 3226, -6945, 780,
  11832, -3170, -2606, -9860, 174, -7553, -14098, 1375, -6370, 5208,
  -2017, 6357, 12514, 8263, -17082, 1670, 12796, 9976, -1072, -6834,
  15919, 16754, -16602, 1295, 3156, -7347, -8551, -18423, 17126, -13026,
  2618, 10510, -14943, 1803, -1955, 7491, 1206, 8150, -11935, -5909,
  2604, -7367, 4633, -15229, 15410, 2035, -10290, -12615, -11461, 13474,
  -2152, 10856, 3203, 4024, 17470, -1034, -10641, -6016, -8029, 10495,
  -4122, -3119, 8957, 11155, -14751, -5573, -12233, -17337, 6906, 931,
  -6532, 597, 1913, 2376, 2451, -2339, -14601, 10255, 5182, 8192,
  -1618, -18116, 21365, 7546, 907, -21956, 4672, 21727, 15932, -31,
  -9748, -5567, -4849, -13945, 7382, -8615, -7310, 14663, -3074, -3619,
  -7724, 17992, 8067, 5800, -2130, -6466, 17149, 1306, 17594, -14394,
  19443, -5362, 5822, -11305, -4481, 6106, 496, 17037, -12519, 2574,
  -7968, -1782, 2222, -786, 20631, 15097, 12762, 708, 13638, -18038,
  -1132, -8235, -13802, 752, -4228, 8228, -4055, 12116, 2646, 4181,
  -14070, -9875, 18608, -2466, -11672, -13064, 2098, 62, -22345, -21420,
  16524, -2893, -5452, 5999, 7403, 20693, -19938, 18736, -3542, -11402,
  18577, -9201, -3499, -8317, 1236, -14332, 8401, 6909, -1858, 5321,
  -8065, 23361, -20832, -947, 8074, 14351, 16097, -18430, 2270, -10476,
  -6073, -8836, -16302, 3406, 5993, 4422, 11579, -10611, 8682, -2691,
  -14257, -17057, 13297, 9275, 20971, 18569, -14496, 1365, 1520, 1407,
  705, -5486, 661, -6245, 14741, -5771, -11332, -10664, 6052, 18154,
  -24755, -8026, 5883, 22858, -8610, -26825, -12284, -4719, 4776, 7257,
  8595, 17253, -10882, 15719, 7856, -22553, 4850, 5387, 11116, -16526,
  -7607, -6968, 7478, 4114, -19855, -4548, -23756, 17988, -22101, 6364,
  -2936, 18829, 7017, -8208, 1780, -14199, 10679, -7142, 10648, 6822,
  -4240, 7590, -22509, -20571, -21748, -538, -12502, 23680, 288, 5417,
  19160, -3134, -904, -12426, 3473, -11644, -6502, -3903, -2837, 7678,
  -1834, -8174, 4194, 7092, -8158, 10108, 3448, 548, -9214, 11146,
  11111, 13202, -9803, -6122, 6630, -2384, -11333, 1873, -5286, 8701,
  2043, -7044, 6744, -1912, 3643, 12422, -14953, 1957, 11893, -1144,
  -1364, -5084, -3314, -4244, 1887, 2854, -14798, -286, -1400, -4413,
  2501, -8138, 5069, -6810, -4248, 9164, 1585, 9367, -3901, -626,
  -5208, 10897, -1850, -7044, 2849, -8625, 7998, 9029, 9941, 11862,
  -3178, 7532, -5008, -667, 851, -5745, 5243, -8907, 2323, 7803,
  -4178, -2884, 3488, 1070, -2143, 3951, 883, 8905, -1173, -6972,
  -1122, -4066, -2688, -222, -1947, 13538, 10506, 1568, -9388, -5942,
  -7486, 9913, -2696, -7446, -4862, 7055, 2891, 10920, 1078, -1691,
  12732, -2866, 6813, -1051, -3937, 7396, -10215, -9438, -9475, -1868,
  5827, -5928, 2143, 604, -2336, 698, 1574, 204, -2572, 12453,
  8496, -7567, 7426, 10004, -6509, -8641, -2038, 379, 59, -3498,
  4415, -2261, -1297, -8938, -8428, -6077, -4719, 1163, -242, 1332,
  -5925, -337, -873, 7788, -5059, -27, 2790, -9803, -8843, -3213,
  6559, -10392, -5862, 5351, -3405, -3556, -1582, 12107, -7858, 245,
  -5646, 668, 7733, -6226, -4938, 1356, -5253, -9558, 4487, 986,
  -7649, -5704, 3917, 3514, 8285, -7309, -9112, -9038, -5732, 9137,
  13406, -1738, -11344, 1295, -6430, 6396, 8063, -1437, 4768, -12800,
  -3089, 8643, -9879, -5310, 9418, -4428, -3120, 2772, 10201, -1357,
  -5050, -6262, 7195, -6902, -9351, 5072, 5831, 2180, -5285, 10052,
  -799, -11978, 2073, 7187, 8454, 4578, -1046, -3664, 6905, -1445,
  -3841, -7602, -10214, 7045, -1856, 4896, 6016, 11222, 7781, -3965,
  5857, 6171, -5960, -5039, 322, 5425, -6667, 11353, 703, -9864,
  -13802, 826, 2698, 8150, -1014, -5341, 6885, -23, -6681, -8745,
  741, 4966, -8218, -1664, -7123, 1234, 7443, -4478, -6573, 1901,
  -4327, 17344, 617, -3743, 5101, 6576, 6827, 12391, 1441, 5350,
  -3271, -820, -5922, -3876, 1827, 12651, 8903, -6498, -479, 2004,
  12898, 8110, -9752, 7742, 7514, -1924, -3306, -4846, 6782, 2653,
  1423, -238, -6086, -6570, 1270, 1819, -10286, -5974, 14831, 2308,
  -1880, -1023, -2960, 13805, -970, 349, 7903, 4271, -5011, 4841,
  6795, -7767, 13744, 1672, 359, 8625, -7159, 16173, 6140, -12073,
  5240, -4501, -2333, 5809, -6800, -305, -10850, 9931, 3796, -5699,
  -14936, 7950, 12484, 5750, -2777, 319, -915, -5933, 2403, 1005,
  -1352, 6464, 5476, -11212, -10435, -4474, -9621, 11594, -7888, -716,
  -5176, 7352, -6334, 7076, -6622, -3648, 6078, -2301, 638, -13901,
  7970, 7701, -3575, -9965, -3034, -9423, -6729, -4817, 5307, -660,
  -10692, 3736, 2448, 8096, 179, 8784, 13349, -3414, 7104, -2294,
  -263, -7376, -4799, 10327, -2492, -12682, 8015, 8031, -11622, 8328,
  -229, -2674, -14860, 15454, 14495, 18240, -16308, -8436, 8323, 1263,
  -17872, 2426, -5503, 5925, -2293, -11210, 12656, -8399, 1552, 19517,
  -21735, 584, 14837, 5341, -6129, -6639, -7512, -5148, 6960, 266,
  -22413, 312, -4884, -11331, 5846, -10314, 2282, -12295, -3408, 14028,
  6896, 8227, -10201, -5879, -10175, 19523, 5205, -10270, -2628, -10656,
  7002, 15557, 17767, 14822, -1434, 2624, -8467, 4068, -4501, -10605,
  12352, -14246, 1270, 11997, 194, -4538, 1793, -2117, 1270, 1308,
  -4180, 14596, 1829, -7954, -4361, 318, -4058, -7009, -1416, 22013,
  18676, 4611, -12876, -10026, -5879, 12294, -5734, -14077, -12141, 13315,
  2740, 17265, 4881, 4103, 21165, -6042, 12234, 2105, -8683, 6977,
  -13391, -9409, -16417, 4071, 8121, -13429, -5078, 1351, -1502, 5533,
  1518, -2686, 452, 16445, 7385, -14925, 10156, 15966, -13185, -12292,
  7269, -7739, -3485, 10030, 1566, -7910, 10739, -22952, -4476, 1449,
  4149, -14998, -14971, -21027, 7192, 2050, -3884, 3615, 14159, 1229,
  4050, -18181, -9389, 11034, -5137, -911, -13559, -16833, 20478, -7869,
  -16524, 3791, 2441, 8361, -2760, 1753, -2152, -3162, 17527, 5440,
  -68, 1871, 5751, 12210, -16060, 4055, 5702, -6983, 1327, -19383,
  2924, -872, -1552, -11871, 6660, 2599, -8900, 13638, -18244, -8730,
  -8587, -17133, 8465, -19859, -1, 10238, -5608, 7945, -2274, 3260,
  2617, -6889, 13036, -4917, -6627, 2466, 13593, -10155, -10823, -11613,
  3521, 6269, 780, 9147, 747, -2046, 3035, -16387, -12634, 7439,
  15701, 8550, 14308, -17685, 7788, 6257, 6885, -11020, 1889, -14735,
  4389, 5492, -14967, 3877, -5765, 11811, -2614, -13072, 12143, 16490,
  10436, 9530, -355, 7850, -7084, -217, 10082, -2457, -3368, -6896,
  3101, -17748, -18056, 8332, -11644, -6672, 4999, 12867, -3312, 8026,
  -2826, -10094, 7937, 5639, -8822, 2698, -1882, -2826, -13178, 11535,
  10500, 13053, -14106, -7301, 6743, 2595, -14269, 2371, -3980, 1223,
  -4587, -8611, 11244, -8839, -1486, 15344, -16512, -1168, 10415, 6762,
  -5945, -4562, -7812, -4241, 6766, -970, -17781, 1314, -4989, -10938,
  6695, -7154, -1470, -11011, -1685, 11813, 7349, 3369, -9661, -6410,
  -10034, 16565, 7270, -8977, -5081, -7166, 2572, 13231, 15435, 10306,
  653, -2361, -7962, 6312, -6068, -8796, 11773, -12733, 1220, 9960,
  3447, -5028, -37, -2184, 4189, -1270, -6587, 11736, 2885, -5857,
  -4349, 2911, -3618, -7944, -543, 17858, 15614, 5865, -9055, -8012,
  -2127, 7955, -4285, -12431, -10879, 10912, 2560, 13617, 5783, 5831,
  17374, -5224, 10661, 4525, -8907, 3555, -9992, -5121, -13774, 6509,
  7313, -11852, -7277, 1285, 628, 5463, 696, -4129, 1672, 11826,
  2893, -12984, 7259, 13766, -11906, -9078, -1063, -5123, 5531, 4942,
  -8470, -3162, 4459, 5584, 1372, 73, 11597, -5330, -4359, -3743,
  10548, 7846, -6408, -1981, 7407, -3403, 3898, 4563, 7003, 3230,
  -8089, 6877, 6629, -7233, 7354, 4207, -4124, -5313, 2333, 1161,
  8384, 4141, -4068, 358, 9891, -3760, 4056, 8459, -9297, 2610,
  7632, 8827, 498, -8699, -6481, 3617, 6020, 4360, 10632, -9551,
  -7116, 8523, 6300, 1642, 4068, -8506, -10707, -3461, -3643, 8705,
  8511, -9774, 6436, 4093, -9298, 11548, -4003, -7333, -6960, 7987,
  1521, -1238, -9559, 4289, 10129, -5569, -3239, 4369, 2368, -4441,
  3723, 5658, -133, -9691, -8426, -9045, 1553, 3726, -2752, -509,
  -632, 8229, 5017, -4256, -4715, -6467, -7007, -5436, -9335, 2581,
  -7029, -9325, 9930, 700, 5643, -658, 8432, -8706, -8283, 5994,
  7292, -1309, -5278, -1949, 560, 6348, -827, -4488, 3836, 7424,
  -1848, -10632, 8035, 3007, -12424, -7856, 17106, -1622, -13245, -9043,
  1202, 8746, -14104, -15614, 16954, -1173, -2488, 7525, 9124, 18451,
  -16687, 11417, -2103, -10263, 14334, 399, 3581, -6963, -2156, -6333,
  12916, 5266, -2504, 8006, -3841, 12896, -14235, -2140, 10928, 12019,
  9856, -12178, 2533, -10842, -2153, -2258, -18035, 782, 12356, 6859,
  7111, -10479, 2407, 4841, -7693, -9632, 15556, 4481, 9512, 17159,
  -4767, -1548, 7804, -1361, -3073, -1494, -3583, 5139, 15068, -11890,
  -3256, -7408, -77, 18313, -20462, -7928, -2765, 21808, -3683, -20426,
  -17261, 1452, 11515, 5102, 3529, 13087, -6699, 6571, 7410, -12570,
  2635, 2756, 6586, -18481, -8515, -5116, 303, 7073, -16453, -413,
  -15997, 13316, -18766, 4763, -6931, 9171, 3756, -5448, -1045, -18059,
  13577, -1467, 7588, 409, -1126, -1605, -20403, -13442, -9867, -1029,
  -14256, 16477, 1344, 8975, 12464, -210, 5903, -6984, 4395, -12326,
  -1598, -4388, 9806, -3122, -8447, 8258, 5488, -2658, 7835, -19770,
  2021, 6817, -2413, -11015, -10368, -18544, 2642, -4677, 2836, -1697,
  11728, 4488, -1989, -13207, -7767, 10971, -3557, 2133, -14341, -14880,
  16535, -8473, -11038, -2338, 7141, 7064, -5540, -2922, -5562, 2186,
  12683, 7806, 1061, 2846, 10266, 8954, -15816, 1095, 1611, -1816,
  -426, -15805, 5336, 3175, -6137, -11017, 863, -3862, -4379, 10720,
  -16086, -6508, -5959, -12273, 7266, -15874, -4926, 11230, -2465, 8872,
  -2339, -3601, 9239, -2716, 10183, -11163, -3441, 9273, 15718, -7717,
  -11500, -10789, 1017, 60, 3140, 4002, -1901, 3485, 1262, -13780,
  -12316, 11725, 14736, 8504, 10168, -15678, 11771, 5279, 11283, -13329,
  8025, -13091, 5283, 292, -13004, 5051, -4284, 14735, -6198, -9070,
  6568, 11950, 8753, 6944, 6701, 11165, -1009, 77, 12296, -8031,
  -2946, -8005, -2351, -13297, -15176, 9207, -10275, -1040, 4776, 11257,
  -421, 7048, -5722, -8070, 10796, 4186, -6562, -6004, -3166, -1916,
  -15102, 8150, 6931, 7158, -14601, -9058, 7536, 3834, -11527, 3855,
  -4068, -5507, -9245, -5724, 11596, -10530, -7635, 11636, -11781, -4837,
  6353, 8786, -5290, -2170, -10950, -5020, 6749, -1666, -14712, 4206,
  -5892, -12261, 11195, -3994, -8621, -12016, -244, 11980, 9203, -3649,
  -9913, -7400, -13466, 14957, 10712, -10672, -9169, -3259, -4282, 12537,
  15353, 5826, 4246, -10724, -10406, 12135, -9213, -7053, 13237, -14961,
  3585, 9771, 9202, -9076, -2338, -508, 11167, -5471, -12663, 9263,
  4631, -5320, -4448, 6590, -4480, -9512, 351, 14936, 13446, 10842,
  -4268, -6070, 2960, 2359, -1216, -12384, -9416, 8071, 4813, 10398,
  8992, 8525, 14774, -4454, 10531, 10917, -12449, -626, -7763, 148,
  -12463, 11554, 9751, -10398, -10883, 1558, 5428, 4652, -522, -8020,
  2448, 7357, -3798, -11907, 3930, 14536, -12169, -5639, 4935, 2878,
  -5032, 2514, 412, 5614, 184, 6548, 12170, 10038, -1680, 350,
  2279, -2068, 1613, -5410, 6276, -10664, 4033, 3319, -7076, 9753,
  7139, 4376, -4638, 11024, 1777, -5202, 2297, 1055, 3815, -14856,
  10848, -8, 1390, -4786, -9889, 9470, 2258, 2106, 5372, 9035,
  1503, -1730, 4049, 2562, -6064, 1062, -8289, 6243, 9809, 10780,
  166, -8275, -15260, -4282, 11901, -1677, 4226, -4413, -5463, 3124,
  -3764, 11086, -1936, -4535, 10061, 6367, -8141, -2411, 9157, 395,
  -8730, -5582, 5928, 11740, -1745, 6261, 5301, -5013, -6621, -6630,
  6356, -11464, -1618, 14344, -2821, -5962, -8450, 1576, 2134, 4402,
  -7396, 283, 8000, 6030, 13246, -9519, 7569, -4784, -3410, -12989,
  -6600, 4896, -4049, -399, 1229, 5662, -3455, -6036, 5615, -10266,
  5931, 12246, 15839, -580, 1352, -12122, 666, 2060, -10054, 1435,
  5378, 9075, -970, 368, 7031, 1689, -7, -13160, 7498, 10266,
  -8294, -13360, 12106, -15232, -11342, -6908, 16630, -16428, -16903, -17004,
  15005, 14132, -14558, 8892, 14573, -5425, 12628, -15551, -4737, 7658,
  -8536, -2060, -3773, -15320, 20301, -1823, -18959, 8790, -4448, 7074,
  5934, 9458, 2023, -9362, 20990, -1906, 14, 3157, -7133, 12678,
  -6247, 10226, 9334, -15010, 591, -14605, 659, -4532, 10158, -11891,
  9180, 14334, -8941, 12591, -11726, -11663, -13083, -18122, 4996, -13350,
  10646, 289, -5035, 4841, -5047, 16539, -9749, -12959, 8592, 9560,
  -7712, -8956, 635, -7473, -927, -10051, 4259, 14318, -1990, 10752,
  5792, -6800, 4219, -17032, -11082, -5744, 10894, 6438, 12910, -13089,
  -1622, 8354, -390, -4647, -9753, -13372, -1722, 8357, -15150, 1562,
  -8305, -1427, 7823, -12868, 17247, 15590, 11819, 5500, -13829, 2126,
  -9747, -1092, 300, 5858, -2278, 342, 9284, -18305, -12756, 6515,
  -9312, -16308, 6473, 10831, -467, -1178, 412, -174, 1274, -2236,
  980, -5896, -4382, -2842, -476, -1548, -2075, -1838, -909, 1052,
  -1610, 3914, -195, -305, 2268, -5971, -4369, -90, 1710, -4330,
  -3369, 90, 1219, -1979, -2873, 5636, -3366, 1084, -2014, 980,
  3049, -3314, 504, 746, -2058, -3427, 1599, 2014, -4313, -1292,
  2530, 0, 3347, -4985, -3475, -3992, -1626, 2173, 6304, 444,
  -5639, 2141, -4418, 1243, 1781, -2760, 2674, -7068, -428, 3987,
  -4569, -1331, 3215, -439, -1761, -247, 5404, -162, -2934, -2988,
  3635, -3821, -4347, 697, 2767, 2200, -2258, 5250, 158, -5384,
  1295, 734, 1886, 1854, 1144, -482, 4378, -2469, -1214, -2128,
  -3744, 1867, -1301, 166, 2484, 5355, 1244, -1248, 1475, 3001,
  -1907, -3652, 2043, 4158, -1183, 5360, -721, -3334, -6505, 194,
  1616, 3516, -754, -2514, 3582, -2267, -4508, -2575, -956, 500,
  -2575, 767, -3752, 9346, 70, -8014, -1135, 11367, -9942, 26106,
  12398, 5270, -5098, 14407, 15836, 18549, -5802, -5373, 7831, -10557,
  -10741, 1115, -8452, 23799, 13637, -7451, 1772, 8185, 13954, 12440,
  -17880, 8144, 18239, -13502, 4743, -7866, 3420, -5001, -4674, 9302,
  -15093, -3630, 3723, 4350, -4417, -12594, 18050, -2083, -9453, 7485,
  -6931, 22585, 3587, 7918, 1606, 5861, -16578, -5401, 16335, -14094,
  20028, 5375, 4459, 18434, -10635, 26351, -1186, -12792, 12068, -3300,
  -3371, -4805, 3700, 6672, -18097, 844, 10187, 5488, -14075, 13818,
  13853, 7768, -7867, -10441, 3331, -16329, -1730, 11408, -4743, 11546,
  6382, -5895, -13671, -5052, -18671, 16971, -2053, -2047, 2193, 4120,
  3328, 10737, -6489, -13849, 9942, -408, 2925, -11443, 3413, 16115,
  -13760, -19681, -6022, -16035, 4305, 716, 17419, -299, -8732, -5753,
  3624, 7799, -9592, 17834, 20813, -1920, 10531, 6726, -186, -11206,
  -979, 3475, 412, -1882, -2489, 5391, -3286, 14256, 8231, 4318,
  236, 5170, 6435, 6932, 308, -1512, 3139, -7265, -2180, 318,
  -4179, 13613, 9171, -1662, -2096, 7473, 8168, 2745, -5707, 4856,
  7853, -10207, 4783, -3211, 3832, -2160, -5016, 6074, -3853, -2112,
  3704, 5777, -3942, -5290, 10698, 1737, -5268, 1424, -6300, 12155,
  4967, 6685, 3349, -1333, -12103, -1162, 11128, -6200, 10722, -547,
  -1705, 7974, -6366, 16028, 1185, -8972, 8911, 775, -5372, 206,
  2462, 1241, -11450, 1230, 6057, 4431, -8942, 8420, 9680, 1124,
  -5595, -4878, 3287, -10590, -170, 9251, -2692, 1601, -868, -4517,
  -5304, -466, -10439, 7482, 494, 2267, 4779, -1065, 1812, 2257,
  -5271, -10025, 865, 1406, -1194, -7447, 4197, 8441, -5411, -10097,
  491, -11281, 1049, 4175, 12638, -577, -4918, -5403, 1878, 5414,
  -6428, 7121, 11257, 2727, 4056, 478, 3243, -3932, 54, 6364,
  -2671, -3910, 1222, 7880, -5425, 13446, 9699, 5841, -5165, 7893,
  9084, 8740, -4192, -5781, 7002, -8203, -5094, 2306, -7071, 13657,
  7505, -2613, 791, 6271, 5897, 5450, -9029, 3393, 10662, -10372,
  5403, -3906, 464, -4794, -4808, 7506, -8203, -254, 2825, 3534,
  188, -6966, 8466, -1763, -6593, 5568, -4884, 12075, 3812, 6517,
  -1183, 1803, -11643, -5618, 10511, -7526, 10066, 2656, 2261, 10419,
  -5622, 14550, -2784, -5732, 7879, -180, -2613, -5283, 5609, 4620,
  -10133, -3019, 6497, 6779, -5424, 7817, 6422, 3045, -5363, -8000,
  3218, -10726, -2045, 9119, -3156, 5246, 1752, -509, -6072, -1560,
  -10822, 8188, 1851, -519, 4525, -465, 5031, 4647, -2903, -9876,
  4258, 975, 1382, -3761, 186, 9352, -8692, -11188, -2491, -9422,
  5593, 3339, 12217, -125, -2684, -6433, 1822, 3139, -7739, 9743,
  10926, 739, 5021, 5340, 732, -5313, 1005, 247, -889, 694,
  148, 732, 507, 280, 1930, 1725, -127, -530, -95, -1131,
  530, -710, 882, -1695, 1217, 639, -976, 1043, 875, 1210,
  -1001, 1839, -225, -1547, 1158, -107, 52, -2399, 1827, 347,
  84, -827, -1842, 1486, 1061, 620, 968, 1687, 457, 242,
  202, 641, -822, -3, -1467, 393, 1676, 1750, 18, -1787,
  -2422, -657, 1690, 188, 12, -1066, -1295, -37, -403, 1265,
  -239, -464, 1548, 1373, -1552, -322, 1683, -281, -976, -1161,
  739, 2076, 155, 715, 571, -1227, -1075, -931, 1010, -1633,
  -201, 2316, -359, -1645, -1894, 577, 809, 1142, -850, -587,
  1636, 1191, 2443, -2016, 1383, -1393, -473, -2008, -1597, 981,
  -819, 347, 214, 454, -93, -440, 1436, -1516, 977, 2376,
  2538, -183, 534, -2151, -16, 48, -1563, -384, 334, 1820,
  -508, -116, 1315, 681, 1490, -3791, 2898, 6254, -8070, -590,
  4576, 8190, 7045, 4894, 10602, -5269, -3464, -4987, 11203, 5049,
  -3316, -6944, 9388, -1744, 463, 8771, 10085, 5387, -10186, 11956,
  7119, -9799, 8612, 4483, -2495, -12195, 7548, 1245, 8842, 1845,
  -8671, 4810, 11014, -2620, 6487, 12552, -8272, 1878, 9061, 9882,
  -2305, -8157, -10196, 6161, 10661, 9409, 10419, -13505, -14067, 6351,
  11680, 1049, 5708, -10563, -13179, -2216, -5169, 13393, 7345, -11503,
  10962, 7164, -12952, 10214, 471, -7038, -10761, 5088, 4214, 4425,
  -9922, 6991, 12206, -8053, -6213, 1239, 5412, -9635, 2854, 12353,
  -1428, -12565, -12472, -7990, 2871, 5832, -5904, -664, 3325, 11056,
  11360, -8878, -991, -8820, -8368, -11405, -12559, 4914, -8942, -9099,
  10189, 3180, 4044, -3232, 11030, -13168, -5269, 11815, 14488, -1514,
  -4310, -7716, 812, 7101, -5562, -4012, 5962, 11732, -2511, -10368,
  11322, 4003, -5039, 3316, 3975, -4982, -3347, 3971, -5199, 15592,
  2951, -1123, 793, 7632, 8035, 11891, -1465, 1306, 371, -2606,
  -6656, -1738, -1111, 12379, 7639, -5846, 905, 2302, 10140, 8316,
  -10516, 6020, 8930, -3578, -1228, -4740, 3970, 61, 217, 1850,
  -7948, -4350, 1190, 1223, -6228, -6582, 12145, 66, -3248, 1921,
  -2682, 12901, -442, 1483, 4057, 4835, -5949, 869, 7025, -7933,
  12232, 3040, 2251, 9593, -6295, 14661, 2614, -9107, 5160, -3845,
  -1235, 1275, -2874, 1979, -9778, 5351, 4350, -2113, -11126, 7384,
  9550, 5740, -3093, -2541, -97, -6701, 711, 2511, -1834, 7382,
  5544, -7118, -9475, -4146, -9639, 10748, -5140, -1730, -3166, 5760,
  -2604, 7246, -4720, -4676, 6800, -1733, 1760, -9941, 4582, 8079,
  -5711, -10243, -3958, -8345, -2285, -3347, 6305, -358, -7840, 1190,
  2208, 5924, -1893, 9648, 12231, -3234, 6796, 1182, -1031, -7222,
  -6914, -9917, 11064, 1718, -6014, -12890, 5630, -12282, -19379, -15532,
  11652, -8053, -10212, -4593, 6461, 14721, -15376, 16386, 2276, -7208,
  15039, -16761, -8843, -1809, 456, -12958, -1741, -1049, 6582, -761,
  -12989, 20783, -15166, 2995, 2742, 10683, 12143, -15542, 7676, -4408,
  -5617, -7856, -7316, 7774, -5001, 3128, 11363, -9239, 8784, -12179,
  -10861, -14387, 6723, 3679, 20785, 13209, -16758, 7147, -8560, -1029,
  -955, -11490, 5433, -16337, 9075, 2911, -12824, -5272, 5762, 12472,
  -16501, -7574, 12379, 12994, -10052, -18815, -466, -9469, -4030, 1303,
  8975, 14981, -8440, 17347, 5392, -19423, 5152, -1387, 4432, -6740,
  1365, -2096, 13164, -5212, -11147, -2462, -15910, 9384, -14667, -646,
  1586, 18197, 439, -4988, 310, -2823, 4407, -11820, 12480, 13200,
  -280, 12420, -15177, -13277, -21618, -192, -3354, 17218, -1528, -747,
  16180, -9754, -10246, -7234, -2483, -9400, -4494, 2459, -7296, -5435,
  7822, -3170, -156, -9860, 1292, -13838, -20271, -16170, 2982, -2575,
  -5386, 579, -1955, 9247, -10646, 17766, -4780, -5020, 12147, -18217,
  -13007, -5487, 6962, -18170, -4991, 6201, -1098, -2883, -8271, 24677,
  -17638, 1245, -3018, 7627, 15575, -15798, -1448, -2372, -8639, -14350,
  -1428, 4662, -8617, -3664, 10577, -2195, 13444, -12699, -15967, -17855,
  -625, 12231, 25581, 6973, -20672, 4431, -9544, 6213, 7817, -7092,
  7109, -20537, 3185, 8783, -17092, -9350, 12864, 3926, -14267, -1672,
  16189, 8052, -10620, -18675, 4782, -11559, -10118, 6861, 11039, 11357,
  -10566, 19863, 2766, -23811, 5012, 7607, 12224, -1180, -1783, -5820,
  13618, -2796, -11913, -9346, -20850, 14060, -11785, 5806, 6138, 21923,
  9153, -7454, 6226, 2445, -2299, -11050, 7238, 11966, -7600, 17774,
  -9481, -18913, -26476, 704, -886, 19350, -1568, -4601, 16826, -4530,
  -11000, -13862, 311, -996, -11132, -1323, 767, -2582, 172, 1922,
  556, -3258, 2876, -7836, -3958, -1910, 1244, -4082, -4401, -5176,
  1337, 1758, -2372, 3412, 2785, -297, 2700, -7183, -4317, 2016,
  -194, -2892, -4279, -3294, 4901, -2473, -5245, 4484, -1964, 2300,
  -1322, 1362, 1635, -3010, 4070, 1170, -1252, -1621, 1431, 3758,
  -5331, 390, 2904, -1846, 2247, -6709, -1675, -2828, -650, -1075,
  5324, 1442, -5255, 4015, -6054, -1177, -919, -5208, 3144, -7966,
  348, 3949, -3887, 631, 1327, 1121, -1219, -1909, 5710, -306,
  -3204, -1956, 4255, -4243, -4291, -1837, 2427, 3054, -1396, 5148,
  538, -3976, 1475, -2926, -1330, 1924, 3594, 1346, 5476, -4845,
  320, 74, -1302, -747, -1047, -2828, 2058, 4543, -2276, -100,
  -393, 3497, -1095, -4882, 4009, 5836, 1499, 4958, -1261, -754,
  -5533, 8, 2480, 2106, -1086, -2548, 3166, -5017, -6110, 15,
  -2802, -1568, -489, 2953, -1578, -11288, 9447, 9322, -12412, -9634,
  9769, -1418, -4723, -3921, 19357, -12603, -12048, -10962, 17232, 14719,
  -13540, 2877, 13520, -6224, 10171, -2971, 4497, 6155, -11571, 5111,
  5099, -13522, 16101, 3479, -12820, -192, -569, 4222, 11136, 8896,
  -2288, -4630, 19029, -4974, 3633, 9162, -12874, 8290, 4782, 13265,
  5155, -15622, -5566, -3177, 5558, 1483, 15367, -14185, -1829, 15464,
  1471, 7294, -1226, -13382, -16143, -11723, -1216, 2112, 13572, -9528,
  3457, 5664, -10937, 19361, -9313, -13176, -2649, 12999, -2335, -6351,
  -9458, 587, 9544, -9597, -811, 11390, 988, 1204, 6501, 1485,
  1962, -16738, -12628, -12045, 6122, 6136, 3504, -6178, -2185, 11533,
  3689, -5423, -9887, -11937, -7639, -706, -15542, 2837, -10480, -10253,
  13500, -5370, 13600, 6642, 13199, -5560, -15151, 5857, 1693, -1733,
  -5468, 1755, -462, 6551, 4159, -12675, -2084, 9573, -5851, -18112,
  10420, 7629, -887, -1001, 304, -1034, 2411, -2693, 574, -7976,
  -6297, -4198, -1752, -1162, -2049, -1444, -2436, 796, -1673, 5695,
  -1484, -258, 2797, -8243, -6469, -898, 3340, -6783, -4780, 1453,
  293, -2844, -3135, 8445, -5145, 1097, -3416, 1072, 4880, -4710,
  -813, 1096, -3324, -5747, 2770, 2150, -6174, -2751, 3392, 936,
  5348, -6677, -5605, -6083, -3115, 4395, 9449, -98, -8284, 2392,
  -5902, 2841, 3807, -3014, 3818, -10100, -1299, 6108, -6905, -2605,
  5520, -1638, -2398, 541, 7794, -598, -4079, -4369, 5418, -5440,
  -6632, 1936, 4149, 2610, -3461, 7578, -102, -8157, 1756, 2549,
  3948, 3027, 896, -1402, 5989, -2766, -2070, -3973, -6117, 3535,
  -1640, 1409, 3969, 7963, 3157, -2190, 2902, 4545, -3447, -4771,
  1985, 5371, -2869, 8083, -407, -5665, -9750, 423, 2322, 5381,
  -986, -3806, 5128, -2175, -6075, -4673, -764, 1798, -4553, 344,
  -2965, 15307, -7144, -15386, 12293, 13317, -15218, 11620, 5335, 1750,
  -22072, 20320, 19785, 21994, -21870, -15170, 14997, -3175, -21648, 5534,
  -11291, 10593, -1265, -12280, 15284, -6641, 830, 23013, -27137, -2,
  20917, 621, -2623, -8343, -10756, -9722, 4698, 4906, -28719, 2480,
  -4422, -11653, 10482, -14058, 2472, -16109, -7242, 19882, 6128, 11903,
  -9109, -2975, -15267, 22123, 813, -16932, 900, -14102, 9342, 18989,
  21795, 20338, -2488, 6050, -13659, 5526, -2327, -10787, 13568, -21662,
  7208, 16799, -2076, -10526, 4659, 3631, 3470, 3410, -5384, 16658,
  -95, -14096, -2735, -3988, -6786, -2949, -3064, 26345, 20716, 8937,
  -14806, -10998, -9865, 15058, -2744, -16299, -9467, 12529, 8398, 20287,
  6247, 87, 24853, -5594, 14706, 5057, -12771, 10999, -19473, -14095,
  -19459, 2409, 15117, -11829, -442, 1757, 434, 1219, 1994, -4032,
  -4208, 21771, 10379, -15595, 12222, 22434, -14675, -14774, 9111, -9314,
  -2565, 14418, -3907, -6729, 13241, -14788, 3201, 6957, 10733, -17678,
  -16115, -23779, 14775, 4016, -4489, -3626, 20674, 692, 2499, -9201,
  -501, 15024, -12775, 9682, -7620, -23714, 25754, -4200, -16530, -7948,
  9952, 8730, 3730, 1931, -10023, 2370, 24552, 3790, 5460, 12193,
  202, 12378, -8315, 11046, 2502, -11989, -7372, -12879, 12278, 7993,
  5567, -22305, -6519, 5839, 2115, 13307, -12468, -16420, -18229, -17127,
  3775, -7429, 4444, 993, 4290, 13805, -12645, 9505, 4806, -11111,
  3112, -2429, -2090, 7957, 5844, -3536, -900, -17640, -2253, 5349,
  5923, -371, 2231, 9661, 1276, -25348, -22316, 1962, 17455, 12954,
  8061, -17182, 11430, 14830, 17234, -18590, 2776, -20974, -2200, -5396,
  -24250, 8087, -12510, 4979, 4582, -8961, 13439, 12137, 18512, -2025,
  -2565, 18163, 6495, -1278, 7020, -10250, -2492, -1226, -3093, -19262,
  -11989, 17896, -13054, -13338, 14039, 15378, 2157, -3302, 992, 5282,
  -4454, -1348, 4376, 1464, 3882, 3450, 6784, -5412, -4251, -6266,
  7727, 3108, -2322, -3898, 7845, -697, 660, 2677, 4703, 5046,
  -6934, 7258, 2111, -8554, 8311, 1437, -3885, -7096, 5166, 2040,
  4778, 1152, -5795, 2670, 9260, -590, 3998, 7989, -3889, 2958,
  2979, 6520, -686, -5796, -6093, 831, 7025, 5752, 5870, -10035,
  -7776, 3952, 5885, 2665, 646, -7697, -9259, -3828, -1866, 5184,
  4248, -5321, 5923, 5661, -8253, 6381, 1031, -5199, -4580, 1994,
  1646, 3404, -3765, 2747, 5669, -6687, -3353, 1444, 3494, -4642,
  1738, 7424, -465, -10126, -9570, -3446, 4164, 4926, -1534, -3125,
  3450, 7644, 8188, -7257, 3, -7638, -4352, -6297, -9896, 3660,
  -6253, -3503, 5625, 28, 4139, 446, 8309, -6632, -2921, 8586,
  7987, -962, -920, -5344, -26, 3142, -3134, -5047, 900, 8485,
  -3292, -7068, 7641, 4383, 2603, 9190, -10160, -8014, 14632, 6426,
  -7024, -8916, -142, 1654, -19960, 8626, 7659, 5408, -17527, -13902,
  11848, 1468, -11471, 6543, -7596, -6319, -10869, -4212, 12730, -9732,
  -11443, 10782, -11515, -7189, 7319, 6392, -2252, -1624, -14282, -8142,
  4803, 1022, -15874, 7146, -5752, -12457, 16263, -4162, -12387, -14298,
  -1812, 15074, 9231, -5413, -8695, -5636, -18002, 14621, 9284, -15334,
  -8819, -2825, -6774, 13475, 16865, 6204, 5520, -13006, -14592, 15901,
  -9143, -5597, 14035, -20155, 8681, 12095, 10714, -14886, -1764, 4308,
  16207, -6367, -16387, 8423, 4155, -8610, -3160, 5652, -6482, -7216,
  -181, 14894, 12494, 16036, -2238, -5062, 3352, 483, 2732, -12958,
  -6126, 5229, 9573, 9628, 11274, 7027, 14536, -3376, 11343, 16097,
  -16467, -598, -9779, 400, -12757, 12842, 15155, -7738, -9385, 1880,
  9320, 1026, -942, -10792, -254, 7511, -5786, -10857, 2922, 18232,
  -12477, -4715, -4701, 8518, 1211, -8270, -1415, 10035, -9687, 24580,
  9889, 3237, -4387, 13966, 15049, 18561, -5749, -4004, 6315, -8382,
  -11158, 372, -6829, 21671, 12227, -8084, 2425, 6102, 13560, 13054,
  -17850, 7924, 17110, -10556, 2604, -7702, 3306, -3905, -2811, 7330,
  -15028, -4066, 2744, 2773, -4886, -11974, 17209, -2302, -8118, 6951,
  -5412, 21129, 1766, 5809, 1839, 7135, -13567, -4269, 13939, -13513,
  18996, 5924, 5155, 17465, -9853, 24047, -548, -11987, 10110, -4375,
  -2005, -3967, 1770, 6277, -16300, 2115, 8914, 3093, -13780, 12508,
  12892, 8484, -6565, -8887, 2087, -13975, -1281, 8589, -4124, 12260,
  7700, -6338, -13861, -5710, -17047, 16642, -3590, -2982, -290, 5790,
  1692, 11318, -5924, -11260, 10838, -1281, 3498, -11437, 3406, 14779,
  -12717, -18227, -6772, -14053, 2867, -1509, 14295, -234, -9012, -3366,
  3452, 7434, -7509, 17166, 19567, -3460, 10526, 6286, -1349, -11298,
  -2493, 7075, -2077, -7738, 4750, 6182, -7465, 7356, 2142, -27,
  -9347, 10092, 9879, 11707, -9844, -5976, 6192, -1225, -10767, 1931,
  -4644, 6199, 359, -6552, 7043, -3119, 1985, 11693, -13712, 975,
  10404, 497, -2031, -4413, -4096, -3981, 2596, 1902, -13945, 244,
  -1990, -5319, 3389, -7086, 2988, -7097, -3356, 8943, 2613, 7053,
  -4648, -1682, -5914, 10941, 162, -6971, 914, -7406, 5896, 9022,
  10133, 10335, -1989, 4575, -5319, 1054, -674, -5709, 6096, -9066,
  2129, 7557, -2066, -3349, 2417, 536, -333, 2405, -961, 8535,
  -239, -6197, -1624, -2239, -2705, -1696, -1479, 13031, 10434, 2587,
  -8253, -5694, -5584, 8377, -2538, -7755, -5447, 6978, 2781, 10305,
  2065, -24, 12379, -3003, 6965, 499, -4770, 5824, -9211, -7546,
  -9394, 130, 5821, -6408, 46, 691, -1274, 1427, 1204, -878,
  -1559, 11042, 6348, -7862, 6578, 9960, -6987, -7797, -8816, -15017,
  18193, 6950, -17449, -15069, 9513, -54, -15286, -14371, 26003, -12335,
  -13144, -6072, 19329, 23817, -22289, 11814, 10043, -11545, 18452, -6387,
  2945, 961, -9859, -2330, 9670, -8209, 12939, 6308, -15052, 11251,
  -10980, 2985, 14550, 15360, 6039, -13306, 17868, -10164, 333, 3984,
  -20395, 8706, 8249, 14294, 10251, -19470, -877, -3269, -2038, -7040,
  20974, -7963, 8412, 23498, -5364, 6741, 618, -11278, -14177, -12739,
  -1224, -124, 19919, -12255, -2143, -468, -6998, 26884, -21140, -15834,
  -253, 23749, -6088, -19388, -15623, -1266, 11807, -4712, 3371, 18860,
  -4493, 8460, 9895, -9712, 4071, -11989, -5534, -19848, 1122, 1740,
  6265, -2751, -12331, 8156, -8736, 4501, -20312, -7122, -8778, 8420,
  -10191, -1659, -8589, -17233, 17966, -7831, 17272, 8693, 9557, -1851,
  -25269, -5218, -8918, -1832, -11822, 13552, -102, 9185, 13223, -12403,
  -1453, 2283, -3125, -22314, 6216, 4496, -10622, -5780, 11437, -4934,
  -2722, -10448, -29, -9170, -22377, -19339, 5415, -655, -3744, 4940,
  -1404, 12319, -13166, 19489, -7250, -7074, 14245, -15767, -11191, -8377,
  7411, -19389, -823, 9634, -4501, -375, -6678, 26724, -20721, -322,
  -728, 9598, 17828, -17694, -3543, -5102, -9123, -15206, -5456, 3098,
  -4242, -3087, 11147, -3072, 13856, -9221, -17944, -19655, 2333, 14883,
  26633, 9718, -20497, 2254, -5662, 7308, 8613, -4985, 5354, -17042,
  5880, 5328, -17081, -11920, 13347, 6741, -18439, -2096, 14031, 12713,
  -10451, -22873, -156, -9991, -6662, 9517, 11301, 12912, -11990, 19962,
  3999, -26037, 5104, 10550, 15360, -5529, -5560, -8032, 11794, 960,
  -16089, -10435, -24927, 18175, -15521, 8843, 4365, 23032, 12082, -9069,
  6946, -2409, 438, -9568, 6920, 9820, -9403, 16354, -13151, -22657,
  -27543, 567, -4860, 22859, -866, -2081, 18793, -2073, -7506, -16469,
  2761, -2228, -12272, -3961, -14008, -9191, 18519, -2578, -12285, -11861,
  1543, 3162, -20198, -20117, 16701, -1987, -4232, 7142, 7735, 20253,
  -19153, 16828, -3629, -11257, 17500, -6103, -1303, -8383, 479, -12272,
  10158, 7061, -2695, 6364, -6482, 20637, -19338, -1545, 9034, 13818,
  14633, -16826, 1822, -10864, -5063, -7188, -17143, 2346, 8311, 5016,
  10307, -10476, 7015, -49, -12712, -15188, 14118, 8437, 17856, 18312,
  -11714, 155, 3830, 936, -57, -3917, -762, -2570, 15001, -7837,
  -9069, -10140, 4508, 18302, -23940, -7878, 3171, 22983, -7150, -25452,
  -14215, -2762, 7019, 7112, 7191, 16110, -9885, 13102, 7801, -20008,
  4203, 5237, 10394, -17482, -8436, -6804, 5145, 5525, -19391, -3662,
  -22114, 17255, -21496, 6456, -4204, 16222, 6671, -7665, 1207, -15789,
  11680, -5259, 9552, 4625, -3757, 4853, -22177, -19094, -18512, -674,
  -13442, 22050, 686, 6669, 17445, -1813, 1519, -11335, 4131, -11754,
  -5388, -4484, -4978, -380, 7919, -38, -11392, 2850, -1655, 23974,
  7777, 1639, 11093, 3589, 5280, 8998, 8580, 6967, -3720, -7567,
  636, -4180, 319, 20325, 16753, -2317, -7699, 11875, 17735, 1074,
  -4115, 10747, 6988, -12852, 3947, -4182, 12536, 2704, -6084, 4954,
  993, -7750, 6417, 11474, -14958, -5406, 21258, 8821, -4749, -5750,
  -11002, 19079, 7910, 8671, 14211, -5873, -17121, 7680, 16755, -7574,
  18342, -5734, -8823, 8053, -11152, 26912, 10032, -20100, 14257, 1312,
  -12013, 11437, -4381, -4336, -19545, 11743, 7821, -227, -21382, 13703,
  21124, -313, -8051, -506, 3976, -14524, 3693, 11961, -2914, -2446,
  -4028, -15753, -8134, -24, -14908, 11338, -4001, 7449, 4885, -239,
  -5171, 715, -12467, -13674, -3098, 1813, -5796, -19549, 14340, 11074,
  -2064, -13426, 4823, -19764, -8487, 5205, 17777, -1633, -12964, -3809,
  3122, 12975, -5633, 6765, 18248, 5837, 5325, -8520, 8308, -4535,
  8235, 1687, -6962, 6294, -381, 5723, 2952, 5396, 16225, 14292,
  178, -3216, -483, -7564, 5218, -6094, 7063, -14399, 9478, 4332,
  -8545, 10605, 9103, 8680, -8630, 16167, 800, -11575, 8297, 532,
  1435, -20687, 16013, 1769, 2668, -5632, -14702, 12610, 8017, 3392,
  8002, 14103, 1868, 302, 3492, 5607, -7238, -1244, -12122, 5355,
  15197, 15511, 1443, -15305, -20893, -4170, 15732, 622, 2914, -9113,
  -10817, 404, -4034, 12684, -1527, -5662, 13795, 11025, -13060, -986,
  12638, -1797, -10624, -7532, 7187, 16645, -1108, 7316, 6666, -10128,
  -8919, -7314, 9435, -14778, -1600, 20425, -3354, -12919, -15488, 2297,
  6412, 8282, -7763, -3180, 12580, 10889, 20577, -16045, 10184, -10473,
  -4857, -17783, -13571, 7948, -7876, 421, 2559, 5429, -1629, -5225,
  11015, -13569, 6981, 19457, 21610, -971, 3154, -17633, 350, 2484,
  -13526, -2183, 4409, 15383, -3994, -2426, 12005, 5400, -10384, 3919,
  5763, -12282, 3381, -447, -8673, 2042, -13524, -13817, -6751, 11161,
  8604, 17022, -12203, 1877, -2311, 12498, -17527, -2915, 4790, -4079,
  -7471, -13583, 13335, -17350, 1856, 20343, -18975, 930, 7182, 19603,
  -17004, -5363, -5058, 2414, 15771, -10434, -18536, -3500, -8819, -16972,
  -129, -6038, 441, -10330, 4095, 7920, 12937, 1583, -17992, -15866,
  -5044, 23073, 19186, -944, -13480, -6899, 2886, 15512, 17755, 8267,
  1546, -6862, -1905, 4937, -12929, -15056, 16530, -5436, -10822, 7226,
  7487, 5387, -4620, -15742, -609, -4312, -5775, 16526, 7835, 2174,
  -10299, 11626, -259, -20426, 1925, 22487, 22902, -1156, -13352, -12356,
  2055, 10355, -14439, -16220, -23968, 20987, -7990, 18178, 5450, 16346,
  22717, -9921, 12813, -1285, -5148, -57, -5668, -1701, -17557, 11827,
  -2789, -23516, -19630, 1268, -4966, 17960, 790, -2339, 11581, 11191,
  1953, -20711, 9459, 9674, -16648, -11714, 1355, 13783, -9578, -10346,
  10939, 13651, -11616, 10900, 11145, 7612, -19350, 15728, 16333, 14956,
  -16846, -15998, 16063, -8527, -14370, 6820, -13369, 12477, 1935, -6584,
  9714, 695, 72, 14537, -19295, -372, 18051, -7727, 4525, -6119,
  -8692, -10856, -2014, 9378, -21055, 4000, -670, -4473, 10580, -11570,
  2404, -11801, -9046, 16700, 606, 11387, -1579, 3727, -13189, 12519,
  -7397, -16658, 6660, -11314, 8210, 12543, 14383, 17036, -3226, 9124,
  -12887, 3394, 3195, -4479, 6588, -19514, 11862, 13803, -5296, -12884,
  6659, 10333, 3684, 5308, -2894, 9800, -3479, -15146, 1571, -8994,
  -6696, 5697, -3906, 16985, 11152, 9481, -9340, -5798, -10907, 10812,
  3348, -9559, 609, 3723, 11856, 12711, 3927, -6879, 15437, -1420,
  9412, 5589, -10601, 11117, -17197, -13521, -12097, -2697, 16389, -1927,
  7978, 1189, 2482, -6401, 1678, -3068, -9150, 17217, 9713, -6929,
  8358, 18518, -7739, -9968, 7304, 13201, -15548, -6450, 15322, 13226,
  -8186, -46, 13099, 12196, -22736, 10761, 11666, 5445, -17035, -20389,
  19252, -10074, -8950, 10082, -15779, 5491, -2751, -871, 8744, 1702,
  -8549, 7309, -11448, -5525, 13159, -9447, 9022, -2547, -12906, -13507,
  -5177, 11362, -15712, 8972, -319, -3578, 17782, -7410, -7045, -12484,
  -8819, 17231, 762, 2849, 1235, 5719, -18267, 7411, -7101, -20529,
  4352, -5973, -692, 10063, 12501, 11278, 979, 105, -17179, 10675,
  1694, 182, 6188, -23574, 18307, 13660, 513, -20698, 5116, 16595,
  13580, 1011, -10308, 4451, -2953, -16429, 3500, -7143, -8512, 7963,
  -3470, 10679, 5172, 17404, -1421, -1500, -5600, 2502, 10507, -7510,
  7074, -3594, 17625, 6350, 7650, -7003, 9369, 1304, 7868, 15025,
  -15529, 6668, -14958, -7540, -8350, 1612, 21919, 4181, 7608, 1440,
  10122, -11494, 68, -8205, -11212, 10948, 1374, -2380, 3015, 19728,
  -5836, -4229, -5804, -4205, 9800, 1238, -10980, -2680, 1294, 13290,
  -759, -3904, 13036, -879, -302, 4185, 9475, 10647, -8442, -156,
  2204, -5700, 5635, 9171, 9633, -1747, -6272, 4920, 12573, -597,
  324, 7737, 15, -2829, -1868, -1753, 10698, 5925, -791, -1590,
  4546, -7304, 3145, 6506, -13968, -850, 14053, 8306, 493, -8185,
  -5600, 9673, 2771, 1909, 13439, -4185, -6007, 10771, 6966, -2659,
  10420, -5465, -7863, 1318, -6405, 14409, 11023, -14239, 6534, -242,
  -7674, 13540, -8943, -6448, -10407, 13426, 2334, -6443, -16194, 6949,
  14630, -575, -3061, 5135, 342, -4975, 4804, 2717, -352, -3475,
  -2504, -14302, -4917, -196, -6346, 6040, -6465, 5484, -1100, 2294,
  -8989, -608, -9032, -4255, -3301, -16, -4882, -15671, 12667, 3886,
  3410, -5042, 4382, -10758, -11925, 99, 6206, -1354, -10738, 2704,
  1732, 9583, 1260, 860, 9752, 2704, 2587, -10412, 5388, -1891,
  -6039, 8380, 547, -11222, 3921, 6871, -10411, 12376, 171, -3207,
  -9699, 14120, 13475, 18207, -12017, -4742, 5359, 570, -15700, 578,
  -3699, 8963, 1351, -10782, 9509, -5642, 5608, 17700, -19992, 3096,
  13998, 3278, -5692, -6756, -3438, -3095, 5729, 234, -19268, -1982,
  -3266, -7993, 1008, -9990, 6833, -8638, -3328, 10429, 4210, 11085,
  -8038, -4265, -5131, 16347, 2127, -6287, 433, -10845, 10112, 12468,
  13715, 14349, -3571, 7633, -4450, -1027, -1564, -9605, 8613, -8989,
  -1238, 9131, -3650, -165, 2742, -3429, -4122, 3780, 1090, 13104,
  395, -6073, -3573, -1905, -2325, -4869, -1582, 19046, 16112, -262,
  -13399, -9186, -7859, 13392, -6996, -10978, -10926, 12620, 32, 15622,
  1464, 1760, 18240, -5369, 9556, -3117, -3958, 8051, -11551, -10687,
  -13594, -181, 4019, -11815, -1927, 818, -4768, 5382, 2008, 724,
  287, 15636, 10267, -12518, 10196, 11478, -10127, -11922, 4296, -6929,
  -2723, 5638, 5499, -9833, 8381, -29702, -13074, -5271, -537, -12439,
  -14008, -17532, 793, 1897, -4853, 11550, 7655, 755, 6840, -26539,
  -17423, 6489, 1961, -11570, -17870, -9657, 15063, -10536, -16752, 16139,
  -6052, 7737, -7866, 2716, 6287, -9546, 10948, 5932, -5531, -8176,
  9273, 12018, -22135, -1978, 9371, -3170, 9823, -24957, -6706, -10196,
  -6838, -1443, 20040, 1126, -19748, 13701, -22846, -1482, 359, -17151,
  12524, -31040, -2809, 17825, -15283, 1612, 7602, -964, -1424, -3562,
  22099, -5175, -11232, -4704, 19221, -16230, -19085, -5316, 9323, 8336,
  -4737, 18744, 27, -14340, 4931, -7477, -2710, 10832, 13118, 3804,
  20173, -17355, 2709, -1972, -4512, -2479, -748, -8234, 9966, 16664,
  -5679, -671, 583, 16503, -8158, -17011, 11528, 20537, 2561, 20297,
  -181, -3286, -20878, 704, 11570, 6528, -4046, -11375, 10139, -16191,
  -23129, -1481, -9805, -1458, -3776, 9972, 11452, 12307, -18362, -2218,
  14846, 13914, -5256, -1110, 18527, 17750, -21298, 7009, 8918, -741,
  -13329, -21933, 20908, -15000, -2842, 11630, -18151, 6975, -319, 4165,
  4262, 8020, -9821, 59, -4842, -6229, 10949, -16901, 15564, -597,
  -11742, -15009, -11163, 15602, -9498, 10752, 2865, 2430, 18734, -5370,
  -7723, -9262, -10623, 15105, -3886, 2149, 7781, 11671, -17303, -709,
  -14277, -21115, 9282, -3579, -2040, 4817, 6541, 8600, 561, 2339,
  -17257, 9513, 6368, 5730, 454, -22676, 23107, 11556, -1963, -23684,
  6914, 23071, 14608, 2475, -8836, -1445, -5893, -17899, 7348, -11541,
  -8786, 15647, -4278, 2825, -3020, 18750, 3501, 3036, -6440, -1362,
  16307, -1948, 16116, -11480, 21361, -132, 6084, -13141, 1431, 4998,
  3564, 16349, -14395, 6800, -13418, -7048, -2224, -2484, 23931, 12965,
  14974, 1018, 12502, -18536, -264, -7861, -15850, 7178, 506, 5082,
  -389, 17088, -60, -49, 13906, 7462, -16706, 4578, 9203, 11129,
  458, -874, 21646, 20882, -12410, -279, 2686, -9029, -3564, -17443,
  17101, -18379, 6951, 10315, -16380, 8411, 4361, 10215, -3996, 15695,
  -7788, -10512, 5962, -4814, 5011, -23758, 20889, 2182, -5920, -12763,
  -17120, 17638, 2385, 9818, 7113, 11252, 13839, -1154, -5168, -1337,
  -10511, 7335, -10279, 1693, 15587, 17554, -10050, -12731, -21758, -15459,
  14863, 476, -2312, -4589, -4609, 2730, -917, 6621, -11786, 3834,
  12270, 12286, -8827, -14173, 23250, 4874, -6215, -20556, 8037, 25920,
  10601, 4756, -2835, -9662, -9023, -14963, 11089, -15567, -6430, 23128,
  -4411, -9634, -14386, 14391, 9163, 8824, -6773, -5925, 19873, 7187,
  25011, -19742, 20398, -9545, 1269, -19197, -10762, 9084, -4087, 12397,
  -7703, 5717, -7434, -5139, 7700, -9013, 19493, 22424, 22583, -13,
  11588, -23763, -484, -4323, -18432, 28, 235, 14894, -4907, 7826,
  8900, 5780, -2109, 9379, -3269, -8762, 4950, 9262, -9313, 12796,
  6486, 2781, -10971, 12812, 13127, 14595, -10916, -8264, 8968, -4953,
  -12103, 2867, -7596, 11879, 3751, -7128, 6779, 97, 4441, 13101,
  -16584, 2391, 14364, -4399, 785, -5805, -3552, -5861, 116, 5262,
  -16457, 148, -518, -3223, 3285, -9678, 6476, -7321, -6124, 10711,
  157, 11901, -2368, 1558, -6034, 10701, -5238, -9011, 5698, -10158,
  9944, 9414, 10277, 14151, -4333, 10759, -6247, -1570, 3014, -5213,
  4368, -10762, 4633, 9077, -6530, -4557, 5217, 3744, -2661, 5757,
  1975, 9087, -2671, -9373, 96, -6999, -3465, 2760, -2815, 14231,
  10226, 2219, -10165, -5886, -9992, 11313, -1338, -7243, -2727, 6026,
  4949, 11473, 609, -4624, 13131, -2243, 6925, -1149, -4378, 9608,
  -12427, -11986, -9706, -4150, 7997, -4192, 5678, 611, -2266, -1773,
  1924, 610, -5071, 14490, 10708, -6734, 8210, 11544, -5963, -9453,
  1071, 439, -1053, 598, 278, 950, 367, 484, 2186, 1917,
  -371, -336, 123, -969, 348, -956, 1136, -1905, 1085, 751,
  -1208, 1295, 975, 1172, -933, 1961, -199, -1423, 948, -97,
  308, -2643, 1993, 271, 0, -1001, -1964, 1694, 831, 684,
  1014, 1725, 593, 82, 276, 527, -992, 203, -1543, 597,
  1760, 1906, -134, -1723, -2666, -895, 1894, 34, 160, -962,
  -1179, 199, -481, 1491, -411, -474, 1690, 1383, -1556, -574,
  1913, -111, -1134, -1365, 881, 2316, 175, 845, 595, -1161,
  -1183, -1177, 1096, -1859, -297, 2532, -435, -1501, -1846, 699,
  719, 1114, -1056, -451, 1754, 1141, 2585, -2066, 1597, -1287,
  -463, -2224, -1481, 1013, -751, 403, 102, 648, -335, -666,
  1346, -1654, 1229, 2476, 2794, -173, 574, -2349, 12, 38,
  -1775, -162, 508, 1830, -418, 104, 1297, 579, 7633, -7544,
  -3511, 10586, 567, -7051, 10783, -20232, -2187, 2999, 5047, -14880,
  -14465, -20847, 8359, 1974, -3447, 1530, 15026, 1296, 3175, -15297,
  -7017, 11594, -6581, 1686, -11886, -17736, 20778, -6858, -15660, 642,
  4360, 8108, -1422, 1419, -4079, -1470, 18244, 5074, 1246, 4187,
  4650, 11666, -13835, 5294, 4540, -7537, -776, -17111, 5084, 1405,
  -229, -13785, 3125, 2803, -5871, 12959, -16268, -10034, -10305, -16289,
  7083, -16221, 658, 7937, -3018, 9079, -4527, 4087, 3480, -7345,
  10242, -4643, -5202, 4081, 11604, -8210, -8332, -12554, 1955, 5453,
  2061, 6401, 877, 1001, 2432, -17722, -14396, 6290, 15555, 9278,
  12203, -16910, 8640, 7914, 9286, -12538, 2450, -15578, 2848, 2546,
  -16456, 4781, -6994, 10135, -1172, -11495, 11693, 14719, 11816, 6489,
  -357, 10143, -3427, -430, 9248, -4502, -3044, -5504, 1257, -17254,
  -15967, 10276, -11516, -7574, 6849, 12932, 4374, -1703, -682, 6990,
  -6422, 2530, 4156, 9974, 12809, 9978, 7926, -4561, -1996, -5923,
  10439, 1013, 828, -11876, 10528, 508, -3677, 12435, 12269, 7295,
  -11286, 16328, 6583, -11607, 9044, 4115, -307, -18675, 12720, 1237,
  8098, -1171, -12979, 9434, 10922, -828, 8483, 15692, -5820, 838,
  9377, 9774, -5293, -6381, -13200, 8193, 14705, 14101, 8671, -16393,
  -20351, 2855, 16392, 285, 6716, -11583, -14331, -524, -6209, 16969,
  4913, -11867, 14786, 9880, -15512, 7174, 5791, -5746, -13677, 844,
  6786, 10597, -8846, 9159, 12882, -9957, -8877, -2649, 8276, -14419,
  1418, 18589, -2752, -14341, -15632, -5522, 4135, 7600, -8752, -884,
  7649, 12900, 17380, -13230, 3633, -10496, -8780, -16889, -14727, 7038,
  -9986, -7443, 9041, 5596, 1648, -5736, 12662, -16584, -909, 17163,
  21008, -1558, -2470, -13544, 972, 6929, -10414, -2996, 7538, 15276,
  -3019, -8608, 13670, 4707, 1371, -9452, 4964, 9258, -7934, -8120,
  9520, -6532, -3244, -1302, 14052, -12538, -11977, -13288, 13751, 9986,
  -9606, 1906, 13351, -3563, 7294, -5991, 1187, 7556, -9654, 4262,
  -41, -14184, 16637, 329, -12769, -522, 1314, 5110, 6922, 6038,
  -3067, -3082, 17816, -1698, 2948, 7559, -7011, 8734, -721, 10308,
  4448, -12354, -4191, -6789, 5489, 1798, 9988, -13591, -890, 10754,
  -273, 8457, -5350, -11829, -13755, -12260, 1108, -2882, 8990, -4109,
  1781, 6583, -8783, 13747, -4721, -10729, 894, 6934, -2802, -2510,
  -2891, -1749, 4035, -10107, -225, 8766, 1490, 2192, 4442, 1822,
  1877, -16312, -12758, -5990, 8590, 6874, 5534, -8927, 1388, 10068,
  5620, -7551, -5457, -12506, -4304, -233, -15186, 3432, -9035, -3783,
  8537, -6620, 12145, 8370, 12275, -2160, -9777, 7248, 737, -1282,
  -844, -632, -1158, 2768, 2690, -13229, -5776, 9591, -7198, -14020,
  9071, 8799, -8050, 1771, 9223, -4266, -10289, 3947, -5165, 26894,
  5320, -1529, 8341, 8223, 9290, 15540, 4343, 6587, -3305, -5184,
  -5407, -4735, 586, 21397, 15837, -6841, -3637, 7780, 19378, 8047,
  -11253, 11644, 10870, -8733, -182, -6459, 11226, 2732, -2135, 3070,
  -5854, -8932, 4247, 7006, -15077, -8406, 22835, 5492, -4607, -2590,
  -7935, 21587, 3260, 5062, 12600, 1225, -13326, 6582, 14528, -10869,
  20962, -728, -3201, 12199, -11624, 27312, 9047, -19649, 11729, -3202,
  -7534, 9084, -6776, -1424, -19083, 12983, 7546, -3850, -22561, 13746,
  20541, 5072, -6577, -1108, 1499, -12852, 3293, 7426, -2867, 5099,
  3054, -16322, -13070, -4008, -16055, 15807, -8045, 2618, -1482, 5949,
  -6816, 6908, -11364, -10462, 4293, -985, -1843, -20669, 12884, 12641,
  -5178, -15799, -835, -17807, -8489, -1252, 13926, -1242, -14934, 506,
  3674, 12903, -3463, 11689, 20655, -169, 8937, -4890, 3554, -8864,
  4833, -5612, -2390, 6666, 1806, -6196, 7602, -18160, -4802, -108,
  2326, -10716, -10935, -15004, 4273, 1580, -3098, 4048, 9409, 819,
  3536, -14895, -8321, 7426, -2624, -2496, -10777, -11284, 14285, -6275,
  -12311, 4930, 308, 6110, -2906, 1466, -173, -3458, 11914, 4118,
  -962, -291, 4823, 9062, -12891, 2022, 4870, -4538, 2395, -15309,
  491, -2264, -1998, -7019, 7208, 1710, -8457, 10123, -14318, -5255,
  -4883, -12706, 6940, -16590, -414, 8837, -5795, 4809, -43, 1735,
  1223, -4599, 11216, -3656, -5716, 568, 10991, -8557, -9387, -7527,
  3579, 5022, -402, 8424, 464, -3644, 2583, -10660, -7682, 6068,
  11158, 5558, 11578, -13053, 4882, 3230, 3126, -6703, 923, -9840,
  4170, 5989, -9506, 2098, -3181, 9517, -2817, -10384, 8943, 12922,
  6443, 8856, -285, 3914, -7583, -32, 7684, -266, -2614, -5874,
  3532, -12905, -14224, 4499, -8296, -4076, 2201, 9027, -475, 8311,
  -5001, -7626, 7404, 7380, -7605, 4712, 3690, 2077, -12559, 10150,
  10041, 10221, -11798, -9070, 8858, -2391, -10639, 3679, -6736, 4963,
  -1189, -5486, 7911, -3001, -937, 11013, -13266, -819, 10644, -527,
  -309, -3893, -6492, -5923, 1590, 3342, -14531, 2284, -2096, -5761,
  6921, -6926, -30, -8695, -4110, 10917, 2965, 5273, -4132, -890,
  -9070, 10821, -134, -9977, 554, -6812, 3708, 9686, 11233, 10187,
  -827, 2249, -8127, 3992, -1100, -4811, 6912, -12498, 5339, 9023,
  -472, -7225, 2475, 3452, 3435, 1379, -3909, 7949, -259, -8107,
  -966, -2297, -4009, -692, -1687, 12947, 9882, 6233, -6671, -5018,
  -4794, 6773, 12, -8273, -3565, 5192, 5807, 9703, 3839, -472,
  12211, -2379, 7581, 4283, -7626, 5406, -10261, -6864, -9628, 1564,
  9313, -4904, 362, 929, 1526, -655, 832, -2984, -2987, 10792,
  4470, -7340, 5724, 12380, -7381, -7007, -7237, 2389, 6806, -5554,
  -5623, 2933, -5436, 18180, 1143, -3476, 3418, 8052, 8273, 13928,
  -168, 4122, -2067, -1169, -7448, -3410, 893, 13469, 8839, -7328,
  606, 1625, 12910, 9715, -11683, 7710, 9063, -2033, -3349, -5441,
  5968, 1872, 1660, 234, -8157, -6332, 990, 1039, -9434, -7010,
  14966, 1125, -2474, 460, -2572, 14675, -1519, 253, 6725, 5787,
  -5087, 3514, 6958, -8784, 14410, 3019, 1915, 10112, -7338, 16644,
  5063, -11640, 5147, -5203, -1398, 4148, -6128, 955, -11044, 9036,
  4189, -5265, -14610, 8226, 12068, 6890, -2835, -798, -1031, -6322,
  1864, 947, -1604, 8315, 6884, -10473, -11436, -5222, -10369, 12646,
  -7956, -1845, -5693, 8131, -5594, 8489, -6155, -3767, 7803, -2648,
  1670, -13451, 6983, 8539, -5041, -11019, -4405, -9295, -5503, -5529,
  5412, -525, -10578, 3669, 2590, 7780, -250, 10361, 14095, -4445,
  7950, -622, -1263, -8402, -1280, 8005, -1002, -4706, -2372, 11156,
  -7452, 25522, 15545, 8510, -2786, 11217, 13318, 13979, -2227, -5297,
  7922, -13514, -5972, 1628, -9253, 24679, 15601, -3887, -1894, 12598,
  13641, 6969, -12658, 8021, 16025, -18299, 8858, -6387, 5014, -5309,
  -8633, 11690, -9880, -2916, 6017, 8834, -4812, -10794, 18103, 912,
  -10271, 5029, -10308, 22069, 8153, 11833, 3367, -265, -21339, -4651,
  19664, -12145, 19240, 1117, -455, 16004, -11059, 28095, -239, -14321,
  15348, 586, -7808, -2826, 6045, 4424, -19987, -52, 11220, 9125,
  -14234, 14881, 15586, 3397, -9825, -10587, 5858, -19121, -1434, 16437,
  -5140, 5447, 336, -5996, -10207, -1788, -19062, 14204, 1415, 2302,
  8174, -1212, 4959, 5854, -8086, -17861, 3857, 2122, -550, -11459,
  5149, 15918, -11882, -19018, -1240, -19130, 4471, 6679, 22292, -688,
  -7702, -10090, 3408, 8567, -12270, 14646, 20256, 3474, 8023, 3756,
  4228, -8083, 8612, -8618, -4079, 11842, 1090, -8312, 12219, -24086,
  -3303, 2893, 5307, -16945, -16634, -23798, 9008, 2161, -3998, 2489,
  16752, 1492, 3863, -18507, -8907, 12985, -6909, 947, -14211, -19828,
  23509, -8223, -18114, 1882, 4303, 9316, -2176, 1696, -3928, -2262,
  20441, 5950, 911, 3864, 5798, 13450, -16658, 5497, 5573, -8314,
  -66, -20353, 5000, 775, -853, -14961, 4879, 3028, -7815, 15002,
  -19282, -10896, -11027, -18841, 8612, -19880, 406, 9976, -4419, 9918,
  -4263, 4243, 3717, -8118, 12725, -5483, -6439, 4117, 14046, -10091,
  -10496, -13939, 2821, 6454, 1898, 8304, 903, 33, 2982, -19636,
  -15716, 7675, 17798, 10276, 14698, -19554, 9573, 8369, 9717, -13731,
  2655, -17397, 3873, 3984, -18160, 5111, -7484, 12255, -1970, -13660,
  13418, 17412, 12887, 8574, -303, 10709, -5273, -389, 10912, -4409,
  -3590, -6827, 2073, -19803, -18994, 10969, -13173, -8212, 7090, 14707,
  -9062, -7043, 11835, -1634, -6287, -9847, 1995, -4442, -17242, -15469,
  9889, -2937, -4982, 2360, 3893, 13591, -13591, 14638, -2381, -7333,
  13232, -10283, -5507, -5285, 2099, -12218, 2676, 4413, -265, 1802,
  -7186, 18829, -15472, 207, 3502, 9700, 12379, -13978, 1748, -5976,
  -5377, -8158, -8907, 3594, 397, 1722, 9121, -6614, 8007, -5477,
  -11476, -13628, 6994, 7421, 17880, 11882, -13306, 2477, -2390, 1840,
  1843, -5521, 2480, -9312, 8785, -515, -10551, -7658, 6268, 10950,
  -16746, -5116, 7757, 14099, -7572, -18952, -4847, -5852, -377, 5038,
  7491, 12408, -8443, 13780, 4977, -18108, 3995, 3953, 8370, -8876,
  -3814, -4752, 8031, 689, -13273, -4436, -17608, 12621, -14742, 4126,
  98, 15790, 5303, -6065, 2207, -6533, 5128, -7197, 8134, 7403,
  -3607, 8863, -14525, -15350, -18532, -148, -6514, 17408, -390, 1475,
  14625, -3663, -4023, -9693, 1405, -6870, -5990, -1822, 3303, 13687,
  -11936, -9514, 13485, 13125, -10610, 5100, 10403, 8310, -21616, 14116,
  14557, 11614, -18086, -17862, 17221, -7735, -13284, 8098, -13871, 8041,
  -1481, -5020, 10596, -817, -4314, 12817, -16997, -3010, 15965, -6207,
  4865, -4739, -11380, -11790, -1806, 9050, -20015, 6168, -1514, -5921,
  14230, -9866, -2648, -13181, -8286, 17614, 2212, 6807, -2149, 2869,
  -16271, 12275, -4847, -18544, 3728, -9070, 3654, 12821, 15219, 14626,
  -732, 3326, -15191, 7814, 813, -3679, 8212, -21978, 13824, 14347,
  -1224, -16198, 5179, 11651, 8842, 2410, -7492, 8706, -2207, -15308,
  1377, -6480, -7586, 4415, -3380, 15965, 10452, 13409, -6498, -4862,
  -7625, 7398, 5420, -10195, 1245, 2213, 13790, 11231, 6495, -4905,
  14585, -1106, 9918, 10385, -13667, 8543, -16373, -10287, -11959, 1057,
  18733, -1393, 5322, 1461, 5946, -6901, 882, -6028, -8736, 14879,
  5307, -6807, 6458, 19970, -8535, -8094, 3612, 13075, -12899, -9898,
  16299, 11151, -9995, -2670, 5882, 5841, -23977, 12853, 12532, 9400,
  -20447, -18387, 16771, -3586, -14013, 8503, -12380, 637, -7319, -5107,
  13377, -6082, -9390, 13291, -16061, -6064, 13136, 135, 1628, -3515,
  -14890, -11496, 1671, 5798, -20396, 7812, -4199, -10580, 17773, -7886,
  -9047, -15818, -5745, 18754, 6643, 411, -6154, -1568, -19874, 15269,
  2668, -19558, -3088, -6595, -2166, 15014, 18375, 11689, 2952, -6004,
  -17261, 13937, -4911, -5176, 12814, -24312, 13104, 15178, 5727, -18103,
  1864, 9332, 14785, -2486, -14041, 9636, 1195, -13724, -969, -324,
  -8141, -1600, -2009, 17495, 12978, 17192, -4686, -5564, -2171, 4185,
  4913, -13228, -2616, 4037, 13580, 11750, 10374, 1296, 16493, -2495,
  12147, 15575, -17510, 4349, -14900, -5391, -14083, 8233, 19627, -5074,
  -2466, 1944, 9066, -3496, -102, -9859, -5181, 12581, -657, -10005,
  5159, 21950, -12012, -7116, 12962, 7897, -16284, 3342, 9720, 11088,
  -426, -946, 20247, 19528, -13288, 835, 3516, -7413, -4937, -17419,
  16982, -17076, 5162, 10102, -15967, 7783, 3413, 8875, -2544, 13832,
  -7831, -8463, 4074, -4863, 5691, -21683, 19188, 1681, -6606, -12589,
  -15483, 16578, 466, 9580, 6151, 9404, 14058, -1730, -5403, -2518,
  -10077, 8241, -8846, 1637, 13715, 15895, -10783, -10341, -19661, -15707,
  13340, -143, -2232, -2941, -2687, 3494, -623, 5615, -12159, 4601,
  10816, 10768, -7008, -14922, 22277, 5702, -5245, -20218, 7506, 24407,
  10836, 4169, -3696, -7999, -8149, -14791, 10038, -14261, -6532, 20983,
  -4198, -7321, -12036, 14510, 7933, 7576, -6402, -5014, 18513, 5464,
  22592, -17656, 19715, -7712, 1988, -17431, -8435, 8076, -2724, 12545,
  -8445, 5610, -8032, -5178, 5852, -7586, 19387, 20029, 20432, 146,
  11282, -21964, -440, -4727, -17252, 1102, 216, 12754, -4023, 8948,
  7130, 4657, -6689, 15199, -2861, -17162, 8414, 13486, -16913, 19780,
  4866, -691, -18531, 22928, 22395, 27623, -20364, -11660, 12472, -2969,
  -24059, 3159, -9632, 16207, 3023, -15388, 14683, -5871, 7361, 26569,
  -31228, 3927, 23796, 309, -4671, -10537, -6896, -7721, 5756, 4158,
  -30873, -1124, -3882, -10739, 4729, -16558, 9756, -14457, -7648, 18507,
  4817, 18229, -9664, -3158, -10654, 23829, -1042, -13583, 3806, -17462,
  15872, 19326, 21429, 23815, -5857, 13555, -9939, -642, -38, -12985,
  12276, -17718, 2993, 16033, -7182, -4741, 6169, 20, -4233, 7061,
  955, 19183, -1167, -13065, -3344, -6339, -5241, -2964, -3515, 28955,
  23130, 2739, -19633, -13126, -14024, 20421, -7062, -16291, -12351, 16270,
  4453, 23393, 2793, -1184, 27295, -6795, 14617, -2253, -8298, 14288,
  -20431, -18386, -20590, -1982, 10813, -14428, 1506, 1419, -5106, 3659,
  3148, 214, -3503, 25374, 16548, -17162, 15406, 20344, -14543, -18037,
  3693, -4862, -621, 6466, -1597, -4099, 6457, -8768, -487, 1761,
  5101, -8688, -8181, -11385, 6609, 2662, -3031, 60, 9326, -20,
  2323, -6421, -1785, 6686, -5247, 2660, -4462, -10690, 12168, -2482,
  -8710, -1236, 2950, 4354, 1182, 1501, -3233, -430, 11466, 1782,
  1686, 4251, 290, 6442, -5121, 4724, 2248, -5695, -2080, -7635,
  4118, 1933, 2287, -9265, -419, 3209, -1253, 6841, -7184, -7064,
  -7737, -8879, 2633, -5907, 2220, 1671, 184, 5643, -4589, 4577,
  1088, -5361, 3390, -693, -2140, 2061, 3640, -3010, -1772, -7674,
  71, 3551, 1693, 1939, 1251, 2109, 1128, -11248, -9340, 1188,
  8189, 5638, 5307, -8614, 4400, 5956, 6104, -7496, 370, -9420,
  -238, -256, -10514, 3107, -5170, 2995, 1698, -5499, 7081, 7107,
  8006, 1025, -1897, 6751, 331, -548, 3484, -3000, -1392, -1312,
  211, -9648, -7019, 7050, -6208, -6166, 5401, 7200, 4192, -11108,
  2254, 11482, -4741, -10643, 12334, -17702, -6288, -1474, 12222, -16789,
  -16656, -20215, 13200, 8755, -9599, 4693, 16321, -2271, 8182, -15209,
  -5155, 10565, -8840, 999, -7516, -18170, 22220, -4122, -18237, 3660,
  777, 8024, 3160, 5791, -1948, -5106, 21465, 1438, 1287, 5038,
  -2003, 12830, -9648, 8991, 6959, -12483, -1081, -15935, 4079, -656,
  6092, -14703, 5000, 9451, -6547, 13408, -14044, -12309, -13425, -18122,
  5813, -14129, 6504, 3234, -3116, 7976, -6225, 11637, -3118, -11192,
  8763, 2948, -6287, -2002, 5499, -7492, -3701, -12578, 2625, 10347,
  613, 7959, 3702, -1746, 3307, -19312, -14502, -405, 14105, 8756,
  12511, -15711, 4059, 9551, 5823, -9872, -3806, -15937, -183, 4519,
  -17696, 3804, -8837, 3741, 4365, -12355, 15404, 15457, 13358, 4987,
  -7787, 7598, -5415, -921, 4632, -127, -2696, -2033, 4876, -18894,
  -14409, 9916, -11117, -13382, 8050, 12788, -6911, 10057, 1828, -11650,
  353, 10365, -12234, 24504, 6749, 158, -7324, 17194, 17579, 22932,
  -9786, -4572, 6613, -5391, -16042, 128, -6277, 20325, 9779, -11570,
  6404, 1423, 13258, 18563, -23091, 7670, 19313, -5585, -1455, -9093,
  1188, -3876, 1206, 4994, -20463, -4428, 288, -2043, -3820, -13722,
  16472, -5701, -7308, 9804, -1750, 21163, -2965, 1771, -569, 13487,
  -8481, -5530, 10242, -15330, 19266, 10457, 10459, 19826, -9114, 21584,
  -2017, -9762, 6491, -8265, 2818, -6596, -164, 8829, -13882, 2374,
  7751, -263, -12836, 11094, 10442, 12898, -4447, -8974, -479, -10914,
  -1802, 3389, -3702, 18539, 13888, -5547, -17100, -8970, -16337, 19116,
  -6766, -7615, -6255, 11035, 478, 16239, -3885, -7009, 17103, -3822,
  7224, -10663, 1061, 14771, -14747, -18631, -11773, -10419, 3261, -7507,
  9088, 217, -9530, 871, 3582, 6194, -4864, 20309, 19643, -9009,
  12916, 9762, -6045, -14338, -8138, 3166, 5169, -8958, 616, 726,
  -6773, 6326, -7563, -9055, -3325, 9025, 7592, 14104, -7510, 2051,
  -1732, 6983, -12624, -2568, 2923, 1433, -1991, -10141, 8203, -9843,
  4627, 14912, -14705, 2655, 6978, 10974, -10963, -4744, -1492, 1790,
  9774, -6006, -13501, -3746, -4963, -9834, -2518, -5638, 4400, -5969,
  1635, 5056, 6966, 5107, -11128, -9305, -1321, 15447, 9887, 178,
  -6011, -6648, 5754, 10196, 11241, 7903, -1142, 614, 98, -218,
  -6217, -10416, 9501, -2353, -7937, 4716, 1359, 5493, -1513, -10647,
  -4314, -237, -156, 11827, 3817, 868, -6388, 5050, 275, -11795,
  654, 15836, 15620, -3419, -11192, -8824, -1776, 9746, -10701, -10265,
  -15781, 14727, -6111, 13269, 1595, 8580, 15828, -6629, 8196, -4369,
  -1270, 2442, -4960, -4202, -11767, 4424, -2947, -15491, -10049, 613,
  -5816, 11577, 1198, 691, 6689, 9703, 5152, -13601, 7909, 5824,
  -10336, -9391, -7139, 5824, 4977, -7942, -4037, 6745, -8473, 23424,
  5101, -1033, -321, 12284, 12843, 18381, -3397, 594, 1781, -4410,
  -10750, -2024, -2673, 18855, 11215, -9018, 2067, 3386, 14726, 13192,
  -16722, 8698, 14308, -5758, -1372, -7364, 5130, -681, 221, 3394,
  -13144, -6046, 1634, 1375, -8222, -10478, 17721, -838, -5392, 4003,
  -3768, 19537, -700, 2461, 4851, 7927, -9131, 15, 10689, -12341,
  18380, 5358, 4391, 15159, -9321, 21871, 2754, -12899, 7690, -5917,
  -1231, 391, -3292, 3979, -14594, 6805, 6826, -2279, -15820, 11090,
  13580, 9034, -4693, -4807, 41, -10379, 493, 4097, -2960, 12014,
  8884, -9626, -14361, -6506, -14721, 16394, -7196, -3194, -4510, 8634,
  -2898, 11498, -6508, -7294, 10984, -2627, 3214, -13977, 5772, 12573,
  -9615, -15861, -6724, -12219, -2061, -5009, 9669, -378, -11136, 1246,
  3332, 8388, -3455, 15278, 18413, -5200, 10432, 3074, -2043, -11176,
  -6905, -9818, 14388, 5234, -16136, -8102, 5852, 10356, -5090, -7198,
  21588, -6946, -6513, -1104, 16733, 17766, -15352, 3096, 7853, -8813,
  11280, 5265, 9763, 600, -10530, 5072, 13685, -6170, 7677, 8587,
  -6845, -112, -3832, 424, 14958, 10578, -97, -5330, 12962, -9478,
  3692, 8803, -19277, 3502, 14457, 13562, 3992, -15254, -6357, 6235,
  3557, 616, 19698, -9275, -3728, 18090, 5037, 1387, 8234, -10713,
  -14047, -5016, -5784, 12274, 16968, -16847, 5905, 1415, -10885, 22189,
  -14287, -12317, -9314, 19558, -8, -11000, -19093, 5561, 17081, -4313,
  -2029, 11366, -280, -1988, 7810, 740, 1111, -10234, -6938, -19208,
  -1878, 2002, -2808, 2495, -8360, 9574, -1498, 1125, -14331, -5488,
  -11362, -1993, -9416, 508, -8861, -19239, 17889, -6, 10281, -360,
  9395, -10734, -19269, 802, 3735, -1956, -12696, 5422, 1250, 11604,
  4894, -5593, 6974, 5543, -314, -18376, 8775, 1685, -1619, -2546,
  3873, 1778, -4919, -1637, 1787, 4272, 91, -937, 6399, -1984,
  -1521, -423, 5297, 4842, -3901, -492, 2828, -2270, 2565, 3111,
  4039, 702, -3825, 3020, 4556, -2462, 2490, 2860, -1448, -2032,
  146, 82, 4782, 2559, -1369, -374, 4154, -2650, 1886, 3943,
  -5804, 802, 5211, 4520, 380, -4445, -3138, 2953, 2288, 1579,
  6141, -3797, -3269, 4971, 3195, 61, 3236, -3798, -5005, -933,
  -2409, 5503, 5040, -5933, 3226, 1199, -4465, 6469, -3202, -3749,
  -4118, 5317, 820, -1877, -6274, 2648, 6110, -1844, -1585, 2549,
  671, -2219, 2221, 2099, -50, -3808, -3128, -5756, -537, 1174,
  -2055, 980, -1604, 3640, 1172, -798, -3420, -2212, -4030, -2374,
  -3578, 769, -3152, -6105, 5772, 843, 2637, -1071, 3608, -4833,
  -5169, 1789, 3375, -732, -3876, 100, 500, 3876, 181, -1354,
  3083, 2804, -56, -5506, 3537, 566, -8072, -6119, 9269, -2834,
  -1923, -10251, 1553, -11702, -20192, -16591, 5087, -2795, -5500, 1088,
  -341, 10849, -11907, 17560, -4259, -5879, 12930, -16667, -11367, -5631,
  5829, -17164, -2996, 5909, -877, -1658, -8300, 23957, -17690, 1003,
  -1262, 8524, 15261, -15890, -566, -3496, -8039, -13128, -3625, 4546,
  -6385, -2256, 10575, -3562, 12409, -11141, -15286, -17330, 1536, 11305,
  24370, 8658, -19366, 4059, -7878, 5186, 6395, -6939, 6068, -18136,
  4913, 6467, -15883, -9216, 11468, 6102, -15530, -2730, 14407, 10097,
  -10162, -19474, 2219, -10380, -7727, 6586, 10455, 12108, -10359, 18896,
  3507, -23094, 4917, 6833, 11574, -3430, -2410, -5732, 12563, -1925,
  -12755, -8286, -20714, 14177, -13090, 5532, 4648, 21016, 8379, -7339,
  5301, -25, -262, -10385, 7788, 11139, -6739, 15919, -11297, -18612,
  -25232, 490, -2522, 19538, -1294, -3039, 16847, -4479, -9447, -13189,
  619, -2734, -10076, -1498, 1568, 826, -4026, -1774, 7617, -1721,
  58, -14742, -6602, -2906, -7818, -865, -2060, -3427, -6986, -3861,
  1943, 6355, -2669, 2291, 580, -13177, -11467, -211, 6524, -9719,
  -10926, 1904, 128, -6608, -3425, 10602, -4905, 1998, -8612, -1521,
  5726, -4490, -2981, 4514, -5069, -9258, 9335, 2766, -13070, -6771,
  3515, 4773, 8389, -11671, -7501, -7610, -9474, 6805, 13110, -4977,
  -12281, 3794, -11188, 5631, 7755, -3854, 7053, -17561, -6362, 13112,
  -10548, -2796, 9533, -7933, 1380, 3480, 13287, -6708, -5557, -1944,
  13229, -9110, -13867, 2456, 5925, 543, -4029, 10591, -2258, -10264,
  2097, 4418, 5534, 9785, 3105, -1452, 9393, -5725, 595, -6911,
  -6319, 2912, 2240, 1857, 8423, 10711, 5054, -2424, 5461, 12045,
  -9467, -7005, 648, 8159, -5134, 13709, 4913, -6332, -13517, 1045,
  7348, 4743, -1864, -8529, 5112, -2734, -11027, -6424, -1941, 6726,
  -7506, 1162, -10669, 6145, 6108, -12802, 639, 3619, -10706, 13764,
  -6239, -9686, -5484, 14492, 13021, 21578, -10688, 966, -73, 5983,
  -18002, -2788, 1399, 7289, 695, -14152, 10532, -10103, 8808, 21191,
  -22225, 5068, 12877, 10179, -12129, -7665, -1136, 930, 10844, -5054,
  -20165, -5356, -5234, -11085, -3904, -9930, 9418, -7935, -286, 8046,
  6970, 11471, -12685, -9437, -1461, 20263, 8199, -1236, -3506, -11428,
  11678, 13797, 14919, 14002, -3804, 6790, -389, -3076, -4803, -13479,
  10934, -4216, -8658, 7503, -2544, 6702, 581, -11547, -8356, 2908,
  2870, 16256, 2853, -1512, -6933, 2320, -182, -11647, -342, 22139,
  20600, -5377, -16770, -12006, -6483, 15848, -13424, -13049, -18649, 18893,
  -6520, 18777, 557, 7195, 21683, -8178, 10720, -7815, -983, 6801,
  -9429, -9757, -15907, 1775, -2359, -18707, -8216, 739, -8978, 12681,
  2306, 2592, 5808, 16079, 11077, -17059, 12078, 8838, -12687, -14060,
  -450, -6959, 4567, 5294, -5067, -6891, 6295, -6594, -5650, -3705,
  9461, -8429, -8546, -8336, 8389, 8019, -8003, 4358, 7635, -3149,
  6808, -7019, -1547, 3839, -4905, -514, -912, -7919, 10375, -298,
  -9574, 4041, -2320, 3475, 3854, 5172, 795, -4762, 11068, -1488,
  355, 2278, -4715, 6394, -1955, 5914, 4701, -8222, -305, -6549,
  632, -2036, 6250, -6451, 3952, 8066, -3838, 6149, -5094, -6412,
  -7365, -9029, 1944, -5440, 6301, -1075, -1887, 2522, -3320, 9426,
  -5526, -7136, 3441, 5831, -3668, -4912, -1007, -3152, 791, -5190,
  1795, 7576, -951, 4908, 3325, -3076, 2083, -9019, -5934, -4012,
  5106, 3352, 5899, -6159, -1237, 4724, -144, -2299, -5554, -6922,
  -1662, 3738, -8005, 859, -4617, -1981, 5044, -6169, 9010, 7431,
  6473, 1747, -7901, 1250, -4200, -708, -714, 3032, -1014, 935,
  4701, -9199, -5595, 3627, -4495, -9070, 3774, 5334, -6716, -1841,
  10563, 70, -13631, 1277, -1185, 25138, 5684, -625, 14065, 3021,
  4528, 9674, 10409, 9961, -6451, -5906, 793, -5803, 2606, 20281,
  17401, -3083, -8377, 11182, 19692, 1359, -3931, 11966, 6038, -11093,
  2000, -4347, 14422, 4666, -4793, 3134, 1964, -9420, 6233, 11456,
  -17865, -5046, 23101, 10194, -3605, -7724, -10839, 19639, 7064, 7414,
  16852, -5743, -15870, 10556, 16160, -7543, 19390, -6368, -9773, 7451,
  -11674, 27678, 12535, -22043, 13923, 484, -12374, 14604, -7506, -5842,
  -20029, 15179, 7248, -3238, -24065, 13924, 23017, 58, -7581, 1674,
  3113, -13586, 4917, 10302, -2491, -2617, -3546, -18704, -9076, -540,
  -14733, 12107, -6331, 7792, 2828, 1407, -8082, 982, -13666, -12446,
  -3115, 1159, -6307, -22373, 16636, 10707, -584, -13153, 5087, -20153,
  -11789, 3556, 16466, -1816, -15094, -1492, 3294, 14441, -3795, 6315,
  18981, 5205, 5719, -10830, 8452, -4870, 5235, 4444, -8157, -566,
  7415, 4565, -1259, -4940, 5615, 6429, -9563, 1506, 2061, -2427,
  -6087, -9116, 8249, -4344, -652, 5086, -6647, -1129, -3045, 2372,
  2589, 1136, -6946, -784, -438, -4282, 2450, -4230, 5218, 760,
  -6498, -6065, -3401, 4970, -3066, 5490, 132, -723, 9548, -662,
  -6669, -4648, -3050, 6383, 194, -2799, 1706, 2959, -8711, 275,
  -2537, -9049, 565, 289, -4292, 2392, 3471, 1429, 2171, -3897,
  -7950, 6987, 22, 2229, 1873, -10201, 9476, 4677, 2784, -10917,
  1124, 8775, 9238, -1534, -6914, -858, -913, -6451, 2077, -1775,
  -3801, 3903, -1038, 830, -952, 9780, 3011, 1522, 291, -2884,
  7010, -1724, 5480, -4658, 8914, -720, 4322, -2620, 556, 1739,
  2108, 9571, -7626, 345, -4241, 3, -1120, 2357, 10271, 4345,
  2713, 556, 7000, -6456, -708, -5254, -4937, 1038, -3203, 1272,
  -1306, 7562, -1193, 1068, -1463, 1756, -1518, -4438, 6310, -1100,
  -2278, -9600, -7778, -5332, -7410, 2396, 945, 2052, -8143, -2460,
  1022, 7392, -6415, 979, 1392, -9999, -9809, -3606, 7992, -11056,
  -7153, 6580, -4899, -4379, -335, 12122, -7564, -26, -7386, -630,
  7859, -5570, -6982, 2342, -5722, -10715, 6631, 262, -8955, -7450,
  3326, 5542, 9051, -7565, -9709, -9176, -8046, 10645, 13768, -3954,
  -11793, 763, -6958, 7953, 10013, -378, 5244, -13790, -5094, 10405,
  -10499, -5743, 10829, -7169, -1537, 4417, 11032, -3536, -4916, -5096,
  9119, -7333, -11131, 5953, 6011, 686, -5338, 10120, -1736, -12124,
  1879, 8900, 9694, 6676, -1290, -4154, 6882, -1261, -3110, -8978,
  -10330, 7281, -237, 5984, 7274, 11405, 9382, -4166, 7123, 8157,
  -8025, -4728, -1209, 5058, -8101, 12432, 2979, -10262, -14151, 1056,
  3924, 7654, -1078, -6570, 6292, 1127, -7048, -9709, 1120, 7364,
  -9471, -2245, 11172, 5980, -11790, 5402, 2531, 11173, 570, 10002,
  24172, 20730, -5142, 191, 3836, -5711, 2124, -12465, 13673, -21079,
  8349, 7509, -14878, 17191, 12357, 9433, -8516, 21219, 1060, -11010,
  5452, 574, 6847, -29036, 22165, 584, 1088, -10281, -19624, 19006,
  4581, 5486, 10179, 17042, 5385, -2866, 5108, 3979, -11917, 2957,
  -15517, 10065, 19403, 21244, -1824, -16487, -29164, -10029, 22301, -2292,
  6068, -8385, -10049, 5186, -6075, 18919, -5632, -6354, 18788, 13108,
  -15097, -6675, 19714, 1556, -15289, -13360, 11205, 24530, -361, 10956,
  7799, -10506, -12503, -13685, 12781, -21689, -3974, 28178, -5449, -12088,
  -17070, 5607, 5865, 9116, -13017, -1171, 17311, 11563, 26987, -19856,
  16522, -10085, -5179, -25029, -13440, 9944, -7697, 2133, 305, 10149,
  -6912, -10511, 10910, -18293, 13645, 24778, 30233, -877, 4856, -24715,
  920, 2403, -20152, 1898, 8343, 18116, -2953, 1930, 13518, 4332,
  167, -2087, -1898, -1378, 7681, -6123, 1916, -22356, -13933, -8060,
  -6166, -3752, -5931, -6076, -6568, -522, -2147, 12727, -2300, 738,
  5145, -21643, -16977, -564, 8086, -15807, -14314, 1671, 2561, -8578,
  -8425, 19259, -10349, 3515, -9872, 1332, 10620, -10150, -1045, 4380,
  -7942, -13741, 9546, 5918, -18066, -7395, 7794, 2984, 13032, -18469,
  -12295, -13583, -9815, 9155, 22469, -2218, -20270, 7120, -16734, 6443,
  9131, -8568, 10554, -27016, -5277, 17344, -16937, -4799, 13462, -6064,
  -3064, 1991, 20320, -4596, -9939, -7821, 16570, -14278, -18616, 3098,
  10077, 5214, -7351, 18378, -1232, -18361, 4160, 4679, 7820, 10279,
  4704, -2254, 15871, -9030, -2320, -9061, -12237, 6063, -1482, 1777,
  11013, 18673, 5959, -4360, 6642, 14357, -10545, -12397, 4699, 14341,
  -6241, 20873, 1649, -11509, -23248, 1283, 8390, 10821, -2826, -10888,
  11086, -6667, -17105, -9825, -3462, 5362, -10419, 2518, 1074, -3113,
  -347, 1990, 1953, -4475, 3461, -12266, -6366, -3147, 231, -5101,
  -5806, -6798, 379, 1603, -2747, 5604, 2783, -97, 3588, -11335,
  -7451, 2235, 1049, -5552, -7112, -3477, 5889, -4170, -7092, 7775,
  -3550, 3117, -3102, 1594, 3341, -4746, 4342, 2092, -2597, -3898,
  3285, 5058, -8893, -796, 4337, -1496, 4495, -10377, -3610, -5084,
  -2434, 117, 9264, 1060, -8888, 5595, -9394, -318, 419, -7119,
  5186, -13106, -637, 7223, -6889, 70, 3558, 104, -1574, -1696,
  9493, -1311, -5034, -3108, 7509, -6936, -7793, -1662, 4223, 4046,
  -2559, 8466, 303, -7056, 2243, -2581, -382, 3938, 4880, 1200,
  8563, -6879, 219, -1270, -3090, -85, -1162, -2936, 4080, 7796,
  -1707, -707, 559, 6327, -3034, -7309, 5078, 8699, 707, 8771,
  -889, -2422, -9622, 242, 4250, 3786, -1658, -4601, 5051, -6621,
  -9527, -1379, -3739, -798, -2090, 3762, -8040, -8441, 12080, 614,
  -7964, -10504, 3806, -4254, -15795, -14064, 12532, -5235, -6882, -395,
  6971, 14715, -14490, 13172, 864, -7576, 13479, -9557, -3847, -3183,
  -640, -9416, 3269, 863, 3256, 2217, -8937, 16127, -13356, 1107,
  5306, 10185, 10129, -12966, 5570, -6128, -3859, -5082, -10276, 4878,
  1221, 4258, 8929, -8973, 5724, -5487, -8653, -11375, 9179, 3327,
  14997, 13423, -11158, 3733, -2420, -1265, -1831, -7290, 1935, -7683,
  10347, -2351, -8366, -5334, 3090, 13440, -16279, -7164, 6181, 14762,
  -7018, -17551, -6030, -4963, 1586, 2241, 6283, 13051, -7018, 12125,
  5620, -15223, 3852, -199, 4464, -10070, -1881, -2748, 7718, -812,
  -11781, -1356, -14276, 9618, -14685, 960, -1472, 13425, 1207, -4584,
  -334, -7655, 7179, -7370, 9878, 7838, -286, 6514, -15605, -11889,
  -15590, -482, -6650, 15272, -452, 2587, 13420, -5896, -4008, -6260,
  -97, -9708, -2928, 117, 6692, 16477, -17530, -10178, 19232, 15480,
  -11516, -374, 12457, 11542, -28738, 15013, 15450, 9751, -23031, -24077,
  22494, -9094, -14316, 11468, -17765, 5007, -5351, -3835, 13418, -1982,
  -10291, 12921, -17438, -6695, 16897, -6699, 7070, -4035, -16738, -15569,
  -2613, 11146, -22572, 10124, -2451, -8194, 21540, -9930, -8973, -17276,
  -9459, 22249, 4004, 3101, -2503, 3217, -23193, 13783, -3843, -24783,
  1824, -8285, -768, 15365, 18849, 14836, 1865, -2197, -21135, 14355,
  -1160, -2978, 11216, -29450, 19577, 17900, 2769, -23780, 4872, 16405,
  16670, -139, -14126, 8729, -1577, -19007, 1918, -5581, -10290, 4821,
  -3628, 17471, 11056, 20880, -4171, -4404, -5698, 4780, 9571, -12510,
  3250, 136, 19387, 11338, 10630, -4461, 15937, -590, 12162, 18173,
  -19995, 7570, -18894, -8878, -13780, 5058, 25695, -129, 4316, 2060,
  11402, -9758, 152, -10605, -10718, 15114, 1436, -7330, 5355, 25668,
  -10640, -7295, 5407, 2164, -3712, 4842, -3918, 6856, 1188, 14324,
  17672, 13502, 3096, -454, 2547, -2264, 6691, -3730, 5754, -15850,
  7563, 2609, -8158, 17561, 14283, 6232, -9754, 18514, 7343, -8720,
  4453, 4457, 4979, -23234, 15694, -426, 6482, -4522, -15127, 13382,
  6004, 270, 9280, 16219, -3311, -2514, 11091, 7408, -8620, -2218,
  -14555, 12475, 16085, 16954, 5728, -14719, -24966, -1774, 20335, -2987,
  9914, -9273, -11771, 4400, -7844, 21598, 1590, -12193, 17485, 9779,
  -15383, 2219, 10055, -2285, -16870, -2934, 9586, 15006, -8711, 11795,
  13479, -8315, -10937, -7466, 9810, -18808, -442, 22570, -4247, -11056,
  -14254, -3322, 1990, 6786, -12946, 2149, 9632, 11664, 19744, -13783,
  7631, -8014, -8612, -20973, -12002, 7484, -8447, -6591, 6885, 9556,
  -3275, -10390, 10571, -19288, 3911, 18708, 25857, -1350, -1932, -17124,
  1578, 6836, -14426, 1699, 11224, 15111, -986, -4164, 13067, 2399,
  -12325, -4628, 15773, -3446, -12931, -4917, -1613, 16276, -8735, -12353,
  14603, 2914, 2217, 12091, 7293, 15496, -13077, 6836, -4542, -9148,
  10555, 7995, 7963, -8260, -2065, -2588, 16400, 7920, -7088, 10012,
  1780, 6978, -11062, -4236, 11558, 9613, 7083, -8030, -1518, -11158,
  -468, -7, -18282, -2958, 17187, 6232, 3522, -7859, -472, 11525,
  -5248, -5819, 15303, 4975, 2877, 14445, 1257, -5543, 13464, -298,
  -2277, 3979, -6739, 13349, 13818, -15357, 1300, -7295, -1855, 15919,
  -17542, -5647, -8604, 20473, -48, -16715, -20548, 5876, 15376, 6452,
  511, 8911, -4745, 527, 6405, -7275, 896, 5186, 7132, -19128,
  -11623, -5838, -5623, 11470, -15410, -276, -13208, 12820, -16196, 7012,
  -8762, 3522, 5584, -4787, -666, -20449, 14004, 3679, 3051, -5695,
  -2170, -7029, -17649, -11313, -2935, -1096, -15856, 12832, 2360, 10974,
  8149, 4872, 11939, -6202, 6966, -9906, -785, -7070, 10540, -2324,
  -9588, 8154, 6313, -1701, 7480, -19534, 3390, 8060, -3664, -10529,
  -9736, -18521, 1904, -6061, 4187, -2827, 11595, 5211, -3212, -12469,
  -7547, 11249, -3410, 2871, -14762, -14914, 16210, -8748, -10239, -3684,
  8285, 6980, -6136, -3883, -6420, 3318, 12113, 8422, 1355, 3198,
  11315, 8534, -16060, 619, 831, -917, -855, -15419, 6017, 4114,
  -7090, -11211, -358, -5159, -3503, 10404, -15984, -6307, -5685, -11624,
  7159, -15355, -5944, 11590, -1822, 9312, -2505, -4939, 10744, -2016,
  9771, -12594, -2863, 10848, 16413, -7362, -11799, -10940, 505, -1139,
  3719, 3013, -2440, 4744, 933, -13684, -12634, 12763, 14911, 8732,
  9549, -15649, 12843, 5299, 12491, -14154, 9396, -13137, 5513, -807,
  -13020, 5434, -4167, 15569, -6961, -8469, 5660, 11311, 8708, 6497,
  8189, 12160, 265, 127, 12976, -9363, -2924, -8345, -3514, -12764,
  -14915, 9682, -10265, -50, 4934, 11234, -10171, -4484, 13639, -2070,
  -11807, -4393, -671, 14240, -6761, -9947, 13609, 1620, 1223, 9327,
  7523, 13742, -11537, 5142, -2584, -7930, 9097, 7363, 7647, -6226,
  -2935, -950, 14416, 5356, -4704, 8824, 922, 4710, -8552, -3300,
  10698, 8393, 5053, -6374, 224, -9646, 290, 1363, -16292, -2070,
  15245, 6422, 2860, -7675, -1458, 10061, -3274, -3965, 14073, 2563,
  1083, 12993, 2129, -4329, 11680, -1544, -3501, 2809, -6107, 12369,
  12518, -14063, 2156, -5281, -2995, 14667, -14798, -5681, -8190, 17831,
  274, -13681, -18238, 5532, 14142, 4400, -157, 7823, -3445, -393,
  5759, -4913, 670, 2750, 4488, -16946, -9263, -4170, -5123, 9324,
  -12584, 1058, -9882, 9732, -13824, 4730, -8244, 1892, 3120, -3469,
  -1624, -18101, 12926, 3203, 3261, -4855, -466, -7181, -15557, -8203,
  -1095, -1098, -13728, 10034, 2024, 9936, 6395, 3364, 10419, -3862,
  5424, -9642, 629, -5330, 1686, 7015, -5532, -4282, 5234, 7534,
  -5286, 6294, 7741, 5664, -9384, 7307, 8036, 6403, -7503, -8559,
  8792, -6202, -5772, 3912, -7681, 7759, 2325, -2057, 3532, 2622,
  283, 5571, -8390, -17, 9127, -6701, 4366, -2785, -3826, -6105,
  -3061, 6346, -9240, 2384, 831, -160, 5316, -5650, 1883, -4940,
  -5461, 8021, -1480, 6501, 1295, 3973, -6141, 4063, -6631, -8691,
  5534, -5553, 4568, 4887, 5509, 8522, -2259, 6475, -6409, 699,
  3572, -704, 1334, -9636, 7507, 6458, -4189, -7258, 4296, 7313,
  1454, 3723, -310, 3471, -3017, -8447, 2032, -6545, -3452, 5633,
  -2392, 6569, 3360, 4848, -3855, -1696, -6588, 4988, 3301, -3194,
  3086, -332, 7165, 4822, 1142, -5895, 5763, 392, 3550, 2625,
  -4693, 6276, -8664, -7472, -4372, -3380, 8911, 1723, 7034, 404,
  1502, -5554, 896, -1083, -6352, 8234, 5562, -1294, 3653, 8728,
  -2142, -4245, -6137, -8138, 10599, 2226, -8375, -9165, 4525, -2500,
  -11787, -10615, 12929, -6014, -7003, -2111, 8519, 13448, -12949, 9590,
  3246, -6672, 11479, -6649, -1301, -1120, -2939, -5262, 3856, -1978,
  5278, 2580, -8550, 10908, -9400, 1466, 6290, 8975, 6489, -9870,
  7640, -5522, -1804, -1431, -10210, 4874, 2477, 5854, 7134, -9521,
  2592, -3863, -4774, -7451, 9899, -585, 9653, 12691, -7037, 3795,
  -1356, -3664, -4701, -7139, 763, -4129, 10244, -4151, -4762, -2619,
  -333, 13577, -13406, -7743, 3216, 13287, -5146, -13599, -6768, -2940,
  3648, -284, 4003, 11377, -4633, 8305, 5339, -10055, 3000, -3460,
  572, -9926, -413, -742, 5625, -1402, -8850, 1510, -9190, 5718,
  -12420, -1614, -2920, 8880, -2250, -2621, -2442, -8005, 8138, -5877,
  9527, 6373, 2516, 2867, -14197, -7073, -10073, -734, -6164, 10974,
  -308, 3502, 10079, -6386, -2633, -2372, -1022, -10610, 215, 1406,
  -12675, -6707, 15320, -4146, -8507, -9815, -86, 1184, -19075, -18630,
  11520, 14, -2329, 7964, 3566, 16136, -15543, 16177, -5906, -9248,
  14875, -7035, -3493, -8854, 3168, -13633, 7222, 9015, -5059, 4514,
  -4507, 20811, -18711, -1841, 5524, 11324, 14846, -15646, -1711, -8772,
  -6004, -9439, -12756, 1270, 5264, 1683, 9320, -6684, 8586, -1125,
  -13825, -15509, 9511, 11087, 18799, 14030, -12882, -498, 2258, 3765,
  3555, -2330, 430, -5120, 11051, -4058, -10477, -10781, 7246, 13000,
  -20768, -4831, 5202, 18562, -7089, -23111, -10028, -3918, 3186, 8526,
  7665, 13362, -9979, 13526, 5978, -20387, 3914, 8159, 12496, -13139,
  -8468, -7538, 5531, 5380, -17746, -6207, -22175, 17427, -18270, 8191,
  -1589, 16771, 9411, -7962, 3544, -11535, 7529, -5033, 6889, 4389,
  -6301, 7281, -17715, -19683, -19444, -223, -10738, 21031, 462, 4046,
  16388, -59, 263, -13017, 4544, -7222, -7729, -5262, 3920, -5336,
  453, 8074, -4860, -3130, 7091, -2750, 3575, 4249, 8647, -9129,
  -7834, -11282, 10318, 3949, -3436, -3769, 11778, -594, 1533, -459,
  3605, 7917, -8981, 8181, -161, -13094, 13537, 143, -7690, -7420,
  6453, 3950, 5012, 1720, -7046, 2450, 14059, 330, 4567, 9532,
  -3392, 5738, 296, 8287, 325, -8082, -6716, -2809, 8696, 6469,
  6469, -13885, -7627, 5096, 5055, 5724, -2762, -10568, -12319, -7761,
  -484, 2088, 4880, -4138, 5717, 8054, -9917, 8029, 1651, -7298,
  -2771, 1393, 619, 4375, -1712, 1191, 4426, -9973, -3143, 2914,
  4212, -3560, 2139, 8163, 52, -14830, -13472, -2575, 7886, 7292,
  1056, -7024, 5465, 10051, 10775, -10483, 329, -11635, -4153, -6180,
  -14334, 4959, -8362, -1769, 5954, -2490, 7114, 3718, 11555, -5748,
  -3459, 11395, 7773, -1119, 900, -6611, -678, 2321, -3007, -9267,
  -2488, 11397, -6081, -9488, 9802, 7573, 7531, -10496, 262, 14938,
  -7372, -7310, 13582, -10196, 3546, 6212, 14754, -17866, -16077, -22474,
  17823, 7054, -6824, -4190, 21505, -969, 3892, -5795, 2915, 14612,
  -14948, 11766, -3499, -24068, 25883, -1677, -16287, -9558, 9918, 8126,
  7210, 3604, -10699, 2334, 26016, 1534, 6684, 14635, -4157, 11942,
  -3669, 13752, 2348, -14532, -9493, -9473, 13655, 9136, 9806, -24003,
  -9136, 9040, 4919, 12349, -8890, -18327, -20919, -16526, 1574, -2324,
  7794, -3729, 6835, 14003, -15411, 13671, 2393, -13061, -654, 1580,
  -1034, 6476, 615, -1015, 3985, -18041, -3513, 6648, 6376, -2514,
  3648, 11232, 1015, -26656, -23466, -2526, 16004, 13034, 5704, -15201,
  9744, 16856, 17520, -18281, 277, -21322, -5208, -7379, -25586, 8298,
  -14261, -27, 8607, -7402, 14285, 10204, 20081, -5894, -6041, 18746,
  9189, -1698, 3684, -9964, -1898, 1948, -3200, -18867, -8622, 19165,
  -12278, -16616, 16087, 14849, -13982, -9947, 18787, -2114, -12343, -12815,
  2227, 1366, -21402, -20821, 17241, -2977, -5358, 6008, 8181, 20911,
  -19967, 17854, -3005, -11493, 18352, -7883, -2323, -8029, 427, -13098,
  9308, 6373, -1561, 5874, -7818, 21957, -20016, -1033, 8878, 14356,
  15227, -17754, 2820, -10760, -5433, -7670, -17051, 3242, 7149, 5178,
  11129, -11094, 7655, -1637, -13228, -16028, 14162, 8253, 19352, 18922,
  -13090, 1117, 2474, 648, -285, -5225, -16, -4496, 15273, -7011,
  -10103, -10114, 4884, 18846, -24562, -8420, 4533, 23243, -7988, -26248,
  -13407, -3796, 6103, 6742, 7875, 17064, -10307, 14484, 8025, -21180,
  4603, 4601, 10194, -17292, -7654, -6592, 6535, 4449, -19569, -3652,
  -22680, 17293, -22046, 5870, -3774, 17494, 6175, -7785, 1087, -15189,
  11568, -6469, 10622, 6067, -3463, 6103, -22781, -19510, -20076, -660,
  -13026, 22832, 442, 6187, 18409, -3039, 81, -11453, 3493, -12326,
  -5534, -3814, -6510, -1583, 7049, -3346, -3833, -2809, -1603, 4134,
  -7200, -8007, 4243, 2271, 1398, 6562, 437, 6579, -5949, 6134,
  -4599, -4039, 5658, 1, 77, -5325, 2033, -5474, 5150, 6281,
  -5231, 3144, 684, 8009, -8244, -2025, 2750, 4398, 6403, -6018,
  -3340, -4472, -2401, -4074, -6289, -1278, 4857, 190, 2989, -1692,
  3213, 2631, -6250, -6326, 4328, 6441, 6654, 5476, -3922, -2351,
  3790, 2866, 2687, 1737, -1242, 1146, 4749, -3431, -3389, -5694,
  3216, 4962, -9052, -1080, 97, 8525, -1924, -10018, -6417, 14,
  3161, 5364, 2539, 4582, -4345, 4142, 2443, -8158, 1161, 5849,
  7110, -6668, -6084, -4368, -67, 5011, -8613, -3552, -10316, 8943,
  -7908, 5622, -1454, 6072, 6247, -3891, 2393, -6737, 3714, -71,
  1058, -775, -4093, 1357, -7397, -9360, -6824, -140, -6146, 9116,
  718, 2767, 6355, 2735, 3039, -6683, 3773, -1986, -3990, -4248,
  12117, 6328, -14155, 4442, 7015, 9941, 611, 1008, 19977, 18843,
  -9701, -396, 2427, -7823, -1981, -14718, 14697, -17074, 6774, 8780,
  -14421, 9055, 5375, 9246, -4585, 15250, -5494, -9856, 5602, -3402,
  4632, -22438, 19140, 1788, -4006, -11013, -15995, 16146, 2864, 8098,
  7034, 11343, 10910, -1182, -2871, -86, -9680, 5655, -10308, 2889,
  14864, 16561, -7465, -12417, -21015, -12845, 14753, 91, -716, -5030,
  -5377, 2691, -1725, 8115, -9414, 1597, 12286, 11379, -9255, -11265,
  20336, 3627, -7202, -17215, 7778, 23165, 7608, 5366, -616, -9066,
  -8789, -13163, 10349, -15127, -5303, 21845, -4140, -9442, -13716, 11374,
  7851, 8166, -7141, -4682, 17556, 7446, 23074, -18018, 17682, -8958,
  -68, -18402, -10472, 8433, -4486, 9343, -5400, 5833, -6415, -5449,
  7760, -9839, 16435, 20835, 21805, -194, 9280, -21682, -212, -2684,
  -16931, 122, 1545, 14212, -4216, 5802, 9021, 5124, -7748, -12110,
  13961, 3762, -10386, -14084, 7275, -8230, -18403, -15499, 17283, -9937,
  -11658, -5390, 11428, 18473, -18354, 15149, 5292, -8992, 16715, -13483,
  -4779, -767, -3373, -9377, 2345, -3824, 9229, 1781, -14194, 17830,
  -13997, 3120, 7160, 12704, 10196, -15142, 11749, -6618, -3569, -3680,
  -12302, 8394, -342, 7357, 11285, -13306, 5458, -9329, -7864, -12053,
  12151, -601, 16803, 17372, -13043, 7270, -5506, -4896, -5915, -12361,
  3172, -10904, 13314, -2548, -9251, -3586, 1189, 18143, -18631, -10862,
  8117, 17277, -8891, -19503, -5990, -6751, 1644, -959, 7165, 16846,
  -7194, 14576, 7199, -16355, 4906, -5440, 788, -11713, 1414, -684,
  11054, -4550, -11827, 1437, -13631, 7757, -17125, -3145, -2171, 15096,
  -3572, -3865, -3008, -8145, 9510, -10736, 14650, 11984, 3407, 7538,
  -19303, -10599, -17541, -801, -6504, 16299, -1062, 2861, 15529, -11099,
  -7382, -3855, -2861, -14460, -622, 3359, 9729, -5309, -6908, 10150,
  3387, -4589, 9794, -20696, 999, 6126, 1044, -13594, -12889, -21000,
  5800, -2084, 367, -1029, 14420, 3422, -99, -14299, -7301, 12294,
  -5656, 2917, -13844, -17631, 19857, -8100, -13731, -2167, 7067, 8013,
  -3696, -1292, -5932, 1242, 16423, 7072, 1636, 4397, 8202, 10710,
  -15490, 3461, 2696, -4724, -1268, -16941, 6335, 3349, -3547, -13749,
  849, -1094, -4448, 12372, -16822, -9027, -8929, -14802, 7334, -16160,
  -2599, 9920, -2101, 10027, -4212, -154, 7642, -5155, 10138, -9018,
  -4059, 8175, 14490, -7944, -10208, -12744, 1037, 2246, 3315, 4542,
  -762, 3603, 1700, -17071, -14788, 9839, 16244, 9750, 11245, -17238,
  11562, 7415, 12039, -14509, 6320, -15515, 4125, 407, -16071, 5614,
  -6242, 13305, -3979, -10387, 9257, 13595, 11255, 6347, 4049, 12311,
  -1042, -205, 11642, -7719, -3122, -7070, -1492, -15987, -16091, 11035,
  -11620, -4362, 6679, 12936, -7581, 1366, 6130, -6670, -1674, -360,
  -4826, 6828, -6676, -8256, 134, 6562, 5479, 11518, -3923, 3990,
  -3374, 5960, -9321, -3251, 3790, 2149, -149, -8236, 5268, -7216,
  5751, 11422, -11117, 3401, 4961, 8736, -9364, -3884, 830, 2808,
  7863, -5482, -9398, -4350, -3488, -6749, -4679, -4250, 5725, -3050,
  1752, 2152, 4717, 5247, -8521, -7382, 1588, 11369, 7330, 2504,
  -4015, -5377, 6006, 6905, 7293, 5962, -1830, 2456, 2344, -2587,
  -4113, -8305, 6211, 1005, -8313, 2251, -354, 7088, -1112, -10054,
  -6227, 715, 2327, 9117, 2731, 2104, -5190, 3642, 1252, -9346,
  625, 11618, 11826, -5416, -9504, -6950, -2042, 8445, -9832, -7078,
  -12990, 12155, -6841, 10160, -306, 6537, 11708, -5318, 5505, -6259,
  1411, 2168, -2807, -3690, -8359, 1960, -4925, -12460, -7449, 228,
  -6528, 10058, 1182, 2204, 5976, 7337, 5364, -10323, 6506, 2348,
  -7221, -7533, 410, -13046, 6931, 10354, -7706, -13316, 12201, -16226,
  -11325, -6653, 16017, -16603, -17096, -17534, 14630, 13603, -14162, 8915,
  14682, -5102, 12377, -16251, -5343, 7927, -8307, -2287, -4611, -15556,
  20593, -2331, -19188, 8938, -4283, 7288, 5348, 9160, 1994, -9294,
  21023, -1442, -127, 2886, -6328, 12898, -7184, 9871, 9371, -14686,
  864, -15361, 590, -4607, 9449, -11877, 9529, 13804, -9387, 12920,
  -12514, -11526, -12827, -18427, 5432, -14336, 10078, 1150, -5415, 4992,
  -4719, 15883, -9219, -12732, 9287, 8779, -7909, -8549, 1656, -7955,
  -1814, -10207, 4441, 14122, -1978, 11100, 5553, -6921, 4272, -17116,
  -11168, -4895, 11378, 6592, 13414, -13656, -1149, 8183, -189, -4959,
  -9237, -13575, -1209, 8610, -15220, 1637, -8150, -453, 7144, -13240,
  17240, 16068, 11771, 6150, -13203, 2279, -10109, -1031, 1000, 5641,
  -2414, -245, 9231, -18603, -13498, 6529, -9615, -15868, 6292, 11119,
  2311, -9725, 5430, 11398, -11285, -6565, 10344, 220, 2381, 2516,
  17626, -13164, -11567, -13720, 17930, 10702, -9337, -3311, 16594, -3760,
  5675, 1141, 7543, 9508, -14182, 11335, 4488, -17547, 18629, 3092,
  -11485, -8699, 6317, 4797, 11068, 5740, -8246, 1010, 21041, -2904,
  6590, 14171, -10608, 7950, 5188, 14391, 1798, -14840, -9990, -1277,
  11501, 7819, 14359, -19585, -10137, 12266, 7616, 7286, -470, -16145,
  -19313, -10972, -2470, 6504, 11533, -10574, 8679, 9973, -15344, 17130,
  -3018, -12793, -6412, 8396, 699, 1337, -8504, 3244, 10990, -13280,
  -4311, 7410, 4907, -4790, 5184, 9837, 458, -20995, -18264, -9647,
  8768, 9234, 429, -7480, 3560, 15169, 12185, -11961, -4584, -15593,
  -8737, -7895, -20191, 6004, -12952, -8651, 13087, -2979, 11935, 4343,
  16787, -10313, -10715, 13669, 10286, -1939, -3238, -5881, -378, 6728,
  -1830, -12915, -663, 15339, -7358, -17562, 14593, 9584, 10748, 9286,
  -17704, -2174, 17783, 8325, -3032, -15326, 8068, 11176, -22348, 3259,
  3612, -5345, -15318, -19805, 17169, -5689, -3123, 10829, -12974, -7485,
  -10739, 3929, 8270, -2171, -17836, 156, -1718, -10994, 3913, -3546,
  7991, 1950, -16348, -12431, -3774, 7774, -8145, 12386, -2145, -5842,
  22581, -714, -18390, -12395, -4581, 14767, 4319, -9979, -55, 2416,
  -21264, 4057, 864, -19935, -4089, 1738, -12576, 7589, 10743, 1672,
  7187, -14887, -18510, 19224, -4586, 2716, 8225, -23537, 18890, 11144,
  10839, -24014, -9, 16090, 23471, -6724, -19397, -130, 901, -12515,
  2341, 1001, -8532, 3090, -1213, 4394, 1210, 23085, 6803, 1788,
  4415, -7463, 13579, -6663, 7585, -7262, 18226, 157, 12139, -459,
  3910, 2098, 6699, 23609, -19197, -1895, -8568, 3029, -5140, 10611,
  22257, 5214, -745, 1697, 16628, -10289, -2068, -13713, -7466, 1512,
  -10597, -766, -3057, 17946, -5846, 2176, 80, 10201, -8178, -10386,
  13608, 7224, -9180, -4174, -795, -170, -19834, 11641, 10494, 10299,
  -18671, -12961, 11342, 2058, -14800, 5536, -7177, -3209, -9247, -7151,
  14010, -10654, -8107, 14901, -16050, -5223, 10281, 7321, -4290, -3455,
  -13266, -7573, 6435, 378, -19532, 5332, -6215, -13582, 14040, -6506,
  -8685, -14956, -2199, 15933, 9640, -1579, -10423, -6731, -16885, 17919,
  9457, -14699, -8068, -5621, -2904, 15533, 18865, 9476, 3829, -9385,
  -13659, 13475, -8852, -8078, 15060, -19734, 6449, 13064, 8501, -12364,
  -1008, 1913, 12618, -4627, -13914, 11465, 4055, -8779, -4146, 4903,
  -6130, -8471, -472, 18851, 16056, 13448, -6119, -7388, 894, 4496,
  -297, -14726, -9334, 8876, 7691, 13258, 10238, 7283, 18325, -4806,
  12798, 12749, -15291, 1626, -11650, -2574, -15352, 11482, 13759, -10925,
  -9520, 1892, 6386, 3242, -224, -9065, 466, 11086, -2100, -13598,
  5655, 18980, -14116, -7751, 9966, 2947, -9013, 6838, 307, 7743,
