#define M_DIM 128
#define K_DIM 3
#define N_DIM 128


int8_t at[M_DIM*K_DIM] = {
  -81, 33, -107, -81, -111, -121, 21, -106, -105, 54,
  -106, -60, -71, 63, 125, 107, -115, 2, -33, 76,
  -46, -7, 73, -65, 20, -51, -127, 45, 12, 9,
  -82, 32, 99, 121, -34, -29, 40, 46, 68, -63,
  27, 126, -6, -6, 75, -109, 8, -10, 2, -52,
  -60, -19, 113, 107, -121, -53, 79, -15, -49, 82,
  -12, 114, -37, -63, -115, 74, 90, -120, -88, -44,
  -52, -14, 63, 50, -92, -49, -16, -14, 78, -5,
  106, 4, -101, 117, 16, 67, -71, -70, 34, -25,
  62, 56, -2, 21, 78, -22, 54, -58, -18, 12,
  112, 117, -53, -70, -28, 16, -91, -87, -12, -31,
  -114, -5, 4, 31, 55, -120, 98, -48, -108, -39,
  120, 40, -40, -22, 77, -49, 118, 67, -48, 122,
  31, 100, -83, 98, -100, 92, -110, -91, -10, 104,
  78, 12, -126, -57, -89, -43, -40, 119, -106, -71,
  -92, 25, 92, -34, 2, 87, -57, -90, -112, -84,
  48, -81, -100, 56, 15, 124, -118, -81, -107, -123,
  114, 38, 120, -128, 37, -107, 17, 8, 41, -36,
  79, -47, -46, -8, -76, 57, -51, 8, 61, 69,
  117, 96, 29, -65, -77, -93, 86, -13, 61, -51,
  -36, -28, -16, 73, 59, -122, 10, -12, 31, 76,
  -99, -20, 71, -11, -27, 93, 87, -32, -22, 108,
  8, 44, -60, 102, 90, 106, -88, -61, -92, -125,
  43, -30, 90, -96, 34, -52, -86, 64, -39, -16,
  -125, 118, -117, 49, 102, 27, -41, 115, -61, -89,
  -79, -81, -128, -41, -49, 15, 48, 100, -127, 108,
  121, 88, -3, -98, -94, -57, -6, 48, -18, -116,
  90, 46, -93, 39, -52, 24, -7, 85, -88, -34,
  -2, 124, -62, -110, -98, -123, 57, 71, 1, -80,
  89, 60, 110, -9, 38, 124, -79, 35, -89, -91,
  97, -101, 0, -103, -1, 111, 78, 99, 123, 25,
  111, 47, 4, 64, 100, -107, -55, -91, -51, 63,
  -127, 121, -68, 64, 63, -4, 67, -15, 93, -96,
  -71, -72, -4, 47, -32, -9, 57, 104, 117, -90,
  29, -102, -84, -122, 106, -88, -85, 93, -36, -123,
  -41, 121, -51, -51, -94, -23, 66, -47, -99, 75,
  -113, -4, 122, -81, -76, 119, -34, 71, 24, -54,
  7, -109, 90, -65, -21, 91, -10, 66, 119, 119,
  71, 88, 7, -12,
};
int8_t b[K_DIM*N_DIM] = {
  -88, -70, 37, -64, 20, -43, -96, -73, -78, -5,
  87, 3, -74, 70, 120, -107, -105, 54, 75, -125,
  63, -32, -58, 20, 72, -99, -12, -113, 29, 94,
  -8, -69, 88, 60, 124, 67, -119, 44, -38, -25,
  101, 48, -59, -82, -114, -99, -92, 88, 26, -73,
  27, 16, 107, 19, 105, -72, 112, 100, 114, -128,
  96, -101, 24, -30, 13, 76, -58, -46, 103, -13,
  121, -12, -12, 25, 16, 86, 26, -29, 87, -116,
  -87, 46, 9, -55, 85, 99, -85, -93, -105, 48,
  -50, 45, 69, -74, -111, 41, -61, -60, -7, -105,
  87, 50, -125, 89, 103, 30, 91, -75, -26, 2,
  48, 10, 14, -24, -97, -12, -59, -53, 4, -25,
  67, 13, 2, -117, 8, -54, 7, 45, 55, -79,
  11, -95, 31, 7, -100, 28, -106, 120, 110, -119,
  -25, 94, 15, 94, 121, 19, -111, -55, -105, -72,
  -124, -111, -26, -27, 32, 41, 107, 2, 33, 100,
  -2, -3, -64, -1, -82, -97, 46, 105, -23, -105,
  1, -96, -57, 99, -15, -124, 92, -92, -126, -74,
  27, -12, 101, 104, -98, 3, 32, 84, 35, 49,
  58, -44, -11, -110, -80, -15, 110, 106, -35, -34,
  76, -83, -102, 42, -10, -42, 38, -33, 77, -91,
  54, -119, -38, -2, 123, -47, -8, -37, -81, 53,
  50, -51, -10, 110, -39, 52, 22, -64, 112, 40,
  118, -77, 31, -95, 56, 122, 33, -110, 94, -107,
  121, -98, 122, -101, 106, 39, 19, -84, -51, -42,
  -106, 6, 109, -30, 42, 29, 67, 76, 92, -16,
  -57, 42, -118, 111, 81, 34, 110, -87, 56, 54,
  52, 5, 89, 78, -121, 80, -76, 77, -75, 22,
  98, 47, -109, 126, 73, 45, 64, -3, -11, 25,
  25, 75, 24, -103, -21, 30, 80, -89, -9, 72,
  -16, 109, -126, -49, 5, 46, -62, 28, -89, 28,
  -1, 123, -56, 110, -110, -32, 89, -69, -81, -84,
  12, 1, 84, 124, -75, 7, 116, 35, 65, -119,
  2, -83, 54, 25, -11, 107, 0, 13, 51, 51,
  57, -50, 110, -59, -87, -107, -82, 10, -52, 94,
  -5, -28, 68, 33, -21, -80, 10, 39, 89, 69,
  -62, 107, -31, 43, 25, 111, 11, 115, -48, -13,
  -51, 12, 31, 119, 91, 43, -64, -19, -62, 85,
  67, 98, 125, -93,
};
int32_t c_bias[N_DIM] = {
  -80, -30, 9, -16, -71, -22, 59, 16, 49, 86,
  53, 64, 27, 44, -96, 57, -58, -11, -59, 46,
  42, 58, 50, -76, -36, 62, -97, 116, -25, 112,
  74, 54, -29, 95, -108, -26, 86, 108, -109, -14,
  94, 94, -120, -33, 116, -128, 71, 100, -23, 108,
  -80, 94, -44, -78, -7, -91, 37, -84, 26, 65,
  53, 68, -112, -121, -70, 21, 30, -88, -57, 10,
  -11, -46, -109, 15, -34, -1, -26, 2, -42, -91,
  106, 90, -73, -4, 12, 76, -102, 1, 58, 98,
  2, -64, -7, 33, -74, -65, 43, -55, 68, -127,
  61, 109, -70, 93, -125, 124, -84, 42, -79, -73,
  50, 103, -66, -104, 25, -115, 80, 24, -37, 120,
  -94, 95, -104, -86, 13, 67, 25, 59,
};
int32_t verify_data[M_DIM*N_DIM] = {
  7624, 13080, 900, 8960, -5915, 5141, 6971, 9913, 15343, -3637,
  -6994, 1357, 9909, -7546, -8040, 4452, 6911, -1553, -6614, 16651,
  -3669, 9802, 7100, 4688, 84, 11633, -5893, 13349, -4006, -5438,
  2210, 699, -7589, -3421, -5880, -1805, 14813, -3744, -247, -1589,
  -3143, -3026, 4179, 14673, 11318, 8371, 2195, -3428, -6305, 12645,
  805, 3694, -14279, 303, -13408, 6653, -7019, -3048, -16024, 4865,
  -5131, 2585, -8728, 389, -19, -807, 12600, 10310, -17280, -3689,
  -2564, 4238, 335, -3738, 3662, -12967, 940, 5567, -9441, 16025,
  3457, 1356, -946, 12611, -2313, -10247, 6159, 6958, 4771, -7150,
  4004, -5773, -10492, 12987, 9157, -10010, 10120, 3893, -1429, 7610,
  -11882, -3989, 8663, -108, -12932, 7390, -11631, 2325, 1643, 10373,
  -7822, 9949, -9312, 5920, -422, 6281, 1259, 8157, 3095, 8241,
  -6145, 146, 1846, 13183, -2651, 10585, 3442, -9442, 10426, -4378,
  11772, -15318, -1329, 3613, -27109, 12123, -7357, 17961, 27344, -23055,
  135, 19222, 10894, 8494, 20139, 11889, -23226, -2789, -18289, -2082,
  -24492, -10758, 8968, -1799, -7489, 13989, 21286, 7958, 10236, 9677,
  1531, 4209, -1324, 9563, -11445, -20574, 2149, 14971, 8621, -20032,
  -2845, -7251, -12200, 19583, -17395, -17024, 12559, -8925, -20761, -5606,
  -2119, 1885, 15680, 22521, -13823, 14582, -3308, 2889, 16391, -4187,
  -344, -14879, 217, -10791, -3244, 8964, 9262, 13213, 11312, -1090,
  15267, -21186, -11750, -339, 5012, -3579, 6365, 2755, 6629, -8194,
  11912, -11237, 3881, -1901, 23099, -14702, -13083, -13532, -19730, 8887,
  3170, 769, -5457, 11908, 72, 7609, 421, -19400, 17596, 10539,
  19101, 536, 856, 224, 6651, 16751, 5589, -2327, 14202, -1121,
  10358, -14152, 6608, -11633, 14165, 14933, 11513, -6653, -10505, -6500,
  -19170, 5285, 20275, 4425, 17880, -4218, 2532, -4641, -15293, 5919,
  5989, -538, 22217, -5402, -5178, 23, -19816, 7103, 58, -11390,
  -19075, 13785, 3625, -15106, 3842, 1556, -302, -8529, 11937, -8451,
  -20992, 3849, 16022, -2524, -9082, -15599, -6175, 10918, -8110, -9593,
  -18535, -16751, 7229, 5474, 8050, 2106, -21586, 3006, 7367, -3379,
  12579, -309, 25452, -6937, -588, -775, 999, -7468, 647, -6039,
  -7984, -4784, -7873, -24661, 2790, 20429, -20437, 21157, 9405, 12393,
  -3326, -11648, -6912, -11379, 1857, 3798, -28775, -4261, -4724, 9880,
  -5162, 2640, -9976, -1372, -6776, -2291, 11802, -9304, -5839, -4285,
  -17500, -4229, -1164, 15988, 22094, 7404, 13255, -4506, 764, -5568,
  12128, 2514, -3275, 3786, 4166, 19284, -7046, -8954, 5660, -20580,
  -2311, -19620, -4148, 6388, 551, -17794, -3569, -18889, 8283, 1077,
  20663, -3486, 5742, -8209, -11433, -5270, -716, -185, 4270, 1824,
  -5973, -7531, -15297, 7954, 19784, 5948, 8048, -6060, -4747, 8697,
  -14909, 20717, 4515, 16163, 15886, -21475, 9569, 9606, -2700, 18664,
  30159, 5939, -30302, 13311, -23769, 3766, -15752, -10420, 2116, 10457,
  -7697, 26977, 16210, -2442, 10934, 15319, -8545, -2365, -13852, 2547,
  4117, -24280, 5301, 15751, -1747, -23906, 3787, 4785, 1922, 29563,
  -7585, -24720, 7611, 1789, -21563, -5578, -15623, 207, 1480, 29425,
  -24883, 3996, -17888, 15377, 5389, 5697, -5004, -11163, -927, -17027,
  5800, 15530, -5500, 12419, -784, 1306, 15483, -23162, -11314, -11731,
  2700, 851, -4477, 17561, 14853, -11332, 10106, -1941, -4517, -13543,
  30963, -3538, -1633, -19046, -12904, 2671, -6212, 11079, 7377, 4590,
  8428, 13569, 567, -6662, 5294, 4271, 31467, -7364, -12064, -250,
  -5203, 22961, 8027, 753, 6750, 1013, 5716, -9364, 14574, -7947,
  18807, 21069, 11367, -1611, -17533, -7210, -17562, 19171, 17501, 12025,
  17158, -10730, 13230, 23493, 6121, 13037, -11761, 9252, 4737, 19226,
  27306, -5205, -5424, -919, 17092, -8994, -8369, 4737, 12323, 1856,
  -13812, 28166, -7432, 18903, 7705, 9579, 5988, 18979, -14610, 24502,
  -3292, -5043, 5967, -950, -10962, -3291, -5535, 1695, 23005, -9188,
  -2250, -2324, 472, -7288, 5257, 25749, 15565, 15833, -3718, -5305,
  -9940, 21413, -121, 7848, -24931, 2197, -20166, 14152, -11037, 1877,
  -28594, 3429, -2739, -1137, -17391, -3303, 852, 836, 23272, 21267,
  -29695, -6498, 3499, 8343, 2780, -10270, 6898, -23076, 4452, 9732,
  -14184, 28471, 3372, 4110, 617, 22149, 628, -16797, 12434, 7086,
  1850, -15106, 2353, -8248, -18108, 23854, 12472, -17134, 18279, 6282,
  -3522, 7160, -17682, -4042, 14780, 4954, -21633, 17626, -18584, 3444,
  3093, 22266, -11749, 21789, -17471, 9121, -5505, 11052, 1582, 17069,
  8953, 15070, -11042, -161, 970, 22688, -1815, 20409, 10887, -18596,
  21854, 7386, 4706, -2990, -4469, 9563, -8509, 21361, 6227, 15443,
  9986, -19617, 11459, 5538, -8570, 22656, 32337, 2181, -30660, 16821,
  -24559, 3650, -11684, -11438, -2672, 13531, -5101, 28895, 13376, -7106,
  9908, 17939, -11841, -5259, -19184, -1631, 8561, -23786, 7149, 15941,
  -7341, -23836, 6325, 6817, 6916, 31145, -1355, -27012, 6287, 3973,
  -21151, -6630, -18177, -1089, -2902, 29637, -28047, -2210, -20312, 20969,
  -301, 11019, -4460, -8195, -1665, -19867, 6600, 14920, -8340, 12587,
  -7874, 1154, 14511, -21616, -11790, -13595, 600, 1595, -7813, 20127,
  18179, -13250, 8618, -523, -8981, -16499, 31917, 1456, 4323, -18752,
  -9102, 565, -8032, 12261, 11937, 3290, 9586, 15205, 1223, -734,
  1390, 1411, 34451, -12150, -15006, -3400, -8335, 24857, 8501, -1327,
  4422, -1473, 5874, -7948, 19230, -7505, 20335, 20731, 9349, -1303,
  -18831, -7266, -16190, 22139, 15623, 12285, 14294, -10728, -7629, 6172,
  -590, 8188, -2580, -1751, 8397, -4650, 8768, -12121, -9450, 12288,
  805, -8048, 768, -11605, -14630, -1011, 12979, 2681, 12093, 6355,
  11457, 11378, 3782, 542, -3222, -6735, -10335, 1751, -3586, -11386,
  2052, 1580, 8821, 1256, 5715, 11041, -5444, -11129, 4275, 11869,
  -1432, 7629, 3470, -12434, 17, 14495, -8692, 7637, 13273, 7746,
  -230, 1437, -7899, -12372, 12357, 1386, -450, -10927, -1698, -6746,
  -5165, 3901, 1267, 12614, 6560, 74, -8669, -10884, 5682, 2997,
  -8156, 9197, 10496, -2146, 1358, 3518, -1982, 452, -9421, 10117,
  -5437, 10588, 5426, 2505, -14517, 2925, -1086, 5127, 7298, -4449,
  -3402, 3297, -1390, -10120, 2458, -6614, -2216, 4308, -9342, -2958,
  -14762, 9455, -876, 9933, -3680, -13862, -4000, 10636, -8375, 10668,
  -11728, 9231, -14059, 9697, -11852, -5346, -2126, 7866, 6605, 4625,
  10724, -3398, -10920, 1639, -4403, -1617, 7742, -7326, -11917, -404,
  6247, 1064, 12599, -548, -9373, 8324, -9829, -2676, 83, -4020,
  -16532, 19557, 13482, -11631, -6363, 396, -8848, -10720, 2140, -14564,
  -19664, 3466, 14801, 3518, -409, -14078, -2314, 16862, -8463, -8991,
  -21590, -14570, 2804, -3386, 10209, 9356, -20568, -5932, 7108, -7229,
  8524, 8792, 20791, -15834, 5195, -5126, -8458, -11154, -180, -5940,
  -1747, 5055, -15363, -21188, 1666, 24497, -15625, 22044, 10618, 7243,
  -3636, -18253, -9414, -8744, 6495, 10454, -27425, -5332, 1785, 1391,
  -11310, 2881, -8994, -3238, -4690, -1317, 16412, -14432, -1057, -10120,
  -18080, -5702, 9444, 11317, 18978, 2092, 5886, -938, 2375, -6027,
  11262, 8453, -3743, 7855, 4892, 12955, 163, -5333, 15314, -23187,
  -2115, -22282, -1540, 15002, 3263, -21283, 2532, -22071, 14286, -5302,
  26529, -9311, 13048, -2432, -7631, -9172, -5616, -3285, -3992, 4538,
  2627, -6573, -9103, 7071, -3188, 8866, -13734, 18658, -223, -225,
  32231, -5833, 12285, -15785, -31522, 21017, 5283, -22722, -19234, 482,
  -10709, -15103, 15650, 11701, 12121, 4100, 26830, 7966, -13948, 9009,
  7889, -4373, -21702, -14208, -8732, -3419, -8015, -8225, -8438, -14001,
  19345, 15840, 795, -11759, -15501, 14970, 6811, 12369, 19860, -10869,
  23225, 9106, -13343, 13569, 16773, 3922, -5883, -3385, -22048, -15533,
  4321, -21254, -5124, 7273, -22243, 11769, -1398, 15765, -1353, 4047,
  7024, -5264, -15922, -10943, -19770, 1664, -13319, 17706, 9318, -5849,
  -6732, 5317, -12323, 5661, 771, 4048, -11752, 14067, -10091, -5399,
  -15047, 20482, 20141, 9186, 21870, -11559, -7864, 4577, 13151, -13838,
  4346, -2577, 357, 25458, -22334, -13207, -8291, -7268, -8522, -2634,
  -12885, -9545, -3329, 1383, -16364, 13, -10334, 14418, 1584, 11127,
  -8299, -9887, -11101, 7943, 4497, 5136, 17174, 3549, -19115, -175,
  -17080, 886, -13656, -953, -4238, 6085, 1437, -5375, 10701, -12801,
  866, -13042, -11529, 16014, -4886, -7808, 2055, -14560, -21812, -3270,
  20989, -6259, 17331, 493, 12477, 9851, 632, -5506, 2556, -16899,
  -12357, 2441, -7009, -12601, 5532, 2183, 10987, -592, -246, 17182,
  -5150, -12629, 3081, 17314, -2884, 171, 59, -20696, 3650, 18929,
  -7276, 1916, 16378, 6096, 8350, 444, -3471, -20454, 18195, -1227,
  9540, -12667, -3021, -5912, 523, 7051, 949, 14078, -610, -8275,
  -230, -10737, 3096, 405, -11378, 15701, 9998, 5552, -790, 833,
  1825, -9451, -11599, 10114, -7408, 4948, 4811, 8454, -22155, 2619,
  75, 12156, 9347, -3027, 2133, -4680, -4873, -6265, -3578, -9908,
  -1115, 4587, -6003, -3054, -22631, 7973, 6150, 4290, 1501, -17561,
  -5911, 3718, -6539, 3825, -7585, 8259, -13408, 7744, -14519, -13170,
  -6737, 3963, 11813, 5702, 13184, -11795, -13293, -5705, -10544, 5151,
  8296, 7724, -4575, 7814, -2159, 4214, 11943, 6808, 8891, -788,
  -10929, 1458, 7785, -8640, -13278, 10429, 9328, -6393, -6173, 13366,
  -5130, 3708, 7888, -1218, -7996, 10544, 1509, 10928, -4607, -10142,
  208, 6386, -9271, -6385, -12762, -7568, 13376, -2968, 3585, 1406,
  -10862, -3410, 6178, 9187, 12866, 8722, 10729, -7694, -3729, 8490,
  -1310, -1030, -11122, -2140, -12141, 5763, -10519, -11374, -11718, 12985,
  -11007, 10698, -2750, 4003, -1410, -6941, 6474, 4194, -11625, 286,
  -13183, 1356, 13, -1091, -722, -9039, -3006, 3346, -9578, 11893,
  8558, -3954, -1873, 6710, -8960, -10098, 7018, 10683, 11790, -3978,
  6604, -5424, -7509, 7823, 11822, -5343, 6491, 5587, 716, 12123,
  -10341, -5825, 11466, -8985, -10981, -2748, -10104, 6514, 2197, 149,
  -6044, -577, -2472, 3498, 9393, 2095, 5088, 4538, -1197, 3352,
  -6302, -749, 1116, 11746, -2327, 5503, -1887, -4443, 14136, -398,
  3349, -6824, -783, 5302, -10245, 12636, -2407, 14498, 11553, -16668,
  4555, 8212, -3240, 16493, 23098, 2469, -21911, 5666, -18306, -1814,
  -12966, -11764, -2356, 5450, -1281, 17208, 12867, -3160, 7058, 14450,
  -6045, -2617, -13004, -550, -150, -17564, 5947, 13846, -4518, -17978,
  3092, -1641, 260, 21340, -2017, -20428, 8225, -2872, -17780, -7218,
  -7928, -1122, 4149, 20949, -19563, -492, -8766, 14945, 2205, 7912,
  592, -6929, -1418, -15931, -778, 7064, 1603, 12150, -5343, -1182,
  11635, -15829, -11506, -4777, -34, -1426, -1838, 8573, 13334, -11510,
  7451, -6632, -6304, -8472, 23070, -2139, 1350, -11766, -9358, 3228,
  -1443, 3681, 5306, 7571, 2911, 10537, 1768, -4323, 6969, 3141,
  23974, -9943, -6057, -6420, -1208, 19294, 6113, -6305, 7474, -6105,
  9374, -9480, 16085, -9323, 16132, 12972, 6067, -5052, -12490, -5965,
  -14224, 11638, 14085, 4891, 9973, -4089, 9252, -2590, -3416, -2594,
  1953, 2821, 1199, 5385, -4139, 9189, 476, -7865, 2323, 1434,
  -8382, 14896, 15233, -3767, -11864, 3191, -11253, -4672, -4154, -10550,
  -8940, 4139, 5213, 9069, 4948, -7216, 2064, 12807, -6235, -4849,
  -14354, -6211, 1707, -8728, 6555, 9411, -10311, -9902, 4309, -2995,
  4052, 12661, 7701, -14938, 5217, -2713, -10709, -7318, -3933, -2867,
  434, 10919, -14551, -8930, -3592, 16281, -5635, 12303, 4166, 89,
  -2067, -13973, -3604, -224, 2560, 9075, -13420, -2476, 5501, -6092,
  -9162, -1337, -3624, -1665, -3057, 3645, 12289, -10508, 2582, -6299,
  -10013, -6209, 13547, 4000, 8455, -4270, -1290, 695, -70, -383,
  7117, 6108, 108, 7667, 2659, 3776, 2440, -1023, 16407, -13474,
  -3904, -11342, -1619, 14109, 3891, -10793, 3776, -11023, 9242, -5810,
  17346, -7357, 11979, 4687, -477, -5431, -7677, -3762, -7398, 7159,
  6741, -203, 554, 800, -12736, -14204, -8200, -3332, 8173, -7519,
  6499, -17123, -15533, -2733, -5906, 8917, -11431, -682, 1612, -6136,
  -15545, -5429, 17370, -17769, 11567, -11754, 3608, -2700, -7180, -11951,
  12175, -21127, -5382, 838, -7458, -2745, 6767, 939, 4036, -4517,
  -11179, 13664, 485, -3809, -3099, 12182, -2781, -14703, -5894, -17821,
  8711, 9840, 2139, -10931, 7301, -3034, 17345, -2273, 7936, -17647,
  12413, -6508, 20352, -3279, -3803, 2297, 11492, 7205, -775, 3373,
  -14328, -17550, 16452, -349, -6264, -5270, -7493, 14398, -482, 15549,
  -4772, -5229, 7171, -20207, -4451, 388, -4774, -10813, -1701, 12089,
  -16741, 422, 3439, 15090, 5392, 2247, 10972, -16145, -6607, 7086,
  -12156, -7039, 2327, 1770, 5726, -785, -16853, -3228, 13928, -11538,
  9917, -8207, -4221, -14143, 2926, -13891, 7836, -1284, 1294, -3475,
  -5961, -16651, -10113, -7451, 10939, 2614, 5942, -17245, -5947, -15063,
  -13530, 14030, -11980, 8014, 11528, 2514, -6607, -2499, -9961, -2647,
  10945, -12599, 6968, 7603, -1033, 1810, 17694, -24712, -20419, 11365,
  12412, -1449, 14307, 12060, 1674, 18390, 21060, -4681, -15439, -7835,
  -3312, 15660, 676, -21441, 10233, 10223, 25706, 15225, -2297, 8560,
  -12545, -13669, 22817, 11314, -8431, 8293, -8392, -15167, -20879, 22314,
  -7915, 6715, 13591, 13938, 1919, 6329, 302, -11125, 21345, 21938,
  344, -29399, 15653, -24941, -11710, -5887, 4021, 23471, 10420, 7212,
  -7792, -14341, 29964, 5888, -5335, 2888, 14998, -2013, 9344, 3919,
  5055, -803, -20471, 18476, -1162, 12705, 20555, 8203, -16325, -11012,
  -19889, 1130, -3422, -217, -2362, 5669, -13139, -11320, 3452, -11137,
  -5469, -12388, -2276, 4829, -22553, 27130, 3264, 25474, 1445, -20835,
  -5237, 24027, -4804, 25185, -17882, 8074, -32062, 12191, -17861, -805,
  6259, 11449, 8947, 5302, 7922, -7817, -6691, 5917, 6858, -6340,
  -9549, 479, 7573, -2185, -2320, -3090, -9941, -4285, 1471, -5725,
  8152, 3166, -3890, 4660, 14281, -16520, -14096, 8272, 8727, -6514,
  9272, 4280, -2538, 9403, 13658, -6830, -8219, -8516, 337, 12126,
  281, -13167, 8995, 7836, 17958, 10650, -6869, 5607, -7763, -7294,
  15892, 7121, -6904, -23, -9569, -11350, -14714, 14330, -2255, -343,
  7139, 7312, 5772, 3927, 5425, -8065, 15031, 15505, 5340, -19891,
  12424, -16706, -4576, -4687, 2500, 14469, 2248, 1549, 1244, -7101,
  20267, 2218, -2735, 1947, 7584, 2989, 5810, 443, 6595, -5700,
  -13592, 10797, 158, 3240, 13895, 8483, -11148, -9985, -14723, 2421,
  -4503, 2190, 2134, -654, -11611, -3236, -1133, -7921, -2901, -11394,
  3446, 4973, -16077, 17179, 6277, 13671, 5035, -12959, -3592, 11517,
  334, 12562, -7673, 2316, -19654, 4910, -10849, -2396, 3494, 4211,
  7038, 3006, 3300, -9037, -2262, 507, 4130, -1057, -1086, 7983,
  -13781, 17287, 171, 394, 30973, -4404, 10920, -13181, -29972, 18401,
  5554, -21394, -20067, 3531, -7029, -15166, 12448, 11876, 9210, 2985,
  24731, 5457, -15116, 9479, 8572, -2256, -19672, -15061, -7895, -632,
  -8948, -8863, -10997, -14617, 18837, 13260, 2120, -9274, -16914, 12196,
  7413, 11245, 19787, -7691, 23704, 5573, -11666, 12413, 13795, 2236,
  -6475, -3799, -20978, -12506, 1087, -22081, -5702, 10285, -22379, 13739,
  -501, 15057, -1702, 978, 6008, -4995, -14717, -8580, -21599, 1105,
  -11538, 15594, 7018, -5910, -7148, 4750, -12406, 6235, 3258, 1690,
  -10657, 12169, -11682, -6481, -11504, 20366, 20936, 7822, 20587, -10886,
  -7556, 4340, 14046, -11966, 4205, -852, 868, 25084, -20842, -12828,
  -4474, -9706, -8963, -4822, -12650, -6190, -2351, -836, -14859, -2219,
  -7981, 12587, 5065, 9138, -5452, -8419, -10651, 6472, 2692, 4105,
  14866, 4930, -16839, -167, -16143, 952, -8, 6191, 3198, 3317,
  -3587, 1229, -435, 2995, 7610, -3758, -213, 1794, 3138, -1752,
  1527, -4004, -2000, 2322, 145, 5281, 1719, 6093, 2341, 5595,
  5048, 2858, -5748, 3041, -1721, 1969, 1135, -4501, -196, 1319,
  3867, 3076, 4310, 350, -2982, -3409, 4405, 1234, -632, 6739,
  1715, -332, -4382, 3697, -3732, 5712, 2974, 4400, -4462, 1568,
  -4179, 90, 2291, 4277, -5412, -5051, 2211, -4932, -5717, -1565,
  897, 4942, 6630, 5301, -7506, -4301, 6260, 2757, -866, -1007,
  4462, -4872, 2562, 2725, -1931, 5269, -3379, 4602, -388, 6992,
  4039, -1590, -1271, -465, -3201, -2388, 187, -1863, -4047, 5744,
  -61, -5805, 4250, -1124, -1711, -705, -4191, 10, -1923, 6273,
  -3670, 8442, -3519, -3677, -575, 8990, -3467, 9209, -7113, 3555,
  -7404, 4672, -3387, 2882, 2703, 5359, -263, 1186, 2040, 2737,
  -2045, 5071, 3108, -4725, -2860, 1488, -6436, 6728, 993, -1067,
  13363, -4467, 2651, -6317, -12938, 9249, 557, -8834, -7360, -432,
  -6061, -6609, 8198, 2211, 6115, -10, 10824, 2560, -6468, 1965,
  4687, -4347, -9058, -5410, -4310, -1513, -2281, -3065, -2940, -6097,
  6045, 7892, 397, -4949, -6479, 7338, 2255, 2769, 6990, -6489,
  10259, 4704, -4821, 3805, 7293, 1070, -27, -1681, -7460, -8271,
  3173, -9224, 704, 2593, -9143, 5029, 988, 6997, -683, 1861,
  776, -4418, -3956, -4165, -8636, -110, -6133, 8698, 3414, -203,
  -3292, 1339, -3861, -507, -103, 1536, -5182, 3919, -4237, -511,
  -7937, 8018, 8367, 5558, 9156, -4189, -1580, -373, 4249, -4362,
  80, -1871, 511, 10058, -7810, -5169, -5293, -3352, -1540, -2630,
  -3715, -4599, -1841, -1511, -5866, -1927, -2872, 5284, 998, 3697,
  -3825, -5975, -5661, 2069, 3063, 2334, 7294, -885, -8095, -2047,
  -8386, 2250, 1385, -12927, 6338, -16569, 3770, -1449, -21969, 464,
  -16549, 14802, 22395, -15957, -7228, 17846, 12057, 3231, 8497, 8226,
  -10472, -14079, -9489, -9094, -20914, -11237, 4694, -9547, 183, -569,
  16664, 8574, 4929, 6638, 6157, 4898, 2300, 6747, -18140, -10563,
  1973, 11301, 6953, -10889, -4701, -15961, -15715, 6745, -11730, -9144,
  13021, -15284, -14510, -6824, 9165, 610, 19968, 9765, -4457, 10513,
  9858, -435, 13650, -3433, 6670, -9653, -103, -7269, -11882, -2393,
  19061, 11804, 7804, -4164, 9583, -10818, -10908, 9541, 2056, -6600,
  10828, -10266, 2657, -6931, 8261, -17121, 3318, 6162, 10715, -14076,
  -10962, -3225, -15405, 9903, 9939, -9404, -9820, 15469, -7602, 2365,
  1650, -17643, 20241, 9605, 6608, -650, 9904, -6333, 12752, 9892,
  2472, -10347, 15148, -9110, 14245, -13902, 5947, -12758, 8954, 3493,
  4712, -10744, -2607, -4371, -14054, -6224, 15200, -5255, 8555, 4698,
  -2331, 11032, -3503, 13110, -3878, 920, 15901, -371, 14306, -12642,
  -16379, 13149, 5689, -13518, -7570, -5020, -8677, -5055, 9104, 11066,
  8806, 8623, 16387, 10616, -1278, 7149, -2174, 86, -13212, -4739,
  -3504, -7351, -3788, -2522, 797, -3527, 14084, 9087, -3090, -10204,
  -2674, 9639, 2551, 13411, 11514, -6831, 6775, 9539, -11006, 12896,
  12468, 7006, -7205, 124, -15536, -8664, 5665, -5772, -7840, -2727,
  -8696, 3, -6797, 6511, 414, 8178, 10590, 2750, -15930, -10677,
  -2679, 3865, -8068, 8496, 10028, -7828, -540, 5613, -7995, 7994,
  -4054, 7529, -6568, 14783, -269, -3916, -10000, 9674, 6345, 2561,
  11462, -7822, -8117, 8185, 6127, -13415, 6507, -3038, -1795, 12047,
  -15883, -6704, -7451, 3678, -7715, 8065, -9989, -9741, -2556, 10718,
  -12199, 10180, -13200, 11479, -8088, 11059, -8659, -2505, -2872, 9873,
  2678, 4082, 11474, 4065, -12378, 5045, -5624, -4434, 2326, 12529,
  6789, 5817, -7257, 3352, -2199, 7974, 15006, -5509, 984, 1097,
  7080, -2530, 2419, -5443, -349, 4892, -2988, 11626, 596, 11939,
  2885, 9535, 9636, 6667, -11550, 8706, -1620, 3137, 3227, -6818,
  -1438, 2013, 5693, 5951, 8781, -2068, -4894, -4744, 7820, -352,
  -543, 13477, 3601, 2801, -8930, 4123, -6312, 11061, 3407, 7616,
  -10275, 3021, -7998, 3484, 1451, 8353, -12394, -7723, 4461, -8569,
  -11283, -3927, 1640, 7384, 13256, 11839, -14963, -6830, 11487, 5427,
  104, -4382, 7266, -10640, 5092, 5312, -4284, 12159, -4752, 7334,
  365, 13165, 6960, -4725, 1110, -1026, -6034, -6706, -867, -3292,
  -8460, 12162, 988, -10542, 9019, -522, -3230, -1648, -7650, 234,
  -8, 10802, -8317, 15754, -7332, -4440, -115, 17158, -6025, 17405,
  -12835, 5917, -12293, 8160, -4398, 7741, 6321, 9914, -2382, 1371,
  2138, 7532, -2087, 10905, 7619, -10220, -17460, -4560, -6398, 5460,
  3553, -7501, 12635, -17657, -3021, -14311, -13396, 18887, -8003, -8246,
  2708, -16842, -26687, -4681, 26276, -11059, 20989, -2430, 13824, 9660,
  -1012, -8817, 5675, -22993, -14176, 2830, -9178, -13919, 7547, 2551,
  12632, -1643, -3169, 21308, -5267, -14139, 2543, 21090, -3727, -3523,
  -1554, -26055, 5823, 22244, -7029, -805, 18939, 5606, 13115, -51,
  -1546, -25739, 22157, -2740, 15084, -14191, -3991, -5741, 3432, 9129,
  835, 15601, -4236, -12978, 3942, -11307, 1834, -874, -13697, 19948,
  10342, 9717, -1960, -451, 3781, -14939, -13329, 10676, -8872, 2441,
  4697, 11887, -27303, 2728, 785, 16422, 11020, -2535, 5006, -8949,
  -6817, -4728, -6806, -12123, -619, 5136, -4772, -3353, -27883, 7602,
  9998, 1638, 4135, -20441, -7213, 425, -6062, 557, -5952, 8304,
  -13792, 7245, -16707, -17905, -9501, 2239, 15121, 6580, 15250, -16659,
  -15327, -9739, -14328, 8860, 4737, -39, -5249, 2313, 1342, 1520,
  7811, 1687, -285, 2255, -6592, -148, 2308, -3992, -9289, 9192,
  6766, -5698, -3595, 4076, -4094, -2280, 3270, -4899, -8698, 4224,
  5189, 4202, -1717, -7478, -757, 7141, -5425, -4730, -10618, -6956,
  4955, -1675, 4225, 3216, -9766, -2625, 4046, 449, 6645, 5076,
  9960, -7054, 417, 989, -2877, -3748, -3298, -2565, -4273, 3007,
  -7789, -10249, -2844, 11573, -8338, 10204, 2532, 3585, -1598, -7703,
  -1056, -1689, -1452, 3267, -12695, -1306, 361, 361, -3692, -1719,
  -3802, -13, -4373, 2986, 7686, -5617, -1042, -1138, -8401, -4709,
  4758, 6877, 9641, -309, 4015, -2004, -1474, 372, 7061, 972,
  721, 4023, 1787, 7818, -3134, -3467, 7979, -9963, -3937, -7839,
  -3545, 6505, 1586, -6727, -1094, -7132, 3681, -552, 11114, -2268,
  5511, 398, -2916, -1817, -3548, -1154, -776, 4779, -60, -505,
  -3630, 1021, 3086, -8850, 1577, -10004, 3295, -322, -10825, 910,
  -11425, 10958, 11693, -10650, -3865, 9984, 3580, 6555, 8796, 2661,
  -8529, -7674, -8206, -7360, -12368, -9932, -1184, -4496, 2825, 1376,
  10253, 2086, 2822, 7880, 1569, 969, -3566, 1072, -9886, -7730,
  3405, 9086, -162, -8428, -1190, -10649, -7376, 6782, -2897, -9450,
  8951, -9908, -11008, -6450, 4758, -858, 11387, 7791, -6627, 1972,
  5470, 5297, 5015, 2694, 5866, -4601, -846, -8581, -8658, -2636,
  12273, 9488, -1043, -3484, 6513, -6883, -9102, 5749, -534, -4492,
  5216, -5661, 5450, -7388, 4973, -12154, -1898, 1972, 9294, -6065,
  -2604, -2132, -8286, 5692, 6077, -6327, -3204, 10931, -4901, 3463,
  1994, -7955, 12085, 4711, 8108, -5349, 4911, -8230, 6950, 9680,
  2387, -10375, 9636, -9771, 11442, -9574, 9411, -9671, 8590, 2314,
  1609, -8194, -3318, -3471, -9692, -2044, 10067, -3969, 3779, 3813,
  10846, 15650, 9156, 4494, -9213, 7141, -6277, 16551, 17675, 477,
  5516, -6831, 11595, -26, -278, 2938, 12219, 6261, -15114, 18211,
  -9025, 13686, -2076, 5406, 9328, 11857, -14089, 20109, 3910, 830,
  7296, -199, -5813, 237, -1156, 5891, 11919, -11610, -2339, 1411,
  5645, -9820, 1739, 16341, 5884, 15071, -10351, -6248, -3857, 12663,
  -4861, 5266, -17455, 2833, -8920, 15297, -9287, 8354, -20516, -231,
  5003, -5003, -13352, -7511, 1129, 9, 16124, 18144, -18350, -2063,
  9392, 6062, 5979, -13194, 2866, -16107, 5684, 6009, -7135, 20215,
  1925, 2450, 3956, 13171, 4037, -11105, 13691, -974, -5103, -14360,
  -4862, -2921, -11674, 17197, 5307, -9368, 12912, 5329, -2927, -2516,
  -6944, 1035, 13329, 6728, -14120, 15092, -10473, 5051, 3225, 17329,
  -4230, 17491, -10846, 2840, -5500, 5419, 3329, 16157, 10397, 9583,
  -9713, -1496, -4290, 16217, 4207, 15993, 13740, -14754, 7052, 3990,
  -10372, 8914, 985, 2849, 19367, 2461, 4721, -1147, -17596, 4839,
  5903, -12006, -18530, 13524, 8001, -11667, -2304, 10851, -3457, -796,
  11818, -4202, -15308, 9667, 8249, 6737, -8020, -14612, -2812, 9203,
  -10527, -9081, -17534, -13187, 13547, 712, 6111, 1511, -17739, -694,
  7933, 5725, 15472, 5885, 19537, -8286, -3451, 6343, 83, -3822,
  -8061, -4251, -13078, 1635, -10911, -19598, -7568, 18473, -17587, 17271,
  1978, 8809, -2487, -9913, 2028, -1964, -8268, 1439, -22640, -760,
  -2463, 4052, -2394, -5693, -6696, 2051, -10333, 7941, 11309, -6740,
  -4270, 3581, -14393, -9401, 4119, 15376, 18771, 562, 11274, -6293,
  -5446, 3501, 14313, -3316, 3496, 5623, 2303, 18040, -11384, -8579,
  10523, -15642, -9300, -10510, -9607, 7145, 1739, -7429, -6540, -8511,
  1374, 3554, 15750, 463, 5863, -545, -6149, 461, -4737, -462,
  3274, 9515, -4939, 789, -8530, 168, -6625, -18413, -7489, -9401,
  9796, -5968, 19, -13043, -21593, 6561, 1438, -584, -11638, 5432,
  889, 2870, -4046, -4508, 6969, -19164, 2102, -16116, -5098, -11253,
  -9838, -11912, 14137, -15262, 2559, -434, -4455, 5979, 4967, -216,
  -2846, -5348, -15043, 4979, 4493, 4696, -6162, 2909, -1698, -19995,
  -8213, -7960, 8486, -1338, 8601, -16241, -3007, -8704, 16910, -3347,
  13615, -7813, 2711, -7423, 20040, 5133, -2372, 7376, 14924, 3941,
  -1762, -6239, -18780, -17103, 22398, 7877, -10371, -7394, -1187, 7009,
  -8408, 16653, -5666, -7707, 8389, -19952, 2890, -7187, -580, -18442,
  -5739, 9857, -5326, -1783, 4207, 10809, -275, 5472, 13168, -18074,
  -5389, 14430, -13575, -1861, 3977, -1620, 12620, 1549, -5219, -10191,
  14027, -18561, 12293, 2551, -1128, -21763, 9178, -21406, 16371, -8280,
  11884, -10762, 3237, -12058, -8214, -13043, 5524, -884, -2416, -14179,
  2486, -15753, -9756, 14837, -10837, -3815, -9190, 6199, 3988, -5053,
  16171, -13334, -2783, -10146, -15953, 15409, -4924, -9766, -4607, -7075,
  -16937, -8090, 19026, -6159, 14231, -3768, 13772, 4335, -7294, -4193,
  8617, -15925, -12930, -3284, -8175, -6180, 2219, -1464, 2578, -6515,
  980, 16259, -1129, -9239, -5223, 15377, -3, -2601, 3565, -17641,
  12170, 13026, -5445, -32, 13502, 1760, 8423, -1910, -4406, -18937,
  12455, -9835, 10350, -3123, -9512, 2825, 4808, 10259, -463, 7105,
  -4338, -11937, 2259, -6874, -7932, -1682, -10955, 16708, 5776, 6771,
  -4436, -402, -86, -10088, -5327, 4555, -8041, 1121, -2388, 6278,
  -18913, 7346, 7780, 13269, 12055, -3525, 3067, -7160, -346, -3099,
  -5130, -6973, 788, 10101, -6259, -5393, -17018, -1212, 5420, -4587,
  854, -12026, -4722, -4657, -5810, -4948, -2091, 6468, -3095, 4322,
  -9708, -14497, -9990, 394, 9889, 4507, 12038, -10162, -12670, -8475,
  -14535, 8060, -14063, -2898, -11964, 9926, 4330, -6205, 22709, -16814,
  -1076, -14941, -22594, 21502, -5277, -14428, -6762, -9981, -22840, -10829,
  25489, -5969, 19407, -3221, 19913, 7388, -9102, -4180, 10322, -20089,
  -18373, -4757, -10840, -9198, 2296, -2170, 3693, -8558, 3443, 21903,
  -2008, -13379, -6767, 20923, 366, -987, 6188, -23336, 16091, 18079,
  -8684, 2073, 19129, 3454, 9436, -2271, -8029, -25228, 16753, -12984,
  11702, -4711, -13180, 3236, 4847, 13901, -439, 10482, -3624, -14404,
  195, -10508, -10040, -1399, -15052, 22347, 9044, 7202, -5534, 446,
  -1326, -11326, -7607, 7095, -11125, 3938, -2814, 7297, -25467, 10651,
  10534, 17021, 16928, -5659, 2510, -7605, 442, -6152, -5360, -9334,
  608, 14528, -10466, -7838, -22762, -663, 5638, -4217, -492, -16902,
  -6358, -3808, -9331, -4322, -4926, 10099, -5555, 7391, -13804, -18600,
  -12904, 2166, 12971, 6329, 17080, -12134, -17966, -9773, -19067, 9293,
  4795, 18890, 987, 14960, -8432, 5114, 12405, 9193, 22934, -11006,
  -13131, 8187, 12087, -13146, -8652, -1412, 73, -2121, -674, 21016,
  2304, 15135, 14419, 11970, 2558, 13883, -8910, 11972, -10226, -5255,
  682, -5659, -7648, -3064, -1683, -1133, 20396, 1493, -3342, -8014,
  -1052, 2845, 4093, 21547, 14936, 3115, 2113, 3979, -12174, 19020,
  8284, 8666, -16915, 1304, -19986, 1176, -1363, -2350, -19176, -671,
  -6666, -1071, -13193, 2479, 780, 6166, 18534, 12432, -25098, -10397,
  599, 6741, -3932, 478, 10192, -16488, 2040, 8509, -12059, 19216,
  -1384, 7251, -3952, 20741, 547, -10668, -638, 9528, 4605, -5793,
  8500, -9120, -14229, 17171, 9863, -17343, 13289, 922, -3019, 11091,
  -19047, -6248, 2037, 5352, -15577, 14403, -15585, -5021, -218, 18410,
  -13787, 17822, -17502, 12099, -8592, 12865, -5187, 6785, 2694, 14029,
  -3524, 2650, 8070, 13681, -9032, 13441, 1872, -12180, -2759, 9762,
  6801, 4780, -6082, 996, -2991, 3209, 12208, -7740, 1407, 3979,
  3735, -1778, 6176, -10908, -7263, 5659, 3074, 6346, 5482, 10549,
  3285, 11450, 11410, 2499, -10908, 2002, -2902, 6147, 1590, -10767,
  2174, 4042, 11011, 7527, 4870, 2351, -6680, -7504, 10938, 4131,
  -2731, 10519, 120, -3873, -10559, 9853, -6564, 8766, 6966, 8810,
  -5207, 3526, -5202, -2398, 7877, 10674, -6824, -13359, 6504, -12179,
  -9967, -3349, 2122, 11764, 10858, 8504, -11326, -8813, 15037, 4911,
  -2262, -662, 9188, -6670, 5480, 4377, -1231, 6566, -9146, 10129,
  -700, 11853, 9971, -138, -5344, -3216, -8807, -2855, -616, -2366,
  -5691, 8623, -3141, -9981, 6195, -4000, -3495, -3791, -5853, 1118,
  -7663, 14308, -3835, 16661, -4077, -9553, -1908, 17112, -5529, 17576,
  -13190, 6437, -16948, 8837, -8511, 3501, 4956, 9429, 1790, 2690,
  4462, 1701, -4130, 7817, 5596, -7540, -6085, -10676, 4292, -10928,
  3340, -3901, -14363, -5756, -12680, 5385, 14056, -5438, -8443, 11540,
  12556, -6019, -4556, 6325, 1917, -14889, 1163, -6489, -11719, -3402,
  5942, -10988, 142, -8977, 8055, 9559, 930, -1980, 8576, 5916,
  9121, 6634, -15607, -295, -1684, 2581, 9069, -283, -5922, -12687,
  -13922, -5068, -9883, 2811, 6972, -11489, -3517, -1846, 11756, 1255,
  15235, -2104, 6365, 10070, 12738, -8607, 11326, -7648, 4967, -5287,
  701, 2266, -9468, -5238, 15345, 3818, 10404, -2831, 2416, -1613,
  -3344, 10446, 2122, -4860, 10384, -13052, -4811, 289, 3461, -11110,
  6660, 9731, -2503, -11521, -10808, 2967, -8918, 6945, 9172, -9647,
  -11548, 9246, -7800, -3466, 410, -13674, 14060, 7018, -6692, 5277,
  11498, -1359, 11582, -1484, -1044, -5044, 9325, -3928, 7080, -7197,
  -3773, -6139, -642, -3232, 1362, -6344, 4027, -653, -5056, -11296,
  6104, -6621, 2859, 5813, -20543, -8181, -3765, 1215, 4398, -9152,
  5983, -19965, -7283, -12959, -7130, 17026, -11382, -3420, 9049, -20904,
  -29684, -1256, 27687, -17024, 22250, -4142, 9076, 9575, 2942, -13490,
  4579, -26958, -11023, 7724, -8687, -16155, 11661, 5598, 18080, 2162,
  -9591, 21529, -6753, -13944, 7778, 21527, -6620, -7939, -7781, -28846,
  234, 24712, -4729, -4953, 18353, 5784, 17836, 953, 4597, -27067,
  26007, 2973, 20028, -19667, 1714, -10602, 4574, 6533, 1434, 18047,
  -7228, -14359, 9496, -10709, 8185, -1544, -12917, 19283, 10004, 13643,
  -390, -2105, 8287, -20014, -16658, 11987, -7438, -1100, 8815, 16217,
  -29150, -2725, -5039, 17463, 7073, 288, 8452, -12310, -12295, -1774,
  -9619, -14167, -881, -1248, 716, -201, -31873, 11579, 14787, 2889,
  8871, -22355, -7898, 199, -2636, 780, -4333, 5970, -17514, 5654,
  -18125, -19068, -8372, 459, 17264, 6590, 13684, -21529, -13208, -11877,
  -12530, 10595, 3375, 17014, 5839, 10236, -8924, 4478, 2821, 9577,
  20510, -8718, -4115, 4119, 10027, -6930, -1048, -5260, -667, 3195,
  -2278, 16916, 1636, 15199, 7747, 12302, 8838, 10311, -12590, 11072,
  -5214, 721, 2742, -7867, -3800, 580, 4301, 4471, 14468, -855,
  -5286, -6994, 6080, 1041, 985, 18763, 8268, 3039, -6515, 5147,
  -9662, 15884, 6084, 9442, -14303, 2968, -13766, 2904, 1045, 6006,
  -16840, -6831, 1210, -7539, -13937, -2177, 1656, 8526, 17478, 14012,
  -21234, -9525, 9699, 6877, -1516, -3126, 9800, -14512, 4896, 7413,
  -7779, 16676, -4636, 8783, -1240, 18305, 5995, -7540, 278, 2612,
  -3315, -7357, 2504, -6004, -11981, 16015, 4255, -14951, 12069, -278,
  -3763, 2723, -13207, -2120, 301, 10908, -12245, 18127, -11537, -5781,
  -270, 20738, -10003, 20698, -16914, 9355, -13416, 11461, -5755, 8517,
  6026, 13197, -2968, 2162, 4910, 10857, -5196, 13625, 6712, -12648,
  9572, 2136, 5072, -4440, -2335, 4137, -9837, 10361, 1235, 8991,
  10290, -11907, 4133, 6518, 384, 8724, 15103, 4167, -15710, 5391,
  -12225, 1574, -9712, -5552, 2300, 4241, -4497, 13249, 9506, 198,
  5994, 7475, -3353, -313, -5788, 2475, 385, -12780, 2309, 8391,
  677, -12518, 1107, 1289, -730, 14827, -5661, -12336, 4675, -167,
  -11639, -2834, -6975, 379, 2544, 15201, -12059, 3784, -8088, 6561,
  4569, 1601, -2420, -6755, -343, -8283, 2272, 7846, -1384, 6743,
  1480, 498, 8395, -12498, -6090, -5123, 1900, -9, -1097, 7845,
  6941, -5560, 5750, -2013, -1161, -5907, 15851, -3474, -2565, -9786,
  -8004, 2199, -2328, 4963, 2285, 3226, 3708, 6577, 243, -5466,
  4410, 3239, 15503, -2660, -5096, 354, -1447, 11629, 4023, 369,
  4582, 721, 3424, -5676, 6610, -4703, 9587, 10885, 6371, -1279,
  -8733, -3774, -9818, 8743, 9905, 5833, 9674, -5202, 4595, 4345,
  11774, -5761, -5076, 2983, -18261, 9726, 4249, 5426, 17283, -11171,
  2852, 10194, 10649, -2263, 7347, 11014, -12034, 3021, -7373, 6168,
  -12380, 1479, 13234, 867, -12087, 10071, 10770, 8852, 7289, -1536,
  2251, 5200, 6642, 10889, -3264, -10917, -3249, 3861, 12589, -9351,
  -3455, 3167, -7059, 9387, -17694, -3630, 2947, 868, -7710, 2704,
  -5149, 3582, 5598, 12119, -3113, 16061, -7034, -7315, 14208, -10827,
  -7192, -11221, 1605, 1521, 5750, 11487, -2537, 1850, 17064, 2814,
  7701, -13320, -704, -5061, 6804, 962, 2798, 6544, -2219, 1995,
  6707, 1621, 9112, -1494, 10443, -10914, -13832, -10307, -12233, 3631,
  -2217, 6648, -5214, 145, 4498, 1955, -2192, -14087, 6321, 6999,
  6490, 10088, -2360, 11669, 986, 3602, 2126, 10567, 4590, 11548,
  -2971, -3964, -7635, -790, 2720, 11579, 10418, 2590, -5219, -2105,
  -8434, 4674, 9338, 8237, 14685, -7936, 2089, -13730, 2247, -14596,
  5206, -1510, -15695, -869, -17412, 14430, 16705, -13771, -6981, 14434,
  6816, 6746, 9315, 4127, -9284, -13244, -9396, -11035, -17319, -13118,
  -830, -8263, 4300, -1132, 13920, 4279, 3222, 9307, 3870, 2258,
  -2565, 2257, -15772, -8969, 4036, 11586, 1168, -9917, -2629, -16357,
  -12052, 6613, -4887, -10787, 12536, -15072, -13904, -8598, 9027, -944,
  17356, 8386, -6459, 3898, 10228, 4881, 8008, 2119, 8913, -6201,
  -944, -10132, -13314, -5180, 18996, 12493, 171, -5129, 8178, -8056,
  -11964, 9910, -556, -6765, 8771, -10482, 5652, -9195, 6578, -17749,
  -1303, 4832, 10250, -9574, -4981, -1319, -11604, 8488, 9835, -10541,
  -6375, 15713, -8211, 3336, 2663, -12173, 17861, 7018, 8011, -5982,
  9015, -11239, 11325, 11333, 2592, -14620, 13815, -13740, 16014, -13243,
  11150, -13299, 10231, 1351, 1684, -11833, -2760, -4344, -12598, -5489,
  13294, -7019, 4430, 6562, -10008, 7420, 4723, 6234, -4535, -2176,
  847, -4034, 10331, -13122, -2831, 11004, 73, -4236, 8270, -18121,
  -18094, 4383, 13541, 1076, 13828, 9304, 7888, 15218, 11652, -1698,
  -8831, -7618, -7905, 7978, -1932, -16552, 5773, 5479, 16826, 7498,
  2582, 10632, -8919, -12964, 12716, 12366, -4592, 8455, -1518, -14400,
  -9203, 18854, -8921, 7748, 14268, 10978, 664, 3694, -4823, -12585,
  17089, 10542, -178, -19767, 5833, -15204, -8402, -161, 2568, 18207,
  8718, 3266, -8883, -13116, 16755, 4480, -7423, 6987, 13166, -2263,
  4974, 3936, 972, -19, -14896, 14450, -3895, 12236, 12442, 5144,
  -16216, -3019, -9444, 3662, 3044, -2878, -3191, 4591, -6632, -11321,
  3081, -9017, -3802, -2755, -6859, 271, -19112, 17853, 865, 17440,
  -1682, -17820, -4791, 17261, -7360, 17779, -15216, 9334, -22905, 11443,
  -15262, -3660, 1451, 9966, 8048, 5213, 10184, -5520, -9759, 3659,
  295, -3837, 9317, 20203, 8195, 9727, -10910, 7328, -425, 16111,
  23593, -5103, -698, -1274, 13658, -5284, -2423, -196, 7792, 4720,
  -10797, 22296, -4846, 17454, 4448, 10383, 9686, 14314, -15449, 19538,
  -1467, -392, 5841, -4071, -6775, -342, 364, 5134, 17201, -7579,
  -4045, -3224, 5514, -5461, 2400, 21837, 9931, 11606, -8542, -1476,
  -8493, 17863, 737, 8552, -20008, 3169, -14927, 11273, -6025, 7013,
  -23388, -2643, 2206, -6094, -16366, -5083, 1490, 4267, 20580, 19401,
  -24756, -6889, 9585, 7804, 2551, -9593, 7468, -19113, 5842, 8331,
  -9965, 23158, -650, 6175, 1310, 19424, 4803, -12199, 8930, 2351,
  -3467, -13197, -455, -5952, -14852, 20482, 7109, -15030, 15477, 3605,
  -3877, 1752, -13252, -1445, 9283, 9279, -16813, 19197, -14197, 217,
  1986, 22475, -9224, 22400, -16701, 7734, -10070, 10310, -945, 14960,
  9456, 13831, -8120, 322, 668, 17339, -1012, 18051, 11682, -16657,
  -13634, 529, -7437, 9685, 1655, -5250, 17489, -13720, 2886, -15575,
  -18058, 19751, -3720, -12390, -2569, -13285, -22871, -6748, 23402, -3764,
  18982, 815, 17677, 10603, -3052, -3435, 4766, -17276, -16458, -1119,
  -8729, -12272, 3430, 61, 8113, -4035, 3751, 19812, -4398, -14294,
  -1038, 19656, -1109, 2337, 4401, -22005, 9146, 19615, -9560, 4347,
  19029, 6232, 6987, -493, -7900, -22880, 17971, -6395, 8370, -9851,
  -8131, -2451, 729, 10413, 510, 13764, 388, -9521, -3121, -12236,
  -2163, 503, -13700, 18972, 11154, 4384, -2520, 1738, -890, -8145,
  -10482, 10042, -9637, 7215, 1870, 6913, -24248, 7180, 4952, 13806,
  13797, -5310, 614, -3934, -1606, -8516, -2803, -9846, -816, 10206,
  -10364, -5902, -23102, 5284, 4237, 2646, -1170, -18434, -6287, 2982,
  -9581, 2737, -8843, 10761, -11619, 9420, -15304, -14981, -9151, 5036,
  12228, 6441, 16190, -10602, -16727, -5923, -14155, 5518, -15588, 3527,
  6538, 3045, -3359, -4831, -3867, -8741, 6094, -14114, 1335, 12034,
  -4262, -808, 14999, -24812, -25056, 7186, 18809, -6139, 18235, 7577,
  5369, 16867, 15664, -7446, -9360, -14755, -6977, 13285, -2753, -21045,
  10920, 8899, 24263, 11164, -3982, 13978, -11290, -15029, 18449, 15942,
  -7992, 3963, -7797, -20964, -14086, 24725, -7888, 3836, 16650, 12192,
  7002, 4772, 765, -17650, 24243, 15997, 6604, -27515, 10959, -21100,
  -7057, -1429, 3341, 23162, 5502, 301, -3234, -14421, 23600, 3849,
  -8694, 9209, 14598, 2764, 6370, 2389, 5861, -6903, -20327, 17534,
  -3796, 9488, 17391, 11046, -22091, -8001, -15233, 6952, 795, -563,
  717, 272, -13005, -9409, -466, -12856, -4255, -8285, -2403, 2854,
  -27219, 23193, 6870, 19334, 3409, -22909, -6539, 17594, -5079, 18549,
  -14865, 8471, -28988, 11216, -19307, -7286, 1315, 8807, 12381, 6234,
  11016, -12591, -10041, 383, 116, -1093, 755, -15380, -7147, -9038,
  8416, -2704, -263, -6233, -18776, 10770, 2281, -5777, -7363, 5534,
  -3734, 10970, 6445, -5111, -2394, -12594, -5542, -14811, -7063, -14808,
  -12154, -6605, 13324, -5746, 5502, -4229, -1812, 12135, 194, -2832,
  -10373, -7217, -10684, -2047, 7232, 9436, -10254, -4243, 1149, -16893,
  -4274, 2051, 10127, -10203, 9864, -14036, -9088, -10930, 10313, -4052,
  10966, 1250, -6823, -10132, 12780, 13257, -4454, 12401, 13565, 2519,
  -2470, -13064, -16218, -12558, 18540, 11549, -15051, -6965, 2842, 994,
  -11936, 11658, -6128, -6837, 4747, -12680, 9406, -11717, 1490, -17779,
  -9903, 3704, 4640, 452, 7519, 5115, -1634, 4818, 9907, -13703,
  -103, 14721, -10089, 3296, 4487, 327, 11417, 898, 6211, -15360,
  8309, -20409, 8513, 10573, 1614, -22504, 9499, -22390, 17916, -9975,
  19054, -12625, 9759, -5803, -5994, -13133, -614, -3080, -6682, -6265,
  6428, -11751, -6354, 11372, -3559, -9528, -8167, -1786, 6174, -3320,
  7573, -8583, -10882, 1582, -6299, 3441, -5575, -1718, -4978, 3816,
  -2929, -6711, 6284, -8574, 2590, -9493, 2511, -6416, -10374, -4647,
  11110, -9114, -2776, -4471, -4448, 4541, 368, -2654, -5559, -7291,
  -4500, 5531, 3778, 1396, -8666, 3915, 1091, -9741, 90, -5691,
  11519, -681, 2862, -7136, 612, -5362, 8439, -3196, 3292, -6900,
  737, -10580, 10568, 6937, -7292, 8815, 9319, 6031, -1658, -4706,
  -10306, -11666, 10330, 3479, -12623, -4451, -3064, 7540, -4188, 8632,
  -5476, -3695, 1881, -10386, 3554, -4827, -2716, -8837, -7129, 3956,
  -4928, 4142, 8301, 8141, 4686, 770, 6211, -10015, 667, 6417,
  -7261, -722, 2857, 5351, 2885, -2220, -2935, -9646, 6077, -13403,
  4319, 1215, -944, -14366, 2333, -14488, 8816, -2501, 9884, -4973,
  1641, -9005, -7620, -6835, 3390, 150, 1498, -6891, -1990, -9667,
  -9796, 9354, 6419, -7388, 13028, -17768, -380, 1667, -30587, 8668,
  -10664, 17409, 30448, -22430, -3091, 21812, 15748, 3797, 15220, 13885,
  -19491, -8169, -15205, -3513, -26455, -9762, 11750, -6044, -7730, 8783,
  22071, 11767, 9642, 6588, 5264, 6660, 3937, 12154, -16351, -18223,
  524, 13621, 12669, -17539, -5298, -10719, -16826, 14900, -20851, -12933,
  13452, -11945, -19189, -4870, 2588, 2623, 19891, 18920, -8755, 18446,
  1746, -2559, 20086, -8320, 791, -15799, 749, -7382, -5772, 6690,
  13593, 12434, 16116, -1631, 14416, -19613, -10880, 3438, 5962, -4788,
  9976, -2372, 2821, -6119, 12029, -13462, 7356, 2411, 18953, -18337,
  -17216, -11121, -21422, 10641, 6124, -2519, -10084, 13494, -2616, 4886,
  146, -23442, 20996, 12442, 13348, 4221, 5306, 1353, 10454, 13228,
  4356, -2356, 15997, -832, 10848, -14925, 2443, -11971, 11382, 12272,
  11370, -7664, -7397, -5813, -18688, 104, 20192, 1923, 17715, -2107,
  -4295, 10036, -14724, 20736, -462, -473, 35241, -6822, 13938, -18163,
  -34620, 23756, 5637, -25072, -20348, -817, -13090, -16207, 18195, 12631,
  14291, 4985, 29819, 9730, -14454, 9562, 8124, -5541, -24255, -14935,
  -9742, -4922, -8254, -8586, -7957, -14776, 21129, 18131, 266, -13759,
  -16051, 17291, 7092, 13921, 21454, -13018, 24745, 11329, -15138, 15195,
  19367, 4994, -6174, -3441, -24279, -17978, 6029, -22478, -5386, 6497,
  -23880, 11774, -1971, 17265, -1291, 5716, 8108, -5678, -17789, -12848,
  -20436, 2079, -15094, 19933, 11076, -6368, -7034, 6014, -13278, 5970,
  -267, 5411, -13117, 16072, -10146, -5409, -17691, 22113, 21314, 10409,
  24102, -12763, -8676, 5133, 13810, -15786, 4816, -3504, 136, 27590,
  -24768, -14400, -10538, -6721, -9058, -1793, -14040, -11742, -3994, 2578,
  -18325, 1094, -12232, 16369, 133, 12909, -10188, -11210, -12096, 9254,
  5595, 5973, 19508, 3314, -21578, -105, -18739, 835, 1251, -3513,
  712, -4043, 1236, -107, -4409, 468, -4497, 4486, 4819, -4315,
  -1490, 4082, 1419, 2679, 3579, 1124, -3566, -2989, -3339, -2862,
  -5002, -4023, -422, -1729, 991, 729, 4166, 938, 1231, 3202,
  601, 464, -1484, 473, -3900, -3129, 1289, 3671, 51, -3407,
  -555, -4241, -2905, 2743, -1220, -3784, 3589, -3880, -4526, -2516,
  1811, -370, 4570, 3181, -2693, 827, 2122, 2149, 2116, 1073,
  2226, -1989, -373, -3441, -3394, -1011, 4837, 3828, -338, -1400,
  2607, -2856, -3680, 2241, -188, -1784, 2060, -2240, 2259, -2909,
  1997, -4847, -714, 794, 3769, -2482, -1078, -887, -3395, 2257,
  2395, -2446, -1332, 4333, -1888, 1389, 826, -3335, 4901, 1989,
  3296, -2044, 1846, -3151, 2716, 3956, 934, -4127, 3912, -3776,
  4523, -3922, 3763, -3948, 3530, 1043, 698, -3188, -1445, -1355,
  -4010, -800, 4110, -1475, 1635, 1492, -11986, 1295, -11014, 12437,
  2283, -4667, 23873, -13683, 3828, -16206, -23917, 21728, -2326, -16276,
  -8257, -9446, -21122, -10618, 23531, -1059, 18475, 151, 21623, 9335,
  -8068, -900, 7826, -16119, -19283, -5677, -9969, -9647, 438, -2759,
  2925, -8314, 7578, 20656, -2488, -14089, -6695, 20016, 1290, 3643,
  9003, -20958, 15574, 17535, -10642, 5944, 19518, 4968, 5164, -1868,
  -11761, -23168, 15171, -12735, 6792, -4347, -13819, 2942, 1785, 13539,
  -259, 10928, 518, -10795, -5132, -11923, -9424, 107, -14816, 20903,
  10514, 3194, -4778, 2211, -3845, -6421, -7263, 8028, -11194, 8026,
  -2643, 4450, -23743, 12037, 10925, 14598, 17615, -7215, -691, -3452,
  2621, -9361, -2178, -8418, -53, 16011, -13823, -8688, -20613, 335,
  1914, -1032, -3793, -16691, -5925, 244, -11621, -393, -8209, 11961,
  -6806, 9576, -13865, -15876, -11483, 4929, 11285, 6416, 17604, -8313,
  -18631, -6277, -17414, 6085, 612, -1589, 178, -1743, 553, -31,
  -1715, 235, -1990, 2082, 1987, -1866, -602, 1728, 347, 1436,
  1700, 342, -1675, -1219, -1541, -1307, -2099, -1945, -432, -642,
  532, 461, 1779, 289, 555, 1619, 124, 139, -973, 16,
  -1570, -1350, 618, 1691, -175, -1506, -212, -1901, -1065, 1248,
  -242, -1783, 1588, -1648, -2106, -1160, 718, -272, 1921, 1410,
  -1349, 57, 908, 1269, 751, 768, 1003, -845, -243, -1698,
  -1530, -559, 2094, 1779, -480, -683, 1094, -1227, -1738, 968,
  -198, -795, 789, -991, 1241, -1378, 812, -2188, -521, 290,
  1709, -925, -201, -328, -1393, 917, 1033, -1076, -461, 1915,
  -810, 676, 449, -1345, 2129, 850, 1597, -1107, 670, -1538,
  1081, 1923, 405, -2050, 1733, -1811, 2067, -1805, 1956, -1868,
  1733, 462, 203, -1401, -763, -574, -1840, -303, 1815, -649,
  628, 735, 12373, 11414, 8385, 776, -7190, 6932, -8847, 16357,
  12248, 5080, 8619, -10701, 9891, 3150, -444, 6928, 16249, 5991,
  -18278, 14986, -12510, 9693, -6251, 438, 6890, 10211, -11316, 20306,
  7426, 235, 7858, 4109, -5842, -274, -4293, 4807, 8282, -14389,
  -96, 5456, 3538, -13121, 1957, 11455, 3812, 17911, -9251, -10907,
  -84, 8274, -9374, 1778, -15271, 1946, -4770, 18138, -12787, 6950,
  -17856, 3841, 5220, -1947, -9887, -8237, 498, -4700, 11730, 15948,
  -12858, 2311, 6293, 4191, 8338, -15158, -1460, -13350, 4536, 3949,
  -5483, 17554, 5246, -1587, 5552, 7565, 1615, -10638, 17512, -2088,
  -4203, -14571, -7148, -870, -8967, 13907, 5063, -4425, 10451, 7144,
  -1723, -4059, -2457, 2158, 17253, 2508, -12115, 9681, -7809, 9691,
  4312, 11264, -473, 11492, -5154, -1083, 384, 1033, 7437, 16301,
  10008, 5521, -11090, -3026, -7938, 15481, 7906, 13513, 13872, -12372,
  12681, 6859, 5416, -1319, -4446, 6121, -7485, 14202, 6701, 7958,
  7923, -11781, 7810, 3910, -2625, 10721, 18145, 3612, -18548, 11531,
  -13971, 5032, -7404, -4111, 2222, 8561, -6567, 18405, 8316, -1936,
  6899, 8060, -6249, -1678, -8222, 1763, 5736, -14543, 2419, 8131,
  -669, -14033, 2759, 6567, 3371, 18373, -4852, -14086, 2579, 4304,
  -11702, -1716, -12299, 474, -2244, 18087, -15069, 2619, -14082, 8693,
  2670, 2755, -5492, -6677, -365, -8971, 6782, 11729, -7577, 5682,
  342, 2010, 8797, -14170, -5020, -9913, 2216, 1970, -4562, 13862,
  8483, -5387, 5579, 2395, -2200, -9846, 18621, -948, -756, -12645,
  -6715, 189, -6153, 9714, 5786, -199, 7408, 8251, -248, -2691,
  213, 1791, 19210, -3022, -9870, 2775, -5666, 12898, 4784, 3955,
  1882, 4086, 311, -3696, 6869, -2600, 10384, 14085, 7600, 1530,
  -11197, -3889, -9406, 13810, 9228, 9721, 11077, -8706, 6245, 11668,
  8018, 3036, -7210, 4701, -6199, 11384, 13366, -773, 5330, -4322,
  7877, 676, 2232, -799, 6392, 6001, -9467, 12321, -4899, 10881,
  -1809, 5718, 9234, 7568, -11812, 13261, 2799, 2709, 5374, -2532,
  -2718, 1538, 2315, 6162, 7675, -7433, -3122, -349, 6923, -5849,
  74, 12109, 2750, 8980, -10115, -1959, -3334, 9361, -2195, 5226,
  -11860, 2765, -5737, 9710, -4107, 8798, -14182, -3695, 5780, -6608,
  -10675, -6283, 1267, 2636, 12328, 13602, -13399, -2866, 10434, 4871,
  3818, -9253, 3532, -11364, 5186, 4540, -4152, 13894, -1013, 3779,
  2861, 10374, 5408, -6683, 7975, -2381, -6272, -10075, -4250, -1837,
  -8266, 12581, 1900, -7576, 9338, 2480, -2670, -3748, -4634, 1580,
  6868, 8005, -9336, 13567, -6898, 1332, 1702, 14838, -3157, 15150,
  -9440, 2593, -7573, 4937, 454, 11408, 8212, 7876, -5867, -521,
  -2464, 10336, 2570, 11875, 10755, -11047, 2562, -4833, 16375, -16721,
  -2373, 838, -33203, 7632, -7176, 13183, 32104, -19699, -3422, 22022,
  21045, -3993, 8583, 17186, -15236, -8584, -10482, 225, -25525, -3879,
  18100, -7477, -12332, 6084, 20684, 16427, 9649, -212, 8404, 9713,
  11923, 16691, -16887, -15252, -3352, 9146, 19530, -13724, -7815, -8027,
  -19237, 9913, -27008, -5779, 10798, -9751, -14609, -500, 3233, 4565,
  19714, 15118, -1937, 24983, 1906, -11699, 24613, -15961, -2781, -17319,
  2006, 42, -2512, 8781, 11047, 7776, 25165, 217, 12534, -18354,
  -6038, 2826, 8764, -3518, 11438, -2645, -3642, -302, 11483, -9347,
  13626, 4955, 13540, -21478, -23140, -10562, -22133, 10438, 5344, -796,
  -14022, 9814, -1567, 1332, -1568, -26888, 19970, 13716, 6074, 12554,
  6337, 9170, 10810, 6494, 2665, 5116, 14253, 6925, 5171, -12157,
  -7571, -7974, 5600, 11753, 13109, -4052, -4424, -4091, -15878, -2378,
  17769, 3649, 19509, -4004, -10406, -1907, 5751, -2799, -813, -3902,
  -8463, -6336, -1290, -5239, 6942, 3803, -5316, 4466, 13339, -15685,
  -14755, 6824, 10158, -8744, 9818, 1943, -2203, 7831, 11340, -8087,
  -5610, -10752, -126, 11201, -733, -12104, 9206, 7281, 16793, 9065,
  -8193, 6800, -6862, -6874, 13982, 7940, -6705, -2495, -9803, -12649,
  -12218, 14119, -1440, -2229, 7181, 5984, 7911, 3219, 6456, -9608,
  15227, 13225, 7970, -18379, 10905, -14767, -2295, -3363, 2138, 13348,
  -316, -1205, 3919, -6188, 17481, 1143, -3340, 3616, 6522, 5152,
  4576, -502, 7206, -8277, -12822, 9614, -373, 979, 12318, 9513,
  -12228, -9216, -12976, 4298, -3591, 2510, 3726, -3138, -11606, -1548,
  -2951, -8094, -2240, -10354, 4356, 4554, -16766, 14960, 7889, 10474,
  6246, -12642, -3787, 8086, 1043, 9077, -5455, 1609, -17363, 3648,
  -10440, -4505, 1773, 2468, 7872, 2985, 3542, -10762, -2579, -1851,
  1925, 1186, 15475, 20510, 5238, 10322, -10244, 9521, 3177, 19882,
  23354, -1055, -3324, -4482, 16347, -6756, -9534, 9235, 16960, 1239,
  -17459, 26581, -11187, 15789, 4447, 5052, 3326, 18500, -12216, 25889,
  -353, -6359, 6628, 3470, -11806, -4252, -9393, 238, 20921, -12187,
  42, 1511, -2189, -10763, 5974, 22297, 14756, 19396, -2093, -10283,
  -6846, 18279, -4433, 4670, -24112, 1283, -17469, 17490, -15223, -112,
  -27450, 8137, -3294, 2376, -14675, -3791, 195, -4004, 20052, 19932,
  -25905, -2516, -166, 6855, 5062, -12401, 2944, -21552, 3282, 8218,
  -13538, 27340, 7091, 153, 2015, 17786, -2198, -17361, 16735, 6867,
  3474, -15885, 676, -6837, -16428, 21767, 13262, -13194, 16766, 8476,
  -2428, 6642, -14508, -3452, 19506, 525, -20896, 12741, -17112, 8278,
  4324, 17066, -8861, 16580, -12654, 5865, 489, 7315, 5784, 17852,
  8706, 11782, -12959, -1655, -2352, 23230, 1468, 18859, 11121, -17043,
  7293, 7884, 2284, 3384, -4058, 4175, 401, 8878, 8838, 989,
  -268, -3232, 6781, -1880, -4132, 5211, 8722, 641, -8833, 10871,
  -6029, 5949, 591, 786, 962, 7734, -4840, 11699, 1013, -2771,
  3242, 2770, -5194, -1886, -4993, -44, 8177, -6289, 550, 1881,
  -1315, -5793, 2576, 8465, 5862, 9450, -855, -5875, -1902, 6875,
  -3417, 1154, -10114, 327, -6427, 8674, -7747, -238, -11442, 4673,
  -1132, 1786, -5655, -2127, -107, -3080, 7692, 8298, -9921, 180,
  -692, 2507, 2974, -6239, 28, -8796, 1214, 3050, -5474, 11350,
  4101, -1009, 1415, 6260, -1510, -7505, 8589, 2533, 1598, -7179,
  -554, -2403, -6508, 8781, 5654, -4434, 6784, 4260, -724, 2190,
  -4976, -1028, 9794, -765, -8746, 4323, -6812, 5062, 2210, 5918,
  -2729, 5834, -4032, 1341, 1793, 1893, 3816, 8114, 3876, 4138,
  -6245, -1151, -2276, 10062, 1866, 7775, 5193, -6929, -10944, 748,
  2464, 2084, -1075, -3783, -397, -7435, 2267, -9293, -994, 8997,
  -3695, -1354, 8452, -15520, -17193, 3123, 13818, -5329, 12695, 3310,
  4592, 10028, 8020, -5519, -3913, -11423, -5574, 7566, -2810, -13009,
  7031, 5163, 14652, 5643, -2987, 10544, -6691, -9849, 10141, 11510,
  -4893, 1073, -4622, -15037, -6561, 16280, -4941, 1517, 11381, 7094,
  6001, 2447, 608, -13191, 16109, 8028, 6160, -16559, 5333, -11911,
  -2948, 517, 1841, 14389, 1864, -2086, -580, -9045, 12672, 1730,
  -6573, 7822, 8990, 3269, 3004, 1003, 3899, -6319, -12619, 10692,
  -3262, 4899, 9843, 7849, -15725, -4010, -7977, 6274, 1880, -497,
  1436, -1561, -8103, -5298, -1540, -8615, -2241, -3878, -1538, 1175,
  -18557, 13252, 5408, 10142, 2725, -14983, -4541, 8889, -3258, 9485,
  -8348, 5396, -17114, 6661, -12513, -6651, -801, 4701, 8819, 4238,
  7862, -9445, -7371, -1527, -2114, 1038, 8663, 1381, 5969, -5495,
  -2252, 3710, -11753, 9811, 361, 9177, 12058, -12332, 3296, 7808,
  2287, 7340, 14110, 5254, -15255, 3906, -11752, 1362, -10948, -5295,
  3674, 3016, -5069, 12212, 10311, 1696, 6171, 6597, -2167, 624,
  -4016, 3712, -1267, -12673, 1739, 8266, 2388, -12307, 246, 333,
  -2447, 13976, -7468, -11424, 5151, -1097, -11635, -2572, -5806, 745,
  4111, 14789, -10813, 5627, -6900, 4725, 6304, -40, -2350, -7555,
  -124, -7325, 1716, 7683, -132, 6695, 3603, 436, 8563, -12707,
  -5960, -4209, 2470, -357, 115, 6616, 5800, -4955, 6134, -2698,
  219, -4723, 15224, -5059, -4391, -9579, -9113, 2922, -1520, 4252,
  701, 3798, 3087, 5921, 83, -7320, 5780, 4135, 14227, -1215,
  -3871, 1107, -241, 10873, 3792, 731, 5392, 1214, 3549, -6162,
  5170, -4924, 8991, 10658, 6810, -1541, -8102, -3710, -10144, 7451,
  10394, 5439, 10314, -4915, 8127, 15029, 6835, 6365, -8332, 5928,
  -1937, 13265, 17377, -2389, 1180, -2714, 10528, -2780, -1541, 1006,
  7816, 4174, -10173, 16976, -5290, 12998, 1716, 6805, 7562, 10990,
  -12041, 16162, 397, -96, 5183, -1965, -5339, -192, -420, 4242,
  12499, -7401, -2693, -1144, 4318, -5803, 1820, 16081, 7009, 10574,
  -7256, -2788, -5489, 12977, -1177, 5884, -15564, 2403, -10403, 10433,
  -6053, 5863, -18192, -1147, 2464, -4382, -12346, -4807, 1054, 2007,
  15352, 15331, -18214, -4059, 7445, 5776, 3103, -8877, 4584, -14657,
  4610, 6065, -7343, 17976, 442, 3777, 1832, 13860, 3485, -9673,
  8790, 1055, -3089, -11067, -1617, -3972, -11138, 15660, 5375, -10484,
  11821, 3533, -2811, 282, -8914, -481, 8937, 6559, -12953, 14199,
  -10499, 1795, 2012, 16539, -5996, 16570, -11723, 4770, -6544, 6824,
  665, 12532, 7898, 9929, -7176, -300, -996, 13841, 762, 14043,
  10040, -12925, -14025, -14534, -6713, -4312, 7916, -7986, 4013, -17623,
  -15862, -3002, -3703, 8667, -12233, 758, 4300, -8500, -17223, -3777,
  18150, -19204, 12500, -11381, 2327, -1678, -4826, -13301, 10838, -22304,
  -4602, 3021, -7166, -4483, 8348, 2316, 6873, -2565, -12896, 13961,
  -610, -4434, -368, 12713, -3987, -15229, -7976, -19117, 5889, 11567,
  2310, -11536, 7760, -2182, 18469, -1612, 9518, -18324, 14429, -3630,
  21400, -6335, -1318, -439, 10987, 6055, -376, 5266, -14354, -17248,
  17294, -957, -2781, -5047, -7440, 14134, 248, 16268, -3752, -5387,
  8573, -21316, -6412, 1743, -4360, -10923, 579, 13528, -17858, -1688,
  693, 15187, 4028, 2980, 11615, -16501, -8721, 7173, -12547, -8090,
  1917, -689, 7021, 356, -18899, -608, 15203, -9625, 11143, -9733,
  -4622, -12666, 3561, -12238, 7186, -1465, -1496, -3191, -7227, -16743,
  -9294, -7203, 11840, 2858, 5846, -18727, -5628, -15087, -12440, 13932,
  646, -8189, -4824, -4163, 4715, -1389, 1601, -3505, -9936, 5596,
  -331, -2446, -3690, 1968, -3481, 6800, 3688, -3790, -1075, -6209,
  -2939, -8185, -2693, -8297, -7876, -2982, 7994, -2957, 2139, -3369,
  -1337, 7147, -602, -2183, -6875, -5016, -4808, -672, 4308, 5041,
  -6921, -1992, 1144, -8865, -1113, 1104, 7190, -5825, 5002, -7158,
  -4680, -6152, 5214, -2578, 4949, 352, -4205, -7151, 6660, 8485,
  -3859, 8064, 7593, 2175, -1557, -7656, -8774, -7271, 9542, 6247,
  -9978, -3901, 1096, 1197, -6558, 6094, -3918, -3587, 1837, -6597,
  5847, -6728, 308, -9408, -6461, 1516, 2371, 1495, 5615, 3150,
  171, 2079, 5075, -7360, 923, 7693, -5344, 2022, 2649, 1629,
  5299, -196, 3733, -9467, 3940, -11916, 3945, 6019, 871, -12912,
  4603, -12869, 9787, -5079, 11436, -6792, 5549, -3506, -3931, -7069,
  -489, -1578, -3184, -2991, 2881, -6505, -4372, 6403, -12414, -20377,
  -3386, -12411, 9535, -8263, -7047, -16475, -23528, 4702, 7551, 112,
  -15230, 9596, 9887, -6110, -11778, 358, 11843, -25279, 6895, -15565,
  -8293, -7457, -2540, -17364, 10662, -21403, 4021, 6871, -4385, -639,
  10866, 4453, 7337, 718, -21322, 7804, 644, 1651, 2741, 6420,
  -5958, -22557, -15357, -14502, 14, 6035, 8834, -18748, -54, -5736,
  22116, -1288, 19023, -12316, 11139, 1513, 25240, -5819, 5313, -1786,
  13997, 1067, -439, 1004, -19746, -17651, 26100, 5205, 812, -6945,
  -2148, 7967, -5430, 20254, -2666, -8477, 13499, -25329, -4499, -2128,
  38, -19126, 1893, 15774, -11315, -8475, -4547, 12754, -3825, 7813,
  16041, -20476, -12963, 14747, -15790, -6310, 2699, -9233, 16797, 5020,
  -14277, -1353, 19398, -12748, 16975, -4003, -3041, -17536, 11007, -16605,
  14247, -8419, 2026, -9544, -2153, -14156, -6551, -12439, 9849, 408,
  -1548, -20745, 2349, -17077, -7654, 15653, 6194, -10559, -4765, -7947,
  5723, 246, -2071, 332, -13598, 12577, 4094, -9533, -3016, 5698,
  -5433, 14759, 13445, -3764, -9650, -5844, -10698, -11109, -8487, -14925,
  -10740, -1831, 9650, 2668, 7698, -5427, 967, 14460, -2958, -3751,
  -13459, -6447, -6329, -7616, 7750, 11666, -10414, -9428, 2639, -11903,
  -1519, 9559, 8146, -15165, 9524, -10301, -12659, -10584, 3695, -3613,
  7976, 8468, -12717, -9043, 5162, 16261, -3943, 13057, 9917, 125,
  -2450, -15712, -11468, -6465, 12827, 12536, -14499, -5365, 5912, -4552,
  -12662, 5964, -4912, -5114, 1746, -5117, 12334, -12922, 3311, -14493,
  -10486, -1271, 11824, 952, 7444, -550, -3443, 3962, 5942, -7990,
  3118, 12716, -5731, 6566, 3972, 350, 9436, 950, 13822, -15728,
  2853, -17558, 4682, 14898, 3469, -18678, 8711, -18651, 16021, -10019,
  20489, -12100, 13084, 479, -2603, -10976, -5276, -4331, -9418, 610,
  9053, -6443, -1695, 6530, 14965, 1584, 4530, -6112, -1946, 6005,
  -10927, 14296, -110, 14063, 12062, -17030, 5817, 8060, -2940, 16137,
  23780, 3325, -23063, 7681, -18795, 13, -12925, -10606, -894, 6668,
  -3136, 19109, 13019, -2783, 7778, 13812, -6458, -2398, -12489, 382,
  1223, -18465, 5378, 13531, -3437, -18617, 3126, 453, 818, 22480,
  -3511, -20435, 7486, -1227, -17783, -6254, -9800, -663, 3011, 22178,
  -19955, 834, -11014, 14177, 2972, 6788, -1159, -7747, -1189, -15264,
  1296, 9182, -711, 11446, -3686, -349, 12038, -17025, -10708, -6616,
  778, -628, -2568, 10790, 12979, -10725, 7757, -4750, -5400, -9503,
  23991, -2369, 424, -13219, -9790, 2819, -2830, 5721, 5644, 6148,
  4426, 10796, 1298, -4696, 5962, 3256, 24740, -8559, -7544, -4145,
  -2394, 19188, 6302, -3766, 6743, -3554, 7644, -8819, 14635, -8299,
  15926, 14604, 7268, -3660, -13243, -5953, -14312, 13216, 14194, 6763,
  11491, -5851, 3126, -3923, -15611, 6621, 5767, -208, 23185, -4874,
  -4342, -177, -20732, 7317, 700, -12138, -20065, 14453, 4223, -15576,
  3464, 2666, -596, -8129, 12649, -8389, -21516, 4695, 16054, -1702,
  -9528, -16355, -6177, 11270, -8810, -10067, -19399, -17285, 8345, 5316,
  8262, 2096, -22348, 2832, 7837, -2531, 13605, 285, 26218, -7393,
  -980, -7, 1035, -7448, -263, -6167, -9026, -4416, -8573, -25467,
  1814, 21285, -21275, 21867, 9097, 12721, -3408, -12036, -6288, -10981,
  813, 3690, -29673, -4097, -4780, 9846, -5086, 1868, -10164, -1056,
  -7548, -1297, 12344, -9490, -6019, -3607, -18104, -5017, -730, 16826,
  22950, 7094, 13817, -4972, 112, -4874, 13036, 1966, -2709, 4162,
  4178, 20252, -7966, -9434, 6424, -21138, -3197, -19670, -4988, 6744,
  693, -17590, -4141, -18755, 7929, 1465, 21195, -3188, 6002, -7863,
  -11503, -4902, -1150, -205, 4466, 2748, -6255, -7039, -15437, 7536,
  -2060, 9121, 13164, -513, -7503, 1423, -14823, 6225, 10968, -3970,
  12651, -2506, 2952, 5648, 14101, -13366, -4924, 12188, -1935, 4051,
  2333, 11687, -5257, 11281, 18840, 178, -16254, 4335, 3999, 12383,
  5081, -11915, 5282, 7755, 16253, 14072, -486, -2794, -8452, -5059,
  18743, -298, -5640, 8851, -6551, -700, -21008, 8743, -3474, 6252,
  2606, 9476, -4650, 5496, 1077, 2704, 7919, 20431, -6928, -18739,
  15651, -18940, -11907, -9645, 3059, 12916, 11102, 12487, -8660, -6995,
  25254, 5511, 1928, -7139, 8022, -6410, 9082, 3611, 2595, 6417,
  -11337, 10982, 3254, 9832, 15669, 1482, -1077, -10965, -17719, -6892,
  -8355, 1031, -4443, 9246, -8243, -7569, 6292, -3882, -4421, -13417,
  429, 5928, -6221, 20033, -2020, 21466, -741, -8235, -1123, 20656,
  -1177, 21713, -12703, 2917, -21254, 7014, -7425, 7966, 10035, 8933,
  435, 1488, -568, 1151, 1627, 9879, 12938, -9749, -16791, -5415,
  -3764, 2627, 3218, -7287, 7143, -16258, -4317, -11916, -8067, 15413,
  -8516, -4566, 6013, -17151, -24877, -1918, 23466, -12409, 18965, -2514,
  9478, 8775, 1782, -9965, 3771, -21779, -10618, 5358, -7539, -13652,
  8793, 4026, 14280, 981, -5942, 18541, -5643, -12389, 5515, 18551,
  -4895, -4917, -4667, -24073, 1514, 20900, -5107, -2506, 16268, 5328,
  13559, 652, 1734, -22943, 21471, 1205, 15302, -15747, -54, -8103,
  3090, 6279, 1131, 15263, -4742, -11505, 5843, -9798, 5686, -888,
  -11461, 16748, 9124, 10149, -588, -1074, 5610, -15266, -13653, 10353,
  -6889, 741, 6712, 12540, -24703, -738, -2860, 14543, 7315, -775,
  5889, -9092, -8954, -2941, -7068, -11703, -828, 791, -1413, -1123,
  -26458, 9340, 10974, 2863, 5902, -19026, -6660, 1029, -3616, 1422,
  -4859, 6166, -14631, 5766, -15500, -15841, -7328, 1414, 14215, 5791,
  12454, -16858, -12216, -9147, -11079, 8200, 9653, 20581, 434, 15475,
  -9002, 7175, 13327, 13276, 24451, -8298, -13577, 5203, 14816, -13642,
  -12563, 4475, 6985, -3266, -6480, 25281, -2617, 15522, 13742, 9255,
  14, 17461, -8609, 17927, -8784, -8474, 2061, -1158, -11107, -5226,
  -7436, -3173, 23528, -2743, -1171, -4859, -4767, -1597, 6291, 23343,
  18073, 9521, 4442, -2064, -11379, 20368, 4430, 6848, -21091, 550,
  -22064, 6749, -7873, -5323, -23670, 5565, -9026, 3215, -13570, 2195,
  161, 1195, 19806, 14763, -27447, -7840, -3852, 6796, -1577, -2882,
  7660, -19539, 1240, 8988, -14720, 23746, 3385, 3865, -2911, 20927,
  -3006, -14818, 5699, 11756, 7834, -9069, 8287, -9753, -16265, 19672,
  13856, -17007, 15342, 4421, -2482, 13305, -20155, -7115, 9652, 990,
  -19336, 12207, -18196, 448, 1572, 17021, -13748, 16214, -16071, 11058,
  -2945, 11486, -714, 10373, 3540, 13684, -7487, 1225, 5546, 18836,
  -6796, 15609, 3279, -13990, 16615, 4124, 3495, -3562, -2756, 7010,
  -7527, 15841, 2900, 12988, 8787, -15915, 7917, 5370, -6090, 17872,
  25195, 1785, -23828, 11356, -19320, 1533, -10235, -9996, -2434, 9413,
  -3156, 21524, 11224, -5153, 7648, 14537, -8638, -3868, -14949, -1283,
  5018, -18595, 5868, 13106, -5732, -18767, 4591, 3463, 4238, 23965,
  -1061, -21395, 5916, 1518, -17198, -5914, -12745, -1018, -624, 22938,
  -21775, -1696, -14184, 16537, 222, 8823, -2339, -6557, -1404, -16064,
  3546, 10482, -4386, 10711, -6361, 291, 11578, -16820, -10088, -9186,
  228, 517, -5123, 14020, 14384, -10965, 6992, -2185, -7145, -11958,
  24886, 426, 3129, -14049, -7730, 1164, -5055, 8081, 8519, 4023,
  6341, 11776, 1253, -1431, 2667, 1606, 26685, -10014, -10429, -3945,
  -5229, 19843, 6622, -2716, 4603, -2734, 6084, -7239, 15840, -6989,
  16341, 15539, 6978, -2195, -14408, -5858, -13302, 16081, 12904, 8413,
  10896, -7266, 2809, 3773, -2130, 4099, -1126, 1611, 6055, 2420,
  4535, -1390, -5645, 1827, 3384, -4474, -5779, 3523, 2633, -2946,
  -1432, 5941, -1061, 2094, 4514, 399, -3258, 4581, 451, 4051,
  -2984, -4230, -259, 1802, -3831, -2606, -4832, -3261, 6292, -155,
  1049, -399, -4371, -297, 2499, 4535, 5937, 2505, 4818, -1964,
  -2383, 4332, 618, 240, -4747, -870, -5936, 1233, -3393, -4963,
  -4966, 4733, -4982, 4151, -1598, 2107, -547, -1897, 3286, 1635,
  -5719, -824, -5344, 784, -829, 470, 580, -3999, -1256, 1724,
  -4320, 5014, 2933, -803, -1375, 3759, -3462, -4054, 1599, 4940,
  5130, -1105, 3583, -2773, -3485, 3576, 4960, -3187, 2962, 1777,
  174, 5645, -5263, -2767, 3540, -3098, -4812, -389, -4692, 1584,
  536, 825, -3328, 594, -2063, 2278, 2911, 1678, 1174, 1373,
  -824, 2140, -2123, 145, 1434, 4644, -2024, 2441, -1329, -1926,
  12340, 3883, 4920, -3555, -3039, 5455, -8955, 12957, 3066, 9944,
  9609, -13180, 6102, 5756, -1937, 11690, 18746, 3566, -18837, 8551,
  -14731, 2489, -9523, -6413, 1200, 6712, -4824, 16935, 9885, -1639,
  6791, 9541, -5464, -1533, -8785, 1454, 2880, -14998, 3266, 9701,
  -1201, -14770, 2406, 3199, 1495, 18362, -4502, -15323, 4572, 1374,
  -13324, -3376, -9924, 78, 627, 18238, -15517, 2269, -11320, 9701,
  3159, 3686, -3249, -6873, -613, -10574, 3794, 9697, -3728, 7621,
  -666, 849, 9506, -14321, -6954, -7472, 1630, 623, -2985, 11097,
  9327, -6982, 6170, -986, -2907, -8544, 19191, -1983, -799, -11824,
  -7833, 1499, -4029, 7068, 4753, 2637, 5392, 8448, 367, -3931,
  3039, 2562, 19591, -4609, -7744, -62, -3477, 14265, 4961, 550,
  4025, 761, 3371, -5705, 9094, -4848, 11691, 13132, 7011, -823,
  -10977, -4416, -10828, 12059, 10735, 7611, 10598, -6743, -2658, 3839,
  -2450, 5965, -1077, -407, 8273, -2055, 5332, -6474, -8425, 7396,
  1498, -6540, -3321, -3314, -6094, -2906, 6367, 3401, 5655, 3023,
  8311, 4975, -1188, 2120, 74, -2283, -6983, -1981, -2457, -4035,
  -994, -967, 1045, -2038, 5574, 5984, -1608, -5469, -1347, 6112,
  790, 4931, 4859, -5426, 4014, 5927, -5154, 5132, 6898, 3224,
  -1584, -152, -6613, -6232, 4307, -3287, -1552, -1947, -4411, 18,
  -2191, 3803, 129, 4552, 3662, -539, -5984, -5319, -1660, 1331,
  -4792, 5683, 4914, -2102, -690, 2175, -3033, 1611, -2603, 3892,
  -3718, 6070, -95, -458, -6835, 4585, 3241, 2918, 6063, -3547,
  -2743, 2260, 2065, -5829, 1866, -2362, -641, 5807, -7019, -3216,
  -5673, 1739, -2218, 2944, -3749, -5775, -1773, 3844, -5581, 3695,
  -5713, 5425, -4074, 5024, -4965, -3008, -2427, 4109, 2529, 2340,
  6204, -29, -6663, 883, -4090, -655, -1373, 5472, 10500, -2116,
  -5228, 923, -13363, 4732, 6484, -1387, 11804, -3554, 1473, 6092,
  11760, -9603, -2752, 9961, -2591, 1591, 723, 7795, -6115, 7226,
  14550, -832, -12142, 3239, 4739, 10147, 4334, -8172, 4564, 6308,
  12333, 11206, -2227, -3207, -6112, -2579, 14725, -1379, -4710, 4953,
  -6502, 208, -16903, 5551, -1232, 3099, 391, 6370, -2552, 4155,
  2879, 3068, 5413, 16338, -4174, -13999, 13118, -14476, -8221, -8239,
  2261, 8862, 7068, 9086, -4503, -3974, 19660, 3677, 2444, -6489,
  4832, -3814, 6994, 2012, 3048, 3740, -8147, 7473, 3293, 5558,
  12036, 1735, 345, -9653, -14360, -5497, -7858, 1793, -2296, 5949,
  -7172, -4046, 3928, -2638, -3118, -11878, 2440, 5446, -3916, 14889,
  -518, 15385, 750, -5076, -580, 14336, 713, 15280, -8004, 703,
  -15221, 3881, -4570, 6348, 7994, 5568, 11, 659, -1928, 232,
  2824, 6859, 10579, -6799, -12452, -8614, -7281, 980, 5533, -6400,
  9387, -15074, -8659, -6788, -9237, 11898, -8349, -4272, 492, -8405,
  -17240, -5331, 18415, -12344, 13428, -6918, 7822, 1920, -5116, -8644,
  8871, -18778, -8579, 436, -7394, -5908, 5483, 779, 5484, -3848,
  -5872, 14912, -1281, -7084, -1892, 13978, -2234, -8357, -2452, -18314,
  7987, 12676, -1779, -5382, 10750, 278, 13094, -1480, 2511, -18411,
  13757, -5728, 15390, -5615, -4671, 270, 7240, 7675, -264, 6805,
  -8694, -13872, 9213, -4280, -4117, -3054, -9077, 15013, 3430, 11091,
  -3630, -2672, 4300, -15239, -6400, 3690, -6031, -4318, -146, 9882,
  -18356, 2331, 3384, 13806, 7642, -258, 7035, -11263, -4864, 1593,
  -8443, -7679, 1118, 4095, 315, -2255, -18168, 75, 10109, -5988,
  5874, -11252, -4703, -7549, -1238, -7441, 1854, 2688, -3345, 961,
  -8814, -15142, -9105, -2906, 10828, 3745, 8916, -14264, -9071, -11201,
  -12801, 10425, 2379, 2278, -10103, 8528, 1640, 840, 18869, -1597,
  3170, -3788, -17521, 7869, 3259, -11734, -15068, 8042, 1347, -10821,
  3408, 6746, 1322, -1313, 12695, -1702, -13202, 6265, 8234, 910,
  -9588, -11763, -4262, 5015, -7312, -7152, -12267, -11499, 10642, 4925,
  4142, -1524, -14510, 3677, 5931, 3935, 12652, -343, 17721, -2533,
  -4242, 5030, 3854, -2182, -4001, -3622, -11212, -3864, -4723, -17142,
  -3164, 12769, -15658, 13475, 2503, 9307, -1942, -5282, 682, -4420,
  -5968, -987, -18819, -883, -4836, 7492, -16, -2692, -6092, 1567,
  -7873, 3512, 6878, -3609, -5386, 3339, -11247, -5450, -2060, 13498,
  16023, 3871, 11720, -5762, -3463, 983, 10653, -3609, 1451, 2290,
  1851, 16237, -10445, -7900, 3223, -11762, -5695, -8713, -7151, 1937,
  10, -6378, -6651, -7270, 118, 4595, 10618, 1753, 1611, -4173,
  -7170, 711, -898, 920, 5810, 4547, -7224, -1443, -10166, 2058,
  3423, -7839, -7625, -2663, 5316, -428, 5959, -2355, -9699, 6643,
  -4100, -2506, -2204, -412, -8625, 11802, 7512, -6886, -3125, -3604,
  -5238, -9174, -760, -10743, -12518, -442, 10675, -426, 1109, -7588,
  -1733, 10951, -3695, -4864, -12656, -8782, -1797, -1713, 6623, 6716,
  -12294, -3515, 3492, -8207, 2693, 4102, 12556, -9736, 5059, -6343,
  -6137, -8108, 3092, -3901, 2293, 2173, -8573, -12685, 4696, 14773,
  -8504, 13562, 8778, 4185, -2374, -11805, -9016, -7857, 8326, 7881,
  -16847, -4460, 1347, 1299, -8408, 4827, -5918, -3443, -739, -4520,
  9990, -9743, -244, -9668, -11031, -1321, 5122, 5375, 10883, 2749,
  2443, 880, 4006, -6832, 4995, 7972, -4711, 4305, 3529, 6106,
  3254, -2229, 8261, -14857, 1555, -15985, 1777, 9527, 1804, -16193,
  3768, -16478, 11537, -5146, 17356, -7764, 8477, -3100, -5398, -7883,
  -2492, -2240, -3476, -35, 2754, -6533, -6252, 6667, 4305, -3875,
  -302, -4533, 1666, 911, -3833, 2392, -5281, 7110, 4711, -6657,
  -488, 4254, -1339, 7295, 8405, -66, -7324, -1519, -6857, -3986,
  -6038, -7033, -3114, -135, 2419, 3839, 5532, -1454, 1893, 7070,
  -1511, -1142, -5968, -1457, -2944, -5907, 3297, 6461, -3199, -6513,
  919, -4673, -1359, 6861, 1162, -8428, 4969, -4336, -7698, -4640,
  193, -1202, 4276, 6705, -7313, -1947, 530, 7197, 226, 4851,
  3250, -1901, -975, -7689, -4098, -733, 5085, 6444, -4476, -2000,
  4307, -4806, -6316, 1433, -1248, -2112, 852, -610, 6041, -6067,
  2765, -6349, -3818, -1426, 8075, -1048, 1614, -2425, -3649, 2303,
  2047, -2168, 1132, 5881, -1554, 3841, 1562, -1903, 5237, 1513,
  8536, -6150, 304, -6389, 1888, 8268, 2184, -7039, 4784, -6830,
  7041, -5450, 8979, -5930, 7154, 2697, 656, -4608, -3919, -2515,
  -6142, 1800, 6048, -1231, 1891, 1422, -2409, 14160, 2473, 11718,
  -6812, 1700, 8057, 2839, 17880, -12886, -9415, 10451, 6745, -9866,
  -1162, -9678, -9167, 581, 6746, 12266, 8398, 12909, 12465, 14220,
  6734, 6951, -8956, 2618, -10054, 667, -832, -11321, -1534, 796,
  7139, 2683, 12884, 6485, -6176, -11064, 5246, 8049, 161, 16211,
  7914, -5697, -2733, 11693, -11376, 14516, 12000, 10214, -9019, 2436,
  -13846, -5990, 7793, 3320, -10644, -9895, -1378, -7739, -11331, 1719,
  1654, 12424, 14550, 8214, -18444, -12411, 8017, 5915, -6158, 4198,
  12280, -10230, 3368, 6707, -6413, 10588, -8070, 11159, -4390, 17681,
  6137, -3416, -8748, 4264, -1585, -1089, 6730, -6690, -9517, 11709,
  2465, -15375, 8851, -4008, -3505, 5391, -14351, -3638, -8533, 11484,
  -8263, 16323, -9647, -11771, -2566, 18536, -11573, 18422, -17280, 11577,
  -15898, 12939, -10569, 1601, 1866, 12739, 2182, 4144, 9886, 4815,
  -10248, 9089, 678, -8480, -8538, -8712, 61, -5446, 3623, -4650,
  -4653, -8950, -9687, -192, 4419, 1892, -7787, 4716, 7750, -7509,
  -9886, 1895, 8553, -12814, 6338, -5622, -3314, -330, 2184, -9434,
  2775, -12320, 971, 6024, -2268, -4232, 7167, 3945, 8124, 2790,
  -10784, 5866, -1941, -1874, 5182, 5636, -4424, -9693, -8834, -10348,
  -3223, 7292, 2765, -7978, 2750, -294, 11420, 388, 9225, -8603,
  9585, 4226, 12758, -8055, 5043, -5112, 4932, -213, 450, 4817,
  -7982, -7794, 11477, -168, 5365, -2442, -2365, 4943, 130, 9783,
  174, -3480, 7476, -12893, -5910, 2352, -463, -7116, 4438, 9378,
  -9022, -5835, -5428, 6896, -2084, 3656, 7539, -9257, -8672, 5129,
  -7281, -5271, 414, -6397, 7647, 3161, -11488, 4057, 10203, -1910,
  8566, -5964, -2577, -4569, 4382, -3867, 3772, -2540, -4689, -2445,
  -4454, -7528, -2447, -4046, 6670, 1297, 976, -11872, -417, -7581,
  -3009, 6835, -903, 584, -1136, 1588, -30, -269, 2801, -954,
  982, -1635, -2692, 2260, 193, -1920, -1344, -581, -1786, -1211,
  1987, 611, 1671, 389, 2503, 958, -966, 458, 560, -945,
  -2111, -787, -858, -774, -346, -394, -185, -1024, 1449, 1979,
  -282, -1419, -855, 1915, 244, 881, 1514, -1802, 1845, 1589,
  -1302, 1163, 1855, 650, -102, -281, -1735, -2086, 1157, -1610,
  62, -15, -1648, 606, -199, 1313, -111, 952, 524, -794,
  -1217, -1260, -1240, 107, -1546, 1957, 1092, -188, -522, 426,
  -834, -78, -383, 835, -1225, 1240, -470, 55, -2143, 1561,
  1462, 1265, 1962, -1015, -484, 169, 646, -1338, 204, -676,
  28, 1886, -1808, -972, -1662, -49, -454, 151, -932, -1434,
  -570, 238, -1417, 302, -1156, 1309, -495, 1049, -1176, -1250,
  -1104, 866, 759, 705, 1716, -338, -1938, -185, -1639, 323,
  -3884, -5567, 9516, -10657, -239, -1969, -19943, -527, -6888, 5214,
  18955, -8266, -5400, 13456, 16053, -8086, -2364, 10748, -2447, -10349,
  -867, -1177, -14217, -143, 12376, -8590, -6590, -3409, 10527, 12703,
  3897, -4331, 8610, 7787, 12477, 11320, -13702, -4106, -3908, 2301,
  14647, -3146, -6856, -7597, -14647, -1340, -17328, 2791, 5870, -7860,
  -4658, 1092, 7062, 3160, 14197, 2512, 5679, 16879, 6832, -12723,
  16387, -13052, -387, -9453, 1651, 4724, -3810, 1639, 9996, 2317,
  18342, -377, 4680, -6691, -1386, 5686, 5498, -2949, 9731, -7311,
  -6729, 2886, 5462, -6616, 11093, 7658, 971, -14677, -16279, -2060,
  -12483, 6919, 5893, -4034, -12435, 6095, -3756, -2922, -1189, -17801,
  13325, 8872, -4589, 11073, 8220, 6458, 9531, -1675, -387, 3056,
  8679, 4401, 2433, -6427, -9382, -3834, -1121, 2398, 6163, -2683,
  1779, -912, -6712, -7457, 8059, -1001, 9194, 427, 10716, 1590,
  10561, -9156, -3563, 4706, -20197, 13396, 105, 12722, 20201, -18016,
  3655, 13084, 6932, 7293, 17974, 9761, -20779, 3686, -15590, 2466,
  -17406, -6144, 8468, 2502, -9049, 15884, 15815, 5320, 9206, 7066,
  -973, 2707, -1876, 7966, -4126, -17800, 1051, 10986, 7070, -16950,
  -1216, -169, -6336, 18336, -14541, -14068, 7593, -2392, -15996, -2554,
  -6820, 1998, 7985, 20317, -12787, 11984, -8526, 2609, 12353, -3788,
  -4032, -12321, 394, -7931, 2454, 11484, 915, 8742, 9877, 962,
  12379, -18569, -7514, -5097, 4934, -706, 2050, 8065, 5610, -5290,
  9371, -3964, 3392, -4880, 20346, -10079, -10018, -13650, -14882, 5184,
  -1339, 5637, -1798, 5547, 3907, 7089, -472, -13731, 9961, 7405,
  17654, 1773, -3805, 4152, 1312, 13486, 4925, 3119, 8530, 3971,
  4194, -9000, 3605, -6591, 11124, 15152, 10887, -1892, -10358, -5021,
  -14600, 8742, 15297, 7763, 16245, -7229, 11202, 23753, 5947, 13981,
  -11829, 8542, 5849, 17604, 27898, -7311, -6754, 1363, 16528, -10014,
  -7617, 2143, 8981, 1780, -10802, 27476, -4818, 19427, 9409, 11467,
  6732, 18233, -14806, 22212, -5006, -4315, 5103, -3228, -10006, -2743,
  -3371, 2081, 23031, -6784, -3282, -4374, 1530, -4772, 4687, 26177,
  15401, 12823, -3894, -2245, -11172, 21971, 2413, 9080, -23937, 2467,
  -20728, 11276, -8125, 2389, -27526, 933, -2695, -2655, -17755, -2563,
  1110, 3352, 23636, 20551, -30125, -8352, 4805, 8627, 1184, -8216,
  8682, -22556, 4656, 10014, -13878, 27411, 1270, 5974, -361, 23299,
  1858, -15575, 9176, 7144, 1276, -13606, 3477, -8686, -18010, 23554,
  11542, -18372, 18021, 4718, -3860, 7454, -18644, -4338, 11286, 6800,
  -20851, 19018, -18446, 570, 2205, 23602, -12817, 23141, -19075, 10501,
  -8223, 12500, -828, 15439, 8325, 15992, -9300, 717, 2934, 21082,
  -3747, 19957, 9785, -18238, -17506, -13480, -4162, -4164, 6779, -8973,
  1447, -19075, -14247, -5959, -1868, 10625, -13171, 1494, 8964, -14792,
  -22773, -1093, 21826, -20679, 16353, -9176, 2494, 2504, 88, -15211,
  7669, -25265, -5342, 7020, -7282, -9749, 11297, 4925, 13430, 1083,
  -14357, 16466, -3585, -7739, 5171, 15820, -6233, -14187, -10642, -23501,
  947, 17286, 729, -10733, 11179, 926, 19945, -135, 10348, -21665,
  20141, 1656, 22624, -13711, 2575, -6519, 8826, 4809, 591, 11023,
  -12716, -16330, 16544, -4261, 4406, -3920, -8883, 15310, 3698, 16691,
  -1644, -4801, 10367, -22633, -11613, 6122, -4690, -8649, 5587, 16199,
  -22407, -4630, -4237, 16084, 3152, 3241, 11746, -16065, -12411, 5052,
  -12434, -11085, 699, -3932, 7100, 1649, -25065, 5836, 16886, -4096,
  12233, -15043, -6031, -7629, 2796, -6937, 3472, 218, -9174, -579,
  -11733, -17667, -8139, -4995, 14525, 4166, 7830, -21545, -7261, -14471,
  -11246, 13114, 4360, -4555, 4050, -8249, 797, 1005, -11999, 4055,
  -6376, 9512, 12445, -10860, -1308, 9404, 4397, 5164, 9434, 4464,
  -10249, -3539, -8609, -3333, -11857, -6999, 2112, -2076, -1178, 4873,
  10153, 3063, 4145, 5963, 918, 1567, -1943, 3150, -6944, -9062,
  1940, 7911, 2397, -9174, -1254, -6073, -6219, 8478, -6120, -8717,
  7070, -6258, -10392, -4092, 1004, 186, 8815, 9708, -6753, 4919,
  932, 3053, 6655, -70, 2041, -6161, -295, -6544, -4142, 1707,
  7226, 7531, 2804, -1637, 6980, -8929, -6962, 1950, 1246, -2719,
  3729, -1187, 4181, -5258, 5384, -7854, 327, 68, 10461, -6535,
  -4713, -4864, -8927, 4709, 3139, -2046, -2705, 7589, -1730, 3634,
  909, -8671, 9695, 4880, 8889, -1949, 1926, -3038, 4449, 8751,
  2573, -4632, 7811, -3999, 7357, -7823, 5656, -7130, 7561, 5396,
  4015, -4997, -4499, -3230, -9396, 933, 9823, -85, 6744, 141,
  -13415, -11603, -7017, -1627, 6742, -7264, 6763, -16505, -12273, -5037,
  -6548, 10448, -10368, -1808, 2475, -8656, -17502, -4558, 18529, -15884,
  13170, -9148, 5178, 241, -4922, -11068, 9865, -20758, -6705, 1798,
  -7353, -5363, 7011, 1598, 6354, -3176, -9433, 14629, -1019, -5904,
  -1046, 13543, -3166, -11815, -5263, -18968, 6924, 12358, 197, -8463,
  9439, -876, 15906, -1529, 6019, -18605, 14331, -4637, 18532, -6171,
  -2978, -200, 9120, 6921, -302, 6221, -11544, -15653, 13284, -2741,
  -3351, -4046, -8379, 14741, 1956, 13765, -3682, -4029, 6491, -18414,
  -6570, 2847, -5266, -7582, 311, 11831, -18370, 305, 1985, 14635,
  5907, 1348, 9370, -13952, -6891, 4328, -10551, -8013, 1499, 1702,
  3638, -959, -18821, -135, 12759, -7735, 8559, -10711, -4734, -10051,
  1110, -9780, 4437, 692, -2614, -1032, -8201, -16094, -9260, -5017,
  11484, 3366, 7520, -16661, -7484, -13217, -12718, 12241, -945, 689,
  -10643, 8437, 2460, -686, 19487, -4881, 1645, -5655, -18334, 10372,
  1252, -12000, -13389, 4696, -3346, -10910, 7777, 3686, 4788, -2194,
  13816, -347, -12678, 3872, 9047, -3552, -11105, -10396, -5625, 2505,
  -5299, -6184, -9284, -11056, 8733, 8255, 3111, -3594, -13176, 6997,
  4798, 2333, 11093, -4928, 17592, 1316, -4773, 3911, 6613, -1396,
  -894, -3455, -10105, -8119, -565, -16505, 308, 9573, -15184, 11712,
  3422, 10253, -1704, -2489, -748, -6833, -4040, -2517, -17401, -1216,
  -6769, 10477, 1416, -269, -6138, 1095, -6321, 48, 4204, -1811,
  -6454, 2830, -9785, -2699, -6628, 12829, 15037, 6677, 12627, -5530,
  -1888, -1232, 8497, -3594, -285, 29, 1735, 15776, -9980, -7797,
  -1857, -9943, -3067, -8429, -5453, -1539, -1224, -6569, -6820, -7378,
  -295, 5338, 7902, 2456, -1197, -7262, -8478, 551, 1902, 1902,
  7824, 919, -9126, -3521, -12106, 3893, 3021, -11749, -12782, -2419,
  8366, -1485, 11875, -5812, -14231, 7448, -9227, -599, -3950, -2702,
  -13445, 15679, 7687, -11540, -870, -6079, -4861, -13792, 1728, -14483,
  -19450, -1253, 17017, -3533, -1010, -11772, -4105, 14550, -5033, -7434,
  -17790, -13959, -2138, 573, 9391, 7841, -18875, -2173, 5201, -12005,
  4747, 2711, 20488, -11614, 6103, -8950, -6124, -11324, 5835, -5940,
  2158, -385, -10085, -20225, 8442, 20741, -14270, 20113, 13484, 8135,
  -3467, -15651, -13598, -13391, 12113, 9924, -25888, -6638, -131, 5064,
  -10884, 8011, -9364, -4924, -1256, -8094, 13357, -13179, -1903, -13443,
  -16426, -940, 3867, 9338, 17278, 6351, 5973, 495, 6157, -10998,
  7376, 10711, -7610, 4955, 5166, 11031, 3167, -4429, 8796, -21716,
  3112, -23865, 2536, 11392, 1760, -23985, 4090, -24578, 16063, -5952,
  24383, -10132, 10286, -7157, -9652, -11188, -1719, -2403, -2538, -1708,
  1416, -10899, -11809, 10952, 8815, -1227, 11976, -12153, -2736, 3577,
  -24413, 11736, -3239, 13960, 24241, -19409, 1272, 16326, 10801, 5127,
  16333, 11746, -19992, -509, -15007, 868, -20660, -6721, 10538, -671,
  -9275, 13197, 18008, 8252, 9457, 6090, 1623, 4524, 1190, 10115,
  -8550, -17753, 375, 11451, 10007, -16843, -2993, -3541, -10415, 16673,
  -17718, -12890, 9395, -5502, -16696, -2832, -3491, 2492, 12244, 19547,
  -10617, 15237, -4974, -371, 15796, -6417, -2836, -13873, 687, -6859,
  2, 10187, 5065, 9532, 13354, 298, 12985, -18970, -8152, -2221,
  5712, -1988, 5056, 4436, 3847, -4885, 10337, -6821, 5638, -2032,
  19369, -13504, -13430, -12831, -17437, 7137, 1177, 3044, -5248, 7931,
  1784, 5927, -482, -17745, 13823, 9423, 15380, 3734, -498, 4221,
  4596, 12664, 4558, 2191, 11026, 3324, 5849, -10824, 1935, -8038,
  10582, 14229, 11398, -3480, -9037, -5131, -15830, 5468, 16870, 6009,
  17167, -5746, -5536, -2440, -9364, 6032, 3453, -2867, 16043, -8823,
  -1737, -6621, -15322, 11453, -2251, -9466, -8152, -716, -9137, -8833,
  12266, -2109, 8515, -3614, 12068, 1040, -9628, -735, 8771, -9459,
  -10598, -6262, -6414, -1157, -1197, -3509, -3360, -8269, 3573, 11176,
  1217, -5389, -8735, 10086, 2115, -1247, 6198, -10413, 13939, 6180,
  -4057, 829, 8733, -402, 4249, -2633, -5776, -12443, 5301, -12360,
  5832, 3393, -11299, 7097, 4560, 9429, -1099, 1553, -3352, -9370,
  448, -3673, -12124, -1738, -7961, 12518, 2654, 3809, -5108, -129,
  -2465, -5551, -183, 708, -6514, 691, -5913, 2065, -11593, 9022,
  10595, 9498, 11060, -3765, 1244, -4757, 3461, -2146, -3168, -3123,
  1387, 11586, -6578, -5853, -8553, -5740, 1764, -7002, -1423, -5771,
  -2685, -6371, -5126, -6843, -64, 4776, 3034, 2361, -4565, -10371,
  -8753, -351, 5495, 2786, 8694, -4833, -9571, -6247, -12494, 6190,
  -12441, -9092, -5759, -534, 5332, -6412, 6337, -14561, -9340, -5754,
  -6323, 10263, -8771, -2274, 2594, -9070, -16795, -3711, 17318, -13294,
  12718, -6887, 5557, 1736, -3330, -9477, 7720, -18502, -6786, 2071,
  -6588, -6169, 6406, 1756, 6863, -2225, -7528, 13725, -1692, -6424,
  62, 12945, -3035, -9125, -4338, -17709, 5407, 12449, -860, -6304,
  9636, 334, 13561, -1016, 4366, -17298, 13897, -3300, 15740, -6999,
  -2330, -1407, 6985, 6127, -42, 7068, -8946, -13150, 10284, -3723,
  -1599, -3017, -8050, 13506, 3032, 11462, -2784, -2997, 5451, -15652,
  -6982, 3839, -5038, -5131, 1273, 10508, -17428, 284, 1119, 12983,
  5654, 710, 7591, -11423, -6311, 2437, -8661, -7724, 935, 1571,
  2141, -986, -17981, 1440, 10849, -5021, 6961, -10947, -4542, -6964,
  23, -6698, 2220, 1669, -4338, 343, -8545, -14235, -7942, -3237,
  10622, 3440, 7622, -14697, -7584, -10951, -11090, 10116, 7163, -5414,
  11825, -15348, -904, 2232, -27091, 9275, -8234, 15928, 27035, -20711,
  -1609, 19138, 13080, 4682, 15407, 12319, -19100, -5454, -14838, -2349,
  -23565, -8898, 10302, -4027, -7450, 9934, 19944, 9777, 9142, 6711,
  3660, 5456, 2249, 10593, -13202, -17483, 778, 12716, 10706, -16835,
  -4153, -8297, -13912, 15157, -18419, -12921, 11834, -9638, -17942, -4398,
  587, 2294, 16688, 18548, -9483, 16070, -364, -1007, 17486, -6713,
  -37, -14365, 586, -7510, -4046, 7248, 10616, 11381, 13773, -1135,
  13472, -18616, -9968, 1632, 5372, -3833, 7911, -200, 3550, -5953,
  11006, -11193, 5969, 754, 18652, -15770, -14777, -11161, -19172, 9110,
  4421, -877, -7835, 11507, -1261, 5270, 99, -20359, 17959, 10856,
  13951, 3178, 3225, 1495, 8177, 13017, 4354, -1518, 13913, -198,
  9322, -13241, 3026, -10579, 11107, 12335, 10702, -6353, -7802, -5480,
  -17206, 1915, 18464, 2917, 16578, -2938, -1876, -3258, -3289, -72,
  2189, -1392, 3699, -3610, -3559, -168, -3201, 2238, -2041, -1288,
  -2088, 843, -2084, -2775, 3259, -3024, 1812, -3226, 1874, -1796,
  -3916, -1648, 4107, -3866, -1855, -1680, -1950, 1100, 175, -949,
  -1768, -2868, -1196, 2952, 1091, -204, -3172, 2362, 330, -3229,
  464, -3062, 4671, 696, 481, -2138, 1090, -1538, 3162, -1220,
  627, -3543, 1045, -4220, 4014, 2145, -3063, 3146, 3220, 2611,
  -616, -1047, -3518, -4580, 3317, 632, -4709, -1554, -1817, 3585,
  -954, 3151, -2102, -1176, 484, -3975, 896, -1198, -1495, -2682,
  -2514, 1662, -2908, 1935, 3336, 3558, 2406, -90, 2127, -3611,
  248, 1741, -2595, -707, 1014, 2451, 423, -1075, -2080, -3185,
  2149, -4548, 1298, -380, -663, -4953, 310, -4913, 2602, -372,
  3031, -1331, -70, -3842, -3169, -2050, 1668, 417, 1276, -2864,
  -1543, -3593, -4153, 3549, -7749, -14324, -10046, -3572, 8724, -5783,
  8157, -13938, -16216, 1079, -6810, 5592, -9515, -992, -3312, 1331,
  -7886, -7635, 11515, -14839, 6093, -13253, 2601, -7246, -11722, -8986,
  14466, -15951, -3687, -3361, -6514, 3374, 3084, -1852, -3395, -7888,
  -8973, 9433, 3700, 391, -8637, 7429, -208, -14835, -2818, -11258,
  12977, 2519, 3956, -11131, 2569, -6270, 14338, -3651, 6765, -12156,
  4965, -11382, 17358, 5009, -7338, 8590, 12907, 7645, -1757, -3346,
  -15040, -16966, 16171, 3540, -13278, -6099, -5012, 11525, -4432, 13862,
  -6562, -5530, 4810, -17140, 1667, -4547, -3781, -12668, -6886, 8217,
  -10005, 3237, 8202, 12639, 5474, 1983, 10038, -15327, -2230, 9080,
  -11318, -3086, 3472, 4692, 5586, -1878, -8450, -9913, 11028, -16587,
  8104, -1454, -2248, -18524, 3841, -18540, 11456, -3321, 9629, -6287,
  -308, -14010, -10310, -9390, 6941, 857, 2900, -12734, -3264, -14441,
  -13355, 13719, -12991, -3866, -1537, 1348, 1966, -5518, 3409, -11909,
  -2996, -8898, -4271, 11005, -6541, -2350, 6232, -14134, -19157, -137,
  17412, -9684, 14372, -1275, 6041, 7242, 3122, -7967, 1516, -16324,
  -7176, 5479, -5154, -11205, 7406, 3930, 12379, 2185, -5260, 13583,
  -4972, -9494, 6072, 13787, -4413, -3621, -4700, -18259, -1039, 16413,
  -3720, -1952, 12128, 4634, 10331, 976, 2164, -16990, 16949, 3026,
  11508, -13647, 1792, -7921, 1601, 3623, 1112, 12508, -3138, -7860,
  4452, -7651, 6771, -377, -8270, 11824, 7252, 7590, 388, -765,
  4915, -11546, -11300, 8605, -4702, 755, 6585, 9968, -18622, -2014,
  -4085, 10449, 4324, -144, 4507, -6533, -7927, -2319, -5163, -9208,
  -937, -1197, -283, 10, -20549, 8826, 8591, 3777, 4925, -14891,
  -5112, 2132, -2297, 2588, -4266, 4437, -12770, 4517, -12153, -11329,
  -4596, 1447, 10816, 4408, 8954, -13057, -8650, -6363, -7074, 5642,
  15573, 2648, 11449, -10234, -4246, 6720, -22307, 17909, 754, 16550,
  22669, -22667, 5881, 14626, 5086, 12604, 25363, 10177, -27672, 6866,
  -21250, 2735, -20397, -9176, 7586, 5173, -9758, 22030, 19084, 3693,
  11360, 11409, -3500, 1494, -6339, 7473, -2756, -23217, 2878, 14876,
  5206, -22441, 191, 691, -5126, 25337, -14681, -20413, 9394, -2104,
  -21028, -4418, -10413, 1668, 7864, 26984, -19199, 11332, -12528, 7577,
  12280, -1061, -4525, -14113, -26, -12750, 3310, 14398, -178, 11955,
  7793, 985, 15772, -23400, -10548, -7652, 4916, -619, 589, 12042,
  9874, -8631, 11408, -4761, 1163, -8356, 27624, -9886, -8975, -17679,
  -17082, 5562, -2717, 7833, 743, 6865, 5635, 10562, -75, -14025,
  10781, 7808, 25485, -1370, -6731, 2721, -125, 19339, 6884, 2094,
  9913, 2884, 6160, -11145, 8432, -8701, 15941, 19567, 12824, -2695,
  -14514, -6774, -18462, 13385, 19062, 10053, 19280, -9226, -3299, -14796,
  -1695, -11206, 6706, -3856, -8107, -7067, -17834, 8882, 9041, -6047,
  -9075, 9530, 5082, 2484, 623, 637, 172, -15734, -2130, -12077,
  -10417, -10108, -3486, -10111, 7694, -8722, 7448, 3073, -652, 5481,
  5104, 1790, -447, -323, -14944, -993, 3050, 6556, -602, -2225,
  -2757, -16773, -10354, -2123, 179, -3809, 9406, -14460, -6800, -7130,
  12703, -1560, 14804, -892, 121, -24, 14672, 2345, 3848, 2543,
  10535, -1417, -970, -5826, -14586, -10246, 19230, 8491, -2543, -5539,
  2768, -36, -8452, 12656, -2276, -6619, 8637, -14782, 2338, -6279,
  2672, -16285, -1725, 7792, 768, -6242, -1895, 4817, -5806, 6626,
  10871, -13347, -6713, 13477, -10229, -298, 2741, -7477, 14329, 4420,
  -739, -5550, 11389, -12263, 11451, 4779, 212, -15526, 10541, -14852,
  14028, -9557, 8368, -10465, 4853, -5397, -2752, -10983, 2198, -2014,
  -6374, -10199, 6838, -10547, -2192, 9842, 7437, -8220, -5663, -5558,
  4962, 1072, 1045, 1557, -10794, 11362, 1057, -8287, -1187, 3194,
  -8118, 15972, 14319, -5107, -10004, -2614, -10866, -9645, -5905, -14124,
  -11966, 545, 9550, 4590, 5912, -7423, 772, 14809, -4784, -4978,
  -15359, -7843, -2928, -7473, 8042, 11036, -12282, -9281, 3867, -9125,
  1502, 10549, 10243, -15649, 7966, -7756, -11840, -10106, 1151, -3880,
  4660, 8836, -13991, -11176, 2416, 18025, -6344, 14639, 8775, 1239,
  -2602, -16098, -9370, -5334, 9454, 11643, -16655, -4739, 5328, -4164,
  -11876, 3696, -5348, -4043, -499, -2318, 13314, -12887, 2528, -12029,
  -11853, -3328, 12256, 3422, 9737, -1151, -1502, 2434, 3943, -5875,
  5559, 10645, -4021, 7254, 3877, 3259, 6377, -540, 15149, -16750,
  349, -17143, 2155, 15131, 3652, -17510, 6669, -17684, 14396, -8437,
  21184, -10737, 13157, 1163, -2896, -9527, -6122, -4142, -8294, 3001,
  7686, -4979, -2304, 5266, -9634, 1038, -10273, 11000, 2199, -3812,
  21679, -11568, 3167, -13580, -21533, 18660, -1705, -14564, -8464, -6759,
  -17182, -9987, 19733, -384, 15292, -268, 19056, 7264, -8256, -198,
  7549, -13302, -16825, -5986, -8702, -7222, -403, -3071, 942, -8194,
  7188, 17534, -1499, -11624, -7220, 16836, 1700, 3123, 8688, -17304,
  14891, 14034, -9057, 5194, 16350, 3686, 4020, -1996, -10691, -19509,
  11909, -12488, 5498, -2015, -13121, 4060, 1966, 12187, -464, 8239,
  218, -9596, -4541, -9742, -10013, -128, -12691, 18055, 8466, 2557,
  -4690, 1870, -3918, -5157, -5104, 6048, -9781, 6664, -3532, 3170,
  -19736, 11357, 10830, 12548, 15738, -6478, -761, -2983, 3274, -7851,
  -1819, -6653, 232, 14915, -12301, -7977, -16570, -1219, 1121, -2114,
  -3736, -13386, -4865, -863, -10120, -1471, -6454, 10174, -4171, 7861,
  -11100, -13640, -10335, 3920, 9204, 5343, 15016, -6498, -16021, -5533,
  -15547, 5439, -6032, 2201, -2334, 5379, -411, -1931, 7721, -5121,
  3716, -8076, -8143, 9360, -624, -6092, -767, -7076, -10746, -2316,
  10395, 61, 8951, 2295, 8643, 6429, 160, -560, 314, -6639,
  -7883, 83, -3507, -6805, 1402, 423, 4709, -886, 3108, 8922,
  -2888, -7409, 869, 9122, -682, 3183, 2593, -9862, 2780, 9847,
  -5438, 3786, 9356, 4156, 1640, 238, -4885, -10128, 8647, -1597,
  1972, -5859, -2977, -2546, -1499, 4135, 481, 7620, 2282, -2577,
  -3806, -6773, 908, 1079, -6384, 8115, 6334, 378, -346, 1641,
  -1063, -1931, -5635, 5894, -4432, 5422, 2039, 2536, -11155, 3109,
  1287, 5392, 6229, -2987, -1033, 94, -681, -5639, 126, -4706,
  -875, 4357, -5957, -2628, -10815, 4271, 646, 3818, -1695, -9289,
  -2979, 4108, -5361, 4105, -6175, 5885, -7408, 5626, -7807, -5728,
  -3241, 3955, 5293, 3250, 7812, -3811, -8081, -1005, -5328, 969,
  -10574, 4414, 9213, 500, -4445, -2710, -9281, -3410, 6411, -9270,
  6937, 5606, -2265, 2800, 15396, -20245, -17076, 9437, 10567, -3614,
  11742, 8180, 12, 13828, 16888, -5440, -11579, -7996, -1803, 13426,
  366, -17072, 9285, 8741, 21318, 12520, -4114, 7162, -9983, -10494,
  18802, 9256, -7414, 4367, -8464, -13130, -17169, 18130, -5245, 3432,
  10444, 10542, 3582, 5002, 2395, -9605, 17901, 18100, 2590, -24111,
  13459, -20306, -8106, -4977, 3190, 18719, 6438, 4324, -3591, -10736,
  24417, 4048, -4155, 2597, 11274, 289, 7370, 2268, 5480, -2985,
  -16722, 14472, -667, 8150, 16790, 8048, -13678, -9985, -16708, 1816,
  -3558, 760, -311, 2641, -11916, -7441, 1287, -9381, -4126, -11279,
  161, 4603, -19052, 21699, 4467, 19286, 2910, -16744, -4377, 17597,
  -2496, 18657, -12798, 5366, -25429, 8625, -14234, -1646, 4669, 7886,
  7878, 4161, 5780, -8132, -4697, 3247, 5195, -3707, -20400, -1917,
  -1361, 5123, 1073, -7902, 6873, -17242, 366, -17097, -8688, 19379,
  -8138, -6054, 9625, -24447, -31651, 266, 28278, -11464, 24110, 1695,
  12289, 15105, 7032, -10355, -378, -24152, -13438, 8745, -7995, -20378,
  11034, 6315, 21225, 4413, -4715, 22222, -9318, -17474, 11026, 23018,
  -6725, -1011, -5345, -29209, -2896, 28199, -8716, 905, 21743, 9900,
  13283, 2329, -300, -27296, 28023, 6071, 14534, -23907, 2727, -14631,
  -747, 5817, 2262, 22616, -704, -9423, 1769, -15090, 13069, 1155,
  -14068, 18908, 14494, 8712, 1728, 684, 5904, -14567, -19698, 16236,
  -8167, 6039, 12028, 14259, -30592, -2232, -7138, 15368, 8131, -1894,
  4260, -6668, -11576, -7702, -5415, -15126, -2514, -652, -4230, -874,
  -33628, 16888, 10965, 10480, 5020, -26004, -8421, 8694, -6601, 9243,
  -11297, 9949, -24177, 10542, -21530, -16645, -6221, 5674, 17128, 7759,
  16294, -18520, -15825, -7107, -10281, 6070, 316, -7241, -10587, 875,
  5845, -1600, 12529, -5900, -8394, 2145, -10718, 3401, -2670, -4970,
  -10959, 9275, 1899, -9778, 3172, -3614, -288, -8965, 5217, -8087,
  -14672, -505, 12706, -4606, -4188, -9239, -4419, 8308, -3690, -5689,
  -11907, -11045, 491, 3802, 5962, 2856, -14168, 1846, 3941, -6943,
  5291, -1415, 16776, -5045, 2060, -4533, -791, -6708, 4257, -4373,
  -1130, -3980, -4569, -16145, 6250, 13629, -12341, 14359, 9129, 7893,
  -2420, -8836, -8652, -10571, 6639, 4564, -19413, -4337, -2640, 6902,
  -5466, 5464, -7180, -2742, -1930, -5955, 8028, -7548, -3277, -7255,
  -11770, -307, -1198, 8750, 13892, 6556, 7287, -1160, 3634, -7544,
  5874, 5264, -5133, 2094, 3464, 10606, -724, -4682, 2818, -14766,
  1887, -16144, 570, 5006, 243, -15898, 459, -16413, 9147, -1759,
  15461, -5010, 4696, -7271, -8441, -6424, 498, -519, 1370, -2042,
  -2357, -8063, -10915, 8128, 9455, 12940, 3989, 6114, -6676, 5928,
  929, 12611, 14764, -614, -1087, -3101, 10157, -3626, -5046, 5102,
  10337, 1489, -11054, 16446, -6918, 10233, 2205, 3504, 3054, 11327,
  -8392, 16246, 210, -3153, 4444, 1659, -6954, -2140, -4993, 939,
  12676, -7787, -404, 836, -286, -6791, 3305, 13987, 8606, 12007,
  -2489, -6015, -4228, 11428, -2840, 3294, -15019, 1052, -10462, 11054,
  -9063, 1076, -17164, 4105, -1042, 493, -9607, -3001, 250, -1924,
  12790, 12882, -16192, -1735, 1269, 4439, 3326, -8170, 2056, -13506,
  2504, 5167, -8097, 17044, 3886, 575, 1502, 11241, -523, -10544,
  10408, 3496, 1123, -10177, -218, -4054, -10237, 13793, 7621, -8335,
  10583, 5060, -1677, 3143, -8639, -1666, 11815, 1348, -12915, 8899,
  -10459, 4857, 2626, 11412, -5305, 11238, -8276, 3541, -670, 4655,
  3355, 11489, 5938, 7615, -8054, -980, -1714, 14299, 1208, 12097,
  7650, -10936, -237, -13768, -10433, -4966, 8600, -2934, 7081, -7963,
  -16460, 7184, -4913, -899, -6479, 442, -7982, 10948, 3715, -8627,
  1524, -10444, -2584, -14227, -1011, -13112, -15466, -4907, 15436, -7268,
  544, -7425, -3964, 11325, -1430, -4680, -12165, -10467, -6674, 1785,
  7468, 6746, -13844, -643, 2639, -14513, -14, -763, 15535, -7987,
  6964, -11326, -5170, -10178, 9447, -4854, 6256, -2614, -5591, -15044,
  12144, 14825, -9542, 15103, 13589, 6251, -2780, -12120, -15038, -14162,
  15434, 9123, -19657, -6725, -278, 5292, -9888, 10750, -7756, -5791,
  2185, -11904, 9472, -10857, -1228, -14937, -12229, 2774, 918, 5042,
  12109, 7515, 3378, 2316, 8437, -13107, 2699, 11851, -9443, 2576,
  4617, 6093, 6575, -2098, 3993, -17126, 6787, -21357, 5911, 8263,
  794, -22572, 5923, -22802, 15856, -6783, 19484, -10225, 7769, -8429,
  -8722, -11599, 672, -1902, -2694, -5875, 2028, -12195, -10516, 11918,
  -7036, 6130, -823, 8144, -2499, -1550, 8595, -4284, 8653, -11650,
  -9555, 11884, 1019, -8076, 176, -10699, -13710, -1283, 12281, 3006,
  11434, 6150, 11326, 10812, 3220, 882, -2925, -6132, -10125, 1244,
  -3478, -10638, 1615, 1243, 7920, 842, 5958, 10536, -5049, -10614,
  3598, 11298, -1124, 7583, 3828, -11652, 543, 13608, -8459, 7588,
  12696, 7342, -568, 1266, -8019, -11719, 11461, 788, -782, -9919,
  -2127, -5976, -4972, 3959, 1146, 11793, 6446, 120, -8669, -10402,
  4821, 2886, -7857, 8859, 10006, -2325, 1134, 3470, -2254, 793,
  -8678, 9510, -5317, 10336, 4792, 2052, -13710, 3261, -506, 4846,
  7306, -4472, -3495, 3369, -870, -9857, 2539, -6139, -2072, 4657,
  -9339, -3087, -13754, 8633, -1205, 9296, -3880, -13042, -3763, 10075,
  -8250, 10075, -11266, 8972, -13035, 9341, -11164, -5044, -2161, 7612,
  6130, 4411, 10352, -2874, -10591, 1691, -4395, -1633, 17972, 12926,
  8240, 626, -7791, 9253, -9001, 21153, 13425, 8769, 9296, -14869,
  12743, 3458, -4162, 13600, 24469, 5237, -25420, 19311, -18533, 9916,
  -8038, -2986, 4484, 13887, -11215, 27165, 9880, -2884, 9732, 9367,
  -9447, -2417, -10518, 2993, 11055, -19760, 2351, 9491, -119, -18702,
  4185, 12949, 6600, 25545, -7439, -18102, 1349, 9235, -14385, -462,
  -19721, 1201, -6250, 25003, -20319, 4338, -22680, 10665, 3365, 2507,
  -10206, -9135, -163, -10513, 12836, 18716, -14840, 5651, 1940, 4160,
  11497, -19600, -4714, -16525, 3856, 4263, -8009, 22397, 10641, -5604,
  7166, 7177, -2061, -15101, 25235, -332, -1273, -18582, -8206, -1137,
  -10930, 16501, 9077, -3472, 12564, 11199, -1109, -2508, -2828, 1677,
  26175, -2206, -16008, 7218, -10243, 16261, 6459, 9547, 220, 9585,
  -3082, -2838, 6778, -993, 12835, 20691, 11347, 4785, -15733, -4834,
  -11454, 21135, 11165, 15917, 16066, -14396, -711, 4012, -11234, 11788,
  1194, -47, 23169, -4080, 5786, -8473, -22146, 13038, 3229, -15308,
  -15528, 4073, -4424, -12015, 8989, 7301, 6177, 349, 17619, 2174,
  -12886, 6272, 8112, -2391, -14025, -11815, -6130, 1100, -6690, -6994,
  -9593, -11878, 12759, 9667, 2506, -5729, -13977, 8587, 5690, 6261,
  14294, -5492, 19061, 2861, -7474, 7517, 9145, 282, -3548, -3375,
  -14313, -9198, -75, -17850, -2646, 9425, -17328, 11896, 1345, 11581,
  -1601, -952, 2432, -5350, -8663, -4938, -18114, -69, -8282, 11795,
  3716, -2944, -6142, 2684, -8696, 3050, 3671, -233, -7795, 6838,
  -10024, -4383, -8013, 15315, 16656, 6513, 15206, -7545, -4398, 1509,
  10508, -7084, 1870, -212, 1234, 18816, -14142, -9480, -2540, -9235,
  -5676, -6213, -8402, -3260, -1558, -3518, -9905, -4518, -3688, 8133,
  6251, 5209, -2810, -7032, -8744, 3180, 1913, 2687, 10256, 2896,
  -11778, -1613, -12893, 2169, -8846, 1828, -8373, 10138, 1355, -3300,
  18779, -9952, 3945, -12758, -18811, 16874, -1191, -12984, -6778, -7123,
  -15968, -8221, 17783, 196, 14092, 782, 17110, 7558, -6112, 0,
